#include "consts.h"

dtype w1[] = {
    0.565644,  0.384824, -0.042528, -0.264426,  0.472312, -0.282259, -0.014167, -0.528233,  0.622656, -0.373769,
    0.287381,  1.005889,  0.181242, -1.291967,  1.100194, -0.772200, -0.235354, -0.829178,  0.248697,  1.168082,
    -0.281433, -0.546903,  0.032876,  0.559641, -0.228221,  0.103177,  0.620234,  0.318789, -0.633047, -0.006017,
    0.047218,  0.084886, -0.134755,  0.645489, -0.277912,  0.517039,  0.651821, -0.285480, -0.003520, -0.437448,
    -0.161385, -0.442559, -0.035489,  0.570436,  0.079949,  0.741253,  0.291243,  0.586947, -0.180183, -0.177284,
    -0.396542,  0.055728,  0.112597,  0.317440, -0.177967,  0.211646, -0.254014, -0.166693, -0.414425,  0.561991,
    0.407785,  0.664266, -0.077182, -0.454090,  0.397967,  0.089694, -0.946674, -0.246415,  0.240792, -0.013765,
    -0.322740, -0.332058,  0.104680,  0.449407, -0.545375,  0.934457,  0.600992,  0.594059, -0.398014,  0.048134,
    0.199440,  0.236234, -0.549774,  0.362871,  0.128888, -0.064394,  0.194858,  0.173756, -0.087557,  0.147654,
    0.133639,  0.000841, -0.001098,  0.626147, -0.152287,  0.110689,  0.108449, -0.463610,  0.171219,  0.310098,
    -0.440701,  0.361575, -0.302418,  0.573317,  0.322387,  0.602443, -0.314726,  0.031837,  0.124628, -0.135573,
    0.159068, -0.059842, -0.526570, -0.010963,  0.311802,  0.360409, -0.103766,  0.363927, -0.428252,  0.085832,
    -0.080852,  0.010944, -0.331394,  0.068851,  0.145650,  0.842668,  0.369900, -0.027606, -0.326165, -0.271815,
    -0.219882, -0.526053, -0.540803,  0.893084, -1.002251,  0.007923,  1.298324,  0.295529, -0.469116, -0.790421,
    0.936136,  0.879596, -0.094900, -0.326074,  0.891442, -1.032957, -0.173408, -0.906972,  0.650875,  0.917579,
};

dtype b1[] = {
    -0.257286, -0.220656, -0.312300, 0.485314, -0.377361, 0.445350, 0.321995, 0.456795, -0.164362, -0.260494,
};

dtype w2[] = {
    -0.409050, -0.578690, -0.446989, 0.361227, -0.401546, 0.258594, 0.760240, 0.524665, -0.385637, -0.721390,};

dtype b2[] = {0.405319};



double w1_dbl[] = {
    0.565644,  0.384824, -0.042528, -0.264426,  0.472312, -0.282259, -0.014167, -0.528233,  0.622656, -0.373769,
    0.287381,  1.005889,  0.181242, -1.291967,  1.100194, -0.772200, -0.235354, -0.829178,  0.248697,  1.168082,
    -0.281433, -0.546903,  0.032876,  0.559641, -0.228221,  0.103177,  0.620234,  0.318789, -0.633047, -0.006017,
    0.047218,  0.084886, -0.134755,  0.645489, -0.277912,  0.517039,  0.651821, -0.285480, -0.003520, -0.437448,
    -0.161385, -0.442559, -0.035489,  0.570436,  0.079949,  0.741253,  0.291243,  0.586947, -0.180183, -0.177284,
    -0.396542,  0.055728,  0.112597,  0.317440, -0.177967,  0.211646, -0.254014, -0.166693, -0.414425,  0.561991,
    0.407785,  0.664266, -0.077182, -0.454090,  0.397967,  0.089694, -0.946674, -0.246415,  0.240792, -0.013765,
    -0.322740, -0.332058,  0.104680,  0.449407, -0.545375,  0.934457,  0.600992,  0.594059, -0.398014,  0.048134,
    0.199440,  0.236234, -0.549774,  0.362871,  0.128888, -0.064394,  0.194858,  0.173756, -0.087557,  0.147654,
    0.133639,  0.000841, -0.001098,  0.626147, -0.152287,  0.110689,  0.108449, -0.463610,  0.171219,  0.310098,
    -0.440701,  0.361575, -0.302418,  0.573317,  0.322387,  0.602443, -0.314726,  0.031837,  0.124628, -0.135573,
    0.159068, -0.059842, -0.526570, -0.010963,  0.311802,  0.360409, -0.103766,  0.363927, -0.428252,  0.085832,
    -0.080852,  0.010944, -0.331394,  0.068851,  0.145650,  0.842668,  0.369900, -0.027606, -0.326165, -0.271815,
    -0.219882, -0.526053, -0.540803,  0.893084, -1.002251,  0.007923,  1.298324,  0.295529, -0.469116, -0.790421,
    0.936136,  0.879596, -0.094900, -0.326074,  0.891442, -1.032957, -0.173408, -0.906972,  0.650875,  0.917579,
};

double b1_dbl[] = {
    -0.257286, -0.220656, -0.312300, 0.485314, -0.377361, 0.445350, 0.321995, 0.456795, -0.164362, -0.260494,
};

double w2_dbl[] = {
    -0.409050, -0.578690, -0.446989, 0.361227, -0.401546, 0.258594, 0.760240, 0.524665, -0.385637, -0.721390,};

double b2_dbl[] = {0.405319};