
/* Trace */

/**
 *  updated on 10/12/2022 21:09:05
 */

#ifndef __W_NVME0N1_H
#define __W_NVME0N1_H

char name_nvme0n1[] = "Trace/nvme0n1";

long weight_0_T_nvme0n1[256*31] = {
-219,50,-71,-127,-205,93,-221,-57,33,-8,1,61,-19,-12,95,53,-52,52,-12,-103,61,15,24,-17,-53,38,84,41,45,-12,131
,89,-77,-143,-121,98,-6,-64,-169,-95,-84,31,-100,-176,-70,-15,-150,-79,-126,48,-74,-11,-29,-61,10,90,75,-154,4,-32,48,71
,-14,-21,98,-40,-92,-94,-140,47,51,-46,16,-109,-11,25,-27,-161,39,61,-42,101,-160,-101,14,-54,-79,8,-89,97,46,-40,-178
,96,94,117,-117,-124,13,-86,-112,-55,-31,77,54,-129,-72,11,-13,-141,-52,0,87,11,120,-14,-117,-21,-151,-137,74,-144,112,-97
,-17,27,-112,-36,93,-108,69,-159,42,-42,-175,74,65,27,-29,-118,-103,-171,-66,-133,-21,-105,-165,-61,11,-78,48,-55,-100,-112,-117
,17,-40,109,86,2,-133,-70,-96,-32,45,-32,11,-140,-9,-130,-178,-124,98,-6,-70,-67,65,20,-104,-185,-101,19,78,-40,-138,43
,-101,-46,61,-4,-111,-269,-154,-106,55,-74,6,-2,-166,120,-110,-122,-4,114,75,-166,-85,143,125,-84,-209,-88,-155,-208,-91,-24,168
,-301,-29,-127,-288,-47,-157,-59,1,-133,-266,3,-28,-201,0,-58,-48,4,76,19,49,20,-1,150,-109,75,115,161,-99,76,125,165
,-4,-197,-189,-24,45,27,-100,23,-11,16,-169,-197,-34,117,-40,-77,-90,5,-44,8,47,-21,54,-94,-121,-24,20,-31,133,-110,-35
,7,-117,0,59,-150,-127,51,-96,36,-161,62,-83,-53,-50,-57,91,12,-81,-111,71,-90,-32,-104,-156,-86,-84,-107,-95,86,-59,-64
,31,-198,-129,-65,-200,-20,-53,-58,-130,-53,-9,7,-3,-172,144,-94,61,-116,-8,-35,-57,71,-105,-2,-143,-104,-144,6,79,91,-116
,71,-216,-7,-36,-237,-196,-65,-205,4,28,-115,102,76,2,49,12,-211,-137,-72,-57,-14,-16,-160,-2,108,-19,-121,48,13,-60,-124
,-143,-109,-169,-23,-49,-92,26,-51,32,-172,-117,26,71,-153,-8,-24,-43,-183,-81,-84,10,-161,-185,29,41,-27,75,-9,95,78,17
,58,-40,-5,-170,15,35,80,-152,-101,-65,-138,30,-159,-158,53,-141,-159,-163,54,-155,-162,-148,90,51,-59,-59,-150,102,66,58,100
,-33,-162,101,-11,-86,85,-156,8,112,-109,25,5,-163,68,-39,-84,100,-123,31,-116,59,61,14,43,-48,-115,69,-90,-28,-128,-16
,2,-72,36,75,30,38,-126,160,66,53,-133,-173,-185,-372,-852,65,216,184,-8,-116,148,-36,141,-145,-135,39,-53,-168,231,418,325
,-33,-46,99,-118,-90,86,70,-72,-167,42,-100,-117,-144,100,53,55,72,30,63,-129,-32,-61,50,-99,-160,-145,-92,-61,17,29,-8
,-95,66,130,-102,-166,-528,-102,-120,-231,-5,-49,-295,-161,106,-459,-131,152,162,215,-101,104,90,240,-158,208,65,225,-206,194,337,149
,-170,11,56,-125,82,53,61,-136,-21,-126,45,-108,-135,69,37,-15,-42,-19,-116,-130,26,90,101,58,67,-6,70,-140,-176,-56,-10
,24,21,-138,-67,50,-278,-180,8,-185,-3,-71,-80,-20,-318,-294,-134,108,125,62,-27,141,-9,23,-158,-44,-49,-39,46,-66,-98,42
,33,-72,-71,57,67,-9,-77,-15,-71,71,-99,-48,-149,-47,-125,-96,-91,-68,-22,-25,-117,83,79,80,4,-178,-134,-7,-41,125,-89
,89,84,-238,75,28,-371,21,53,-94,-57,-47,-232,-120,-45,8,33,-108,25,151,-7,150,72,-146,-91,-18,-43,-60,-197,-57,-23,-119
,-11,-25,-193,-221,-204,-138,6,-70,-64,-133,34,-53,3,42,62,-45,67,57,-52,-62,-55,-47,-4,69,88,-77,18,120,37,-41,-148
,-82,57,-139,-85,-56,-51,-23,38,-75,-159,100,6,12,-144,112,50,-138,-40,-32,-83,4,-137,32,22,-97,-169,10,42,-152,-24,-30
,-106,97,108,-77,-101,-146,-105,24,69,-51,-72,-93,-49,-123,93,12,116,-92,77,-46,31,-99,65,-146,71,-139,45,-111,-146,99,84
,88,33,-254,-95,-135,-2,111,18,-79,-64,-242,-244,37,63,-106,4,-218,-146,111,-172,41,79,-143,21,-156,-142,-72,-56,-123,-76,78
,-151,31,87,2,99,0,-185,-174,16,60,-86,64,96,33,-172,-102,-110,25,-50,27,-163,-138,-93,-28,57,-122,-43,-196,18,97,48
,-24,-54,-68,-117,-103,24,8,-74,-59,-83,-5,-85,-86,102,68,59,-123,-75,-72,-13,127,-115,26,-88,-116,10,-117,117,-2,33,10
,-61,-182,3,47,-75,-1,13,-59,-82,44,35,-194,37,-175,-59,-30,-137,-92,-19,92,69,-85,-3,-62,-91,-149,80,-137,109,-61,57
,-150,86,84,122,-127,-116,-89,115,-141,-136,6,79,131,-80,-12,-125,-79,-96,-91,-153,26,-55,-103,-34,25,-41,17,-52,8,20,89
,-70,-37,-100,-120,-33,17,126,27,56,-97,69,-93,0,0,111,-107,-96,8,-99,-111,-56,-123,-31,13,98,52,-12,-150,-60,3,19
,61,-46,112,89,-90,141,-55,-99,-70,-39,-18,-161,18,-117,-221,-41,-113,-17,49,-171,-129,-67,-78,69,33,24,67,48,-34,-43,-130
,-39,10,-141,-54,-37,45,-83,44,52,49,44,-127,-34,-42,-1,-131,-144,-166,-136,-192,-185,-145,2,-155,-25,19,-139,71,-207,-144,-55
,-19,45,49,38,-47,1,-48,64,-65,-69,3,-47,-82,-181,-97,37,-67,21,-221,98,121,4,127,-176,81,-61,-73,-111,-35,-148,-57
,134,86,-176,-122,-5,28,-44,70,-30,92,-162,-159,-88,-51,-41,4,-107,93,-28,-172,2,-97,114,-82,-193,-77,118,-83,-59,30,-69
,38,156,131,96,-21,-129,38,-358,-213,-181,-176,-442,8,10,90,-141,97,-73,-71,-101,-23,-56,114,-228,-65,43,26,-161,150,90,15
,-103,-37,101,53,-139,-6,59,-104,-64,-42,3,59,-119,71,-116,-24,20,-3,98,4,5,-50,-118,-63,33,147,-124,-87,53,49,-58
,87,100,41,-104,-95,35,-131,-124,-43,-171,56,-78,59,80,-154,1,-69,-119,30,3,-159,-64,-80,-14,-165,25,20,-162,51,43,26
,-35,-65,-70,21,-78,28,23,64,67,-135,22,-24,31,-174,18,-22,-91,-131,-65,-103,60,67,-102,108,97,-161,121,-50,-109,-160,44
,-22,-169,-320,-153,-24,-143,68,-180,16,6,33,-250,45,-226,-265,-102,-132,-120,-54,-136,46,-36,17,91,-13,-101,-167,105,-99,-19,-263
,-186,-122,-14,-95,58,2,-87,78,-154,-12,-92,19,-128,34,24,-70,-25,-79,23,-137,-41,106,-77,10,-177,-33,-206,-28,63,-147,79
,-25,-4,85,0,-103,112,-69,-70,4,-144,-48,17,17,42,-72,-24,-118,55,145,-105,-101,59,-29,20,-32,-141,-1,-15,-171,-40,58
,62,49,-144,-114,-190,-121,-58,104,69,-130,111,-170,44,-166,-29,35,-39,17,-146,25,17,27,-10,-82,-80,-157,28,-83,-23,39,111
,-204,-121,81,-53,-138,-50,-39,-163,-30,5,11,90,-8,45,-142,-156,-45,22,21,49,-91,-77,-40,10,-122,27,-83,-20,-130,70,42
,18,-7,96,-44,-1,-91,-38,-30,133,21,-59,-134,-7,-149,-139,93,137,-102,58,-130,-11,-77,25,-100,-92,-99,-38,-113,126,-69,27
,58,-266,-227,0,-1384,-196,59,-158,-144,100,-443,-178,-22,92,-474,56,206,291,277,318,127,-683,-208,123,-249,-110,-354,33,-196,212,-269
,-132,53,-218,57,-32,-182,-124,-54,-7,-135,74,-131,-15,10,-111,27,-98,-106,66,118,-19,64,-198,111,36,-136,-122,-20,41,19,-171
,-22,-105,-196,-171,-81,-258,55,114,67,25,18,94,-40,27,-3,31,-149,87,-149,52,74,-150,76,-198,-150,-30,14,-173,124,-19,20
,-53,98,-2,-43,5,-107,-151,65,82,-112,18,77,-174,-172,-117,101,-114,77,41,-124,-55,87,108,-118,-80,-89,-143,2,61,66,-152
,16,44,63,-144,-39,51,14,-32,-65,-110,-142,-173,4,-186,-5,27,68,-68,42,-20,-9,-84,53,-162,-141,-8,-165,18,-68,-97,-133
,-118,-173,65,55,-94,28,-109,-100,88,49,85,-169,20,49,-45,-180,21,-167,45,-18,-10,3,7,81,95,-114,16,-4,104,-168,-123
,-82,-154,63,-68,62,43,-12,50,-63,-34,94,49,-94,-175,-20,-160,-39,-128,89,-95,7,82,-20,-174,-145,108,105,-142,-97,6,59
,-99,-172,72,-37,-129,9,-21,-40,69,18,14,82,-9,56,-31,-52,-120,-7,-154,-23,-32,-151,22,81,100,-145,78,-144,82,-53,37
,-216,54,-13,-211,55,75,-61,-113,64,-33,-165,45,-158,-113,83,51,102,-103,42,-48,24,-48,-80,-10,58,-98,-119,75,-47,106,-96
,-100,91,90,-76,64,-78,1,-125,-4,-63,-114,-31,17,117,-128,-38,-19,-65,-127,61,-99,-90,33,93,-98,11,9,-15,-32,-41,-108
,96,-95,-63,13,50,-103,-41,-69,-18,-82,-89,52,-133,-55,115,22,-127,-114,-51,-49,48,71,-14,-64,-80,-104,63,113,-73,-30,126
,51,-118,-109,-142,51,-219,-137,-66,33,25,-11,32,62,-158,-104,6,66,51,-102,-18,67,37,-112,-50,-175,-64,53,-31,-117,-148,31
,30,-211,53,-125,-173,-182,-181,-21,25,65,-36,-177,35,83,59,59,-161,59,-57,-126,103,161,82,-2,-19,-134,-72,65,18,-65,-95
,-38,9,69,-137,82,-105,100,74,90,-75,-87,4,-128,-14,16,-65,24,-141,-76,-162,-82,59,1,-72,-34,-46,-110,36,-27,-50,-85
,120,18,52,51,6,104,70,-172,-65,-120,60,63,-150,-102,-138,39,-142,-69,68,-142,-75,-146,10,-168,72,130,38,-217,-63,-217,-123
,-134,88,-41,-176,31,27,-120,-171,-90,-101,-56,-40,-103,97,-2,-64,51,-96,-79,14,86,7,-26,-37,-132,-74,-2,-169,-89,85,49
,60,-123,18,30,-175,73,-42,76,-68,40,-65,29,-79,-54,-119,37,1,-164,51,72,-106,81,74,51,-52,-66,-36,-120,-79,-66,-34
,-105,16,94,-73,12,-89,-86,-90,108,-136,47,-122,-17,2,109,-19,49,-105,110,48,-87,-119,123,-104,-2,-73,-68,-51,21,-91,-133
,87,29,-186,-125,63,80,85,-31,-116,10,81,-144,51,-124,-280,-30,-2,43,-135,-215,26,80,7,-240,-95,11,-112,-259,45,-72,24
,-240,6,27,-215,-24,-162,8,79,-87,-201,-189,12,36,-1,50,7,-139,-155,-1,84,59,-47,-5,87,-28,98,-68,63,97,61,97
,-134,-132,30,-54,-60,96,-138,51,-123,68,-56,58,-26,-10,0,-140,-22,-57,17,-123,18,-39,-88,19,-77,-32,88,-177,33,-69,-17
,46,76,-31,-91,-84,-55,-118,-2,-129,77,-181,-146,-4,-156,-262,96,-81,-77,101,87,-147,-72,8,72,31,5,-49,-155,-113,-79,11
,-96,-57,-151,46,35,-97,-155,70,22,99,-76,26,-54,-1,-79,-177,4,-94,80,-71,-56,-25,-54,98,-67,-182,-98,58,-20,-102,-120
,-127,-117,14,35,-113,-92,-77,-32,-44,-19,-47,-72,45,-83,67,52,-69,-112,71,55,104,-38,-148,113,-68,18,-136,79,-69,-104,-143
,-149,83,107,-22,55,-223,-112,25,-101,-172,-132,-198,-47,9,-155,-107,10,38,-126,-47,-62,106,35,-95,51,-124,-159,-190,29,117,52
,-182,-15,-74,5,74,13,41,-116,-228,-25,-6,-138,48,-182,-237,-173,-98,-38,24,-140,87,-245,13,40,58,8,80,53,-175,-71,-109
,-124,-36,25,-123,9,-136,-86,-97,88,116,-5,-48,66,-98,-78,1,-109,-152,-97,-99,-112,-77,-75,106,-84,-83,107,77,0,-10,187
,-19,-82,-154,-24,68,24,-159,28,99,-128,23,-118,-65,-91,99,-7,9,-27,-18,-59,-83,-12,95,32,-179,-49,-53,-138,102,-83,-47
,26,-83,-134,-184,-27,16,67,-107,42,-47,47,-22,-118,-162,-106,55,86,-92,68,-134,-131,-155,-60,49,10,4,-73,-123,-114,-156,-15
,17,52,102,29,-37,-32,-110,52,-68,68,-57,36,-77,-169,-21,93,125,-37,-173,-126,-65,17,92,-73,-33,25,-91,-112,0,-165,11
,23,7,-6,-158,-13,-82,-178,-111,4,22,-28,-78,-99,-168,-66,-24,-33,46,81,-74,77,-66,139,57,-35,82,-39,-102,117,-33,110
,72,44,-353,149,44,-1234,188,6,-1019,183,-126,-401,106,-11,-37,202,167,150,131,252,-36,-489,-609,35,-172,42,-199,325,-77,-93,-117
,-32,-138,10,-39,-42,100,-15,2,-126,-86,-141,9,95,-40,6,-153,78,66,33,-101,60,33,101,-15,48,-171,-13,-173,-106,-43,-152
,28,80,-177,21,-3,-198,-124,60,49,82,85,-7,12,-14,-102,-20,-47,-1,-144,-131,-104,-29,8,36,-146,-134,-154,-205,69,-89,-125
,22,-84,-71,-146,4,44,-45,-148,-94,-69,-24,54,-24,20,58,70,40,8,-2,-128,16,-149,-10,-87,-154,33,30,-79,-119,-122,-105
,-82,79,48,4,9,-136,61,-24,-54,-60,-97,50,-112,3,-88,18,-190,26,74,23,67,-62,23,63,89,-23,-124,-202,-44,47,51
,-81,11,-67,-113,104,156,-180,-106,-309,36,-126,-145,-6,28,67,-288,-142,28,-50,-372,-65,89,56,-342,-61,117,97,-194,17,59,168
,-1,67,-119,4,-94,-71,14,-100,-101,11,143,12,-68,33,-128,-25,-89,2,-42,89,-13,59,-38,37,-117,-143,-134,-49,-16,-89,-128
,90,-90,-46,-96,50,36,38,-24,-106,-33,-91,-97,-171,81,-23,-181,-164,-153,-152,-107,21,-149,62,-167,-1,93,1,-99,-3,-138,-103
,65,-53,59,59,-69,59,-32,-173,-20,0,73,-74,109,77,-20,-185,-81,-49,46,-74,-156,-196,-147,74,-192,-107,-83,-166,-157,0,132
,51,-3,-213,267,-159,-309,-38,-8,-345,139,-28,-260,96,100,-337,50,-160,-15,-66,-59,-364,100,22,95,459,-124,25,-93,-235,-462,10
,-63,-19,75,-41,-101,-142,69,-185,-97,-9,75,-16,-133,-37,-121,-34,104,41,91,-125,-89,-136,-144,-168,20,107,-105,-55,-9,117,-21
,93,-125,1,-71,54,61,-168,-24,-18,105,-32,19,-61,-24,-90,-95,-80,9,-187,13,-58,-148,-5,-13,-176,-95,-174,-178,15,-14,-171
,-100,103,47,-124,-31,18,7,-93,-52,-122,-35,34,-44,98,-165,85,24,-116,56,51,25,88,2,-57,-30,-103,-86,-71,70,75,12
,67,4,9,-154,-55,-75,-80,49,-33,-121,-84,62,-113,-76,89,-139,33,76,78,-156,84,41,-55,69,-3,-17,-137,66,-34,-95,-158
,78,-65,-10,-9,-123,-35,107,-102,-121,-101,56,110,-145,33,-101,-21,-35,7,-68,-47,115,97,-142,-87,65,-87,-68,-105,-69,72,-2
,-23,-140,-56,-14,-8,-13,-129,88,-168,-98,-12,-123,-96,-79,73,-21,76,95,-185,-40,118,16,-26,15,74,66,-28,-104,-59,-100,7
,-139,25,114,32,81,-34,-10,-26,-46,-122,-127,17,-73,-88,-132,-66,-122,-111,128,45,48,14,87,-25,124,-29,-137,121,-54,1,-128
,107,17,20,77,47,-187,-27,-140,71,65,-50,-92,-81,5,-10,-138,-182,-9,40,-6,-36,6,23,109,-197,65,-147,-90,-169,-111,-19
,84,-194,-102,126,-72,-231,-18,-248,-30,25,-66,9,26,-163,-255,-141,96,63,-104,-188,62,112,73,60,-37,84,18,-119,-159,-203,-138
,-177,17,-130,-135,-9,78,-66,-63,-93,77,26,-13,-9,-112,5,-45,-48,47,53,-51,76,-26,-105,-158,-155,66,-176,70,-136,-153,-172
,60,-14,-72,80,-46,-179,-92,-118,-114,-6,-211,-65,-38,-1144,-92,-78,243,189,-86,112,-195,-249,208,146,-223,-219,-474,213,-505,150,-10
,73,108,122,-148,-166,-24,107,-29,30,-119,-156,-74,-7,-94,-68,-142,61,83,111,19,37,-126,-80,-15,55,-60,-109,-130,89,-134,-51
,-24,107,88,-44,-71,11,-57,-36,38,-173,-48,-136,-111,-164,11,21,-81,-65,-116,-157,-106,-164,29,77,-134,41,-52,-82,-4,-64,-102
,24,-164,-211,35,-168,10,-9,74,-126,-19,-212,0,-126,-155,-121,-105,34,62,-52,45,51,47,-83,89,-55,-14,-17,-143,-85,15,80
,-79,-163,-20,-54,112,-33,-178,26,-117,37,75,-120,89,-71,84,-95,-112,82,72,-1,-28,-129,-32,-40,17,-35,-132,-58,8,59,-128
,-130,72,-49,-4,-19,69,-82,-117,92,-113,52,-38,-106,-115,68,-130,-79,-39,-23,-92,-78,-135,-137,-171,-93,7,-122,-71,-144,11,11
,-14,34,11,29,-112,82,-108,9,-129,-93,69,-68,-137,-106,-28,-96,-101,-159,-33,-164,10,-112,-124,-149,-19,81,48,55,-36,-9,-30
,31,-87,29,-95,-209,20,-160,50,-47,-47,-35,-208,65,-153,-192,92,-131,0,-211,-101,13,8,-167,-76,24,-125,89,-181,81,-156,13
,33,-148,-33,46,-74,-175,-113,-31,-73,-4,55,-139,-142,7,57,-120,12,-127,57,58,-58,140,-56,-136,-59,32,134,10,-112,4,76
,-10,10,26,64,-188,62,-11,-155,-152,47,-208,-178,23,-19,-114,-58,-154,7,-225,-207,110,110,75,47,0,-108,4,-62,-26,-94,-181
,-81,-50,-64,-93,-26,-128,96,-135,35,19,64,-20,-136,54,105,97,-129,-129,-66,72,-22,-190,-67,70,-7,96,-63,1,-165,61,-86
,49,-97,-91,70,78,-19,-169,-4,84,-136,39,-69,-154,14,58,59,-98,82,79,1,-168,-24,99,27,-158,-162,-19,63,-189,-41,58
,36,250,-260,55,-213,-91,-119,-116,-63,-163,-127,-51,30,-658,-125,187,219,161,108,42,-180,-265,-677,-41,218,26,116,-6,-249,-232,252
,-186,-235,71,-214,-237,66,-219,-295,-190,-207,-270,-162,-89,-251,-102,10,111,244,262,-74,168,258,294,-36,208,303,333,-11,230,248,441
,4,-136,-20,-68,71,-115,-158,-81,37,-9,-40,-81,53,26,60,-12,-129,-113,71,-128,119,34,23,-116,19,-123,-48,-117,-154,121,61
,-122,4,-142,64,-46,16,2,121,119,-137,4,-44,-82,-111,-127,64,-138,-129,-80,-136,-27,-109,-134,-54,-82,123,-78,16,-20,4,75
,-181,42,25,77,43,-174,37,-207,-203,-166,-59,-95,22,76,9,-121,-169,52,57,27,-131,-50,90,12,-79,-68,4,28,-144,104,-112
,-17,-1,58,35,-86,-4,-109,63,8,-123,-76,-56,29,-105,-129,-132,-103,-95,-49,-90,-78,-116,-99,96,-139,-104,50,-26,-116,53,91
,54,33,-170,-146,67,8,-87,79,-19,-152,61,-66,-2,-24,-258,-96,9,118,75,20,-111,22,-81,-2,-90,-93,-91,53,-205,33,-4
,21,-1,-90,-87,91,96,-153,-209,-145,-115,105,-123,-70,-31,114,10,-33,56,32,-99,-83,-44,61,-95,-119,-40,75,107,116,-76,-33
,20,-121,30,-55,-65,-71,47,15,87,68,27,32,-77,-121,-111,-89,13,-141,-13,-73,57,-20,-2,-9,69,-84,-39,14,-41,-106,46
,58,-116,-89,-109,-154,-107,-111,-80,-167,89,-137,-131,-34,-77,-208,-8,28,-19,-97,-121,-77,-210,-97,99,-31,74,100,-87,-129,-132,-207
,-5,-171,65,-25,-149,56,-13,21,-110,-134,12,33,-136,-62,-128,-180,32,-102,68,5,-64,-47,-36,72,34,62,-89,-173,61,-123,-94
,-41,-313,-174,67,-120,-7,142,-236,-149,69,-207,-89,119,175,-278,-79,-67,161,-181,33,-53,-223,-61,9,-127,-131,-164,-89,-118,-23,22
,-125,1,-145,-140,4,-116,42,-105,-41,114,-37,-61,87,-138,-82,-6,9,104,-77,-6,-27,39,-189,-77,-46,-32,67,63,-120,57,-28
,111,-51,-78,-102,-74,71,79,-129,-71,-120,-15,-4,-103,-108,-319,-99,-85,-60,-160,71,-44,44,79,-131,43,101,-137,74,40,97,-17
,-81,-80,-54,-112,-90,-110,-143,20,-113,-132,138,-6,-141,-139,-126,-21,57,-35,126,-28,-2,-60,81,-140,-118,68,74,58,124,109,-15
,-46,-172,-36,-29,-114,59,-36,-22,89,65,-172,-55,64,-11,-106,19,-92,-102,6,-165,-74,93,-55,-16,-136,107,85,-36,-86,45,-59
,-41,-128,3,-60,117,128,-14,25,37,-135,-111,-39,-127,-84,-124,41,129,-35,-74,69,11,-58,-13,-54,100,-38,-144,-14,86,-103,59
,138,50,-376,101,-16,-85,141,190,-324,201,-77,-239,133,-29,-115,-84,-106,16,155,-105,-177,-175,-245,-159,-289,-65,-153,77,-323,109,-246
,-74,-26,-81,74,-68,70,22,-28,-29,-42,-210,-229,-108,-164,-163,74,-49,-156,32,-109,-113,47,85,45,-119,-17,0,-16,70,-20,34
,17,-105,-73,3,-99,-2,-5,-3,-160,-137,-10,47,-17,27,-55,130,-33,62,-53,-70,30,84,-3,-53,-139,7,-31,-153,-135,5,-116
,79,-1,16,-139,64,-168,-130,-154,-144,34,-63,104,26,-104,110,52,-41,52,-129,26,-27,-100,-71,28,-104,-37,-116,105,19,26,36
,35,-33,110,-7,59,4,1,-188,-54,-162,-6,-88,46,6,3,-72,-113,-115,40,-68,-28,39,52,-196,14,-4,-132,-138,-153,97,-24
,-122,63,-109,14,49,-9,-48,-67,-194,-107,-69,-77,-142,-83,-141,29,-69,45,-86,24,28,63,-130,-38,-79,12,-91,-29,6,45,91
,-48,62,-104,56,40,-49,-205,-112,9,67,59,-98,16,-37,-35,-97,-78,-124,-41,-88,-155,-125,16,-160,-189,-105,-15,-133,-160,-173,-154
,6,72,27,-112,64,-88,-212,-25,7,-69,70,-32,-20,-190,-189,80,-98,-129,-151,-132,92,50,94,-109,-106,-31,-18,-15,96,76,-4
,-79,-97,22,6,30,-69,-158,-13,-112,-108,101,-142,-158,-73,-71,-64,75,90,102,91,-150,30,0,23,33,-145,-10,52,-149,-88,13
,-4,-68,7,12,13,8,15,-21,-37,-76,33,2,-126,-225,-30,-28,-139,63,-35,-93,-136,-199,-21,46,-121,-129,-54,-137,25,36,1
,-118,8,-150,61,18,-54,-156,-147,64,77,-155,-163,-37,87,82,-7,-27,-48,6,75,-156,39,84,-195,62,-46,-13,71,91,-145,-102
,14,31,-43,37,-83,-125,-106,3,56,-36,3,-81,-116,-136,16,-37,-114,-45,-121,-33,51,-101,85,-105,1,60,-64,-88,-98,-93,12
,-17,-149,59,-203,68,-102,-49,42,9,-29,8,-56,28,80,-68,-197,42,-4,-184,-82,-14,-100,-143,-33,-108,-145,-31,-155,-63,-41,-160
,-32,-22,-41,81,-11,-73,80,-181,79,-105,-145,58,25,63,1,10,20,-6,-205,-113,89,-199,-209,-150,9,-110,-81,-15,72,-34,-161
,-28,-119,2,27,-64,-144,-127,-88,89,-88,-167,20,8,-79,-119,-37,-172,60,-43,102,-134,-129,45,-136,40,-166,44,32,-151,7,3
,-142,-195,-163,28,-89,-85,-55,101,75,69,108,37,-24,-153,-11,-158,-62,50,58,-33,-21,-115,-103,-145,31,92,-34,-153,50,-8,-115
,99,-47,57,-92,101,-136,102,-64,-134,-86,-139,61,-50,19,-163,-78,11,-160,-161,54,80,36,-128,-147,-153,114,-128,18,-145,-9,-60
,-120,-50,24,-150,-39,-106,36,-193,47,-18,83,-86,-163,11,-141,-16,25,64,-60,81,-146,-41,53,79,16,26,-88,-122,-112,63,45
,82,-40,65,-142,8,92,-104,-89,-7,-126,-8,-119,71,-97,94,-51,-29,-118,-4,-117,-126,-142,11,-68,-80,-58,104,62,-105,-30,38
,-51,86,64,-82,-175,51,-70,-136,94,-148,-85,-2,82,-15,20,-3,-139,-2,50,-137,-66,112,-80,-160,-66,45,-5,-146,-161,-78,110
,99,-21,93,61,73,71,-114,45,-117,-72,-37,-87,60,-82,-165,73,-147,89,-100,-11,-9,-24,-168,-9,-56,-143,-92,52,-125,-149,-57
,-380,-271,24,-168,-249,-130,-191,-266,-42,-95,-232,-168,-199,-257,119,-40,153,234,232,12,72,266,294,10,220,328,304,-98,262,290,441
,-88,15,128,-14,16,-85,-111,2,131,47,-87,-101,-19,-136,-137,52,-130,-122,135,-51,46,101,24,-92,-142,-69,-90,20,-71,-50,-117
,44,-11,-155,-105,-110,-124,61,-153,52,-46,-53,56,33,-16,61,-152,-171,-7,-22,-88,13,37,-43,19,-174,-158,13,1,51,-127,-58
,119,-105,-130,-59,-78,-94,82,-21,-125,-143,-3,-135,99,72,-21,-178,-185,-83,43,-69,26,-73,86,16,-86,39,-128,-197,7,-97,-153
,-141,60,-167,65,-58,-9,-178,79,-104,90,-30,-162,36,-14,-74,-76,37,-68,98,-101,-66,-90,-101,37,-192,47,-94,16,65,-155,4
,-105,-48,-59,70,-112,-7,44,-19,71,-3,-123,-93,-132,-33,-3,-6,98,-117,-34,96,45,18,-72,2,-3,-165,-26,-12,-86,54,-54
,-112,88,-41,86,33,-73,-126,-127,-59,69,-15,-133,-138,-128,1,81,-168,-41,54,-64,-135,-140,28,-108,102,-172,-97,6,11,73,-113
,34,-138,-5,-194,-26,23,-84,-122,23,17,-163,84,-58,-74,-139,129,-471,-1015,117,296,-428,-794,-166,232,-399,141,-473,316,-1418,302,177
,29,79,-14,9,64,-136,64,-61,94,-174,-99,-49,2,-11,4,52,-171,42,122,-177,-169,-122,-71,86,-152,83,-58,7,3,-112,-103
,27,7,-143,-29,-154,-15,-41,-61,131,-130,-37,-131,-136,45,-137,-31,-70,70,-89,-186,-65,-120,50,-36,19,-120,-111,27,59,67,-51
,-85,-108,-229,11,-56,-227,7,-286,-347,-13,-110,-86,58,-130,-21,-80,-89,105,-186,-86,9,164,133,-52,-69,145,24,-60,40,-30,-185
,-130,-13,101,-26,-136,-27,-72,-93,-73,-122,-88,5,51,59,-64,-128,-119,71,-53,73,114,155,74,116,-91,-167,55,8,30,-148,-131
,-164,-138,22,42,-119,-126,-123,-132,-131,-163,-158,138,-139,102,-115,-74,-43,55,-27,-86,63,-36,-3,109,-47,-72,-68,78,-132,62,40
,34,18,-142,-48,-49,64,2,-243,-222,-124,-114,-43,112,43,-177,-66,-80,-131,45,84,-36,-27,17,1,110,-113,-109,-171,-153,-44,169
,-173,81,58,-42,18,52,79,-19,-120,-163,-89,-131,-64,-7,92,-118,-67,137,105,-143,5,107,-110,-43,-139,-174,-55,108,-109,-10,56
,-63,-124,22,19,61,14,-150,70,-170,16,51,28,-15,-6,-196,-29,-160,48,-140,-85,-9,-136,71,-207,10,24,-84,-61,-211,28,-141
,132,-2,60,-23,123,-108,3,-142,-197,-75,-145,53,-112,6,14,-146,-143,16,-70,-18,89,27,-72,12,-21,-59,-111,-116,95,45,-56
,28,-130,-122,19,120,83,112,-70,-7,-141,-80,45,-51,2,-37,-69,27,-89,133,-89,-126,18,54,-80,22,-109,82,-50,-111,-38,-113
,-41,-42,8,52,55,-136,-53,-44,-132,-150,-69,-22,-126,99,-22,-35,36,75,-24,95,18,118,-98,-142,6,-136,-81,-88,-40,59,-81
,-81,-88,113,-22,-23,-149,-39,-10,-163,-124,3,-45,52,-74,144,48,-74,38,84,31,-95,-19,-104,109,84,-90,132,-111,-85,-88,-83
,-90,28,-4,47,-46,-277,-17,-177,-220,-107,51,-152,-78,-178,-169,-128,108,105,-110,43,-161,-107,12,-8,11,35,-28,-161,121,202,-123
,-107,116,126,73,-103,-88,-144,-138,-24,-27,-81,121,3,-81,-15,-90,-72,83,-92,-130,-113,-56,132,-28,-15,141,-10,-111,23,8,-47
,-106,-55,87,-56,-101,-200,-21,-12,48,115,63,-133,47,-76,-174,-170,-121,-14,64,21,90,-181,-102,-108,-213,58,-201,54,-63,-46,134
,63,-97,-30,-150,-86,36,21,62,-62,79,-128,92,-9,-165,-196,-80,21,32,49,-78,31,-159,-137,45,-157,42,-163,-178,84,46,74
,32,-77,16,-71,-224,-107,72,-14,-180,-98,-209,-135,-164,114,103,-51,-109,96,91,-171,54,-119,84,-63,117,19,-2,86,-105,-93,-118
,19,79,92,-124,-101,-34,80,107,64,-121,-41,-66,-90,-15,63,-62,-48,58,-155,-85,5,-38,0,-127,23,66,-96,62,-120,-37,-156
,-6,-163,36,-181,45,103,-23,18,-31,0,-138,-3,-171,-82,52,-137,76,2,2,-17,-102,-51,-30,57,-167,-56,-50,-114,-38,13,46
,-27,18,71,-32,42,92,-47,95,6,-109,-104,-81,-141,-197,-112,16,11,-87,97,118,125,-129,-91,-101,-79,-117,70,11,-56,97,-137
,53,-144,-112,107,-37,101,-155,-8,-67,-139,91,18,-126,-47,63,-112,-65,-166,37,-35,-96,-82,-115,-173,-60,-34,54,-17,22,-137,-25
,-153,-107,-14,-174,-184,20,-72,-26,-30,56,116,43,-59,12,-164,-73,-215,-116,45,74,-150,88,-46,82,12,-181,-10,-107,-103,90,-72
,19,-122,-106,-73,-116,-202,54,11,-152,11,-63,-176,-26,-21,92,-27,-117,22,-31,-63,99,-160,90,-72,-97,-215,-25,46,-52,62,-122
,-65,59,-167,99,-149,-241,92,-285,-153,120,-270,-257,63,-334,-159,-166,202,-86,-169,-192,-25,114,58,18,178,-19,85,66,-186,-405,-41
,-32,-96,-26,-157,-25,-33,51,-180,26,-135,18,-15,9,-4,-47,-118,-140,-93,-136,30,45,33,21,-32,-10,40,-87,-165,-17,22,-37
,49,-125,-87,-163,33,-87,-82,27,117,98,-130,-121,66,-10,-58,27,-3,-86,-51,-42,125,-121,-85,-42,-34,-108,-56,-109,-55,64,-8
,-137,-110,-82,-91,-94,-85,-35,61,-138,26,-27,-86,-94,-111,-140,-8,-16,104,35,91,-120,-103,-30,-127,95,-88,-46,-145,-10,7,-53
,53,66,-149,-101,38,62,-55,-20,72,-134,86,80,-161,-148,-145,39,-128,-101,-60,-100,-135,-43,-125,-119,15,51,60,87,75,83,-59
,-94,62,-44,-132,-100,-16,20,99,129,-44,-79,-74,28,-70,-36,108,-54,98,-68,-133,31,-60,-94,89,-133,-10,-56,-133,10,105,38
,-13,-184,-176,33,-71,-85,38,93,53,-83,-116,-251,-117,12,138,-86,123,-50,-90,96,-167,56,-49,-110,-28,-72,76,-148,-38,92,67
,-64,44,-140,-234,-54,10,-61,-146,76,-119,-10,-16,42,12,-108,-84,16,47,-39,-12,20,73,-128,-195,-95,60,38,52,-112,-11,49
,51,-333,-562,-164,-217,-219,-129,-355,-163,-116,-102,-72,-100,238,343,-62,93,-53,140,-6,231,76,206,-23,-27,243,314,-25,86,148,98
,-43,-68,-117,2,-22,-67,44,94,111,-99,-177,19,92,-133,-157,-132,-75,76,-204,-158,-94,-113,53,100,48,9,49,99,-57,-61,-11
,136,-31,76,-60,15,124,-98,-117,-94,-70,-93,119,-83,-60,-119,60,-144,-45,81,42,21,-97,49,-130,39,-149,-34,-31,53,6,-67
,-112,36,-12,-185,-180,-53,-171,33,-69,-124,-97,42,-1,96,62,-41,-123,-84,4,-74,-68,100,-37,-116,-129,60,-126,13,-137,85,-137
,-132,-157,54,30,-187,49,53,-159,-154,47,-114,40,-12,49,-34,107,25,-51,-155,-21,-132,129,-60,-137,87,112,-50,-115,-81,-121,109
,-75,94,14,8,-126,47,-101,-177,102,67,-28,-144,-34,-96,-45,-20,-53,59,-60,-197,-25,-81,-149,44,-68,-93,-79,-149,10,-83,-74
,-40,-8,44,-153,-79,-122,-50,21,-169,22,-122,-86,21,52,-33,-142,85,13,0,4,-1,24,-37,-49,-128,40,-82,-126,-2,54,82
,-41,86,-1,17,95,25,-23,24,77,-162,27,-37,-164,63,54,-177,-107,-59,39,66,10,-150,-114,-164,-29,-68,-68,-108,-137,-193,-81
,-170,-49,28,-38,-18,44,-26,29,-18,-201,22,-3,-203,65,31,55,95,18,-105,-77,38,-82,-91,-70,-73,73,112,109,-56,71,39
,3,-123,-24,58,-70,-51,-38,-28,28,-22,79,-38,-99,-50,128,-87,-140,36,-14,-42,-126,32,-42,35,-53,20,-104,-139,-55,-94,-98
,-134,-36,30,-93,-190,4,38,-52,-5,95,-21,56,-89,41,62,3,-128,115,93,-106,-148,-29,-103,2,-152,91,88,-162,32,-6,-45
,-72,101,145,84,-251,-399,84,-469,-598,140,-164,69,106,140,168,54,169,17,66,-230,-12,-33,-158,-152,3,191,99,-53,-34,160,131
,-56,-12,-152,3,21,-203,-108,-196,5,-71,1,-14,0,-1,101,-193,-170,22,-18,-5,-19,-150,-87,-21,-57,12,-120,26,-196,-78,83
,-17,-37,91,-156,70,-133,-180,-53,-4,6,82,-136,-17,-11,91,-103,-78,-95,-165,-96,-97,-141,76,82,-95,-88,-139,11,-54,-143,-94
,1,-153,65,27,-137,97,-171,-150,-28,-11,56,-83,-8,-21,-56,-103,-108,74,-157,-179,-51,-46,-60,-154,-62,-138,61,48,-119,69,116
,-161,-70,-14,-113,-70,-87,39,-124,47,37,-127,-94,-207,9,74,-147,69,-64,125,-169,-79,-95,-94,-169,45,118,0,-132,60,-63,-88
,26,7,-205,-35,-73,-15,-2,-76,-19,-41,40,-183,-85,-22,-46,48,-43,54,-147,-239,-56,126,-51,-137,-164,69,9,-143,56,-25,-111
,-136,0,-9,88,-169,-99,-69,-80,82,-160,-111,55,-155,-138,-60,-17,-141,98,108,-135,58,58,122,114,107,-136,48,39,22,75,-65
,-230,-283,-18,-321,-48,81,-225,-151,101,-305,-270,-47,-97,-261,36,-19,82,1,127,-131,-54,220,88,-172,67,175,238,17,145,106,294
,19,-107,81,-22,-63,-177,-168,-180,-34,25,-57,-75,-54,-106,122,84,-51,-63,-31,104,38,-111,97,52,26,-46,-46,-158,-165,-199,-43
,-141,66,241,53,-211,-427,106,-41,99,-9,-163,-216,66,-68,77,-41,-99,28,-61,-140,30,59,57,-233,-22,-167,22,-250,-45,86,151
,-56,-151,-150,-194,104,-101,34,79,62,79,-155,-59,-172,-27,-63,-106,-19,-28,-128,-41,-63,-238,-102,30,-43,5,70,-220,-3,-110,-12
,-18,82,-79,-32,96,-215,-154,-43,-70,20,-64,-39,113,2,-165,33,2,-21,122,-73,-91,17,-69,-99,-121,-36,-29,-30,25,-41,-28
,-117,-61,-85,-109,42,-160,-24,-81,53,-4,13,16,-8,-68,-178,-42,-40,-154,-68,8,-13,-83,22,-53,-8,59,-199,-6,-30,-115,-145
,-93,15,-110,-74,-41,-12,20,0,-172,-73,-4,87,-123,-114,-99,-9,-32,-99,-1,-36,-2,-77,41,-105,110,-134,11,87,-71,119,61
,-80,-91,34,-76,-54,-114,-88,-60,3,85,-146,114,113,24,113,62,-185,44,50,-103,-113,12,19,-3,-27,7,-45,-94,-93,58,-203
,244,63,97,174,-359,-827,121,137,-23,174,138,-61,188,130,-19,-77,-151,-160,-62,-115,-199,-21,-229,-134,-83,25,-44,-194,27,-147,-23
,-23,-139,-185,50,-132,91,-63,23,-41,-124,-50,42,-111,-85,-126,95,69,16,13,-47,53,-25,-57,-52,57,24,-23,46,53,19,-71
,51,-177,-86,53,-53,4,-80,5,-124,-99,-134,-26,-86,72,-212,-177,-25,49,18,49,-34,-176,-137,98,-72,-109,-110,-125,73,-101,46
,-59,-180,-3,92,-110,49,-105,15,-52,35,44,-87,43,29,-184,-175,48,-76,36,38,-99,-144,95,-28,24,-170,-56,-176,38,-169,104
,-79,79,24,-20,-45,51,-103,33,-15,40,-187,-147,-134,-50,-200,27,-100,-17,-3,-161,-65,-87,81,-134,-28,-53,-54,11,-58,-38,-85
,-35,104,95,-165,53,4,-36,-1,115,-108,-117,-145,-134,6,-42,22,31,83,-85,-157,-72,-72,-81,45,111,72,-60,13,80,73,-121
,-70,-96,51,32,-146,-29,-36,3,75,27,-115,95,-172,-127,-65,37,-89,-55,9,59,-133,-37,48,32,-26,48,-153,29,16,-151,-149
,40,-68,-53,-22,-24,-174,-142,-148,113,-152,-13,-147,-92,-1,19,86,-43,-116,-148,-58,71,-78,-70,-85,39,104,93,12,94,-38,5
,-72,-28,-39,87,-87,126,-143,-102,74,22,51,41,-11,-32,-94,-131,41,-139,-76,51,-83,0,142,-19,-72,-141,16,-141,-63,-128,109
,-151,64,52,-154,-175,-28,-50,-106,61,-55,53,-4,21,-71,38,-8,-156,85,-60,24,-16,-113,-107,-103,-18,-38,75,-138,-100,-156,-73
,-61,-162,-19,109,-98,9,81,-182,-47,-158,-102,104,-84,49,-1,-175,-4,104,-163,74,-137,0,65,-106,-99,-50,21,51,66,64,31
,26,33,-43,-108,15,94,-138,-111,-22,-103,-138,8,3,22,55,-175,-52,-111,-66,-133,-83,81,125,-72,85,-44,-1,-26,63,-54,-28
,-64,-94,-95,-66,19,-32,-129,83,-100,-50,-92,-143,38,38,-87,-162,-64,-114,23,-141,10,-13,86,-36,28,-92,8,-129,-52,-88,-73
,-78,-83,52,-48,87,-68,-116,-87,-92,85,24,38,-78,9,-46,-168,-176,-148,-44,-2,-155,-46,22,4,48,-12,-69,-87,-7,-182,-149
,-49,-212,-3,-175,52,-137,-64,-70,-14,-70,-113,-105,-106,-150,76,5,-90,24,42,99,-110,-23,7,-90,24,111,97,-13,110,76,46
,91,-22,-170,-7,-69,-10,187,132,-29,231,88,-20,124,39,-67,39,4,9,-1,12,4,-2,4,-68,-1,-1,3,-194,-4,-2,1
,-42,-93,-136,38,-21,-29,-81,-133,-48,-85,107,-34,-10,-122,-13,-62,-64,116,-92,111,-107,98,58,-51,-7,58,-93,54,-119,-12,-147
,-138,-110,87,58,-99,-101,-40,-108,-113,8,-24,-120,-155,-59,23,-159,-163,20,10,-99,-39,-2,106,-74,81,-39,-29,-81,-110,-57,-49
,-140,-22,-210,12,-117,-296,-71,-132,-151,7,68,22,-46,15,92,1,-115,35,-133,42,-71,19,118,-189,45,89,-63,-25,-142,-53,-18
,-75,116,127,-50,134,590,-32,-547,-673,24,-246,63,-167,56,-112,-51,-66,174,-217,-18,0,123,76,-63,-32,326,54,39,56,104,124
,-155,74,87,-107,-105,-141,-61,-17,95,48,65,-11,-119,-45,64,-165,-175,-144,-69,57,-54,-24,-19,-38,-117,84,78,-112,9,46,-116
,-71,-42,153,-128,-162,-160,20,-142,-262,55,-58,120,44,-20,18,-127,24,-96,119,-278,0,-12,7,-171,147,20,21,-378,67,-70,232
,-40,77,55,26,-61,-190,-171,-34,-156,-17,6,16,-4,-158,60,7,67,70,-163,-7,3,-186,98,-85,-101,-12,-47,48,34,66,-178
,20,-45,-36,-38,-68,-95,25,-16,-94,-182,29,-80,62,-47,-103,103,-57,-121,46,28,2,-256,61,-16,-107,-101,0,28,-67,-39,-88
,16,-153,100,3,-150,-11,-135,49,8,26,-173,-110,-4,46,-128,15,13,-14,8,23,-10,-21,-6,20,3,24,-38,3,-75,-7,-81
,-56,-15,-64,23,-14,-104,-50,-94,-105,-55,66,3,63,-166,46,-188,-95,-46,-78,-84,-40,-42,-60,-8,-13,-123,-19,-144,55,-16,80
,92,87,-167,11,23,-247,167,225,-367,164,218,-306,121,-149,-335,92,-77,92,-85,-164,-116,-55,-107,-81,-301,-104,116,36,-262,58,-115
,-15,-163,-74,-66,104,-143,-30,94,-12,-45,-120,34,30,50,-122,22,74,-113,-3,-16,-16,-24,-126,-57,0,-22,-86,-63,127,-51,-29
,-119,-61,84,-52,-57,-101,113,47,-133,-102,-112,-39,-145,-137,37,82,40,-2,-81,-148,-11,-70,-46,-89,73,4,-53,55,-110,-110,-58
,-86,6,-238,102,-76,-459,67,60,-145,140,15,275,-66,-191,-71,-11,26,-17,-38,-73,-81,118,-84,-275,9,11,80,-352,8,-206,-117
,-100,50,-156,106,-9,-15,-48,-22,-254,107,109,47,4,-201,-239,-209,-53,-41,26,-220,23,-29,-175,36,83,-54,-36,-113,59,-2,59
,-11,84,-91,84,94,-102,70,37,-148,19,45,-200,-146,-203,-199,62,-105,54,11,-163,-46,-204,-106,-188,-115,57,-45,-21,95,-106,-98
,-30,-74,-94,-136,-44,-76,-78,-143,-47,95,-119,41,-92,34,87,-177,-65,-98,-59,57,-33,-89,-144,-172,68,-118,83,-96,93,-93,117
,40,145,494,76,-63,101,-119,-292,361,-134,-399,-737,-16,90,-114,-180,-91,94,81,-36,-71,27,-43,-268,102,207,49,-92,85,-2,152
,14,97,-138,33,-92,109,-61,-95,-34,-97,-90,50,-138,135,-135,-13,-119,22,-102,-87,-16,-41,-26,65,-136,83,-30,-31,84,55,26
,-109,59,-45,-184,-36,-129,-64,-21,52,-128,36,39,-74,-117,-64,90,-55,-59,27,-109,71,-133,-157,-82,12,65,-102,-33,75,-18,-74
,-93,-29,114,51,-76,12,-112,-22,-101,62,-147,88,-126,50,27,108,-142,-130,24,121,-39,16,-16,-93,-153,-94,82,-108,35,-74,-6
,59,29,-75,-17,76,91,33,-137,-134,-49,-18,-75,95,35,-19,-55,-172,25,-170,-48,-173,-138,-158,-64,61,-57,-95,-159,-90,-152,-152
,-158,-58,-62,3,16,-127,-9,-166,-25,-83,-172,-163,-59,-75,-184,-67,71,-53,-87,34,62,-86,-137,84,13,124,88,83,-143,70,-49
,58,-194,83,-179,-172,-22,-120,72,103,-54,-14,-158,23,47,-178,-75,-95,-4,28,32,-110,48,-179,-176,-4,47,-118,-89,50,-59,-60
,-13,-93,69,-4,-37,3,-52,-16,-194,-110,-65,28,67,-56,52,-79,-59,-143,29,-39,-153,62,-36,-88,-130,-21,-72,-16,-14,96,-151
,-134,-106,97,104,29,-23,105,-69,-3,-96,26,-157,-37,-124,60,-175,-52,-136,-38,-85,1,-38,-50,-63,-129,72,-72,74,-143,40,-156
,-31,26,-132,-126,-107,25,-131,-105,41,22,94,-17,-97,-128,-131,138,52,-4,-95,98,-97,-92,-137,72,10,-12,56,-38,14,-76,30
,-193,-34,-45,66,-50,43,14,-154,-72,22,58,-121,-132,-154,106,-13,38,-92,-168,44,-93,-76,-160,11,-49,61,39,-167,38,-146,11
,64,105,-10,60,31,5,-37,-104,-137,-126,-91,-106,-146,89,-126,-65,32,-97,39,-18,71,-98,-26,20,-50,-50,-7,36,101,-136,-3
};

long weight_1_T_nvme0n1[256*31] = {
-219,50,-71,-127,-205,93,-221,-57,33,-8,1,61,-19,-12,95,53,-52,52,-12,-103,61,15,24,-17,-53,38,84,41,45,-12,131
,89,-77,-143,-121,98,-6,-64,-169,-95,-84,31,-100,-176,-70,-15,-150,-79,-126,48,-74,-11,-29,-61,10,90,75,-154,4,-32,48,71
,-14,-21,98,-40,-92,-94,-140,47,51,-46,16,-109,-11,25,-27,-161,39,61,-42,101,-160,-101,14,-54,-79,8,-89,97,46,-40,-178
,96,94,117,-117,-124,13,-86,-112,-55,-31,77,54,-129,-72,11,-13,-141,-52,0,87,11,120,-14,-117,-21,-151,-137,74,-144,112,-97
,-17,27,-112,-36,93,-108,69,-159,42,-42,-175,74,65,27,-29,-118,-103,-171,-66,-133,-21,-105,-165,-61,11,-78,48,-55,-100,-112,-117
,17,-40,109,86,2,-133,-70,-96,-32,45,-32,11,-140,-9,-130,-178,-124,98,-6,-70,-67,65,20,-104,-185,-101,19,78,-40,-138,43
,-101,-46,61,-4,-111,-269,-154,-106,55,-74,6,-2,-166,120,-110,-122,-4,114,75,-166,-85,143,125,-84,-209,-88,-155,-208,-91,-24,168
,-301,-29,-127,-288,-47,-157,-59,1,-133,-266,3,-28,-201,0,-58,-48,4,76,19,49,20,-1,150,-109,75,115,161,-99,76,125,165
,-4,-197,-189,-24,45,27,-100,23,-11,16,-169,-197,-34,117,-40,-77,-90,5,-44,8,47,-21,54,-94,-121,-24,20,-31,133,-110,-35
,7,-117,0,59,-150,-127,51,-96,36,-161,62,-83,-53,-50,-57,91,12,-81,-111,71,-90,-32,-104,-156,-86,-84,-107,-95,86,-59,-64
,31,-198,-129,-65,-200,-20,-53,-58,-130,-53,-9,7,-3,-172,144,-94,61,-116,-8,-35,-57,71,-105,-2,-143,-104,-144,6,79,91,-116
,71,-216,-7,-36,-237,-196,-65,-205,4,28,-115,102,76,2,49,12,-211,-137,-72,-57,-14,-16,-160,-2,108,-19,-121,48,13,-60,-124
,-143,-109,-169,-23,-49,-92,26,-51,32,-172,-117,26,71,-153,-8,-24,-43,-183,-81,-84,10,-161,-185,29,41,-27,75,-9,95,78,17
,58,-40,-5,-170,15,35,80,-152,-101,-65,-138,30,-159,-158,53,-141,-159,-163,54,-155,-162,-148,90,51,-59,-59,-150,102,66,58,100
,-33,-162,101,-11,-86,85,-156,8,112,-109,25,5,-163,68,-39,-84,100,-123,31,-116,59,61,14,43,-48,-115,69,-90,-28,-128,-16
,2,-72,36,75,30,38,-126,160,66,53,-133,-173,-185,-372,-852,65,216,184,-8,-116,148,-36,141,-145,-135,39,-53,-168,231,418,325
,-33,-46,99,-118,-90,86,70,-72,-167,42,-100,-117,-144,100,53,55,72,30,63,-129,-32,-61,50,-99,-160,-145,-92,-61,17,29,-8
,-95,66,130,-102,-166,-528,-102,-120,-231,-5,-49,-295,-161,106,-459,-131,152,162,215,-101,104,90,240,-158,208,65,225,-206,194,337,149
,-170,11,56,-125,82,53,61,-136,-21,-126,45,-108,-135,69,37,-15,-42,-19,-116,-130,26,90,101,58,67,-6,70,-140,-176,-56,-10
,24,21,-138,-67,50,-278,-180,8,-185,-3,-71,-80,-20,-318,-294,-134,108,125,62,-27,141,-9,23,-158,-44,-49,-39,46,-66,-98,42
,33,-72,-71,57,67,-9,-77,-15,-71,71,-99,-48,-149,-47,-125,-96,-91,-68,-22,-25,-117,83,79,80,4,-178,-134,-7,-41,125,-89
,89,84,-238,75,28,-371,21,53,-94,-57,-47,-232,-120,-45,8,33,-108,25,151,-7,150,72,-146,-91,-18,-43,-60,-197,-57,-23,-119
,-11,-25,-193,-221,-204,-138,6,-70,-64,-133,34,-53,3,42,62,-45,67,57,-52,-62,-55,-47,-4,69,88,-77,18,120,37,-41,-148
,-82,57,-139,-85,-56,-51,-23,38,-75,-159,100,6,12,-144,112,50,-138,-40,-32,-83,4,-137,32,22,-97,-169,10,42,-152,-24,-30
,-106,97,108,-77,-101,-146,-105,24,69,-51,-72,-93,-49,-123,93,12,116,-92,77,-46,31,-99,65,-146,71,-139,45,-111,-146,99,84
,88,33,-254,-95,-135,-2,111,18,-79,-64,-242,-244,37,63,-106,4,-218,-146,111,-172,41,79,-143,21,-156,-142,-72,-56,-123,-76,78
,-151,31,87,2,99,0,-185,-174,16,60,-86,64,96,33,-172,-102,-110,25,-50,27,-163,-138,-93,-28,57,-122,-43,-196,18,97,48
,-24,-54,-68,-117,-103,24,8,-74,-59,-83,-5,-85,-86,102,68,59,-123,-75,-72,-13,127,-115,26,-88,-116,10,-117,117,-2,33,10
,-61,-182,3,47,-75,-1,13,-59,-82,44,35,-194,37,-175,-59,-30,-137,-92,-19,92,69,-85,-3,-62,-91,-149,80,-137,109,-61,57
,-150,86,84,122,-127,-116,-89,115,-141,-136,6,79,131,-80,-12,-125,-79,-96,-91,-153,26,-55,-103,-34,25,-41,17,-52,8,20,89
,-70,-37,-100,-120,-33,17,126,27,56,-97,69,-93,0,0,111,-107,-96,8,-99,-111,-56,-123,-31,13,98,52,-12,-150,-60,3,19
,61,-46,112,89,-90,141,-55,-99,-70,-39,-18,-161,18,-117,-221,-41,-113,-17,49,-171,-129,-67,-78,69,33,24,67,48,-34,-43,-130
,-39,10,-141,-54,-37,45,-83,44,52,49,44,-127,-34,-42,-1,-131,-144,-166,-136,-192,-185,-145,2,-155,-25,19,-139,71,-207,-144,-55
,-19,45,49,38,-47,1,-48,64,-65,-69,3,-47,-82,-181,-97,37,-67,21,-221,98,121,4,127,-176,81,-61,-73,-111,-35,-148,-57
,134,86,-176,-122,-5,28,-44,70,-30,92,-162,-159,-88,-51,-41,4,-107,93,-28,-172,2,-97,114,-82,-193,-77,118,-83,-59,30,-69
,38,156,131,96,-21,-129,38,-358,-213,-181,-176,-442,8,10,90,-141,97,-73,-71,-101,-23,-56,114,-228,-65,43,26,-161,150,90,15
,-103,-37,101,53,-139,-6,59,-104,-64,-42,3,59,-119,71,-116,-24,20,-3,98,4,5,-50,-118,-63,33,147,-124,-87,53,49,-58
,87,100,41,-104,-95,35,-131,-124,-43,-171,56,-78,59,80,-154,1,-69,-119,30,3,-159,-64,-80,-14,-165,25,20,-162,51,43,26
,-35,-65,-70,21,-78,28,23,64,67,-135,22,-24,31,-174,18,-22,-91,-131,-65,-103,60,67,-102,108,97,-161,121,-50,-109,-160,44
,-22,-169,-320,-153,-24,-143,68,-180,16,6,33,-250,45,-226,-265,-102,-132,-120,-54,-136,46,-36,17,91,-13,-101,-167,105,-99,-19,-263
,-186,-122,-14,-95,58,2,-87,78,-154,-12,-92,19,-128,34,24,-70,-25,-79,23,-137,-41,106,-77,10,-177,-33,-206,-28,63,-147,79
,-25,-4,85,0,-103,112,-69,-70,4,-144,-48,17,17,42,-72,-24,-118,55,145,-105,-101,59,-29,20,-32,-141,-1,-15,-171,-40,58
,62,49,-144,-114,-190,-121,-58,104,69,-130,111,-170,44,-166,-29,35,-39,17,-146,25,17,27,-10,-82,-80,-157,28,-83,-23,39,111
,-204,-121,81,-53,-138,-50,-39,-163,-30,5,11,90,-8,45,-142,-156,-45,22,21,49,-91,-77,-40,10,-122,27,-83,-20,-130,70,42
,18,-7,96,-44,-1,-91,-38,-30,133,21,-59,-134,-7,-149,-139,93,137,-102,58,-130,-11,-77,25,-100,-92,-99,-38,-113,126,-69,27
,58,-266,-227,0,-1384,-196,59,-158,-144,100,-443,-178,-22,92,-474,56,206,291,277,318,127,-683,-208,123,-249,-110,-354,33,-196,212,-269
,-132,53,-218,57,-32,-182,-124,-54,-7,-135,74,-131,-15,10,-111,27,-98,-106,66,118,-19,64,-198,111,36,-136,-122,-20,41,19,-171
,-22,-105,-196,-171,-81,-258,55,114,67,25,18,94,-40,27,-3,31,-149,87,-149,52,74,-150,76,-198,-150,-30,14,-173,124,-19,20
,-53,98,-2,-43,5,-107,-151,65,82,-112,18,77,-174,-172,-117,101,-114,77,41,-124,-55,87,108,-118,-80,-89,-143,2,61,66,-152
,16,44,63,-144,-39,51,14,-32,-65,-110,-142,-173,4,-186,-5,27,68,-68,42,-20,-9,-84,53,-162,-141,-8,-165,18,-68,-97,-133
,-118,-173,65,55,-94,28,-109,-100,88,49,85,-169,20,49,-45,-180,21,-167,45,-18,-10,3,7,81,95,-114,16,-4,104,-168,-123
,-82,-154,63,-68,62,43,-12,50,-63,-34,94,49,-94,-175,-20,-160,-39,-128,89,-95,7,82,-20,-174,-145,108,105,-142,-97,6,59
,-99,-172,72,-37,-129,9,-21,-40,69,18,14,82,-9,56,-31,-52,-120,-7,-154,-23,-32,-151,22,81,100,-145,78,-144,82,-53,37
,-216,54,-13,-211,55,75,-61,-113,64,-33,-165,45,-158,-113,83,51,102,-103,42,-48,24,-48,-80,-10,58,-98,-119,75,-47,106,-96
,-100,91,90,-76,64,-78,1,-125,-4,-63,-114,-31,17,117,-128,-38,-19,-65,-127,61,-99,-90,33,93,-98,11,9,-15,-32,-41,-108
,96,-95,-63,13,50,-103,-41,-69,-18,-82,-89,52,-133,-55,115,22,-127,-114,-51,-49,48,71,-14,-64,-80,-104,63,113,-73,-30,126
,51,-118,-109,-142,51,-219,-137,-66,33,25,-11,32,62,-158,-104,6,66,51,-102,-18,67,37,-112,-50,-175,-64,53,-31,-117,-148,31
,30,-211,53,-125,-173,-182,-181,-21,25,65,-36,-177,35,83,59,59,-161,59,-57,-126,103,161,82,-2,-19,-134,-72,65,18,-65,-95
,-38,9,69,-137,82,-105,100,74,90,-75,-87,4,-128,-14,16,-65,24,-141,-76,-162,-82,59,1,-72,-34,-46,-110,36,-27,-50,-85
,120,18,52,51,6,104,70,-172,-65,-120,60,63,-150,-102,-138,39,-142,-69,68,-142,-75,-146,10,-168,72,130,38,-217,-63,-217,-123
,-134,88,-41,-176,31,27,-120,-171,-90,-101,-56,-40,-103,97,-2,-64,51,-96,-79,14,86,7,-26,-37,-132,-74,-2,-169,-89,85,49
,60,-123,18,30,-175,73,-42,76,-68,40,-65,29,-79,-54,-119,37,1,-164,51,72,-106,81,74,51,-52,-66,-36,-120,-79,-66,-34
,-105,16,94,-73,12,-89,-86,-90,108,-136,47,-122,-17,2,109,-19,49,-105,110,48,-87,-119,123,-104,-2,-73,-68,-51,21,-91,-133
,87,29,-186,-125,63,80,85,-31,-116,10,81,-144,51,-124,-280,-30,-2,43,-135,-215,26,80,7,-240,-95,11,-112,-259,45,-72,24
,-240,6,27,-215,-24,-162,8,79,-87,-201,-189,12,36,-1,50,7,-139,-155,-1,84,59,-47,-5,87,-28,98,-68,63,97,61,97
,-134,-132,30,-54,-60,96,-138,51,-123,68,-56,58,-26,-10,0,-140,-22,-57,17,-123,18,-39,-88,19,-77,-32,88,-177,33,-69,-17
,46,76,-31,-91,-84,-55,-118,-2,-129,77,-181,-146,-4,-156,-262,96,-81,-77,101,87,-147,-72,8,72,31,5,-49,-155,-113,-79,11
,-96,-57,-151,46,35,-97,-155,70,22,99,-76,26,-54,-1,-79,-177,4,-94,80,-71,-56,-25,-54,98,-67,-182,-98,58,-20,-102,-120
,-127,-117,14,35,-113,-92,-77,-32,-44,-19,-47,-72,45,-83,67,52,-69,-112,71,55,104,-38,-148,113,-68,18,-136,79,-69,-104,-143
,-149,83,107,-22,55,-223,-112,25,-101,-172,-132,-198,-47,9,-155,-107,10,38,-126,-47,-62,106,35,-95,51,-124,-159,-190,29,117,52
,-182,-15,-74,5,74,13,41,-116,-228,-25,-6,-138,48,-182,-237,-173,-98,-38,24,-140,87,-245,13,40,58,8,80,53,-175,-71,-109
,-124,-36,25,-123,9,-136,-86,-97,88,116,-5,-48,66,-98,-78,1,-109,-152,-97,-99,-112,-77,-75,106,-84,-83,107,77,0,-10,187
,-19,-82,-154,-24,68,24,-159,28,99,-128,23,-118,-65,-91,99,-7,9,-27,-18,-59,-83,-12,95,32,-179,-49,-53,-138,102,-83,-47
,26,-83,-134,-184,-27,16,67,-107,42,-47,47,-22,-118,-162,-106,55,86,-92,68,-134,-131,-155,-60,49,10,4,-73,-123,-114,-156,-15
,17,52,102,29,-37,-32,-110,52,-68,68,-57,36,-77,-169,-21,93,125,-37,-173,-126,-65,17,92,-73,-33,25,-91,-112,0,-165,11
,23,7,-6,-158,-13,-82,-178,-111,4,22,-28,-78,-99,-168,-66,-24,-33,46,81,-74,77,-66,139,57,-35,82,-39,-102,117,-33,110
,72,44,-353,149,44,-1234,188,6,-1019,183,-126,-401,106,-11,-37,202,167,150,131,252,-36,-489,-609,35,-172,42,-199,325,-77,-93,-117
,-32,-138,10,-39,-42,100,-15,2,-126,-86,-141,9,95,-40,6,-153,78,66,33,-101,60,33,101,-15,48,-171,-13,-173,-106,-43,-152
,28,80,-177,21,-3,-198,-124,60,49,82,85,-7,12,-14,-102,-20,-47,-1,-144,-131,-104,-29,8,36,-146,-134,-154,-205,69,-89,-125
,22,-84,-71,-146,4,44,-45,-148,-94,-69,-24,54,-24,20,58,70,40,8,-2,-128,16,-149,-10,-87,-154,33,30,-79,-119,-122,-105
,-82,79,48,4,9,-136,61,-24,-54,-60,-97,50,-112,3,-88,18,-190,26,74,23,67,-62,23,63,89,-23,-124,-202,-44,47,51
,-81,11,-67,-113,104,156,-180,-106,-309,36,-126,-145,-6,28,67,-288,-142,28,-50,-372,-65,89,56,-342,-61,117,97,-194,17,59,168
,-1,67,-119,4,-94,-71,14,-100,-101,11,143,12,-68,33,-128,-25,-89,2,-42,89,-13,59,-38,37,-117,-143,-134,-49,-16,-89,-128
,90,-90,-46,-96,50,36,38,-24,-106,-33,-91,-97,-171,81,-23,-181,-164,-153,-152,-107,21,-149,62,-167,-1,93,1,-99,-3,-138,-103
,65,-53,59,59,-69,59,-32,-173,-20,0,73,-74,109,77,-20,-185,-81,-49,46,-74,-156,-196,-147,74,-192,-107,-83,-166,-157,0,132
,51,-3,-213,267,-159,-309,-38,-8,-345,139,-28,-260,96,100,-337,50,-160,-15,-66,-59,-364,100,22,95,459,-124,25,-93,-235,-462,10
,-63,-19,75,-41,-101,-142,69,-185,-97,-9,75,-16,-133,-37,-121,-34,104,41,91,-125,-89,-136,-144,-168,20,107,-105,-55,-9,117,-21
,93,-125,1,-71,54,61,-168,-24,-18,105,-32,19,-61,-24,-90,-95,-80,9,-187,13,-58,-148,-5,-13,-176,-95,-174,-178,15,-14,-171
,-100,103,47,-124,-31,18,7,-93,-52,-122,-35,34,-44,98,-165,85,24,-116,56,51,25,88,2,-57,-30,-103,-86,-71,70,75,12
,67,4,9,-154,-55,-75,-80,49,-33,-121,-84,62,-113,-76,89,-139,33,76,78,-156,84,41,-55,69,-3,-17,-137,66,-34,-95,-158
,78,-65,-10,-9,-123,-35,107,-102,-121,-101,56,110,-145,33,-101,-21,-35,7,-68,-47,115,97,-142,-87,65,-87,-68,-105,-69,72,-2
,-23,-140,-56,-14,-8,-13,-129,88,-168,-98,-12,-123,-96,-79,73,-21,76,95,-185,-40,118,16,-26,15,74,66,-28,-104,-59,-100,7
,-139,25,114,32,81,-34,-10,-26,-46,-122,-127,17,-73,-88,-132,-66,-122,-111,128,45,48,14,87,-25,124,-29,-137,121,-54,1,-128
,107,17,20,77,47,-187,-27,-140,71,65,-50,-92,-81,5,-10,-138,-182,-9,40,-6,-36,6,23,109,-197,65,-147,-90,-169,-111,-19
,84,-194,-102,126,-72,-231,-18,-248,-30,25,-66,9,26,-163,-255,-141,96,63,-104,-188,62,112,73,60,-37,84,18,-119,-159,-203,-138
,-177,17,-130,-135,-9,78,-66,-63,-93,77,26,-13,-9,-112,5,-45,-48,47,53,-51,76,-26,-105,-158,-155,66,-176,70,-136,-153,-172
,60,-14,-72,80,-46,-179,-92,-118,-114,-6,-211,-65,-38,-1144,-92,-78,243,189,-86,112,-195,-249,208,146,-223,-219,-474,213,-505,150,-10
,73,108,122,-148,-166,-24,107,-29,30,-119,-156,-74,-7,-94,-68,-142,61,83,111,19,37,-126,-80,-15,55,-60,-109,-130,89,-134,-51
,-24,107,88,-44,-71,11,-57,-36,38,-173,-48,-136,-111,-164,11,21,-81,-65,-116,-157,-106,-164,29,77,-134,41,-52,-82,-4,-64,-102
,24,-164,-211,35,-168,10,-9,74,-126,-19,-212,0,-126,-155,-121,-105,34,62,-52,45,51,47,-83,89,-55,-14,-17,-143,-85,15,80
,-79,-163,-20,-54,112,-33,-178,26,-117,37,75,-120,89,-71,84,-95,-112,82,72,-1,-28,-129,-32,-40,17,-35,-132,-58,8,59,-128
,-130,72,-49,-4,-19,69,-82,-117,92,-113,52,-38,-106,-115,68,-130,-79,-39,-23,-92,-78,-135,-137,-171,-93,7,-122,-71,-144,11,11
,-14,34,11,29,-112,82,-108,9,-129,-93,69,-68,-137,-106,-28,-96,-101,-159,-33,-164,10,-112,-124,-149,-19,81,48,55,-36,-9,-30
,31,-87,29,-95,-209,20,-160,50,-47,-47,-35,-208,65,-153,-192,92,-131,0,-211,-101,13,8,-167,-76,24,-125,89,-181,81,-156,13
,33,-148,-33,46,-74,-175,-113,-31,-73,-4,55,-139,-142,7,57,-120,12,-127,57,58,-58,140,-56,-136,-59,32,134,10,-112,4,76
,-10,10,26,64,-188,62,-11,-155,-152,47,-208,-178,23,-19,-114,-58,-154,7,-225,-207,110,110,75,47,0,-108,4,-62,-26,-94,-181
,-81,-50,-64,-93,-26,-128,96,-135,35,19,64,-20,-136,54,105,97,-129,-129,-66,72,-22,-190,-67,70,-7,96,-63,1,-165,61,-86
,49,-97,-91,70,78,-19,-169,-4,84,-136,39,-69,-154,14,58,59,-98,82,79,1,-168,-24,99,27,-158,-162,-19,63,-189,-41,58
,36,250,-260,55,-213,-91,-119,-116,-63,-163,-127,-51,30,-658,-125,187,219,161,108,42,-180,-265,-677,-41,218,26,116,-6,-249,-232,252
,-186,-235,71,-214,-237,66,-219,-295,-190,-207,-270,-162,-89,-251,-102,10,111,244,262,-74,168,258,294,-36,208,303,333,-11,230,248,441
,4,-136,-20,-68,71,-115,-158,-81,37,-9,-40,-81,53,26,60,-12,-129,-113,71,-128,119,34,23,-116,19,-123,-48,-117,-154,121,61
,-122,4,-142,64,-46,16,2,121,119,-137,4,-44,-82,-111,-127,64,-138,-129,-80,-136,-27,-109,-134,-54,-82,123,-78,16,-20,4,75
,-181,42,25,77,43,-174,37,-207,-203,-166,-59,-95,22,76,9,-121,-169,52,57,27,-131,-50,90,12,-79,-68,4,28,-144,104,-112
,-17,-1,58,35,-86,-4,-109,63,8,-123,-76,-56,29,-105,-129,-132,-103,-95,-49,-90,-78,-116,-99,96,-139,-104,50,-26,-116,53,91
,54,33,-170,-146,67,8,-87,79,-19,-152,61,-66,-2,-24,-258,-96,9,118,75,20,-111,22,-81,-2,-90,-93,-91,53,-205,33,-4
,21,-1,-90,-87,91,96,-153,-209,-145,-115,105,-123,-70,-31,114,10,-33,56,32,-99,-83,-44,61,-95,-119,-40,75,107,116,-76,-33
,20,-121,30,-55,-65,-71,47,15,87,68,27,32,-77,-121,-111,-89,13,-141,-13,-73,57,-20,-2,-9,69,-84,-39,14,-41,-106,46
,58,-116,-89,-109,-154,-107,-111,-80,-167,89,-137,-131,-34,-77,-208,-8,28,-19,-97,-121,-77,-210,-97,99,-31,74,100,-87,-129,-132,-207
,-5,-171,65,-25,-149,56,-13,21,-110,-134,12,33,-136,-62,-128,-180,32,-102,68,5,-64,-47,-36,72,34,62,-89,-173,61,-123,-94
,-41,-313,-174,67,-120,-7,142,-236,-149,69,-207,-89,119,175,-278,-79,-67,161,-181,33,-53,-223,-61,9,-127,-131,-164,-89,-118,-23,22
,-125,1,-145,-140,4,-116,42,-105,-41,114,-37,-61,87,-138,-82,-6,9,104,-77,-6,-27,39,-189,-77,-46,-32,67,63,-120,57,-28
,111,-51,-78,-102,-74,71,79,-129,-71,-120,-15,-4,-103,-108,-319,-99,-85,-60,-160,71,-44,44,79,-131,43,101,-137,74,40,97,-17
,-81,-80,-54,-112,-90,-110,-143,20,-113,-132,138,-6,-141,-139,-126,-21,57,-35,126,-28,-2,-60,81,-140,-118,68,74,58,124,109,-15
,-46,-172,-36,-29,-114,59,-36,-22,89,65,-172,-55,64,-11,-106,19,-92,-102,6,-165,-74,93,-55,-16,-136,107,85,-36,-86,45,-59
,-41,-128,3,-60,117,128,-14,25,37,-135,-111,-39,-127,-84,-124,41,129,-35,-74,69,11,-58,-13,-54,100,-38,-144,-14,86,-103,59
,138,50,-376,101,-16,-85,141,190,-324,201,-77,-239,133,-29,-115,-84,-106,16,155,-105,-177,-175,-245,-159,-289,-65,-153,77,-323,109,-246
,-74,-26,-81,74,-68,70,22,-28,-29,-42,-210,-229,-108,-164,-163,74,-49,-156,32,-109,-113,47,85,45,-119,-17,0,-16,70,-20,34
,17,-105,-73,3,-99,-2,-5,-3,-160,-137,-10,47,-17,27,-55,130,-33,62,-53,-70,30,84,-3,-53,-139,7,-31,-153,-135,5,-116
,79,-1,16,-139,64,-168,-130,-154,-144,34,-63,104,26,-104,110,52,-41,52,-129,26,-27,-100,-71,28,-104,-37,-116,105,19,26,36
,35,-33,110,-7,59,4,1,-188,-54,-162,-6,-88,46,6,3,-72,-113,-115,40,-68,-28,39,52,-196,14,-4,-132,-138,-153,97,-24
,-122,63,-109,14,49,-9,-48,-67,-194,-107,-69,-77,-142,-83,-141,29,-69,45,-86,24,28,63,-130,-38,-79,12,-91,-29,6,45,91
,-48,62,-104,56,40,-49,-205,-112,9,67,59,-98,16,-37,-35,-97,-78,-124,-41,-88,-155,-125,16,-160,-189,-105,-15,-133,-160,-173,-154
,6,72,27,-112,64,-88,-212,-25,7,-69,70,-32,-20,-190,-189,80,-98,-129,-151,-132,92,50,94,-109,-106,-31,-18,-15,96,76,-4
,-79,-97,22,6,30,-69,-158,-13,-112,-108,101,-142,-158,-73,-71,-64,75,90,102,91,-150,30,0,23,33,-145,-10,52,-149,-88,13
,-4,-68,7,12,13,8,15,-21,-37,-76,33,2,-126,-225,-30,-28,-139,63,-35,-93,-136,-199,-21,46,-121,-129,-54,-137,25,36,1
,-118,8,-150,61,18,-54,-156,-147,64,77,-155,-163,-37,87,82,-7,-27,-48,6,75,-156,39,84,-195,62,-46,-13,71,91,-145,-102
,14,31,-43,37,-83,-125,-106,3,56,-36,3,-81,-116,-136,16,-37,-114,-45,-121,-33,51,-101,85,-105,1,60,-64,-88,-98,-93,12
,-17,-149,59,-203,68,-102,-49,42,9,-29,8,-56,28,80,-68,-197,42,-4,-184,-82,-14,-100,-143,-33,-108,-145,-31,-155,-63,-41,-160
,-32,-22,-41,81,-11,-73,80,-181,79,-105,-145,58,25,63,1,10,20,-6,-205,-113,89,-199,-209,-150,9,-110,-81,-15,72,-34,-161
,-28,-119,2,27,-64,-144,-127,-88,89,-88,-167,20,8,-79,-119,-37,-172,60,-43,102,-134,-129,45,-136,40,-166,44,32,-151,7,3
,-142,-195,-163,28,-89,-85,-55,101,75,69,108,37,-24,-153,-11,-158,-62,50,58,-33,-21,-115,-103,-145,31,92,-34,-153,50,-8,-115
,99,-47,57,-92,101,-136,102,-64,-134,-86,-139,61,-50,19,-163,-78,11,-160,-161,54,80,36,-128,-147,-153,114,-128,18,-145,-9,-60
,-120,-50,24,-150,-39,-106,36,-193,47,-18,83,-86,-163,11,-141,-16,25,64,-60,81,-146,-41,53,79,16,26,-88,-122,-112,63,45
,82,-40,65,-142,8,92,-104,-89,-7,-126,-8,-119,71,-97,94,-51,-29,-118,-4,-117,-126,-142,11,-68,-80,-58,104,62,-105,-30,38
,-51,86,64,-82,-175,51,-70,-136,94,-148,-85,-2,82,-15,20,-3,-139,-2,50,-137,-66,112,-80,-160,-66,45,-5,-146,-161,-78,110
,99,-21,93,61,73,71,-114,45,-117,-72,-37,-87,60,-82,-165,73,-147,89,-100,-11,-9,-24,-168,-9,-56,-143,-92,52,-125,-149,-57
,-380,-271,24,-168,-249,-130,-191,-266,-42,-95,-232,-168,-199,-257,119,-40,153,234,232,12,72,266,294,10,220,328,304,-98,262,290,441
,-88,15,128,-14,16,-85,-111,2,131,47,-87,-101,-19,-136,-137,52,-130,-122,135,-51,46,101,24,-92,-142,-69,-90,20,-71,-50,-117
,44,-11,-155,-105,-110,-124,61,-153,52,-46,-53,56,33,-16,61,-152,-171,-7,-22,-88,13,37,-43,19,-174,-158,13,1,51,-127,-58
,119,-105,-130,-59,-78,-94,82,-21,-125,-143,-3,-135,99,72,-21,-178,-185,-83,43,-69,26,-73,86,16,-86,39,-128,-197,7,-97,-153
,-141,60,-167,65,-58,-9,-178,79,-104,90,-30,-162,36,-14,-74,-76,37,-68,98,-101,-66,-90,-101,37,-192,47,-94,16,65,-155,4
,-105,-48,-59,70,-112,-7,44,-19,71,-3,-123,-93,-132,-33,-3,-6,98,-117,-34,96,45,18,-72,2,-3,-165,-26,-12,-86,54,-54
,-112,88,-41,86,33,-73,-126,-127,-59,69,-15,-133,-138,-128,1,81,-168,-41,54,-64,-135,-140,28,-108,102,-172,-97,6,11,73,-113
,34,-138,-5,-194,-26,23,-84,-122,23,17,-163,84,-58,-74,-139,129,-471,-1015,117,296,-428,-794,-166,232,-399,141,-473,316,-1418,302,177
,29,79,-14,9,64,-136,64,-61,94,-174,-99,-49,2,-11,4,52,-171,42,122,-177,-169,-122,-71,86,-152,83,-58,7,3,-112,-103
,27,7,-143,-29,-154,-15,-41,-61,131,-130,-37,-131,-136,45,-137,-31,-70,70,-89,-186,-65,-120,50,-36,19,-120,-111,27,59,67,-51
,-85,-108,-229,11,-56,-227,7,-286,-347,-13,-110,-86,58,-130,-21,-80,-89,105,-186,-86,9,164,133,-52,-69,145,24,-60,40,-30,-185
,-130,-13,101,-26,-136,-27,-72,-93,-73,-122,-88,5,51,59,-64,-128,-119,71,-53,73,114,155,74,116,-91,-167,55,8,30,-148,-131
,-164,-138,22,42,-119,-126,-123,-132,-131,-163,-158,138,-139,102,-115,-74,-43,55,-27,-86,63,-36,-3,109,-47,-72,-68,78,-132,62,40
,34,18,-142,-48,-49,64,2,-243,-222,-124,-114,-43,112,43,-177,-66,-80,-131,45,84,-36,-27,17,1,110,-113,-109,-171,-153,-44,169
,-173,81,58,-42,18,52,79,-19,-120,-163,-89,-131,-64,-7,92,-118,-67,137,105,-143,5,107,-110,-43,-139,-174,-55,108,-109,-10,56
,-63,-124,22,19,61,14,-150,70,-170,16,51,28,-15,-6,-196,-29,-160,48,-140,-85,-9,-136,71,-207,10,24,-84,-61,-211,28,-141
,132,-2,60,-23,123,-108,3,-142,-197,-75,-145,53,-112,6,14,-146,-143,16,-70,-18,89,27,-72,12,-21,-59,-111,-116,95,45,-56
,28,-130,-122,19,120,83,112,-70,-7,-141,-80,45,-51,2,-37,-69,27,-89,133,-89,-126,18,54,-80,22,-109,82,-50,-111,-38,-113
,-41,-42,8,52,55,-136,-53,-44,-132,-150,-69,-22,-126,99,-22,-35,36,75,-24,95,18,118,-98,-142,6,-136,-81,-88,-40,59,-81
,-81,-88,113,-22,-23,-149,-39,-10,-163,-124,3,-45,52,-74,144,48,-74,38,84,31,-95,-19,-104,109,84,-90,132,-111,-85,-88,-83
,-90,28,-4,47,-46,-277,-17,-177,-220,-107,51,-152,-78,-178,-169,-128,108,105,-110,43,-161,-107,12,-8,11,35,-28,-161,121,202,-123
,-107,116,126,73,-103,-88,-144,-138,-24,-27,-81,121,3,-81,-15,-90,-72,83,-92,-130,-113,-56,132,-28,-15,141,-10,-111,23,8,-47
,-106,-55,87,-56,-101,-200,-21,-12,48,115,63,-133,47,-76,-174,-170,-121,-14,64,21,90,-181,-102,-108,-213,58,-201,54,-63,-46,134
,63,-97,-30,-150,-86,36,21,62,-62,79,-128,92,-9,-165,-196,-80,21,32,49,-78,31,-159,-137,45,-157,42,-163,-178,84,46,74
,32,-77,16,-71,-224,-107,72,-14,-180,-98,-209,-135,-164,114,103,-51,-109,96,91,-171,54,-119,84,-63,117,19,-2,86,-105,-93,-118
,19,79,92,-124,-101,-34,80,107,64,-121,-41,-66,-90,-15,63,-62,-48,58,-155,-85,5,-38,0,-127,23,66,-96,62,-120,-37,-156
,-6,-163,36,-181,45,103,-23,18,-31,0,-138,-3,-171,-82,52,-137,76,2,2,-17,-102,-51,-30,57,-167,-56,-50,-114,-38,13,46
,-27,18,71,-32,42,92,-47,95,6,-109,-104,-81,-141,-197,-112,16,11,-87,97,118,125,-129,-91,-101,-79,-117,70,11,-56,97,-137
,53,-144,-112,107,-37,101,-155,-8,-67,-139,91,18,-126,-47,63,-112,-65,-166,37,-35,-96,-82,-115,-173,-60,-34,54,-17,22,-137,-25
,-153,-107,-14,-174,-184,20,-72,-26,-30,56,116,43,-59,12,-164,-73,-215,-116,45,74,-150,88,-46,82,12,-181,-10,-107,-103,90,-72
,19,-122,-106,-73,-116,-202,54,11,-152,11,-63,-176,-26,-21,92,-27,-117,22,-31,-63,99,-160,90,-72,-97,-215,-25,46,-52,62,-122
,-65,59,-167,99,-149,-241,92,-285,-153,120,-270,-257,63,-334,-159,-166,202,-86,-169,-192,-25,114,58,18,178,-19,85,66,-186,-405,-41
,-32,-96,-26,-157,-25,-33,51,-180,26,-135,18,-15,9,-4,-47,-118,-140,-93,-136,30,45,33,21,-32,-10,40,-87,-165,-17,22,-37
,49,-125,-87,-163,33,-87,-82,27,117,98,-130,-121,66,-10,-58,27,-3,-86,-51,-42,125,-121,-85,-42,-34,-108,-56,-109,-55,64,-8
,-137,-110,-82,-91,-94,-85,-35,61,-138,26,-27,-86,-94,-111,-140,-8,-16,104,35,91,-120,-103,-30,-127,95,-88,-46,-145,-10,7,-53
,53,66,-149,-101,38,62,-55,-20,72,-134,86,80,-161,-148,-145,39,-128,-101,-60,-100,-135,-43,-125,-119,15,51,60,87,75,83,-59
,-94,62,-44,-132,-100,-16,20,99,129,-44,-79,-74,28,-70,-36,108,-54,98,-68,-133,31,-60,-94,89,-133,-10,-56,-133,10,105,38
,-13,-184,-176,33,-71,-85,38,93,53,-83,-116,-251,-117,12,138,-86,123,-50,-90,96,-167,56,-49,-110,-28,-72,76,-148,-38,92,67
,-64,44,-140,-234,-54,10,-61,-146,76,-119,-10,-16,42,12,-108,-84,16,47,-39,-12,20,73,-128,-195,-95,60,38,52,-112,-11,49
,51,-333,-562,-164,-217,-219,-129,-355,-163,-116,-102,-72,-100,238,343,-62,93,-53,140,-6,231,76,206,-23,-27,243,314,-25,86,148,98
,-43,-68,-117,2,-22,-67,44,94,111,-99,-177,19,92,-133,-157,-132,-75,76,-204,-158,-94,-113,53,100,48,9,49,99,-57,-61,-11
,136,-31,76,-60,15,124,-98,-117,-94,-70,-93,119,-83,-60,-119,60,-144,-45,81,42,21,-97,49,-130,39,-149,-34,-31,53,6,-67
,-112,36,-12,-185,-180,-53,-171,33,-69,-124,-97,42,-1,96,62,-41,-123,-84,4,-74,-68,100,-37,-116,-129,60,-126,13,-137,85,-137
,-132,-157,54,30,-187,49,53,-159,-154,47,-114,40,-12,49,-34,107,25,-51,-155,-21,-132,129,-60,-137,87,112,-50,-115,-81,-121,109
,-75,94,14,8,-126,47,-101,-177,102,67,-28,-144,-34,-96,-45,-20,-53,59,-60,-197,-25,-81,-149,44,-68,-93,-79,-149,10,-83,-74
,-40,-8,44,-153,-79,-122,-50,21,-169,22,-122,-86,21,52,-33,-142,85,13,0,4,-1,24,-37,-49,-128,40,-82,-126,-2,54,82
,-41,86,-1,17,95,25,-23,24,77,-162,27,-37,-164,63,54,-177,-107,-59,39,66,10,-150,-114,-164,-29,-68,-68,-108,-137,-193,-81
,-170,-49,28,-38,-18,44,-26,29,-18,-201,22,-3,-203,65,31,55,95,18,-105,-77,38,-82,-91,-70,-73,73,112,109,-56,71,39
,3,-123,-24,58,-70,-51,-38,-28,28,-22,79,-38,-99,-50,128,-87,-140,36,-14,-42,-126,32,-42,35,-53,20,-104,-139,-55,-94,-98
,-134,-36,30,-93,-190,4,38,-52,-5,95,-21,56,-89,41,62,3,-128,115,93,-106,-148,-29,-103,2,-152,91,88,-162,32,-6,-45
,-72,101,145,84,-251,-399,84,-469,-598,140,-164,69,106,140,168,54,169,17,66,-230,-12,-33,-158,-152,3,191,99,-53,-34,160,131
,-56,-12,-152,3,21,-203,-108,-196,5,-71,1,-14,0,-1,101,-193,-170,22,-18,-5,-19,-150,-87,-21,-57,12,-120,26,-196,-78,83
,-17,-37,91,-156,70,-133,-180,-53,-4,6,82,-136,-17,-11,91,-103,-78,-95,-165,-96,-97,-141,76,82,-95,-88,-139,11,-54,-143,-94
,1,-153,65,27,-137,97,-171,-150,-28,-11,56,-83,-8,-21,-56,-103,-108,74,-157,-179,-51,-46,-60,-154,-62,-138,61,48,-119,69,116
,-161,-70,-14,-113,-70,-87,39,-124,47,37,-127,-94,-207,9,74,-147,69,-64,125,-169,-79,-95,-94,-169,45,118,0,-132,60,-63,-88
,26,7,-205,-35,-73,-15,-2,-76,-19,-41,40,-183,-85,-22,-46,48,-43,54,-147,-239,-56,126,-51,-137,-164,69,9,-143,56,-25,-111
,-136,0,-9,88,-169,-99,-69,-80,82,-160,-111,55,-155,-138,-60,-17,-141,98,108,-135,58,58,122,114,107,-136,48,39,22,75,-65
,-230,-283,-18,-321,-48,81,-225,-151,101,-305,-270,-47,-97,-261,36,-19,82,1,127,-131,-54,220,88,-172,67,175,238,17,145,106,294
,19,-107,81,-22,-63,-177,-168,-180,-34,25,-57,-75,-54,-106,122,84,-51,-63,-31,104,38,-111,97,52,26,-46,-46,-158,-165,-199,-43
,-141,66,241,53,-211,-427,106,-41,99,-9,-163,-216,66,-68,77,-41,-99,28,-61,-140,30,59,57,-233,-22,-167,22,-250,-45,86,151
,-56,-151,-150,-194,104,-101,34,79,62,79,-155,-59,-172,-27,-63,-106,-19,-28,-128,-41,-63,-238,-102,30,-43,5,70,-220,-3,-110,-12
,-18,82,-79,-32,96,-215,-154,-43,-70,20,-64,-39,113,2,-165,33,2,-21,122,-73,-91,17,-69,-99,-121,-36,-29,-30,25,-41,-28
,-117,-61,-85,-109,42,-160,-24,-81,53,-4,13,16,-8,-68,-178,-42,-40,-154,-68,8,-13,-83,22,-53,-8,59,-199,-6,-30,-115,-145
,-93,15,-110,-74,-41,-12,20,0,-172,-73,-4,87,-123,-114,-99,-9,-32,-99,-1,-36,-2,-77,41,-105,110,-134,11,87,-71,119,61
,-80,-91,34,-76,-54,-114,-88,-60,3,85,-146,114,113,24,113,62,-185,44,50,-103,-113,12,19,-3,-27,7,-45,-94,-93,58,-203
,244,63,97,174,-359,-827,121,137,-23,174,138,-61,188,130,-19,-77,-151,-160,-62,-115,-199,-21,-229,-134,-83,25,-44,-194,27,-147,-23
,-23,-139,-185,50,-132,91,-63,23,-41,-124,-50,42,-111,-85,-126,95,69,16,13,-47,53,-25,-57,-52,57,24,-23,46,53,19,-71
,51,-177,-86,53,-53,4,-80,5,-124,-99,-134,-26,-86,72,-212,-177,-25,49,18,49,-34,-176,-137,98,-72,-109,-110,-125,73,-101,46
,-59,-180,-3,92,-110,49,-105,15,-52,35,44,-87,43,29,-184,-175,48,-76,36,38,-99,-144,95,-28,24,-170,-56,-176,38,-169,104
,-79,79,24,-20,-45,51,-103,33,-15,40,-187,-147,-134,-50,-200,27,-100,-17,-3,-161,-65,-87,81,-134,-28,-53,-54,11,-58,-38,-85
,-35,104,95,-165,53,4,-36,-1,115,-108,-117,-145,-134,6,-42,22,31,83,-85,-157,-72,-72,-81,45,111,72,-60,13,80,73,-121
,-70,-96,51,32,-146,-29,-36,3,75,27,-115,95,-172,-127,-65,37,-89,-55,9,59,-133,-37,48,32,-26,48,-153,29,16,-151,-149
,40,-68,-53,-22,-24,-174,-142,-148,113,-152,-13,-147,-92,-1,19,86,-43,-116,-148,-58,71,-78,-70,-85,39,104,93,12,94,-38,5
,-72,-28,-39,87,-87,126,-143,-102,74,22,51,41,-11,-32,-94,-131,41,-139,-76,51,-83,0,142,-19,-72,-141,16,-141,-63,-128,109
,-151,64,52,-154,-175,-28,-50,-106,61,-55,53,-4,21,-71,38,-8,-156,85,-60,24,-16,-113,-107,-103,-18,-38,75,-138,-100,-156,-73
,-61,-162,-19,109,-98,9,81,-182,-47,-158,-102,104,-84,49,-1,-175,-4,104,-163,74,-137,0,65,-106,-99,-50,21,51,66,64,31
,26,33,-43,-108,15,94,-138,-111,-22,-103,-138,8,3,22,55,-175,-52,-111,-66,-133,-83,81,125,-72,85,-44,-1,-26,63,-54,-28
,-64,-94,-95,-66,19,-32,-129,83,-100,-50,-92,-143,38,38,-87,-162,-64,-114,23,-141,10,-13,86,-36,28,-92,8,-129,-52,-88,-73
,-78,-83,52,-48,87,-68,-116,-87,-92,85,24,38,-78,9,-46,-168,-176,-148,-44,-2,-155,-46,22,4,48,-12,-69,-87,-7,-182,-149
,-49,-212,-3,-175,52,-137,-64,-70,-14,-70,-113,-105,-106,-150,76,5,-90,24,42,99,-110,-23,7,-90,24,111,97,-13,110,76,46
,91,-22,-170,-7,-69,-10,187,132,-29,231,88,-20,124,39,-67,39,4,9,-1,12,4,-2,4,-68,-1,-1,3,-194,-4,-2,1
,-42,-93,-136,38,-21,-29,-81,-133,-48,-85,107,-34,-10,-122,-13,-62,-64,116,-92,111,-107,98,58,-51,-7,58,-93,54,-119,-12,-147
,-138,-110,87,58,-99,-101,-40,-108,-113,8,-24,-120,-155,-59,23,-159,-163,20,10,-99,-39,-2,106,-74,81,-39,-29,-81,-110,-57,-49
,-140,-22,-210,12,-117,-296,-71,-132,-151,7,68,22,-46,15,92,1,-115,35,-133,42,-71,19,118,-189,45,89,-63,-25,-142,-53,-18
,-75,116,127,-50,134,590,-32,-547,-673,24,-246,63,-167,56,-112,-51,-66,174,-217,-18,0,123,76,-63,-32,326,54,39,56,104,124
,-155,74,87,-107,-105,-141,-61,-17,95,48,65,-11,-119,-45,64,-165,-175,-144,-69,57,-54,-24,-19,-38,-117,84,78,-112,9,46,-116
,-71,-42,153,-128,-162,-160,20,-142,-262,55,-58,120,44,-20,18,-127,24,-96,119,-278,0,-12,7,-171,147,20,21,-378,67,-70,232
,-40,77,55,26,-61,-190,-171,-34,-156,-17,6,16,-4,-158,60,7,67,70,-163,-7,3,-186,98,-85,-101,-12,-47,48,34,66,-178
,20,-45,-36,-38,-68,-95,25,-16,-94,-182,29,-80,62,-47,-103,103,-57,-121,46,28,2,-256,61,-16,-107,-101,0,28,-67,-39,-88
,16,-153,100,3,-150,-11,-135,49,8,26,-173,-110,-4,46,-128,15,13,-14,8,23,-10,-21,-6,20,3,24,-38,3,-75,-7,-81
,-56,-15,-64,23,-14,-104,-50,-94,-105,-55,66,3,63,-166,46,-188,-95,-46,-78,-84,-40,-42,-60,-8,-13,-123,-19,-144,55,-16,80
,92,87,-167,11,23,-247,167,225,-367,164,218,-306,121,-149,-335,92,-77,92,-85,-164,-116,-55,-107,-81,-301,-104,116,36,-262,58,-115
,-15,-163,-74,-66,104,-143,-30,94,-12,-45,-120,34,30,50,-122,22,74,-113,-3,-16,-16,-24,-126,-57,0,-22,-86,-63,127,-51,-29
,-119,-61,84,-52,-57,-101,113,47,-133,-102,-112,-39,-145,-137,37,82,40,-2,-81,-148,-11,-70,-46,-89,73,4,-53,55,-110,-110,-58
,-86,6,-238,102,-76,-459,67,60,-145,140,15,275,-66,-191,-71,-11,26,-17,-38,-73,-81,118,-84,-275,9,11,80,-352,8,-206,-117
,-100,50,-156,106,-9,-15,-48,-22,-254,107,109,47,4,-201,-239,-209,-53,-41,26,-220,23,-29,-175,36,83,-54,-36,-113,59,-2,59
,-11,84,-91,84,94,-102,70,37,-148,19,45,-200,-146,-203,-199,62,-105,54,11,-163,-46,-204,-106,-188,-115,57,-45,-21,95,-106,-98
,-30,-74,-94,-136,-44,-76,-78,-143,-47,95,-119,41,-92,34,87,-177,-65,-98,-59,57,-33,-89,-144,-172,68,-118,83,-96,93,-93,117
,40,145,494,76,-63,101,-119,-292,361,-134,-399,-737,-16,90,-114,-180,-91,94,81,-36,-71,27,-43,-268,102,207,49,-92,85,-2,152
,14,97,-138,33,-92,109,-61,-95,-34,-97,-90,50,-138,135,-135,-13,-119,22,-102,-87,-16,-41,-26,65,-136,83,-30,-31,84,55,26
,-109,59,-45,-184,-36,-129,-64,-21,52,-128,36,39,-74,-117,-64,90,-55,-59,27,-109,71,-133,-157,-82,12,65,-102,-33,75,-18,-74
,-93,-29,114,51,-76,12,-112,-22,-101,62,-147,88,-126,50,27,108,-142,-130,24,121,-39,16,-16,-93,-153,-94,82,-108,35,-74,-6
,59,29,-75,-17,76,91,33,-137,-134,-49,-18,-75,95,35,-19,-55,-172,25,-170,-48,-173,-138,-158,-64,61,-57,-95,-159,-90,-152,-152
,-158,-58,-62,3,16,-127,-9,-166,-25,-83,-172,-163,-59,-75,-184,-67,71,-53,-87,34,62,-86,-137,84,13,124,88,83,-143,70,-49
,58,-194,83,-179,-172,-22,-120,72,103,-54,-14,-158,23,47,-178,-75,-95,-4,28,32,-110,48,-179,-176,-4,47,-118,-89,50,-59,-60
,-13,-93,69,-4,-37,3,-52,-16,-194,-110,-65,28,67,-56,52,-79,-59,-143,29,-39,-153,62,-36,-88,-130,-21,-72,-16,-14,96,-151
,-134,-106,97,104,29,-23,105,-69,-3,-96,26,-157,-37,-124,60,-175,-52,-136,-38,-85,1,-38,-50,-63,-129,72,-72,74,-143,40,-156
,-31,26,-132,-126,-107,25,-131,-105,41,22,94,-17,-97,-128,-131,138,52,-4,-95,98,-97,-92,-137,72,10,-12,56,-38,14,-76,30
,-193,-34,-45,66,-50,43,14,-154,-72,22,58,-121,-132,-154,106,-13,38,-92,-168,44,-93,-76,-160,11,-49,61,39,-167,38,-146,11
,64,105,-10,60,31,5,-37,-104,-137,-126,-91,-106,-146,89,-126,-65,32,-97,39,-18,71,-98,-26,20,-50,-50,-7,36,101,-136,-3
};

long bias_0_nvme0n1[1*256] = {
-90,-44,-31,-26,-32,-36,-34,-172,-29,-39,-87,-59,-54,-53,-27,-19,-24,79,-70,-12,-20,-28,-115,-33,-47,-14,-42,0,-56,-10,-8,-34,-83,-44,-11,-3,2,-41,-34,-75,-37,-26,-25,-61,-6,-160,-29,-25,-43,-93,-52,-16,-39,-94,-17,0,-38,-63,-39,-11,-37,-67,0,-21,-112,-33,-4,-45,-8,-35,-43,-20,-36,-56,-25,-82,-151,-31,-28,-56,14,-53,0,-41,-32,222,-56,-37,-17,-32,-19,-12,0,-23,5,-46,-102,-18,-31,-11,-31,-44,-37,-50,-47,-25,-32,-66,-75,-267,-15,0,-49,-32,-18,-10,0,-51,-39,32,-6,-27,0,-44,0,174,-58,-13,-27,-23,-56,-71,-71,-38,-100,-51,-39,-59,-48,-36,-33,-31,-29,-32,-30,-40,-277,0,-63,-5,-53,-32,-37,-86,-39,-50,-6,-8,-30,-24,-37,-60,-12,0,-21,-13,-23,0,-24,-39,-45,-21,-39,-23,-31,-32,-78,75,-81,-38,-32,-25,0,4,-100,24,-51,-6,-42,-27,-47,-78,-49,-112,0,-46,7,-100,-43,-44,-83,-40,-18,-282,-39,-22,-53,-20,-98,-12,-29,200,-3,-43,-46,-58,-27,-31,-23,0,-47,-20,-26,-47,-42,-102,136,-15,-32,-36,14,-34,-11,-42,-46,-20,-13,99,-15,-31,9,-6,-52,-2,-30,0,-44,-17,-34,-29,-56,-30,-39,0,-59,-12
};

long bias_1_nvme0n1[1*2] = {
673648,-306894
};

#endif
