
/* 30s_256k_200us.trace */

/**
 *  updated on 10/15/2022 05:42:13
 */

#ifndef __W_NVME0N1_H
#define __W_NVME0N1_H

char name_nvme0n1[] = "30s_256k_200us.trace/nvme0n1";

long weight_0_T_nvme0n1[256*31] = {
97,28,-130,97,-141,-29,175,-57,-197,-52,-35,-175,60,-29,-21,213,110,-18,-78,142,-80,29,16,282,47,-1,-140,-189,-119,7,-36
,87,6,-507,30,19,-376,529,-26,-69,-3,47,-51,363,-227,155,181,78,183,-368,-28,418,-103,21,216,-99,72,6,234,-155,-219,-331
,58,-109,-142,-11,-83,64,-127,44,-45,-160,-101,-80,131,109,-81,12,80,-127,-97,102,-32,-47,-84,132,98,31,-63,-19,88,-72,-84
,-552,-132,90,-411,196,-995,-366,88,-249,185,242,-137,362,-292,-89,-122,-123,-175,-255,-12,-89,-166,193,-138,153,-459,-351,-25,-76,89,-666
,-73,60,-35,-3,13,18,52,21,-147,-169,-204,-91,-162,-133,59,114,-135,-84,39,322,36,0,-79,307,-174,16,68,-44,37,-84,-5
,76,-65,-77,-131,2,42,-64,-162,-35,30,46,71,-205,-137,-93,-115,-66,103,-136,130,43,-65,75,-94,-177,-131,-22,-130,-35,-61,-84
,59,60,-4,170,-68,-42,-20,-215,-11,62,-56,47,41,33,-85,28,65,42,-10,-63,-47,-26,29,147,14,-143,-113,-198,-224,-118,-42
,-151,-1,-219,-74,43,31,58,89,34,-97,-86,18,-116,-59,-113,-179,-89,14,-227,-147,-153,-90,-120,-33,-139,-58,-173,-61,17,8,-59
,39,-380,-64,6,-385,-178,-265,55,163,220,-184,-407,160,-859,-187,11,349,276,-398,-2,-250,127,55,59,46,222,42,41,295,-170,-27
,362,-326,-223,392,60,31,263,100,-334,-1098,89,-658,-1139,254,-299,199,-168,131,-192,224,319,-60,-181,286,-306,-354,129,81,-232,-141,-34
,-87,-29,-68,21,112,-28,-148,-116,70,24,-125,34,74,-11,3,17,86,96,-159,-129,-129,-17,-76,-179,-181,-157,-173,-34,104,-51,-54
,-56,-42,-104,107,-42,-88,60,-89,-98,34,-117,-36,23,4,-127,-118,-21,32,-90,-118,83,16,-95,10,58,34,-98,-27,131,89,-42
,118,-315,49,145,-224,145,75,-273,90,159,112,-167,163,-429,76,-80,298,153,53,71,92,-160,-152,11,41,-93,-166,-86,122,-67,95
,65,45,-122,-141,56,-129,21,-131,-68,-107,-21,-37,-88,-120,-142,-118,13,-64,-10,-46,75,-120,-32,107,84,-21,-82,106,-30,-6,-131
,-200,-42,46,53,37,-14,-192,18,-41,-179,-62,-90,91,20,-13,140,21,-90,-125,19,-191,-28,-17,-97,3,-136,-105,99,72,-54,-6
,-96,32,-139,-165,-162,-65,14,-108,17,-98,-16,-57,-147,-62,15,-20,-65,-94,49,132,-90,87,-105,89,-4,8,-96,63,114,47,-164
,35,-112,-20,-3,-118,-128,82,-138,-90,-66,-49,-143,61,-83,-74,-46,105,70,-140,-137,-83,-114,-55,29,134,-107,105,27,-3,8,-37
,-36,-169,67,39,-117,79,-32,56,-14,-55,-86,-55,126,-154,-107,-245,99,35,-122,-202,106,40,37,-30,55,-73,-182,-107,-109,-63,-123
,-443,-95,65,-182,-214,-46,-295,119,51,36,4,-78,89,-460,-134,-126,-270,-82,38,74,53,-411,80,60,-167,-4,16,-54,-13,-19,-112
,-8,61,-42,110,50,-27,-177,-95,-202,38,-146,-207,1,-107,88,53,125,22,-103,95,-58,-22,-22,125,-67,-206,-3,-3,23,-92,-66
,311,72,-35,-181,-177,77,78,264,65,136,-265,-612,-65,122,225,95,333,-697,-221,101,-895,-28,-208,255,-177,25,-531,-40,-354,-447,-139
,14,-251,-23,197,100,-59,-237,49,-59,59,-100,74,173,-58,-10,323,86,-317,-43,159,-118,-124,-235,310,44,-445,7,354,71,-222,10
,-283,-195,106,-265,-96,213,398,-382,-223,-112,90,-126,223,-95,-154,-35,-43,-97,-109,-113,29,52,-112,17,211,104,-6,-108,-253,47,-43
,59,-12,-18,43,61,-4,-115,-21,-17,2,-42,-12,51,1,4,-83,40,-35,-29,-359,142,-111,-6,-413,-88,-38,-9,2,29,-19,-23
,18,-29,-71,83,32,19,-69,-56,-49,-145,-6,-67,-141,-84,-97,-19,-42,43,-116,-4,35,-93,2,39,19,27,15,193,-42,-88,12
,-134,-39,-3,-118,-128,42,-147,19,28,120,-6,-65,-65,-65,-90,72,-197,-37,39,-50,-59,15,-58,20,-172,-38,27,-128,-185,-90,76
,-125,-28,2,-116,6,-39,-138,7,-34,-47,-115,-83,18,1,31,75,55,-38,31,250,-149,-18,11,221,-135,-13,-9,24,107,30,-47
,35,-184,-7,-59,-54,-196,213,-354,93,-451,-240,228,284,-109,-386,-114,32,146,11,48,-7,-11,-298,-295,-19,25,105,114,-60,-30,111
,-90,10,-206,322,-124,122,-152,32,-9,-280,2,-171,101,-21,-204,-37,-157,-91,-62,-244,-42,-28,-311,-17,-201,-192,-246,5,132,-73,101
,-88,-85,-120,-64,-34,-39,-113,-169,35,61,-50,-67,-39,-171,-18,-34,-147,-103,90,-99,-130,102,-60,136,-150,-133,-12,0,-23,-52,-56
,-1162,340,-322,-271,-46,47,142,-320,-120,-959,105,-39,341,-1019,-417,-69,318,182,4,24,279,17,-127,25,450,-408,-16,33,-22,-151,7
,108,-101,-264,-213,-27,124,224,77,113,33,40,-181,225,-77,-243,-59,72,-45,-340,150,-15,-107,-183,-110,-166,-32,-179,239,-209,-52,-201
,-688,-9,-404,147,-221,-518,-319,-573,232,-610,68,-183,146,-284,116,101,-278,-67,-41,-28,-587,60,207,107,-283,-83,-687,30,340,64,161
,-211,85,-211,217,-197,-10,-2,37,28,-114,26,-369,413,-92,208,-32,-117,22,131,-101,58,-170,-129,-60,-38,-88,-147,1,58,-144,-231
,20,94,-165,-118,59,98,140,-414,-58,274,212,28,151,-458,-50,32,337,-301,-230,76,65,-409,-70,-45,103,6,-118,302,-70,5,118
,172,99,-109,-51,-88,-126,142,-76,9,246,-32,-89,54,-80,-18,90,187,-48,67,-115,14,-216,-152,141,29,54,-43,-120,-126,-195,-39
,292,-20,-70,317,-93,82,-64,-92,-186,77,27,-223,-49,-539,-10,234,220,-63,162,134,-212,-133,182,47,313,-476,-18,216,109,-329,257
,-104,-108,28,-131,11,78,-160,51,7,90,-28,42,-91,-19,-79,134,-61,-116,-50,-18,-76,-54,-181,0,-116,-49,-84,-142,-154,-34,-168
,283,-33,-76,23,-3,-11,-184,-161,-133,-38,-7,51,15,8,-116,341,-145,-273,4,46,-95,-68,-85,-92,117,-130,38,-153,24,-164,-28
,-114,-76,-56,-12,7,-113,-11,-27,-30,45,-86,-82,106,-35,31,22,62,-25,-76,-181,-188,9,-40,-151,-156,-8,38,175,36,19,-149
,37,-70,-9,-46,-118,35,-23,-13,207,69,-101,146,170,-524,-244,104,287,103,-140,-203,-50,-21,-131,122,262,-236,23,80,664,-210,-265
,182,232,-68,86,86,84,94,-67,-500,29,-176,-64,144,-573,-285,325,28,145,-402,208,-9,53,269,126,229,-144,-43,157,-22,-51,-24
,-30,-140,63,56,-135,-160,86,-149,40,-19,-74,-92,-91,-162,-149,-57,-102,-74,-13,34,110,-115,-73,15,107,-33,-10,114,-37,-153,4
,586,-133,-58,102,49,55,-32,-136,109,-138,-185,33,-120,-405,-56,260,71,-106,77,171,-260,113,133,21,404,168,-156,21,-2,-200,-176
,99,-130,-18,88,-106,43,-117,74,1,59,-110,5,138,81,-72,23,-61,-22,64,-25,-93,-12,-154,-76,80,-28,-140,-65,-120,-163,-147
,202,59,-50,-109,-2,-92,66,10,6,-25,35,27,-2,-88,-14,2,-55,-60,34,196,8,-62,-33,137,-21,-115,-54,-224,-200,19,-6
,-31,86,82,148,-84,-296,-10,-280,-47,-694,132,87,255,-257,34,-135,-93,167,-127,98,-201,94,-224,-69,-68,202,-273,-38,-70,102,-423
,341,-311,39,-222,147,9,296,-283,-72,326,-336,101,269,-107,181,-117,-201,-391,-278,-7,-301,131,-24,-141,68,-229,16,36,-29,239,-108
,-941,157,144,-343,-205,190,486,62,14,-181,-26,-362,791,-863,-18,141,-440,-213,-33,108,19,-69,182,95,183,74,-307,160,75,-299,-211
,147,45,-3,91,-61,-57,51,-199,30,148,-170,-119,-2,64,-103,-14,-168,-13,-196,172,-132,-63,14,65,-22,7,13,144,109,-40,-119
,43,-289,133,114,-270,28,-154,-174,-83,-175,-98,72,248,-73,-27,103,29,-121,105,14,-67,-213,-135,105,122,-71,-50,-12,-207,14,-19
,-64,20,-91,44,-250,-56,-255,-141,-2,-15,-89,52,-250,135,11,-92,-72,-98,-172,85,-167,-24,-29,127,-138,-130,-100,212,-16,83,-66
,61,-7,39,-224,-78,-161,-199,-60,23,-150,15,-133,154,-13,-108,67,-185,-94,15,-134,-29,-12,-19,-105,-53,-25,-30,121,-60,-14,31
,-126,-61,-148,57,-139,-120,-62,15,26,-15,37,-30,-95,37,-10,-34,15,-199,-4,-121,24,43,21,-83,-84,-69,-33,96,-149,-125,-8
,332,-273,159,-226,120,-72,303,-218,157,335,-132,112,478,-924,123,-238,-170,127,-612,-203,-106,30,-106,-201,162,6,-20,-233,-894,-11,-53
,-110,68,-97,-263,7,-26,-110,-12,-82,-25,50,-30,61,-131,36,265,-197,-76,13,243,-66,-4,-60,224,-97,-28,16,274,-116,2,-40
,-34,68,-40,22,-29,-41,-67,-25,57,35,-45,-68,47,-20,-108,154,-26,-99,-57,131,-172,59,6,25,0,-83,-77,-13,-51,-76,-34
,-37,-109,90,-110,-143,-16,50,123,-194,-255,-177,-48,291,-225,-215,-82,-637,161,-24,-38,-18,-258,-91,-109,-978,174,-343,-54,288,117,-209
,-103,-22,-259,242,-29,-111,-71,-11,61,-52,-107,-35,-180,2,-170,-60,-290,222,-146,172,96,-4,-13,286,-91,-135,-181,-16,-138,-9,-328
,-342,-334,174,-331,-201,-119,5,144,83,514,60,109,-94,-96,-402,117,-527,-3,-172,19,-36,-343,114,56,130,-116,-246,54,-98,-100,-289
,-68,-12,-86,84,-46,-90,-139,-67,-126,-71,112,-133,126,48,-78,108,-20,-21,-123,-12,-24,-102,-36,-15,-148,-23,73,-55,62,-176,-31
,-20,-55,16,-116,-129,55,11,-174,-59,36,26,-21,-117,-70,37,-135,-156,54,-96,144,-33,15,48,127,-62,-133,-154,-103,113,-36,30
,-26,-62,74,-90,-49,-179,-13,-217,-49,6,13,-61,-45,-130,-120,92,10,70,64,114,58,40,-12,57,-75,-117,-26,-39,-128,70,-148
,276,-258,-548,-138,67,114,-103,143,4,-232,91,31,225,-556,-23,-35,356,-421,119,27,81,-606,-6,-166,53,-133,-159,40,134,-311,-135
,0,-10,-6,40,-76,-3,-81,-94,48,-117,-16,27,-33,-77,-31,60,59,36,27,-117,-46,-6,-93,-107,64,7,-48,31,-133,-107,-71
,-83,-144,4,-49,-143,-90,-115,4,-135,98,-12,48,20,-23,-56,-134,-74,-25,74,138,-156,-102,89,54,79,-47,-73,-70,-138,16,43
,-194,-169,-223,-170,64,-101,-70,-148,-44,171,-31,52,22,37,72,-46,-187,51,-22,55,-69,-142,-270,-128,98,-394,-8,33,87,80,-191
,268,-383,-248,467,-98,-134,-37,-43,106,460,-10,-273,73,-326,20,40,287,197,148,-40,-98,111,17,-172,304,185,-389,-33,37,-4,-120
,45,49,-32,33,-101,53,85,23,-30,-52,-79,38,55,-5,-6,-25,-203,-4,-96,216,-15,-169,-129,-47,7,-74,-18,139,48,-81,-11
,46,117,-167,-117,36,-31,135,-255,-169,3,-164,-10,97,78,-41,137,25,-21,22,-55,88,-200,-8,-94,179,-81,-99,67,-69,-147,-105
,282,-275,180,-410,-266,-59,-190,-31,-313,-314,-30,-265,-287,20,103,85,-117,-126,-213,61,147,129,56,98,-66,-595,-503,79,-667,158,89
,-190,-22,-19,-245,114,-228,159,-11,71,-173,10,-23,-105,-40,-240,-49,-30,-64,-194,-118,75,-78,-111,45,29,-79,-182,25,-28,-58,-108
,-43,36,-2,141,15,-109,78,13,-42,107,-188,-22,-33,-54,-146,68,-85,-3,41,57,42,-21,68,-71,-89,-175,-118,-27,-89,-70,-52
,84,61,-24,-130,-95,73,-27,43,-53,194,86,6,203,13,-35,27,50,-35,-69,271,-82,27,37,371,-108,-73,20,-123,21,37,-44
,224,-160,-226,326,21,20,218,143,-236,341,4,-97,-109,-287,32,94,-132,-132,-243,51,-241,-158,184,125,435,-212,-140,33,-26,-232,-92
,-38,-56,5,-130,-178,8,-17,81,-27,-128,-126,-142,71,90,53,122,22,-1,-34,-26,-157,-121,-136,64,-165,-64,18,77,24,-108,-110
,-118,-34,4,-128,-129,-137,-198,21,-133,-69,51,49,179,51,-94,-132,13,-105,-78,68,-82,15,-4,-87,-200,13,-233,67,-9,79,-178
,59,-72,-43,170,-117,-114,-5,32,34,20,-120,-112,-82,-124,-10,-57,42,33,-50,25,-17,-201,-7,-186,-206,138,8,-110,-18,-64,-24
,-356,73,-359,-9,-156,-276,77,-522,-79,301,-68,65,-130,-31,-341,-28,-691,153,-315,110,241,-534,82,-141,97,132,124,-84,-24,-78,103
,-770,66,-65,430,-314,68,-81,-140,-132,86,25,39,577,38,110,24,-487,-818,-401,-38,96,238,151,43,-246,-1339,-249,-23,-113,32,-268
,-88,-25,-175,-78,-76,3,-170,33,8,-55,-100,-75,0,-90,-100,133,111,-69,-19,-32,-159,110,56,12,-80,-97,-64,-62,-26,2,21
,79,-88,-135,22,-3,-30,-145,48,12,16,-71,-63,-118,-69,-83,-63,11,115,-64,200,-2,32,-157,58,-112,-85,-6,96,-67,-140,-87
,-773,-111,222,-536,157,-228,412,-405,-247,450,50,-133,-719,290,-348,-217,-84,-133,-274,21,-89,-86,-328,-4,198,118,-124,137,-264,-536,-49
,-37,-88,-41,-143,-10,-106,54,-68,-53,-13,95,-140,-48,-138,56,-118,-76,-114,-54,8,119,-108,-57,-126,24,-54,-22,108,-99,-15,-26
,-133,24,-50,-22,-173,51,15,-39,46,-138,-126,-175,-74,-110,-18,-29,47,-112,-62,-94,-100,-85,-54,-159,-92,4,63,161,-39,53,-21
,127,-7,148,-124,-95,-225,140,-354,137,-365,-228,-10,256,-97,-471,11,221,87,-79,36,188,-4,-111,-201,61,65,104,59,-34,-46,39
,-330,68,57,476,-238,-33,80,-262,23,-182,-21,-70,187,-136,157,-113,52,-42,-99,-29,94,-158,-122,-85,-32,38,62,-52,-114,-109,-166
,52,-93,-164,37,9,-138,332,-21,159,197,-366,86,-369,-241,41,-127,53,-18,-35,18,-94,99,97,-19,-201,-67,-166,20,-35,159,-349
,-292,-124,-114,-140,-111,-4,-233,-131,-27,-229,-89,-24,1356,1,-55,-190,439,30,-54,46,369,-9,-39,-159,454,61,31,-247,379,-18,-66
,44,-49,-266,53,-188,-181,214,6,-17,162,-60,-174,159,-70,38,30,-202,80,95,7,-156,90,-144,28,-34,45,-153,109,-126,-65,46
,374,195,13,192,-473,-163,-156,17,45,-203,-222,152,1082,285,-79,-338,12,-337,-206,-105,-405,-111,20,-217,-214,39,-102,-91,210,-115,-142
,257,-21,-301,-8,78,-293,205,-38,-50,98,-302,124,228,-383,-121,-28,-78,-42,-166,81,97,9,136,-16,62,-124,147,169,-249,286,-347
,-174,-106,-63,-176,-10,17,14,18,9,183,-19,-124,209,23,-72,-113,94,-252,62,123,-27,-69,-68,-9,-201,-110,39,46,-68,-26,-109
,40,265,127,-133,42,-152,-2,-136,-124,125,-49,116,510,-81,-349,-100,105,13,-245,67,-176,23,-213,20,-200,-25,-227,-159,-263,195,-201
,-97,-177,221,-216,1,-159,694,-252,-34,100,-251,-57,139,-315,-123,-3,-227,169,128,-183,72,-19,85,-122,289,-181,-156,11,-157,277,-109
,261,24,124,122,-327,83,98,-79,129,251,-183,-340,-198,-430,-140,-142,-453,170,62,336,-17,-32,109,54,-145,123,-157,64,-19,168,-88
,209,0,-134,-25,-179,16,-182,-149,-71,116,-62,-20,152,-140,26,-69,-108,-20,-150,13,106,29,-111,100,-82,-115,28,85,-88,17,7
,-773,-165,174,293,-270,144,268,118,-62,-8,51,-411,321,-142,-114,-43,-454,205,-250,-135,-169,84,-1855,-37,0,-318,-322,-161,502,133,-5
,-258,-164,-67,-70,-210,8,50,-262,118,138,18,-1,-146,-195,98,-100,76,-211,-106,92,-115,-116,-109,-70,110,4,17,-59,1,38,50
,-110,117,-134,84,-480,-127,-108,4,149,143,50,64,188,-517,-452,-38,2,-62,-472,84,112,-298,78,68,156,-404,-190,-60,49,174,-57
,287,-175,-63,324,-157,24,-156,6,-297,119,-306,-408,195,-19,-219,-132,83,143,53,-28,11,-14,139,-137,142,-237,168,-137,193,-168,-38
,72,-91,59,115,4,6,-79,1,-153,-169,-130,20,-144,-136,30,-90,70,-145,-164,-147,23,-43,38,-68,-151,-160,20,-108,-169,-17,-86
,279,-346,192,-424,-25,-888,-993,-238,231,-265,104,-305,295,-540,-66,49,-13,-142,-153,-84,-167,-86,64,73,-426,282,-208,-60,32,-152,50
,5,43,-150,97,-102,-110,-14,72,-20,82,-23,-149,40,-60,-73,37,-37,-182,31,48,-121,-76,-31,-199,79,49,13,66,-31,-77,21
,-265,-459,-107,-266,-265,-322,255,171,-527,325,-140,-661,-392,-39,230,40,-144,137,-504,-106,-191,9,-99,-106,-55,112,63,-54,-87,-320,239
,159,122,51,-122,-131,-167,-92,-4,-175,-184,-66,162,267,-292,-312,-26,174,-103,5,-185,125,-144,-79,-32,7,-58,166,57,-306,199,-179
,210,-54,-7,196,-206,-153,132,-336,-153,-94,52,-7,87,33,-311,-3,-38,65,86,-183,-210,93,-278,-146,-201,92,-73,77,-62,79,-353
,-90,-26,-78,77,-203,211,-52,-389,-213,592,-66,-1127,-626,168,-19,-135,-457,64,-124,-52,545,-677,-50,4,-444,71,271,79,301,-254,-143
,-95,-48,-257,-18,26,-194,299,-24,-134,57,-51,-28,226,-68,-35,11,-92,-75,-27,-160,-33,-78,39,178,-83,-8,23,98,-16,68,-58
,-126,28,-59,-119,15,-4,-122,-58,-130,-42,-124,-138,-97,-125,15,66,-130,56,-76,45,-102,2,-104,131,-101,-63,36,-10,-38,14,9
,-109,-39,-6,124,-188,-75,198,-161,-90,196,29,-3,83,11,-18,104,-37,12,-106,163,-13,-174,-203,142,-71,29,17,-2,-131,-142,-8
,-46,-9,-56,78,-151,-15,-121,-124,55,173,40,-98,-84,-65,-9,-92,-155,-12,-12,-224,81,69,-119,-72,-83,45,-100,73,-50,-98,-189
,-665,-10,-259,-71,103,-164,-430,126,-163,-787,-97,-136,79,-1109,-203,127,-142,306,73,-112,-137,-742,322,-70,-384,8,-87,91,-230,-78,-83
,-19,11,-84,-109,-49,-130,78,86,4,98,-28,29,-16,30,11,-72,6,-3,11,-405,-70,22,34,-150,-91,-54,-91,41,79,3,44
,-1036,161,-3,38,-300,218,-866,-254,-426,-287,-38,265,164,-1178,-93,-46,-218,90,-175,134,311,-89,124,-114,-324,12,-34,-131,-12,-66,-246
,56,29,80,160,-29,0,60,-115,-41,34,-22,-99,-133,-118,-115,-1,135,-163,-31,-20,-55,-190,-53,67,87,-44,8,49,-102,-30,-146
,227,-79,-152,152,53,1,-175,-135,-139,29,85,-142,65,-152,59,148,-110,47,-33,16,24,-68,-53,103,14,27,-202,198,-147,-133,-148
,91,-316,-188,181,69,-279,179,-273,-129,-6,-161,161,271,-130,190,9,63,-111,-233,-168,-4,-200,38,-51,76,229,61,52,-57,-34,-117
,-118,13,-150,-31,-76,81,37,-190,-16,78,57,-10,-37,-37,102,68,-66,-102,-55,-45,-134,-80,-112,-75,-37,-86,-139,126,-45,-159,69
,47,-205,-69,195,1,60,206,-250,72,-43,-81,-22,188,-54,-120,52,65,-135,17,60,-214,-62,84,-134,65,-125,14,95,-76,-125,-241
,47,-205,45,81,-110,23,14,-56,-15,-128,33,-72,155,57,82,-17,-97,-16,-137,16,-156,15,-117,192,-179,-64,3,-92,60,44,-91
,-256,70,-56,-889,-87,203,92,-292,58,63,77,95,246,-1262,-165,32,-300,-272,-528,-61,-342,-103,-45,54,-247,-129,351,53,-395,186,-59
,-755,-51,-488,139,-281,-320,-41,156,-328,-90,-141,-75,-67,120,-569,330,-289,-161,125,291,-316,-489,-49,235,83,101,101,54,-90,-122,307
,4,-121,87,-278,-52,-115,306,-24,82,51,-133,-6,28,17,-159,-150,49,-122,-82,68,33,23,-225,0,-88,-225,-41,-189,139,-152,53
,-16,-26,71,-16,-41,-2,11,5,-48,64,12,45,83,65,79,-9,-140,-60,44,369,-20,-21,-29,183,-14,-67,64,-150,15,-54,9
,-390,-120,-149,411,-169,46,-31,35,9,-133,63,-195,186,-57,-15,233,-110,-200,-109,-22,15,-53,-280,7,257,141,-10,147,-48,-213,-102
,-434,-20,90,191,-491,155,-118,-63,155,-225,59,126,351,-313,-282,33,-46,-614,-98,-132,-84,18,-349,-257,-26,-128,-206,-171,49,-226,169
,-159,15,-42,-20,-100,-119,-44,14,55,-55,2,-190,-118,44,-113,35,-48,26,-147,-123,-31,-111,3,-118,60,-79,-3,-79,125,-66,-71
,-40,10,26,24,-71,61,17,-7,3,124,30,-17,192,72,-36,115,119,18,-34,191,-95,32,-18,400,-23,-47,-27,-211,72,-16,5
,137,-86,-19,-116,36,11,-65,51,-39,3,-191,-59,85,-156,31,76,-151,-203,56,77,-68,-168,-125,47,-32,-110,-81,-61,-23,63,101
,-290,31,177,57,-180,3,227,-370,9,114,-159,-88,199,-53,159,36,-214,149,-47,18,-73,-258,-61,25,32,-206,16,2,-158,-350,-40
,348,28,7,136,74,-16,270,-299,-215,334,-94,-30,-42,-138,-167,-132,116,-95,-22,-41,-182,-286,-11,-201,-39,-4,-31,-8,317,-13,64
,-65,-118,89,96,-66,-7,-108,-111,-148,123,-45,-4,-17,-77,-32,-59,35,-51,-82,-98,-25,-68,-15,-8,-132,-28,28,11,-152,-158,109
,-128,-228,97,41,-271,-60,111,-178,-80,213,-70,-157,250,-8,-43,265,74,-64,9,298,-6,25,-105,127,-87,30,9,220,-191,-67,-87
,-351,-65,-133,27,-63,-268,38,95,4,-126,117,-45,232,-96,-7,-16,57,-14,-237,168,-75,73,-38,168,111,-315,-118,112,-41,-365,30
,25,-13,57,103,22,-124,44,-36,39,-111,-130,-101,117,-126,-36,26,-128,-31,-41,-94,-151,21,-47,0,-61,-19,48,-152,-54,-122,49
,-85,23,-15,73,-13,47,64,41,37,59,-205,-83,126,-33,25,43,-25,-157,-29,-58,-43,-89,-96,-141,8,-80,-102,-137,-131,-25,44
,-780,263,208,-495,160,-259,-141,-129,10,-316,-484,5,561,-19,118,110,259,105,-65,-14,-189,-510,32,-111,-548,-81,-186,-16,-98,-1269,-404
,-1420,-33,128,-541,96,203,-704,-300,-271,-431,-36,24,530,-547,-328,-99,-235,31,166,-55,-173,26,-710,-120,-474,-111,148,-145,-543,-208,61
,50,-36,-58,-59,-101,-125,-139,-110,-12,-78,70,-52,114,-61,-99,93,-97,-2,-117,139,-40,41,93,-80,116,-133,28,-86,-138,-8,-37
,-462,-295,-134,-275,93,-665,-735,-68,-112,665,139,-214,832,-39,-284,87,-466,65,-115,57,-65,-8,122,19,232,10,-242,-167,256,212,-124
,-153,-69,-166,-120,21,-88,14,-120,33,-202,-103,87,-60,-87,-172,-139,-102,93,82,51,-194,-126,-244,-91,17,-77,-16,129,-136,-37,40
,-56,-119,0,26,-184,-58,-196,-10,-127,104,48,-23,-15,-206,-46,-57,80,46,-75,-65,-21,41,-142,81,-94,-61,81,31,-107,17,44
,-630,-164,197,211,-338,-252,-506,16,37,519,45,-181,-469,28,-338,-80,-239,135,98,30,-153,-413,171,-25,128,-453,-565,10,238,-734,-76
,7,-117,139,0,-3,-144,280,2,-145,297,-99,93,129,-307,79,144,-159,108,-398,89,118,-41,-220,121,-290,147,-47,4,177,-25,-160
,-102,47,52,52,-128,-96,-35,-40,98,-37,-125,-145,-42,-143,-2,31,42,-20,6,100,-79,1,-139,123,-130,-69,31,88,-123,-99,-37
,-81,-2,63,-98,-108,1,-103,31,-72,10,-140,-9,-17,-105,-50,-120,66,-95,-168,-8,55,75,-73,-149,-78,47,12,92,-145,-32,-33
,42,-341,-105,284,-17,-76,165,-135,93,-305,49,72,72,-169,13,-92,101,-18,-149,-59,-71,95,-138,-256,-181,108,-152,114,-232,99,-94
,87,-126,-94,116,-82,-114,84,35,-12,-53,-128,-132,40,44,75,-50,-105,-148,2,-144,-110,33,-53,84,-17,-13,102,70,-114,-138,-86
,-213,-190,75,-1120,15,-317,-267,-241,-128,183,-194,65,-825,100,-132,-52,-429,6,-260,94,-30,144,-191,32,619,149,-94,-13,489,319,-626
,-90,50,26,121,37,4,-53,-188,-119,-32,-75,-74,61,-212,-33,-88,4,7,3,-30,-15,-45,24,-283,-3,-29,-82,-122,-120,19,-29
,22,51,36,138,-219,-124,-4,-40,-233,174,-201,-55,69,24,20,-107,-95,-171,-197,78,43,82,-245,65,-125,74,71,-58,-83,-164,-93
,-97,9,27,52,-44,-3,45,25,-159,6,-84,-16,-24,-166,15,178,38,45,-62,194,-127,-62,37,118,-111,-63,-14,77,-139,35,-107
,20,-145,-152,58,31,-25,-33,-98,-156,-29,-217,-21,19,-60,-183,-140,-140,28,-174,-151,-162,46,-224,-66,-151,-37,68,10,-41,15,21
,-24,-45,-134,-103,39,2,45,57,19,51,-45,-53,-234,-153,-85,14,-128,2,-151,4,51,29,-83,-189,-151,-71,-51,36,-164,-163,-44
,232,-204,-18,285,28,-111,115,68,104,61,34,-4,-25,-509,-89,105,39,-159,108,242,-381,83,202,153,190,-157,-142,211,-112,-212,-267
,37,-18,32,-180,12,-71,-141,-132,-128,101,-49,47,99,-117,-58,-38,-97,-115,62,129,-111,102,-11,97,-181,-35,-30,142,119,-29,-52
,-98,-73,-58,-50,-65,40,50,15,37,-49,-76,-145,190,92,-30,-63,-46,75,13,71,-137,18,-98,-45,-195,-166,-120,71,-175,-167,-109
,326,-347,-81,357,188,-75,-45,67,-118,-433,-158,49,-129,-86,-206,-76,-236,243,-252,84,151,172,-202,-178,-117,2,-217,-66,-123,33,-121
,112,-176,-61,-159,-110,74,107,-287,-59,-362,115,-1,-177,-169,-93,-191,73,-22,17,-37,-49,58,-29,-197,-292,73,-210,-71,-4,-83,30
,147,42,-83,-39,-71,-71,122,-343,-6,-52,8,172,197,-192,-202,10,-83,-56,49,-305,-53,50,-18,-231,319,62,-167,-14,-70,-246,6
,123,88,-110,-111,-145,60,15,69,-51,-45,15,-101,-2,-139,-157,-47,-114,-71,7,99,52,5,-1,-22,-169,-191,3,-99,-174,-199,-138
,72,-204,-42,186,-25,-317,194,100,-178,143,63,-15,182,-523,-206,-44,-228,125,-376,-8,-67,75,281,231,38,119,-104,295,37,-204,54
,-304,-142,132,-473,-311,82,198,-265,6,-238,81,-266,-291,79,-503,4,-403,183,-330,28,-324,-12,-436,-88,-218,-243,36,21,158,16,-23
,-130,248,-55,-233,115,-50,-209,-11,-294,369,-419,124,-108,-173,35,-110,185,-447,-118,-115,-34,-111,4,-20,61,-29,-96,-191,-62,-413,-573
,-124,59,-138,26,-220,102,15,-13,-112,35,-13,-155,49,-223,-123,-46,24,22,84,226,-136,-257,38,238,-133,-150,-13,-17,116,36,6
,-405,22,-406,-352,92,-661,-252,-265,145,-114,-26,-112,-134,-198,244,56,29,-151,233,93,-8,-202,-474,80,-818,196,-544,50,35,-123,-290
,17,-26,31,44,24,33,-150,-139,39,174,56,-4,-106,-5,42,101,41,15,-83,355,39,-88,-65,274,23,-44,25,-13,-113,-17,-28
,-174,4,-126,-109,-4,-51,120,-15,-73,167,-56,-27,107,-7,-107,40,-34,21,-160,-279,49,-64,-7,-21,114,26,49,143,-86,-81,-56
,48,-159,1,-89,-39,-232,-67,-75,9,-59,-115,66,99,-8,-83,-141,29,51,-18,12,-274,26,7,46,-225,-74,-72,7,-193,-93,80
,-134,-108,81,76,-75,-191,-6,-72,55,-125,-151,-49,-106,-170,-70,55,-29,116,-139,-31,-137,-178,-40,-140,28,-169,61,69,-168,89,-2
,-404,178,-274,-422,-3,-121,-272,-387,73,-496,-19,-247,892,-13,10,137,-290,-149,-268,104,3,-412,-25,88,-274,-769,183,72,-998,126,-46
,-1031,-107,-64,-280,-163,53,-1057,-194,-205,-177,-48,105,1300,165,-71,-42,280,-139,150,137,-188,-135,-304,137,-582,104,-113,-71,113,-395,85
,-54,41,-85,-28,87,-86,-46,76,-70,45,-156,-2,100,-200,-135,118,-204,-83,-277,60,105,39,-64,98,-42,65,-29,-110,-242,-107,-36
,-361,311,-1014,-394,132,-101,226,-344,112,-240,29,-123,486,-227,-147,79,114,-316,-172,-113,-165,232,-302,-63,-242,-328,-298,7,-126,-489,56
,6,9,-80,-182,-83,13,-117,90,-72,-204,23,-87,-135,-21,-97,-75,-174,-38,11,-11,-62,-127,-201,127,96,6,3,-53,-106,28,-32
,18,-56,-103,87,-55,-28,-45,-26,-43,14,-25,3,-64,-104,25,80,-111,-89,-131,-30,-89,-125,-60,-143,-30,-69,-84,-119,-75,92,-79
,-5,-90,52,-61,-183,135,-28,-108,-136,54,-86,-66,-70,-110,-109,5,27,-29,-167,-104,-62,-190,-45,-59,17,105,99,112,19,-55,8
,263,134,-143,392,-250,-146,115,-235,-113,396,-33,-201,16,38,60,30,13,-75,50,-139,-132,104,-186,-247,-385,239,-107,-90,-55,-182,-289
,37,-69,-138,52,20,-42,-66,12,-28,-38,-97,-66,14,98,-1,151,60,41,-76,104,-124,-63,-5,195,-50,-55,-67,-11,-76,32,-75
,-54,-83,-31,-140,-17,-36,-39,-203,-58,108,-47,-125,-3,68,28,-28,-166,86,-114,-87,-76,-200,30,-136,-28,-64,-141,-79,19,-123,38
,40,107,117,-65,149,-165,-145,-75,-321,87,-153,-261,224,-80,-92,166,59,70,45,-27,253,-326,-199,-5,-24,-63,103,192,202,-107,-303
,130,-81,-7,81,-193,-139,-101,2,-13,44,-97,12,-39,-125,-89,228,-109,-41,-174,-74,14,104,-56,-29,174,-60,-34,72,149,-143,66
,-92,-146,-83,74,-45,47,25,47,-36,-91,-58,-98,-145,58,21,34,-171,-49,49,-101,-114,-10,-67,13,-3,-121,-97,73,-126,25,14
,14,20,18,77,32,31,8,11,30,-103,17,7,20,22,17,30,177,40,20,-48,305,65,3,88,279,69,31,28,220,41,12
,6,-117,-12,-50,-20,16,128,-191,-147,80,57,-51,-82,-48,3,-160,-210,-34,-153,98,56,-166,-180,-99,1,89,-2,73,76,-159,47
,5,-29,59,149,31,38,-38,40,-68,78,-52,-6,-115,-50,44,-185,53,19,-30,-131,57,31,22,-239,-148,27,-34,6,-31,-72,-81
,22,52,26,-201,-97,32,-4,-29,12,-63,-86,-52,-67,15,-27,-3,-47,-26,34,295,-47,-65,14,248,72,-33,-9,-129,-72,-3,-40
,180,-208,-278,58,-226,-71,237,-179,-105,1,-295,86,-196,-34,-352,69,-72,-5,26,-245,276,-53,52,-66,41,-91,-29,-99,-160,114,-234
,-30,87,-95,120,170,-233,248,-180,104,122,-226,-1,-169,-383,-52,53,302,-54,41,7,-92,-132,77,67,186,108,-341,102,-51,16,-166
,99,-208,99,344,43,77,176,-126,-158,-178,-135,-109,12,-18,48,164,69,78,151,141,-89,-392,-115,159,58,-99,-260,123,0,-179,-55
,99,-93,-99,216,-26,-63,26,-61,36,-118,-121,50,-69,66,-56,44,160,4,-78,211,-42,-63,-63,129,-176,12,-102,-137,-76,-28,50
,61,-89,-135,94,49,96,-154,34,19,58,-35,-46,45,-187,21,87,-168,21,-161,-88,-147,-33,-139,-151,96,11,-46,33,42,-136,-43
,149,10,-270,50,-457,-28,2,184,64,117,-154,-172,107,-13,-248,-374,-134,7,137,31,494,41,-303,-124,257,189,-60,155,339,-444,-148
,-190,-30,92,177,-141,17,-66,-124,-159,51,-193,5,26,5,55,34,-6,-191,-181,75,-126,-142,-16,-46,-11,-41,16,-2,98,-43,-38
,-64,-88,24,-32,-71,-49,35,7,-160,77,-116,-44,118,-44,66,36,-66,-147,34,106,-154,-149,102,-130,-36,-4,-98,63,48,-52,29
,-125,132,-182,-91,-74,-62,235,-278,-68,330,-303,-97,65,41,209,67,63,86,96,74,94,-299,48,-88,104,-184,17,-69,58,-439,-149
,-280,60,111,606,52,-71,-404,-165,179,-417,-289,-319,109,-820,52,16,-22,154,-94,35,12,26,147,-217,-138,-258,-176,-6,-191,-605,-154
,183,-427,-181,-344,175,-332,273,-288,71,-570,17,-62,-141,142,-136,97,-148,48,-87,-131,-49,-130,93,82,-328,114,-378,210,158,-811,2
,-30,79,67,-250,-61,53,33,-72,-79,68,-58,-82,-125,82,21,302,-179,19,-150,164,47,-109,-9,353,-128,30,-20,119,7,-49,-147
,38,82,-57,-53,11,-151,-3,-119,15,-1,-143,0,-211,66,-5,15,34,8,-13,31,-52,-120,-72,67,-90,-43,2,-10,-113,20,-21
,-3,-61,37,-99,-119,-66,139,54,-79,98,59,2,-126,81,-153,-102,-148,-165,-137,-29,-51,-82,80,83,32,-159,-24,45,52,-130,-147
,206,-18,-7,-57,-45,-171,-127,-71,-59,-122,-85,-88,57,-169,25,-11,-160,-111,-175,-104,-145,56,-109,144,-208,0,-151,139,97,-30,76
,126,-62,140,46,-354,189,112,-268,64,96,-69,-179,149,-406,141,103,-131,177,-22,-8,333,-240,-1,-141,-305,-11,-264,-39,590,-26,-13
,-37,84,-21,-160,28,12,-124,0,16,146,6,-83,-4,-83,18,-5,-44,-49,-64,179,-188,-58,-91,170,11,5,-128,6,2,-57,-10
,157,-301,207,-343,45,-19,247,-144,-47,100,-93,-233,-15,-315,-450,59,337,-166,-352,-93,534,70,-90,99,605,-21,-167,-17,145,113,108
,10,7,33,-25,-85,25,16,-13,50,29,-8,-177,-120,-63,-116,18,-117,-25,-53,75,-160,17,-76,-41,-36,-109,-106,80,33,-25,-178
,-82,212,28,-300,-146,18,275,-187,-126,-159,-241,-126,339,-168,-246,-37,133,-6,-222,-21,514,82,-200,-225,-123,209,67,20,570,-79,-22
,-11,-161,-181,-2,1,-100,-136,-114,78,-142,-73,-39,10,-88,-151,-104,-252,52,-74,-18,141,42,-62,89,157,-3,-142,137,11,-204,96
,-11,51,-95,-498,372,-119,146,121,-137,-125,-363,-78,393,-635,-93,112,101,244,-231,-98,-136,-331,160,-53,-375,-38,3,89,-170,-104,95
,83,-82,-121,7,-128,55,31,37,-115,-264,-29,-25,-371,136,-38,23,70,-44,-35,250,-63,-109,51,209,-95,-36,-82,61,-98,3,-164
,-107,-65,-15,35,-66,14,68,0,35,-26,10,-69,-182,49,-80,88,-154,54,-28,-135,-49,0,34,-289,44,-73,41,119,-12,-5,55
,-525,-228,-39,-291,40,22,-738,-286,80,-325,-115,-828,845,-212,-14,54,-767,141,57,-44,370,136,-130,-98,-251,-144,-813,-120,-179,-794,200
,65,-130,37,67,-112,-60,38,-53,-159,22,-99,-88,-134,-40,-8,-70,-238,-160,22,89,-55,17,10,-6,67,-1,50,-110,-89,-138,33
,360,-221,-67,-245,40,62,173,-165,67,-403,-31,-181,567,-169,-154,-25,-285,179,-376,89,221,180,-24,47,297,-362,41,88,-53,110,-288
,491,117,223,176,-115,-77,-401,108,25,492,-217,-231,125,-226,-153,57,109,-299,-94,-69,-43,200,-3,-102,264,57,-237,70,99,44,-200
,113,80,60,338,-148,175,114,-38,-147,410,-245,-45,1128,-832,-24,-390,174,27,-4,-80,28,156,-22,77,-178,-98,-227,-313,-74,123,-9
,-89,36,-78,73,-57,-162,36,12,56,-117,-162,72,-11,-56,-114,-173,-62,30,24,-69,41,-93,-14,23,-140,-144,-99,122,-4,-8,-10
,32,32,-239,211,61,-55,-134,87,-32,179,12,-118,37,-201,-34,278,-182,12,-85,122,-219,7,-265,138,15,-213,28,99,54,-124,-99
,43,-103,-101,-53,4,40,-66,-28,32,41,95,-131,-184,-39,22,-119,60,-167,-130,92,-103,6,-64,-35,-53,48,-115,105,34,-156,-152
,-32,28,0,-74,-136,0,-4,25,-71,123,49,31,-6,51,-1,245,-27,-44,-36,-229,-86,-23,6,-330,-152,-44,2,-162,-113,-41,-99
,90,30,42,-21,-160,-55,164,-181,141,98,-98,-42,35,84,-276,119,82,-142,-401,72,390,-251,-146,-245,120,-31,-266,187,211,-199,184
,-225,-11,-133,-74,52,-3,-128,-75,-82,66,-65,-96,-80,-61,-95,-151,53,50,45,49,27,11,-110,105,-105,44,30,-260,-78,-85,28
,3,57,-77,-81,-177,59,20,-163,-30,-69,8,2,275,11,-34,110,-57,74,1,251,8,-42,-3,26,-164,45,-85,-20,-126,-132,-20
,-307,2,-96,11,-329,-1074,-246,-113,127,-1205,-292,110,-787,145,104,62,20,73,111,71,-727,100,-1024,108,145,-12,93,-137,-713,-165,-747
,-189,-10,27,-269,-189,60,-115,-59,-12,135,-142,-1,154,-33,-18,-143,-196,155,68,-99,-41,-170,-34,-8,-134,-180,-179,-88,-31,50,-205
,98,-69,-256,37,-15,-233,306,118,-113,136,42,-156,348,-248,-180,8,-175,41,-222,174,198,-101,201,74,-241,200,-52,227,28,-33,90
,29,-464,129,-443,-149,113,-559,156,159,-20,53,-177,370,-920,185,-6,154,49,-64,-182,-31,26,-779,20,-32,-263,-166,-160,-206,91,-242
,-654,-109,172,-411,-152,-231,-502,227,-6,-686,79,-243,220,-772,60,98,-14,-162,254,119,109,-218,-165,82,-155,119,-253,93,-215,-180,-1212
,23,-17,-25,-195,-75,-110,-15,-50,21,-64,12,16,-21,-105,-11,222,42,-1,24,304,42,-42,37,37,-88,43,-35,-76,-3,-2,-64
,121,59,157,-31,137,-46,121,-148,-207,142,24,-79,274,-75,-248,-69,-136,77,-143,96,44,-222,-355,105,-48,60,-6,-89,-52,200,-524
,255,-208,-54,-54,18,-74,33,-311,-138,-143,-283,-48,175,-29,-77,108,17,-40,-87,-80,-226,128,85,18,52,-41,131,146,-53,113,-165
,-143,61,69,141,-236,-287,256,-253,83,142,-64,-217,207,-257,-135,39,-26,139,12,-19,-10,170,36,-190,165,-82,-182,242,-154,-186,118
,187,-369,-143,7,-106,-160,553,-304,229,-119,-1,155,282,-148,52,36,22,-59,-248,-126,139,-30,-131,-129,-35,171,-134,113,-95,152,58
,241,-204,-223,82,79,1,70,94,-222,-86,-17,99,405,-76,-125,35,-262,160,-400,281,189,-233,-122,285,-16,33,102,466,-154,138,-62
,24,-103,-140,-12,54,-43,-30,-104,75,-135,-110,42,-34,-143,59,-91,18,-77,-19,77,-156,-71,-118,-41,55,-2,-55,14,96,-139,-61
,-688,-55,-25,381,-81,26,375,-107,221,194,-230,-313,18,-558,32,-222,-206,-161,-405,-128,241,113,154,-217,104,64,83,47,241,16,102
,296,2,-7,173,-231,-175,191,-56,-3,-39,-116,-83,18,-185,2,150,-229,139,-175,259,-43,-302,-102,138,-177,-169,26,169,-219,-49,-68
,-552,81,-16,-1210,207,228,284,-473,15,374,-144,5,390,-438,-146,49,122,-4,129,39,-356,-887,-246,-120,142,225,-72,104,-61,-152,-356
,-178,-83,60,-64,63,2,-156,-111,-111,-48,33,56,-143,-141,-104,25,84,22,-91,-110,-53,-110,-204,-2,-122,-181,17,57,-136,-73,56
,14,29,-476,386,103,-146,198,-103,-75,105,-255,-67,197,-249,14,148,292,-99,-68,-47,25,-479,135,113,285,192,-98,235,-36,73,105
,236,-53,-669,-1193,-117,-108,136,-5,266,127,-167,-307,260,314,65,-81,-109,-14,-236,-152,365,-327,21,-56,-178,95,-518,-156,286,-805,-78
,-645,-293,62,126,-221,-218,-757,132,83,-965,-7,-408,538,-690,-146,6,-788,-5,122,-24,-483,-19,229,-45,-201,-114,234,-81,166,-83,-75
,8,-112,-86,621,-158,-323,114,-26,215,-26,80,-118,-479,136,86,123,-109,-47,172,156,132,-67,-40,166,-165,-243,-164,26,-24,-1,-208
,348,-95,-42,319,-213,-669,-250,-240,227,-683,-83,-364,-288,206,-138,-106,-104,329,137,-35,-265,-93,-609,-103,142,135,-70,-101,73,-430,-455
,48,-45,-16,42,-32,-19,140,-60,-156,149,7,-98,-118,-53,-99,-138,112,3,-67,-51,-78,-69,-128,-115,-19,-103,-109,-41,87,-49,-7
,257,-163,34,32,192,66,127,115,-409,96,-332,-131,255,-243,66,187,193,-150,23,-210,-49,-46,118,240,285,-94,-46,191,154,-318,20
,4,86,228,510,-263,-72,-209,-363,84,-57,13,-53,256,-24,-185,50,172,-86,-207,-10,-77,179,58,-403,-104,-86,-270,41,272,59,-343
,-155,-201,-16,-94,-129,-288,23,-12,31,42,29,-181,85,-279,-47,161,77,9,-263,29,-309,95,65,70,-152,14,-124,-126,-62,-140,-72
,423,-118,-75,149,-45,-234,308,-170,290,-38,-254,95,852,-390,-82,51,-89,17,6,137,55,226,-40,241,-152,86,-258,-148,595,98,-349
,-70,-71,88,-104,51,-50,-126,72,-38,-103,-126,-74,-44,-82,90,63,-177,-3,-158,-19,-170,-165,-91,-64,-166,11,15,66,-84,-82,-39
,206,43,-211,-215,25,13,-552,106,-206,-288,30,155,179,-265,-355,360,-320,125,-38,7,-147,-181,-44,93,211,-60,-17,38,-541,138,-108
,-276,-73,43,64,-279,-29,156,-32,216,114,-61,25,267,-528,-145,34,-391,-251,15,108,321,-189,165,83,138,-163,251,-305,-176,-22,-148
,-87,10,-23,-19,-24,-112,132,-69,-54,-14,-14,-57,-60,-203,-169,-18,-228,38,4,78,-138,65,-60,32,-86,-61,-79,-82,9,22,-78
,5,23,69,-112,-82,22,-66,-56,-29,56,60,67,-48,-12,42,116,-2,-104,50,-382,-147,-33,-92,-141,44,-92,56,63,4,-31,13
,89,-114,83,220,-82,17,-105,-332,16,-434,69,-8,205,-56,4,-19,64,30,8,-7,-174,-75,26,44,-38,-134,-55,-75,-143,-3,-205
};

long weight_1_T_nvme0n1[256*31] = {
97,28,-130,97,-141,-29,175,-57,-197,-52,-35,-175,60,-29,-21,213,110,-18,-78,142,-80,29,16,282,47,-1,-140,-189,-119,7,-36
,87,6,-507,30,19,-376,529,-26,-69,-3,47,-51,363,-227,155,181,78,183,-368,-28,418,-103,21,216,-99,72,6,234,-155,-219,-331
,58,-109,-142,-11,-83,64,-127,44,-45,-160,-101,-80,131,109,-81,12,80,-127,-97,102,-32,-47,-84,132,98,31,-63,-19,88,-72,-84
,-552,-132,90,-411,196,-995,-366,88,-249,185,242,-137,362,-292,-89,-122,-123,-175,-255,-12,-89,-166,193,-138,153,-459,-351,-25,-76,89,-666
,-73,60,-35,-3,13,18,52,21,-147,-169,-204,-91,-162,-133,59,114,-135,-84,39,322,36,0,-79,307,-174,16,68,-44,37,-84,-5
,76,-65,-77,-131,2,42,-64,-162,-35,30,46,71,-205,-137,-93,-115,-66,103,-136,130,43,-65,75,-94,-177,-131,-22,-130,-35,-61,-84
,59,60,-4,170,-68,-42,-20,-215,-11,62,-56,47,41,33,-85,28,65,42,-10,-63,-47,-26,29,147,14,-143,-113,-198,-224,-118,-42
,-151,-1,-219,-74,43,31,58,89,34,-97,-86,18,-116,-59,-113,-179,-89,14,-227,-147,-153,-90,-120,-33,-139,-58,-173,-61,17,8,-59
,39,-380,-64,6,-385,-178,-265,55,163,220,-184,-407,160,-859,-187,11,349,276,-398,-2,-250,127,55,59,46,222,42,41,295,-170,-27
,362,-326,-223,392,60,31,263,100,-334,-1098,89,-658,-1139,254,-299,199,-168,131,-192,224,319,-60,-181,286,-306,-354,129,81,-232,-141,-34
,-87,-29,-68,21,112,-28,-148,-116,70,24,-125,34,74,-11,3,17,86,96,-159,-129,-129,-17,-76,-179,-181,-157,-173,-34,104,-51,-54
,-56,-42,-104,107,-42,-88,60,-89,-98,34,-117,-36,23,4,-127,-118,-21,32,-90,-118,83,16,-95,10,58,34,-98,-27,131,89,-42
,118,-315,49,145,-224,145,75,-273,90,159,112,-167,163,-429,76,-80,298,153,53,71,92,-160,-152,11,41,-93,-166,-86,122,-67,95
,65,45,-122,-141,56,-129,21,-131,-68,-107,-21,-37,-88,-120,-142,-118,13,-64,-10,-46,75,-120,-32,107,84,-21,-82,106,-30,-6,-131
,-200,-42,46,53,37,-14,-192,18,-41,-179,-62,-90,91,20,-13,140,21,-90,-125,19,-191,-28,-17,-97,3,-136,-105,99,72,-54,-6
,-96,32,-139,-165,-162,-65,14,-108,17,-98,-16,-57,-147,-62,15,-20,-65,-94,49,132,-90,87,-105,89,-4,8,-96,63,114,47,-164
,35,-112,-20,-3,-118,-128,82,-138,-90,-66,-49,-143,61,-83,-74,-46,105,70,-140,-137,-83,-114,-55,29,134,-107,105,27,-3,8,-37
,-36,-169,67,39,-117,79,-32,56,-14,-55,-86,-55,126,-154,-107,-245,99,35,-122,-202,106,40,37,-30,55,-73,-182,-107,-109,-63,-123
,-443,-95,65,-182,-214,-46,-295,119,51,36,4,-78,89,-460,-134,-126,-270,-82,38,74,53,-411,80,60,-167,-4,16,-54,-13,-19,-112
,-8,61,-42,110,50,-27,-177,-95,-202,38,-146,-207,1,-107,88,53,125,22,-103,95,-58,-22,-22,125,-67,-206,-3,-3,23,-92,-66
,311,72,-35,-181,-177,77,78,264,65,136,-265,-612,-65,122,225,95,333,-697,-221,101,-895,-28,-208,255,-177,25,-531,-40,-354,-447,-139
,14,-251,-23,197,100,-59,-237,49,-59,59,-100,74,173,-58,-10,323,86,-317,-43,159,-118,-124,-235,310,44,-445,7,354,71,-222,10
,-283,-195,106,-265,-96,213,398,-382,-223,-112,90,-126,223,-95,-154,-35,-43,-97,-109,-113,29,52,-112,17,211,104,-6,-108,-253,47,-43
,59,-12,-18,43,61,-4,-115,-21,-17,2,-42,-12,51,1,4,-83,40,-35,-29,-359,142,-111,-6,-413,-88,-38,-9,2,29,-19,-23
,18,-29,-71,83,32,19,-69,-56,-49,-145,-6,-67,-141,-84,-97,-19,-42,43,-116,-4,35,-93,2,39,19,27,15,193,-42,-88,12
,-134,-39,-3,-118,-128,42,-147,19,28,120,-6,-65,-65,-65,-90,72,-197,-37,39,-50,-59,15,-58,20,-172,-38,27,-128,-185,-90,76
,-125,-28,2,-116,6,-39,-138,7,-34,-47,-115,-83,18,1,31,75,55,-38,31,250,-149,-18,11,221,-135,-13,-9,24,107,30,-47
,35,-184,-7,-59,-54,-196,213,-354,93,-451,-240,228,284,-109,-386,-114,32,146,11,48,-7,-11,-298,-295,-19,25,105,114,-60,-30,111
,-90,10,-206,322,-124,122,-152,32,-9,-280,2,-171,101,-21,-204,-37,-157,-91,-62,-244,-42,-28,-311,-17,-201,-192,-246,5,132,-73,101
,-88,-85,-120,-64,-34,-39,-113,-169,35,61,-50,-67,-39,-171,-18,-34,-147,-103,90,-99,-130,102,-60,136,-150,-133,-12,0,-23,-52,-56
,-1162,340,-322,-271,-46,47,142,-320,-120,-959,105,-39,341,-1019,-417,-69,318,182,4,24,279,17,-127,25,450,-408,-16,33,-22,-151,7
,108,-101,-264,-213,-27,124,224,77,113,33,40,-181,225,-77,-243,-59,72,-45,-340,150,-15,-107,-183,-110,-166,-32,-179,239,-209,-52,-201
,-688,-9,-404,147,-221,-518,-319,-573,232,-610,68,-183,146,-284,116,101,-278,-67,-41,-28,-587,60,207,107,-283,-83,-687,30,340,64,161
,-211,85,-211,217,-197,-10,-2,37,28,-114,26,-369,413,-92,208,-32,-117,22,131,-101,58,-170,-129,-60,-38,-88,-147,1,58,-144,-231
,20,94,-165,-118,59,98,140,-414,-58,274,212,28,151,-458,-50,32,337,-301,-230,76,65,-409,-70,-45,103,6,-118,302,-70,5,118
,172,99,-109,-51,-88,-126,142,-76,9,246,-32,-89,54,-80,-18,90,187,-48,67,-115,14,-216,-152,141,29,54,-43,-120,-126,-195,-39
,292,-20,-70,317,-93,82,-64,-92,-186,77,27,-223,-49,-539,-10,234,220,-63,162,134,-212,-133,182,47,313,-476,-18,216,109,-329,257
,-104,-108,28,-131,11,78,-160,51,7,90,-28,42,-91,-19,-79,134,-61,-116,-50,-18,-76,-54,-181,0,-116,-49,-84,-142,-154,-34,-168
,283,-33,-76,23,-3,-11,-184,-161,-133,-38,-7,51,15,8,-116,341,-145,-273,4,46,-95,-68,-85,-92,117,-130,38,-153,24,-164,-28
,-114,-76,-56,-12,7,-113,-11,-27,-30,45,-86,-82,106,-35,31,22,62,-25,-76,-181,-188,9,-40,-151,-156,-8,38,175,36,19,-149
,37,-70,-9,-46,-118,35,-23,-13,207,69,-101,146,170,-524,-244,104,287,103,-140,-203,-50,-21,-131,122,262,-236,23,80,664,-210,-265
,182,232,-68,86,86,84,94,-67,-500,29,-176,-64,144,-573,-285,325,28,145,-402,208,-9,53,269,126,229,-144,-43,157,-22,-51,-24
,-30,-140,63,56,-135,-160,86,-149,40,-19,-74,-92,-91,-162,-149,-57,-102,-74,-13,34,110,-115,-73,15,107,-33,-10,114,-37,-153,4
,586,-133,-58,102,49,55,-32,-136,109,-138,-185,33,-120,-405,-56,260,71,-106,77,171,-260,113,133,21,404,168,-156,21,-2,-200,-176
,99,-130,-18,88,-106,43,-117,74,1,59,-110,5,138,81,-72,23,-61,-22,64,-25,-93,-12,-154,-76,80,-28,-140,-65,-120,-163,-147
,202,59,-50,-109,-2,-92,66,10,6,-25,35,27,-2,-88,-14,2,-55,-60,34,196,8,-62,-33,137,-21,-115,-54,-224,-200,19,-6
,-31,86,82,148,-84,-296,-10,-280,-47,-694,132,87,255,-257,34,-135,-93,167,-127,98,-201,94,-224,-69,-68,202,-273,-38,-70,102,-423
,341,-311,39,-222,147,9,296,-283,-72,326,-336,101,269,-107,181,-117,-201,-391,-278,-7,-301,131,-24,-141,68,-229,16,36,-29,239,-108
,-941,157,144,-343,-205,190,486,62,14,-181,-26,-362,791,-863,-18,141,-440,-213,-33,108,19,-69,182,95,183,74,-307,160,75,-299,-211
,147,45,-3,91,-61,-57,51,-199,30,148,-170,-119,-2,64,-103,-14,-168,-13,-196,172,-132,-63,14,65,-22,7,13,144,109,-40,-119
,43,-289,133,114,-270,28,-154,-174,-83,-175,-98,72,248,-73,-27,103,29,-121,105,14,-67,-213,-135,105,122,-71,-50,-12,-207,14,-19
,-64,20,-91,44,-250,-56,-255,-141,-2,-15,-89,52,-250,135,11,-92,-72,-98,-172,85,-167,-24,-29,127,-138,-130,-100,212,-16,83,-66
,61,-7,39,-224,-78,-161,-199,-60,23,-150,15,-133,154,-13,-108,67,-185,-94,15,-134,-29,-12,-19,-105,-53,-25,-30,121,-60,-14,31
,-126,-61,-148,57,-139,-120,-62,15,26,-15,37,-30,-95,37,-10,-34,15,-199,-4,-121,24,43,21,-83,-84,-69,-33,96,-149,-125,-8
,332,-273,159,-226,120,-72,303,-218,157,335,-132,112,478,-924,123,-238,-170,127,-612,-203,-106,30,-106,-201,162,6,-20,-233,-894,-11,-53
,-110,68,-97,-263,7,-26,-110,-12,-82,-25,50,-30,61,-131,36,265,-197,-76,13,243,-66,-4,-60,224,-97,-28,16,274,-116,2,-40
,-34,68,-40,22,-29,-41,-67,-25,57,35,-45,-68,47,-20,-108,154,-26,-99,-57,131,-172,59,6,25,0,-83,-77,-13,-51,-76,-34
,-37,-109,90,-110,-143,-16,50,123,-194,-255,-177,-48,291,-225,-215,-82,-637,161,-24,-38,-18,-258,-91,-109,-978,174,-343,-54,288,117,-209
,-103,-22,-259,242,-29,-111,-71,-11,61,-52,-107,-35,-180,2,-170,-60,-290,222,-146,172,96,-4,-13,286,-91,-135,-181,-16,-138,-9,-328
,-342,-334,174,-331,-201,-119,5,144,83,514,60,109,-94,-96,-402,117,-527,-3,-172,19,-36,-343,114,56,130,-116,-246,54,-98,-100,-289
,-68,-12,-86,84,-46,-90,-139,-67,-126,-71,112,-133,126,48,-78,108,-20,-21,-123,-12,-24,-102,-36,-15,-148,-23,73,-55,62,-176,-31
,-20,-55,16,-116,-129,55,11,-174,-59,36,26,-21,-117,-70,37,-135,-156,54,-96,144,-33,15,48,127,-62,-133,-154,-103,113,-36,30
,-26,-62,74,-90,-49,-179,-13,-217,-49,6,13,-61,-45,-130,-120,92,10,70,64,114,58,40,-12,57,-75,-117,-26,-39,-128,70,-148
,276,-258,-548,-138,67,114,-103,143,4,-232,91,31,225,-556,-23,-35,356,-421,119,27,81,-606,-6,-166,53,-133,-159,40,134,-311,-135
,0,-10,-6,40,-76,-3,-81,-94,48,-117,-16,27,-33,-77,-31,60,59,36,27,-117,-46,-6,-93,-107,64,7,-48,31,-133,-107,-71
,-83,-144,4,-49,-143,-90,-115,4,-135,98,-12,48,20,-23,-56,-134,-74,-25,74,138,-156,-102,89,54,79,-47,-73,-70,-138,16,43
,-194,-169,-223,-170,64,-101,-70,-148,-44,171,-31,52,22,37,72,-46,-187,51,-22,55,-69,-142,-270,-128,98,-394,-8,33,87,80,-191
,268,-383,-248,467,-98,-134,-37,-43,106,460,-10,-273,73,-326,20,40,287,197,148,-40,-98,111,17,-172,304,185,-389,-33,37,-4,-120
,45,49,-32,33,-101,53,85,23,-30,-52,-79,38,55,-5,-6,-25,-203,-4,-96,216,-15,-169,-129,-47,7,-74,-18,139,48,-81,-11
,46,117,-167,-117,36,-31,135,-255,-169,3,-164,-10,97,78,-41,137,25,-21,22,-55,88,-200,-8,-94,179,-81,-99,67,-69,-147,-105
,282,-275,180,-410,-266,-59,-190,-31,-313,-314,-30,-265,-287,20,103,85,-117,-126,-213,61,147,129,56,98,-66,-595,-503,79,-667,158,89
,-190,-22,-19,-245,114,-228,159,-11,71,-173,10,-23,-105,-40,-240,-49,-30,-64,-194,-118,75,-78,-111,45,29,-79,-182,25,-28,-58,-108
,-43,36,-2,141,15,-109,78,13,-42,107,-188,-22,-33,-54,-146,68,-85,-3,41,57,42,-21,68,-71,-89,-175,-118,-27,-89,-70,-52
,84,61,-24,-130,-95,73,-27,43,-53,194,86,6,203,13,-35,27,50,-35,-69,271,-82,27,37,371,-108,-73,20,-123,21,37,-44
,224,-160,-226,326,21,20,218,143,-236,341,4,-97,-109,-287,32,94,-132,-132,-243,51,-241,-158,184,125,435,-212,-140,33,-26,-232,-92
,-38,-56,5,-130,-178,8,-17,81,-27,-128,-126,-142,71,90,53,122,22,-1,-34,-26,-157,-121,-136,64,-165,-64,18,77,24,-108,-110
,-118,-34,4,-128,-129,-137,-198,21,-133,-69,51,49,179,51,-94,-132,13,-105,-78,68,-82,15,-4,-87,-200,13,-233,67,-9,79,-178
,59,-72,-43,170,-117,-114,-5,32,34,20,-120,-112,-82,-124,-10,-57,42,33,-50,25,-17,-201,-7,-186,-206,138,8,-110,-18,-64,-24
,-356,73,-359,-9,-156,-276,77,-522,-79,301,-68,65,-130,-31,-341,-28,-691,153,-315,110,241,-534,82,-141,97,132,124,-84,-24,-78,103
,-770,66,-65,430,-314,68,-81,-140,-132,86,25,39,577,38,110,24,-487,-818,-401,-38,96,238,151,43,-246,-1339,-249,-23,-113,32,-268
,-88,-25,-175,-78,-76,3,-170,33,8,-55,-100,-75,0,-90,-100,133,111,-69,-19,-32,-159,110,56,12,-80,-97,-64,-62,-26,2,21
,79,-88,-135,22,-3,-30,-145,48,12,16,-71,-63,-118,-69,-83,-63,11,115,-64,200,-2,32,-157,58,-112,-85,-6,96,-67,-140,-87
,-773,-111,222,-536,157,-228,412,-405,-247,450,50,-133,-719,290,-348,-217,-84,-133,-274,21,-89,-86,-328,-4,198,118,-124,137,-264,-536,-49
,-37,-88,-41,-143,-10,-106,54,-68,-53,-13,95,-140,-48,-138,56,-118,-76,-114,-54,8,119,-108,-57,-126,24,-54,-22,108,-99,-15,-26
,-133,24,-50,-22,-173,51,15,-39,46,-138,-126,-175,-74,-110,-18,-29,47,-112,-62,-94,-100,-85,-54,-159,-92,4,63,161,-39,53,-21
,127,-7,148,-124,-95,-225,140,-354,137,-365,-228,-10,256,-97,-471,11,221,87,-79,36,188,-4,-111,-201,61,65,104,59,-34,-46,39
,-330,68,57,476,-238,-33,80,-262,23,-182,-21,-70,187,-136,157,-113,52,-42,-99,-29,94,-158,-122,-85,-32,38,62,-52,-114,-109,-166
,52,-93,-164,37,9,-138,332,-21,159,197,-366,86,-369,-241,41,-127,53,-18,-35,18,-94,99,97,-19,-201,-67,-166,20,-35,159,-349
,-292,-124,-114,-140,-111,-4,-233,-131,-27,-229,-89,-24,1356,1,-55,-190,439,30,-54,46,369,-9,-39,-159,454,61,31,-247,379,-18,-66
,44,-49,-266,53,-188,-181,214,6,-17,162,-60,-174,159,-70,38,30,-202,80,95,7,-156,90,-144,28,-34,45,-153,109,-126,-65,46
,374,195,13,192,-473,-163,-156,17,45,-203,-222,152,1082,285,-79,-338,12,-337,-206,-105,-405,-111,20,-217,-214,39,-102,-91,210,-115,-142
,257,-21,-301,-8,78,-293,205,-38,-50,98,-302,124,228,-383,-121,-28,-78,-42,-166,81,97,9,136,-16,62,-124,147,169,-249,286,-347
,-174,-106,-63,-176,-10,17,14,18,9,183,-19,-124,209,23,-72,-113,94,-252,62,123,-27,-69,-68,-9,-201,-110,39,46,-68,-26,-109
,40,265,127,-133,42,-152,-2,-136,-124,125,-49,116,510,-81,-349,-100,105,13,-245,67,-176,23,-213,20,-200,-25,-227,-159,-263,195,-201
,-97,-177,221,-216,1,-159,694,-252,-34,100,-251,-57,139,-315,-123,-3,-227,169,128,-183,72,-19,85,-122,289,-181,-156,11,-157,277,-109
,261,24,124,122,-327,83,98,-79,129,251,-183,-340,-198,-430,-140,-142,-453,170,62,336,-17,-32,109,54,-145,123,-157,64,-19,168,-88
,209,0,-134,-25,-179,16,-182,-149,-71,116,-62,-20,152,-140,26,-69,-108,-20,-150,13,106,29,-111,100,-82,-115,28,85,-88,17,7
,-773,-165,174,293,-270,144,268,118,-62,-8,51,-411,321,-142,-114,-43,-454,205,-250,-135,-169,84,-1855,-37,0,-318,-322,-161,502,133,-5
,-258,-164,-67,-70,-210,8,50,-262,118,138,18,-1,-146,-195,98,-100,76,-211,-106,92,-115,-116,-109,-70,110,4,17,-59,1,38,50
,-110,117,-134,84,-480,-127,-108,4,149,143,50,64,188,-517,-452,-38,2,-62,-472,84,112,-298,78,68,156,-404,-190,-60,49,174,-57
,287,-175,-63,324,-157,24,-156,6,-297,119,-306,-408,195,-19,-219,-132,83,143,53,-28,11,-14,139,-137,142,-237,168,-137,193,-168,-38
,72,-91,59,115,4,6,-79,1,-153,-169,-130,20,-144,-136,30,-90,70,-145,-164,-147,23,-43,38,-68,-151,-160,20,-108,-169,-17,-86
,279,-346,192,-424,-25,-888,-993,-238,231,-265,104,-305,295,-540,-66,49,-13,-142,-153,-84,-167,-86,64,73,-426,282,-208,-60,32,-152,50
,5,43,-150,97,-102,-110,-14,72,-20,82,-23,-149,40,-60,-73,37,-37,-182,31,48,-121,-76,-31,-199,79,49,13,66,-31,-77,21
,-265,-459,-107,-266,-265,-322,255,171,-527,325,-140,-661,-392,-39,230,40,-144,137,-504,-106,-191,9,-99,-106,-55,112,63,-54,-87,-320,239
,159,122,51,-122,-131,-167,-92,-4,-175,-184,-66,162,267,-292,-312,-26,174,-103,5,-185,125,-144,-79,-32,7,-58,166,57,-306,199,-179
,210,-54,-7,196,-206,-153,132,-336,-153,-94,52,-7,87,33,-311,-3,-38,65,86,-183,-210,93,-278,-146,-201,92,-73,77,-62,79,-353
,-90,-26,-78,77,-203,211,-52,-389,-213,592,-66,-1127,-626,168,-19,-135,-457,64,-124,-52,545,-677,-50,4,-444,71,271,79,301,-254,-143
,-95,-48,-257,-18,26,-194,299,-24,-134,57,-51,-28,226,-68,-35,11,-92,-75,-27,-160,-33,-78,39,178,-83,-8,23,98,-16,68,-58
,-126,28,-59,-119,15,-4,-122,-58,-130,-42,-124,-138,-97,-125,15,66,-130,56,-76,45,-102,2,-104,131,-101,-63,36,-10,-38,14,9
,-109,-39,-6,124,-188,-75,198,-161,-90,196,29,-3,83,11,-18,104,-37,12,-106,163,-13,-174,-203,142,-71,29,17,-2,-131,-142,-8
,-46,-9,-56,78,-151,-15,-121,-124,55,173,40,-98,-84,-65,-9,-92,-155,-12,-12,-224,81,69,-119,-72,-83,45,-100,73,-50,-98,-189
,-665,-10,-259,-71,103,-164,-430,126,-163,-787,-97,-136,79,-1109,-203,127,-142,306,73,-112,-137,-742,322,-70,-384,8,-87,91,-230,-78,-83
,-19,11,-84,-109,-49,-130,78,86,4,98,-28,29,-16,30,11,-72,6,-3,11,-405,-70,22,34,-150,-91,-54,-91,41,79,3,44
,-1036,161,-3,38,-300,218,-866,-254,-426,-287,-38,265,164,-1178,-93,-46,-218,90,-175,134,311,-89,124,-114,-324,12,-34,-131,-12,-66,-246
,56,29,80,160,-29,0,60,-115,-41,34,-22,-99,-133,-118,-115,-1,135,-163,-31,-20,-55,-190,-53,67,87,-44,8,49,-102,-30,-146
,227,-79,-152,152,53,1,-175,-135,-139,29,85,-142,65,-152,59,148,-110,47,-33,16,24,-68,-53,103,14,27,-202,198,-147,-133,-148
,91,-316,-188,181,69,-279,179,-273,-129,-6,-161,161,271,-130,190,9,63,-111,-233,-168,-4,-200,38,-51,76,229,61,52,-57,-34,-117
,-118,13,-150,-31,-76,81,37,-190,-16,78,57,-10,-37,-37,102,68,-66,-102,-55,-45,-134,-80,-112,-75,-37,-86,-139,126,-45,-159,69
,47,-205,-69,195,1,60,206,-250,72,-43,-81,-22,188,-54,-120,52,65,-135,17,60,-214,-62,84,-134,65,-125,14,95,-76,-125,-241
,47,-205,45,81,-110,23,14,-56,-15,-128,33,-72,155,57,82,-17,-97,-16,-137,16,-156,15,-117,192,-179,-64,3,-92,60,44,-91
,-256,70,-56,-889,-87,203,92,-292,58,63,77,95,246,-1262,-165,32,-300,-272,-528,-61,-342,-103,-45,54,-247,-129,351,53,-395,186,-59
,-755,-51,-488,139,-281,-320,-41,156,-328,-90,-141,-75,-67,120,-569,330,-289,-161,125,291,-316,-489,-49,235,83,101,101,54,-90,-122,307
,4,-121,87,-278,-52,-115,306,-24,82,51,-133,-6,28,17,-159,-150,49,-122,-82,68,33,23,-225,0,-88,-225,-41,-189,139,-152,53
,-16,-26,71,-16,-41,-2,11,5,-48,64,12,45,83,65,79,-9,-140,-60,44,369,-20,-21,-29,183,-14,-67,64,-150,15,-54,9
,-390,-120,-149,411,-169,46,-31,35,9,-133,63,-195,186,-57,-15,233,-110,-200,-109,-22,15,-53,-280,7,257,141,-10,147,-48,-213,-102
,-434,-20,90,191,-491,155,-118,-63,155,-225,59,126,351,-313,-282,33,-46,-614,-98,-132,-84,18,-349,-257,-26,-128,-206,-171,49,-226,169
,-159,15,-42,-20,-100,-119,-44,14,55,-55,2,-190,-118,44,-113,35,-48,26,-147,-123,-31,-111,3,-118,60,-79,-3,-79,125,-66,-71
,-40,10,26,24,-71,61,17,-7,3,124,30,-17,192,72,-36,115,119,18,-34,191,-95,32,-18,400,-23,-47,-27,-211,72,-16,5
,137,-86,-19,-116,36,11,-65,51,-39,3,-191,-59,85,-156,31,76,-151,-203,56,77,-68,-168,-125,47,-32,-110,-81,-61,-23,63,101
,-290,31,177,57,-180,3,227,-370,9,114,-159,-88,199,-53,159,36,-214,149,-47,18,-73,-258,-61,25,32,-206,16,2,-158,-350,-40
,348,28,7,136,74,-16,270,-299,-215,334,-94,-30,-42,-138,-167,-132,116,-95,-22,-41,-182,-286,-11,-201,-39,-4,-31,-8,317,-13,64
,-65,-118,89,96,-66,-7,-108,-111,-148,123,-45,-4,-17,-77,-32,-59,35,-51,-82,-98,-25,-68,-15,-8,-132,-28,28,11,-152,-158,109
,-128,-228,97,41,-271,-60,111,-178,-80,213,-70,-157,250,-8,-43,265,74,-64,9,298,-6,25,-105,127,-87,30,9,220,-191,-67,-87
,-351,-65,-133,27,-63,-268,38,95,4,-126,117,-45,232,-96,-7,-16,57,-14,-237,168,-75,73,-38,168,111,-315,-118,112,-41,-365,30
,25,-13,57,103,22,-124,44,-36,39,-111,-130,-101,117,-126,-36,26,-128,-31,-41,-94,-151,21,-47,0,-61,-19,48,-152,-54,-122,49
,-85,23,-15,73,-13,47,64,41,37,59,-205,-83,126,-33,25,43,-25,-157,-29,-58,-43,-89,-96,-141,8,-80,-102,-137,-131,-25,44
,-780,263,208,-495,160,-259,-141,-129,10,-316,-484,5,561,-19,118,110,259,105,-65,-14,-189,-510,32,-111,-548,-81,-186,-16,-98,-1269,-404
,-1420,-33,128,-541,96,203,-704,-300,-271,-431,-36,24,530,-547,-328,-99,-235,31,166,-55,-173,26,-710,-120,-474,-111,148,-145,-543,-208,61
,50,-36,-58,-59,-101,-125,-139,-110,-12,-78,70,-52,114,-61,-99,93,-97,-2,-117,139,-40,41,93,-80,116,-133,28,-86,-138,-8,-37
,-462,-295,-134,-275,93,-665,-735,-68,-112,665,139,-214,832,-39,-284,87,-466,65,-115,57,-65,-8,122,19,232,10,-242,-167,256,212,-124
,-153,-69,-166,-120,21,-88,14,-120,33,-202,-103,87,-60,-87,-172,-139,-102,93,82,51,-194,-126,-244,-91,17,-77,-16,129,-136,-37,40
,-56,-119,0,26,-184,-58,-196,-10,-127,104,48,-23,-15,-206,-46,-57,80,46,-75,-65,-21,41,-142,81,-94,-61,81,31,-107,17,44
,-630,-164,197,211,-338,-252,-506,16,37,519,45,-181,-469,28,-338,-80,-239,135,98,30,-153,-413,171,-25,128,-453,-565,10,238,-734,-76
,7,-117,139,0,-3,-144,280,2,-145,297,-99,93,129,-307,79,144,-159,108,-398,89,118,-41,-220,121,-290,147,-47,4,177,-25,-160
,-102,47,52,52,-128,-96,-35,-40,98,-37,-125,-145,-42,-143,-2,31,42,-20,6,100,-79,1,-139,123,-130,-69,31,88,-123,-99,-37
,-81,-2,63,-98,-108,1,-103,31,-72,10,-140,-9,-17,-105,-50,-120,66,-95,-168,-8,55,75,-73,-149,-78,47,12,92,-145,-32,-33
,42,-341,-105,284,-17,-76,165,-135,93,-305,49,72,72,-169,13,-92,101,-18,-149,-59,-71,95,-138,-256,-181,108,-152,114,-232,99,-94
,87,-126,-94,116,-82,-114,84,35,-12,-53,-128,-132,40,44,75,-50,-105,-148,2,-144,-110,33,-53,84,-17,-13,102,70,-114,-138,-86
,-213,-190,75,-1120,15,-317,-267,-241,-128,183,-194,65,-825,100,-132,-52,-429,6,-260,94,-30,144,-191,32,619,149,-94,-13,489,319,-626
,-90,50,26,121,37,4,-53,-188,-119,-32,-75,-74,61,-212,-33,-88,4,7,3,-30,-15,-45,24,-283,-3,-29,-82,-122,-120,19,-29
,22,51,36,138,-219,-124,-4,-40,-233,174,-201,-55,69,24,20,-107,-95,-171,-197,78,43,82,-245,65,-125,74,71,-58,-83,-164,-93
,-97,9,27,52,-44,-3,45,25,-159,6,-84,-16,-24,-166,15,178,38,45,-62,194,-127,-62,37,118,-111,-63,-14,77,-139,35,-107
,20,-145,-152,58,31,-25,-33,-98,-156,-29,-217,-21,19,-60,-183,-140,-140,28,-174,-151,-162,46,-224,-66,-151,-37,68,10,-41,15,21
,-24,-45,-134,-103,39,2,45,57,19,51,-45,-53,-234,-153,-85,14,-128,2,-151,4,51,29,-83,-189,-151,-71,-51,36,-164,-163,-44
,232,-204,-18,285,28,-111,115,68,104,61,34,-4,-25,-509,-89,105,39,-159,108,242,-381,83,202,153,190,-157,-142,211,-112,-212,-267
,37,-18,32,-180,12,-71,-141,-132,-128,101,-49,47,99,-117,-58,-38,-97,-115,62,129,-111,102,-11,97,-181,-35,-30,142,119,-29,-52
,-98,-73,-58,-50,-65,40,50,15,37,-49,-76,-145,190,92,-30,-63,-46,75,13,71,-137,18,-98,-45,-195,-166,-120,71,-175,-167,-109
,326,-347,-81,357,188,-75,-45,67,-118,-433,-158,49,-129,-86,-206,-76,-236,243,-252,84,151,172,-202,-178,-117,2,-217,-66,-123,33,-121
,112,-176,-61,-159,-110,74,107,-287,-59,-362,115,-1,-177,-169,-93,-191,73,-22,17,-37,-49,58,-29,-197,-292,73,-210,-71,-4,-83,30
,147,42,-83,-39,-71,-71,122,-343,-6,-52,8,172,197,-192,-202,10,-83,-56,49,-305,-53,50,-18,-231,319,62,-167,-14,-70,-246,6
,123,88,-110,-111,-145,60,15,69,-51,-45,15,-101,-2,-139,-157,-47,-114,-71,7,99,52,5,-1,-22,-169,-191,3,-99,-174,-199,-138
,72,-204,-42,186,-25,-317,194,100,-178,143,63,-15,182,-523,-206,-44,-228,125,-376,-8,-67,75,281,231,38,119,-104,295,37,-204,54
,-304,-142,132,-473,-311,82,198,-265,6,-238,81,-266,-291,79,-503,4,-403,183,-330,28,-324,-12,-436,-88,-218,-243,36,21,158,16,-23
,-130,248,-55,-233,115,-50,-209,-11,-294,369,-419,124,-108,-173,35,-110,185,-447,-118,-115,-34,-111,4,-20,61,-29,-96,-191,-62,-413,-573
,-124,59,-138,26,-220,102,15,-13,-112,35,-13,-155,49,-223,-123,-46,24,22,84,226,-136,-257,38,238,-133,-150,-13,-17,116,36,6
,-405,22,-406,-352,92,-661,-252,-265,145,-114,-26,-112,-134,-198,244,56,29,-151,233,93,-8,-202,-474,80,-818,196,-544,50,35,-123,-290
,17,-26,31,44,24,33,-150,-139,39,174,56,-4,-106,-5,42,101,41,15,-83,355,39,-88,-65,274,23,-44,25,-13,-113,-17,-28
,-174,4,-126,-109,-4,-51,120,-15,-73,167,-56,-27,107,-7,-107,40,-34,21,-160,-279,49,-64,-7,-21,114,26,49,143,-86,-81,-56
,48,-159,1,-89,-39,-232,-67,-75,9,-59,-115,66,99,-8,-83,-141,29,51,-18,12,-274,26,7,46,-225,-74,-72,7,-193,-93,80
,-134,-108,81,76,-75,-191,-6,-72,55,-125,-151,-49,-106,-170,-70,55,-29,116,-139,-31,-137,-178,-40,-140,28,-169,61,69,-168,89,-2
,-404,178,-274,-422,-3,-121,-272,-387,73,-496,-19,-247,892,-13,10,137,-290,-149,-268,104,3,-412,-25,88,-274,-769,183,72,-998,126,-46
,-1031,-107,-64,-280,-163,53,-1057,-194,-205,-177,-48,105,1300,165,-71,-42,280,-139,150,137,-188,-135,-304,137,-582,104,-113,-71,113,-395,85
,-54,41,-85,-28,87,-86,-46,76,-70,45,-156,-2,100,-200,-135,118,-204,-83,-277,60,105,39,-64,98,-42,65,-29,-110,-242,-107,-36
,-361,311,-1014,-394,132,-101,226,-344,112,-240,29,-123,486,-227,-147,79,114,-316,-172,-113,-165,232,-302,-63,-242,-328,-298,7,-126,-489,56
,6,9,-80,-182,-83,13,-117,90,-72,-204,23,-87,-135,-21,-97,-75,-174,-38,11,-11,-62,-127,-201,127,96,6,3,-53,-106,28,-32
,18,-56,-103,87,-55,-28,-45,-26,-43,14,-25,3,-64,-104,25,80,-111,-89,-131,-30,-89,-125,-60,-143,-30,-69,-84,-119,-75,92,-79
,-5,-90,52,-61,-183,135,-28,-108,-136,54,-86,-66,-70,-110,-109,5,27,-29,-167,-104,-62,-190,-45,-59,17,105,99,112,19,-55,8
,263,134,-143,392,-250,-146,115,-235,-113,396,-33,-201,16,38,60,30,13,-75,50,-139,-132,104,-186,-247,-385,239,-107,-90,-55,-182,-289
,37,-69,-138,52,20,-42,-66,12,-28,-38,-97,-66,14,98,-1,151,60,41,-76,104,-124,-63,-5,195,-50,-55,-67,-11,-76,32,-75
,-54,-83,-31,-140,-17,-36,-39,-203,-58,108,-47,-125,-3,68,28,-28,-166,86,-114,-87,-76,-200,30,-136,-28,-64,-141,-79,19,-123,38
,40,107,117,-65,149,-165,-145,-75,-321,87,-153,-261,224,-80,-92,166,59,70,45,-27,253,-326,-199,-5,-24,-63,103,192,202,-107,-303
,130,-81,-7,81,-193,-139,-101,2,-13,44,-97,12,-39,-125,-89,228,-109,-41,-174,-74,14,104,-56,-29,174,-60,-34,72,149,-143,66
,-92,-146,-83,74,-45,47,25,47,-36,-91,-58,-98,-145,58,21,34,-171,-49,49,-101,-114,-10,-67,13,-3,-121,-97,73,-126,25,14
,14,20,18,77,32,31,8,11,30,-103,17,7,20,22,17,30,177,40,20,-48,305,65,3,88,279,69,31,28,220,41,12
,6,-117,-12,-50,-20,16,128,-191,-147,80,57,-51,-82,-48,3,-160,-210,-34,-153,98,56,-166,-180,-99,1,89,-2,73,76,-159,47
,5,-29,59,149,31,38,-38,40,-68,78,-52,-6,-115,-50,44,-185,53,19,-30,-131,57,31,22,-239,-148,27,-34,6,-31,-72,-81
,22,52,26,-201,-97,32,-4,-29,12,-63,-86,-52,-67,15,-27,-3,-47,-26,34,295,-47,-65,14,248,72,-33,-9,-129,-72,-3,-40
,180,-208,-278,58,-226,-71,237,-179,-105,1,-295,86,-196,-34,-352,69,-72,-5,26,-245,276,-53,52,-66,41,-91,-29,-99,-160,114,-234
,-30,87,-95,120,170,-233,248,-180,104,122,-226,-1,-169,-383,-52,53,302,-54,41,7,-92,-132,77,67,186,108,-341,102,-51,16,-166
,99,-208,99,344,43,77,176,-126,-158,-178,-135,-109,12,-18,48,164,69,78,151,141,-89,-392,-115,159,58,-99,-260,123,0,-179,-55
,99,-93,-99,216,-26,-63,26,-61,36,-118,-121,50,-69,66,-56,44,160,4,-78,211,-42,-63,-63,129,-176,12,-102,-137,-76,-28,50
,61,-89,-135,94,49,96,-154,34,19,58,-35,-46,45,-187,21,87,-168,21,-161,-88,-147,-33,-139,-151,96,11,-46,33,42,-136,-43
,149,10,-270,50,-457,-28,2,184,64,117,-154,-172,107,-13,-248,-374,-134,7,137,31,494,41,-303,-124,257,189,-60,155,339,-444,-148
,-190,-30,92,177,-141,17,-66,-124,-159,51,-193,5,26,5,55,34,-6,-191,-181,75,-126,-142,-16,-46,-11,-41,16,-2,98,-43,-38
,-64,-88,24,-32,-71,-49,35,7,-160,77,-116,-44,118,-44,66,36,-66,-147,34,106,-154,-149,102,-130,-36,-4,-98,63,48,-52,29
,-125,132,-182,-91,-74,-62,235,-278,-68,330,-303,-97,65,41,209,67,63,86,96,74,94,-299,48,-88,104,-184,17,-69,58,-439,-149
,-280,60,111,606,52,-71,-404,-165,179,-417,-289,-319,109,-820,52,16,-22,154,-94,35,12,26,147,-217,-138,-258,-176,-6,-191,-605,-154
,183,-427,-181,-344,175,-332,273,-288,71,-570,17,-62,-141,142,-136,97,-148,48,-87,-131,-49,-130,93,82,-328,114,-378,210,158,-811,2
,-30,79,67,-250,-61,53,33,-72,-79,68,-58,-82,-125,82,21,302,-179,19,-150,164,47,-109,-9,353,-128,30,-20,119,7,-49,-147
,38,82,-57,-53,11,-151,-3,-119,15,-1,-143,0,-211,66,-5,15,34,8,-13,31,-52,-120,-72,67,-90,-43,2,-10,-113,20,-21
,-3,-61,37,-99,-119,-66,139,54,-79,98,59,2,-126,81,-153,-102,-148,-165,-137,-29,-51,-82,80,83,32,-159,-24,45,52,-130,-147
,206,-18,-7,-57,-45,-171,-127,-71,-59,-122,-85,-88,57,-169,25,-11,-160,-111,-175,-104,-145,56,-109,144,-208,0,-151,139,97,-30,76
,126,-62,140,46,-354,189,112,-268,64,96,-69,-179,149,-406,141,103,-131,177,-22,-8,333,-240,-1,-141,-305,-11,-264,-39,590,-26,-13
,-37,84,-21,-160,28,12,-124,0,16,146,6,-83,-4,-83,18,-5,-44,-49,-64,179,-188,-58,-91,170,11,5,-128,6,2,-57,-10
,157,-301,207,-343,45,-19,247,-144,-47,100,-93,-233,-15,-315,-450,59,337,-166,-352,-93,534,70,-90,99,605,-21,-167,-17,145,113,108
,10,7,33,-25,-85,25,16,-13,50,29,-8,-177,-120,-63,-116,18,-117,-25,-53,75,-160,17,-76,-41,-36,-109,-106,80,33,-25,-178
,-82,212,28,-300,-146,18,275,-187,-126,-159,-241,-126,339,-168,-246,-37,133,-6,-222,-21,514,82,-200,-225,-123,209,67,20,570,-79,-22
,-11,-161,-181,-2,1,-100,-136,-114,78,-142,-73,-39,10,-88,-151,-104,-252,52,-74,-18,141,42,-62,89,157,-3,-142,137,11,-204,96
,-11,51,-95,-498,372,-119,146,121,-137,-125,-363,-78,393,-635,-93,112,101,244,-231,-98,-136,-331,160,-53,-375,-38,3,89,-170,-104,95
,83,-82,-121,7,-128,55,31,37,-115,-264,-29,-25,-371,136,-38,23,70,-44,-35,250,-63,-109,51,209,-95,-36,-82,61,-98,3,-164
,-107,-65,-15,35,-66,14,68,0,35,-26,10,-69,-182,49,-80,88,-154,54,-28,-135,-49,0,34,-289,44,-73,41,119,-12,-5,55
,-525,-228,-39,-291,40,22,-738,-286,80,-325,-115,-828,845,-212,-14,54,-767,141,57,-44,370,136,-130,-98,-251,-144,-813,-120,-179,-794,200
,65,-130,37,67,-112,-60,38,-53,-159,22,-99,-88,-134,-40,-8,-70,-238,-160,22,89,-55,17,10,-6,67,-1,50,-110,-89,-138,33
,360,-221,-67,-245,40,62,173,-165,67,-403,-31,-181,567,-169,-154,-25,-285,179,-376,89,221,180,-24,47,297,-362,41,88,-53,110,-288
,491,117,223,176,-115,-77,-401,108,25,492,-217,-231,125,-226,-153,57,109,-299,-94,-69,-43,200,-3,-102,264,57,-237,70,99,44,-200
,113,80,60,338,-148,175,114,-38,-147,410,-245,-45,1128,-832,-24,-390,174,27,-4,-80,28,156,-22,77,-178,-98,-227,-313,-74,123,-9
,-89,36,-78,73,-57,-162,36,12,56,-117,-162,72,-11,-56,-114,-173,-62,30,24,-69,41,-93,-14,23,-140,-144,-99,122,-4,-8,-10
,32,32,-239,211,61,-55,-134,87,-32,179,12,-118,37,-201,-34,278,-182,12,-85,122,-219,7,-265,138,15,-213,28,99,54,-124,-99
,43,-103,-101,-53,4,40,-66,-28,32,41,95,-131,-184,-39,22,-119,60,-167,-130,92,-103,6,-64,-35,-53,48,-115,105,34,-156,-152
,-32,28,0,-74,-136,0,-4,25,-71,123,49,31,-6,51,-1,245,-27,-44,-36,-229,-86,-23,6,-330,-152,-44,2,-162,-113,-41,-99
,90,30,42,-21,-160,-55,164,-181,141,98,-98,-42,35,84,-276,119,82,-142,-401,72,390,-251,-146,-245,120,-31,-266,187,211,-199,184
,-225,-11,-133,-74,52,-3,-128,-75,-82,66,-65,-96,-80,-61,-95,-151,53,50,45,49,27,11,-110,105,-105,44,30,-260,-78,-85,28
,3,57,-77,-81,-177,59,20,-163,-30,-69,8,2,275,11,-34,110,-57,74,1,251,8,-42,-3,26,-164,45,-85,-20,-126,-132,-20
,-307,2,-96,11,-329,-1074,-246,-113,127,-1205,-292,110,-787,145,104,62,20,73,111,71,-727,100,-1024,108,145,-12,93,-137,-713,-165,-747
,-189,-10,27,-269,-189,60,-115,-59,-12,135,-142,-1,154,-33,-18,-143,-196,155,68,-99,-41,-170,-34,-8,-134,-180,-179,-88,-31,50,-205
,98,-69,-256,37,-15,-233,306,118,-113,136,42,-156,348,-248,-180,8,-175,41,-222,174,198,-101,201,74,-241,200,-52,227,28,-33,90
,29,-464,129,-443,-149,113,-559,156,159,-20,53,-177,370,-920,185,-6,154,49,-64,-182,-31,26,-779,20,-32,-263,-166,-160,-206,91,-242
,-654,-109,172,-411,-152,-231,-502,227,-6,-686,79,-243,220,-772,60,98,-14,-162,254,119,109,-218,-165,82,-155,119,-253,93,-215,-180,-1212
,23,-17,-25,-195,-75,-110,-15,-50,21,-64,12,16,-21,-105,-11,222,42,-1,24,304,42,-42,37,37,-88,43,-35,-76,-3,-2,-64
,121,59,157,-31,137,-46,121,-148,-207,142,24,-79,274,-75,-248,-69,-136,77,-143,96,44,-222,-355,105,-48,60,-6,-89,-52,200,-524
,255,-208,-54,-54,18,-74,33,-311,-138,-143,-283,-48,175,-29,-77,108,17,-40,-87,-80,-226,128,85,18,52,-41,131,146,-53,113,-165
,-143,61,69,141,-236,-287,256,-253,83,142,-64,-217,207,-257,-135,39,-26,139,12,-19,-10,170,36,-190,165,-82,-182,242,-154,-186,118
,187,-369,-143,7,-106,-160,553,-304,229,-119,-1,155,282,-148,52,36,22,-59,-248,-126,139,-30,-131,-129,-35,171,-134,113,-95,152,58
,241,-204,-223,82,79,1,70,94,-222,-86,-17,99,405,-76,-125,35,-262,160,-400,281,189,-233,-122,285,-16,33,102,466,-154,138,-62
,24,-103,-140,-12,54,-43,-30,-104,75,-135,-110,42,-34,-143,59,-91,18,-77,-19,77,-156,-71,-118,-41,55,-2,-55,14,96,-139,-61
,-688,-55,-25,381,-81,26,375,-107,221,194,-230,-313,18,-558,32,-222,-206,-161,-405,-128,241,113,154,-217,104,64,83,47,241,16,102
,296,2,-7,173,-231,-175,191,-56,-3,-39,-116,-83,18,-185,2,150,-229,139,-175,259,-43,-302,-102,138,-177,-169,26,169,-219,-49,-68
,-552,81,-16,-1210,207,228,284,-473,15,374,-144,5,390,-438,-146,49,122,-4,129,39,-356,-887,-246,-120,142,225,-72,104,-61,-152,-356
,-178,-83,60,-64,63,2,-156,-111,-111,-48,33,56,-143,-141,-104,25,84,22,-91,-110,-53,-110,-204,-2,-122,-181,17,57,-136,-73,56
,14,29,-476,386,103,-146,198,-103,-75,105,-255,-67,197,-249,14,148,292,-99,-68,-47,25,-479,135,113,285,192,-98,235,-36,73,105
,236,-53,-669,-1193,-117,-108,136,-5,266,127,-167,-307,260,314,65,-81,-109,-14,-236,-152,365,-327,21,-56,-178,95,-518,-156,286,-805,-78
,-645,-293,62,126,-221,-218,-757,132,83,-965,-7,-408,538,-690,-146,6,-788,-5,122,-24,-483,-19,229,-45,-201,-114,234,-81,166,-83,-75
,8,-112,-86,621,-158,-323,114,-26,215,-26,80,-118,-479,136,86,123,-109,-47,172,156,132,-67,-40,166,-165,-243,-164,26,-24,-1,-208
,348,-95,-42,319,-213,-669,-250,-240,227,-683,-83,-364,-288,206,-138,-106,-104,329,137,-35,-265,-93,-609,-103,142,135,-70,-101,73,-430,-455
,48,-45,-16,42,-32,-19,140,-60,-156,149,7,-98,-118,-53,-99,-138,112,3,-67,-51,-78,-69,-128,-115,-19,-103,-109,-41,87,-49,-7
,257,-163,34,32,192,66,127,115,-409,96,-332,-131,255,-243,66,187,193,-150,23,-210,-49,-46,118,240,285,-94,-46,191,154,-318,20
,4,86,228,510,-263,-72,-209,-363,84,-57,13,-53,256,-24,-185,50,172,-86,-207,-10,-77,179,58,-403,-104,-86,-270,41,272,59,-343
,-155,-201,-16,-94,-129,-288,23,-12,31,42,29,-181,85,-279,-47,161,77,9,-263,29,-309,95,65,70,-152,14,-124,-126,-62,-140,-72
,423,-118,-75,149,-45,-234,308,-170,290,-38,-254,95,852,-390,-82,51,-89,17,6,137,55,226,-40,241,-152,86,-258,-148,595,98,-349
,-70,-71,88,-104,51,-50,-126,72,-38,-103,-126,-74,-44,-82,90,63,-177,-3,-158,-19,-170,-165,-91,-64,-166,11,15,66,-84,-82,-39
,206,43,-211,-215,25,13,-552,106,-206,-288,30,155,179,-265,-355,360,-320,125,-38,7,-147,-181,-44,93,211,-60,-17,38,-541,138,-108
,-276,-73,43,64,-279,-29,156,-32,216,114,-61,25,267,-528,-145,34,-391,-251,15,108,321,-189,165,83,138,-163,251,-305,-176,-22,-148
,-87,10,-23,-19,-24,-112,132,-69,-54,-14,-14,-57,-60,-203,-169,-18,-228,38,4,78,-138,65,-60,32,-86,-61,-79,-82,9,22,-78
,5,23,69,-112,-82,22,-66,-56,-29,56,60,67,-48,-12,42,116,-2,-104,50,-382,-147,-33,-92,-141,44,-92,56,63,4,-31,13
,89,-114,83,220,-82,17,-105,-332,16,-434,69,-8,205,-56,4,-19,64,30,8,-7,-174,-75,26,44,-38,-134,-55,-75,-143,-3,-205
};

long bias_0_nvme0n1[1*256] = {
-224,51,-13,-78,-344,-53,-279,84,34,-112,-35,0,-6,0,-99,-30,-26,-113,-81,28,-109,116,115,759,103,-56,-364,77,142,-35,85,95,-55,-60,122,-130,62,-37,-10,276,95,-67,-63,-29,-55,-346,-6,-10,-129,-71,36,-261,248,-31,-187,-228,-332,-150,45,-47,-22,-18,-25,46,226,-22,-153,88,-194,-58,-26,176,60,-380,-65,-36,-113,170,62,-119,-7,-51,135,-17,189,-44,70,-185,-677,5,-40,-19,-106,92,5,-118,-181,-48,-30,-91,37,-96,-49,41,-41,-2,-147,-174,62,-179,-117,215,-89,445,-30,-55,80,-21,-39,48,-335,-110,-155,46,-471,80,53,-39,-500,42,-13,102,-21,-150,158,-195,48,-104,-140,-21,-85,17,-90,-147,71,-14,85,120,-30,-427,273,-41,-395,-69,116,3,-101,-51,135,70,129,-40,-120,37,-62,-226,34,-411,261,-77,-50,-147,-62,-41,90,-38,0,-11,67,-382,-55,70,151,-103,820,-50,469,-403,-50,155,45,-342,-49,62,-1,-34,-70,43,221,-415,-159,-47,-93,-33,-400,-169,48,87,-96,-50,-174,450,-139,-211,146,113,-159,123,60,-46,397,79,-282,-297,-69,-231,-143,57,-32,-360,86,112,99,70,-27,-20,39,-209,91,9,21,-145,-145,-115,-200,-37,72,8,-39,-265,-41,53,-348,-135,453,168
};

long bias_1_nvme0n1[1*2] = {
535082,-467428
};

#endif
