
/* Trace */

/**
 *  updated on 10/12/2022 03:56:51
 */

#ifndef __W_NVME1N1_H
#define __W_NVME1N1_H

char name_nvme1n1[] = "Trace/nvme1n1";

long weight_0_T_nvme1n1[256*31] = {
-49,-702,-104,-9,15,-162,-203,-319,-121,114,115,-53,88,44,-26,-16,-11,152,-74,-606,205,-141,8,-73,198,44,-4,-402,-27,-132,-209
,41,60,84,-64,60,-118,26,-87,-131,-85,-131,-16,-54,-31,-101,155,-143,-83,-146,-76,130,-3,-55,223,79,86,-161,-126,-142,-29,-113
,343,-286,93,357,-284,135,397,-496,-276,-829,-208,-417,386,594,-447,-334,257,-212,5,-323,253,252,-66,-365,560,-96,-312,-174,-521,-134,202
,-36,-375,-302,77,10,-85,-216,252,117,258,-273,-66,1965,602,95,570,550,-80,-87,-101,-75,-67,-89,78,103,-3,-100,-42,410,46,100
,-124,-78,-233,-451,15,9,-26,-342,-45,186,115,-213,184,-590,171,43,-12,317,-105,-2,439,-334,5,-63,124,-158,-225,199,363,-502,-38
,-345,214,-297,-457,43,18,135,-443,410,39,-47,245,46,196,-142,28,240,-318,48,-138,34,-345,-459,-8,290,-432,-436,-37,204,-588,-24
,4,246,29,323,-1029,82,459,393,-72,423,90,-78,-1233,231,185,-570,-859,-15,58,-474,-1794,-835,-96,-455,-335,-358,-172,75,-666,125,188
,-313,-89,1,-335,51,-183,-216,-270,-74,-112,-113,29,-53,35,43,27,-130,-219,41,-11,-21,-161,-65,111,-109,40,-92,134,44,45,-96
,-264,-297,-771,-180,308,239,-42,-40,-445,-303,-362,-135,123,164,167,-129,211,295,-465,100,469,6,-281,105,-89,-390,-200,58,-519,68,-250
,-24,-29,-1,112,-52,-8,90,-77,-141,-56,20,-31,133,-160,-121,-35,-57,-13,89,68,-117,-119,63,94,-88,-168,-145,-126,-78,-42,-142
,-427,106,-7,-306,450,215,-264,30,60,474,-111,-2,2783,151,-103,-428,309,-12,-104,-80,6,250,-83,-718,131,87,-88,662,139,-169,23
,-185,-290,115,132,-2,172,245,-39,58,463,453,-32,-992,-879,-235,-243,-754,-76,-17,82,-329,-402,-49,138,-122,-182,-112,409,739,-16,-204
,-125,-20,-14,-738,60,-5,-1586,-731,-134,411,50,-10,119,159,34,-361,-123,-2,-7,-485,-113,-33,-11,-668,213,428,21,-476,-78,-23,-5
,-475,-225,-21,-873,-26,-32,-213,-88,-16,-116,116,-112,738,-1602,314,-244,-436,92,-72,-481,106,-440,-67,-32,57,-238,-150,33,-652,449,102
,90,25,35,-160,52,4,77,-112,-1,-206,-63,25,-723,-370,-75,-88,-100,-119,-77,-55,-193,-124,-97,59,51,-17,-27,51,-48,-10,-49
,16,588,-48,-673,-617,236,-422,-337,-146,925,243,69,-1880,-592,72,-412,208,-55,-171,-12,-420,28,-342,-184,-663,30,180,-120,205,-455,-335
,190,-87,-208,416,221,-421,527,104,-474,-301,207,217,-870,-664,461,492,-36,14,-5,112,79,-117,-138,123,36,85,63,-31,185,-225,40
,85,-133,-63,-55,91,-106,123,-1,-112,52,-132,-26,93,114,-122,-97,-116,29,40,-63,-96,-41,-135,15,-121,60,-110,-29,69,-21,-139
,-28,-356,-135,-21,-347,29,-139,-1270,-69,-274,-968,-180,336,-139,-258,-239,-382,104,260,-151,453,-498,-10,-132,-332,272,-855,-96,-796,50,-1
,-8,-959,-524,324,-439,-602,-221,422,161,80,-1311,-378,-477,45,132,43,-516,-60,-1,-83,-383,-266,197,73,-845,324,-74,-51,-1385,-492,12
,-5,-196,-189,-100,70,-74,-75,-42,-225,63,-102,55,-335,-75,1,93,-186,25,-90,1,-130,44,-50,172,116,-190,-119,-15,39,-125,-30
,-254,-224,12,-278,-406,-228,-316,82,47,18,-144,-471,37,249,-91,-270,-448,-174,34,-497,-257,-154,-134,-312,-229,371,-22,-422,479,-224,-198
,-206,-535,11,-831,150,-247,-37,-307,-150,368,-159,-162,-84,869,43,-320,90,-141,51,-369,-73,-155,110,123,270,-531,148,-422,233,3,-140
,475,-104,-79,90,393,-532,-620,-151,-519,168,-507,292,-697,11,-86,334,274,-25,-252,66,241,-191,92,304,-72,-60,176,-274,225,-121,36
,166,443,-92,18,104,-105,-205,47,7,120,62,162,-2310,-695,32,-110,-382,-392,14,-4,-1312,188,115,-26,-598,-80,-283,-149,-716,-201,-156
,-68,12,49,148,-43,-29,-14,-121,-37,-49,23,-10,-231,-21,-89,29,4,-153,-188,-88,-10,-182,42,106,42,-46,-11,-67,36,-130,-80
,244,38,194,-10,751,-303,-1466,-131,32,-1023,190,-25,-1449,-73,-152,678,-199,-275,198,-323,-239,-104,-48,171,-2397,16,-2,429,-721,64,-60
,30,-342,-534,-23,-185,-155,-184,-467,36,98,-383,13,-246,-478,-356,-211,-461,-17,-307,-57,-398,-192,76,183,-192,-126,-525,8,-196,214,59
,113,33,369,439,-690,97,416,-104,-232,229,-54,-109,-621,-524,-70,72,149,150,6,224,148,7,-294,121,194,-573,-425,87,288,-103,196
,596,2,81,-157,333,-213,-85,276,-96,447,678,-134,571,-239,-200,80,-370,-67,-1,914,-765,47,-172,580,-145,194,-96,591,-6,-197,-166
,685,-123,-18,201,390,-273,851,-539,183,-696,135,-255,-2574,-165,-225,201,-836,89,136,66,-760,164,201,-240,-1441,-169,-28,-637,-172,78,94
,103,80,-66,113,-59,-44,-116,-191,-71,-77,-49,-79,-291,-153,-41,-78,-46,31,-206,-127,109,10,-44,116,66,-141,-4,18,-166,-98,-38
,-288,-986,-305,-190,81,-30,-12,222,-108,-479,-186,-49,491,-44,-140,-342,-35,-317,56,-242,827,217,135,-319,217,-205,173,-236,-443,-287,-119
,-490,-652,-642,-176,-1241,-15,11,-1,-591,-75,-1399,-330,-74,37,190,87,42,-247,14,-54,-310,182,-277,-101,-886,251,-140,-130,-126,197,-715
,-224,-48,14,49,-182,-81,12,123,-174,144,-63,-219,-105,-46,-189,-48,-64,-65,18,160,170,48,-136,94,90,-15,-54,-7,103,-6,-66
,417,44,58,-321,-688,63,18,-429,-724,-538,256,2,759,-59,105,-124,-1199,-635,121,-187,352,146,-77,-314,-197,64,154,12,-395,-446,40
,543,43,16,211,230,-86,318,-262,129,-871,-244,-65,-1214,-510,-27,62,207,-56,-136,1145,-201,50,254,142,-1798,-235,-223,242,29,136,-77
,-26,190,260,-748,-1327,-360,183,-240,54,592,-1279,-118,57,514,-227,131,-372,180,117,-57,-1338,-190,163,-40,-338,-136,-361,-36,-457,-20,145
,-959,-272,-217,-1406,36,-81,-819,26,-585,-220,-731,125,1380,503,-88,-947,322,-75,197,-712,334,139,-147,-365,769,-228,-261,-704,175,-91,155
,87,-383,131,-317,-219,-109,-317,371,-311,390,320,75,-703,-758,61,139,-732,-159,-24,84,-564,81,142,56,-441,-280,103,61,312,22,-263
,-419,-853,-99,162,-11,251,-133,-1987,-171,-603,614,-53,576,255,-347,75,-201,-37,286,-189,-365,218,-1061,-22,-1024,-175,-190,-159,-1077,-124,-1219
,-380,423,317,-945,90,301,-759,-27,123,-472,-908,-330,475,59,233,-109,593,31,-66,-47,-933,-125,-210,104,-1165,-470,-302,-26,-1533,-111,-819
,260,152,-76,-4,190,-144,-478,-92,-162,-435,59,88,-1886,-455,-84,-79,-475,-171,-64,261,-553,-34,-43,-229,-647,57,-144,78,-284,-196,-36
,-308,-369,-291,-277,-331,52,-419,-6,-160,-152,288,-346,-391,351,37,-89,-296,-227,7,51,-175,-57,-18,44,-144,-306,-53,-164,27,-137,-263
,-102,-40,12,-78,71,-19,-134,-32,55,39,41,-192,-245,-111,-17,132,-224,-31,-172,30,-240,-175,-47,-32,-138,-190,-157,-150,-13,-55,-38
,-170,45,39,88,-269,-39,71,-20,-143,-94,-151,-63,153,-28,57,-134,-146,24,-171,57,-120,-35,-62,-136,84,15,11,-48,-88,-135,-169
,-118,45,18,4,-200,-112,-206,-11,-90,-2,-14,-21,338,16,-27,61,-78,3,-20,-3,141,-48,-33,48,35,83,-39,-13,-93,-30,-82
,144,-232,10,169,-78,143,-15,193,-73,296,154,-286,1674,847,-618,118,41,4,19,-710,-74,-49,32,-466,256,50,-63,548,374,66,-18
,-51,621,-306,-278,-270,52,-564,334,-128,-7,-346,-78,275,-459,112,401,479,-178,-53,46,-22,-215,-244,680,-123,203,-237,164,69,310,-39
,38,110,-307,-198,-198,186,-49,-233,19,-567,-100,-78,-911,304,173,-130,-2070,-1107,32,439,-478,22,-12,-618,861,107,-34,-160,-604,72,-58
,-212,-542,-129,-491,269,-437,-391,-791,121,-94,666,233,393,-1529,36,-39,-359,-159,-1600,88,422,-1020,-178,-42,123,-241,-234,-36,-73,41,270
,-734,316,177,197,-312,214,8,-661,129,188,-280,-178,83,145,-1012,-182,23,211,177,83,347,-120,-775,-112,220,18,-81,-325,130,-345,-200
,-293,300,75,-194,-1198,-115,90,-84,107,-278,335,264,-276,341,-9,-278,-307,-361,-13,370,-45,103,-48,-743,943,-52,8,271,-412,-428,-10
,-15,-15,17,-105,-20,-161,-89,18,-236,-75,34,-97,-144,-177,-61,106,-209,-28,-119,220,-84,-128,12,38,-221,68,26,16,72,-91,-68
,210,248,137,-378,-659,-286,-361,322,-355,-128,181,-261,-26,-686,92,-105,368,-389,6,41,-137,143,109,-73,121,-231,-693,-91,447,197,-230
,88,-138,-158,-104,109,-157,-139,-28,-185,-92,-216,-16,-99,-107,24,0,0,108,-59,62,-79,-145,-226,5,91,12,-85,-87,-6,-152,94
,-232,-568,-15,208,-109,152,-190,-757,-95,-66,349,-310,1077,297,-329,40,-86,-120,2,-297,233,-211,-114,-180,-58,0,115,-169,-714,-49,195
,23,-3,-71,-72,-186,-92,-49,-138,-119,-119,-3,-119,119,67,-166,-54,26,-122,-181,-91,37,-10,-16,97,-171,-55,41,165,30,-12,-61
,39,20,-228,-61,-77,-56,-172,270,143,-67,-295,-127,-107,194,-59,-129,37,-306,-111,36,-478,178,-169,-4,256,-178,-35,-21,-472,-30,-353
,28,628,91,-462,-391,178,-485,73,2,-268,-128,-372,831,-494,-100,395,-2,-397,-349,15,159,-111,-118,131,-113,-287,6,134,232,-52,81
,-90,-323,-273,429,378,402,-496,-111,-568,-172,-2,-583,396,68,-342,302,319,144,82,153,402,-838,-117,-62,-324,-75,-108,482,-65,-27,19
,-143,-33,-178,136,35,62,35,-53,12,15,-120,-22,-114,-112,30,18,-165,-141,-135,91,-20,28,-154,-5,10,41,-119,30,83,-134,-186
,25,-530,-666,92,-162,-284,45,-617,-280,-217,-1907,-334,260,-252,-72,-86,83,-9,63,85,-1732,5,142,324,19,65,147,-87,-805,165,20
,-588,-1016,-142,-723,-656,-18,-486,-218,-179,-309,-305,187,-57,492,-151,-669,-63,-283,50,-480,326,-82,15,-212,427,-160,-148,-681,197,114,62
,174,122,-1,186,-331,-327,134,-359,-104,88,-15,71,-653,-502,41,-124,-32,71,-240,0,100,210,7,-46,-55,-290,-564,-22,175,-124,87
,-12,-176,-118,-71,-231,46,39,-40,39,106,-5,-23,-326,-47,9,52,-258,-13,-201,134,-295,16,-43,54,-59,-94,-119,-60,-160,-35,-128
,313,303,106,65,-809,328,-74,-86,175,-358,5,-12,-2517,-679,-157,107,-1144,-90,53,231,-1022,-144,-63,260,-298,-57,76,1021,-1177,-139,7
,-76,300,247,1123,-372,-10,312,397,-197,220,-193,-294,-832,-1122,7,-136,-167,-352,-158,115,184,69,242,107,-461,-7,-389,59,-113,-70,-102
,102,-2,-286,-803,673,-31,-541,156,-101,167,119,-451,468,-773,-4,-654,14,-390,-54,468,165,-164,45,-293,-257,240,-22,326,18,252,-215
,-132,-47,15,-102,-118,-18,-242,-261,-3,-5,76,-30,-3653,-2977,-511,-46,1290,165,22,-82,715,86,-5,1123,132,76,-5,175,615,9,31
,9,232,-12,-353,26,-121,-359,-53,-67,-515,12,-28,-2275,-556,-70,-365,-270,-197,-111,244,-289,37,-110,-213,-289,31,5,189,-268,-167,-40
,-269,-353,-203,88,102,-90,6,165,186,117,-160,-167,-1006,125,33,-230,-585,-615,48,616,591,196,160,454,443,-350,165,527,1,-559,109
,-345,45,80,-413,-154,-80,-177,-52,-139,77,-309,-134,175,101,-48,-484,101,51,13,-1,132,-130,-90,3,156,-171,-63,0,1,-2,-62
,-484,507,100,-765,-159,277,-1161,230,157,-416,194,117,-3771,-707,-180,196,-854,-162,52,1103,-1078,-74,10,-130,-852,-172,-54,995,-891,-156,42
,-73,75,-68,-46,-13,-186,-49,-123,-10,-140,-120,17,68,23,-148,-62,-139,-80,-147,-132,-1,25,37,6,-73,-116,-52,20,-53,-120,28
,38,-40,-11,264,-5,-306,95,-169,3,138,-91,-73,-165,-211,-137,34,-211,-120,17,-64,-109,-31,-104,370,168,-18,12,101,30,-31,-264
,298,-54,-104,-31,-10,-115,80,-178,80,-157,54,20,-53,-41,-20,8,-31,-35,-45,-45,43,-12,-156,14,-329,-177,-155,-150,-251,-22,3
,190,382,188,-539,-388,170,-792,-628,183,860,74,-484,-1187,-124,52,-54,481,-156,61,-22,-893,-105,-102,-82,-1558,-379,-225,-137,-1304,245,-52
,1437,-301,-9,265,113,-307,-298,-1611,172,-567,-290,123,-150,446,68,-1320,592,40,-312,195,-11,161,-232,73,-1923,-150,-253,-76,-1003,90,159
,-219,-234,-119,-137,-1280,374,-344,-522,49,-31,-738,-87,4,-155,-718,58,201,-406,-367,-161,401,-861,-195,-134,8,31,-180,-74,-60,185,-124
,-384,-543,-122,-201,-1411,-117,-48,-782,155,-93,-617,-78,285,-549,339,-18,324,-373,-286,-342,302,261,-431,-242,78,-344,-18,42,684,156,-313
,-55,310,86,-339,75,-219,-803,-331,-269,87,-1357,178,1068,462,-236,-357,-296,3,74,-269,-281,-98,-67,-361,-167,162,-88,48,367,-78,-139
,100,-107,-105,78,90,-141,-97,16,16,-118,-38,-121,60,-86,-169,102,35,-16,-92,-5,-87,2,-141,-17,-39,122,-114,125,55,-98,-197
,-38,-33,-198,107,-135,-175,85,-73,8,-342,-109,-226,-1051,-200,-39,-40,-17,-48,-161,-77,-123,47,28,-298,-28,15,-76,-32,-115,25,-48
,144,44,15,287,-115,-52,176,12,16,562,143,48,2809,989,147,105,545,57,71,523,376,-231,2,461,691,11,8,454,229,91,12
,-151,-267,-84,-109,-123,-6,-7,-314,-156,-181,-178,-141,146,-72,37,-54,111,59,5,-100,270,-200,-117,-152,124,-20,-91,83,170,-197,-283
,-43,247,-375,462,-355,30,392,-115,-5,613,339,-137,-711,-78,-141,187,118,-150,-430,10,-220,155,-68,-365,34,-226,11,-275,-939,279,-391
,-398,-42,14,-38,-691,-289,61,-631,-560,-121,45,-59,409,282,-410,-14,-168,44,230,-60,647,-206,172,10,371,19,177,-266,-995,-48,-464
,-51,-170,-170,-157,-244,100,110,-156,-18,40,5,-239,16,-274,0,-138,198,49,-121,-125,93,-85,-207,-49,-183,-56,-246,128,239,-238,63
,215,-434,20,-216,8,30,75,21,-339,-59,-219,-305,538,-1163,316,113,250,-1231,-323,-95,188,-184,-499,-241,220,-113,-107,-65,586,121,132
,-372,-407,70,-1355,151,-488,-503,230,142,406,-652,-438,390,248,26,143,-176,119,-390,65,494,-898,-224,-155,206,-281,-221,-83,-343,-73,408
,-18,-194,82,-93,128,-69,-132,-92,-110,0,119,-331,-930,-433,-23,221,-98,-238,-33,223,39,-12,-68,-73,105,-9,-90,-93,-301,-59,-53
,-181,-211,34,80,-145,-163,-187,-292,-328,226,-209,-18,2299,278,-70,-36,212,-100,-258,266,-53,-42,-183,268,438,-242,-167,405,112,-95,-161
,-113,90,-96,-45,52,-156,25,-35,-47,-6,-132,59,-18,109,-171,34,124,-132,-104,-74,-132,-98,-97,143,-83,-50,-156,-52,-121,26,0
,-140,-189,119,302,-253,-416,178,735,-48,-40,-129,-162,-1347,-440,162,300,147,58,-328,276,33,113,-98,149,83,-368,-331,-28,-281,119,-203
,-281,376,-72,-881,-355,-465,-1113,-339,-294,-735,-418,-139,518,481,332,295,-1579,200,50,108,141,-75,-268,159,-1055,-200,263,-156,-333,-270,-62
,65,-62,78,-310,-210,-268,-338,-282,206,-124,397,-834,-1141,-610,216,134,-126,8,-205,-127,135,24,-17,112,-390,-185,19,-165,-184,-2,-687
,-97,-16,-155,110,69,-134,-140,-5,41,-41,-5,-96,-136,20,-99,-106,28,42,-155,-116,-164,-50,-7,-63,-21,-144,15,-100,25,-37,-65
,84,-87,-121,-28,96,62,-50,-139,-91,41,31,-182,-96,72,-173,-9,-91,-117,-139,72,-7,-33,-98,52,-69,-185,80,-13,-82,-36,-115
,-896,-213,31,-226,-137,-322,-220,427,140,-336,41,-31,239,-6,-96,-37,279,-18,-48,-820,-358,-651,318,-283,574,-274,-263,532,-25,217,-223
,-5,-56,-15,52,8,164,-208,-214,-186,18,141,-187,1925,439,231,51,314,26,150,-181,30,-45,-94,173,328,-141,-203,191,-71,-39,-49
,-118,264,81,-421,135,191,-681,212,203,-226,-20,118,-1459,-1586,-240,65,-1904,-53,27,-114,-190,-207,-9,480,-1603,-144,-47,-218,-2899,-155,10
,4,-158,-211,743,201,-153,401,-179,211,822,85,138,51,-270,-408,466,-132,-255,-125,174,139,12,-593,203,-44,-612,30,-19,106,381,51
,-117,-54,-60,-197,-321,-112,-97,-488,-91,604,-832,-116,-2129,-985,-42,437,571,58,-1,178,621,118,18,180,298,104,50,-387,-1862,305,-62
,-235,-80,-276,-130,283,-247,72,-294,77,87,-691,-88,-1390,-1191,-629,563,205,113,-66,243,649,220,115,94,75,166,114,-264,-302,-172,-73
,212,-96,280,70,-456,-126,322,-463,70,-359,-1158,-470,429,167,58,-248,661,-3,-413,-540,62,-35,-268,-172,177,86,-159,-251,-871,-387,-3
,205,-55,-266,384,370,-51,206,156,-398,48,89,-257,-2530,-623,-35,585,-12,-169,248,277,389,-83,108,336,197,73,-308,-137,-296,-245,-129
,-65,-94,61,167,-805,91,-45,26,-222,456,-371,135,-421,-106,46,-71,-577,-404,19,211,-980,-200,263,94,289,81,-838,95,297,77,-471
,-169,-167,-5,-575,-725,210,-61,-268,-241,-116,-571,-103,56,-447,162,-213,131,-489,-355,-225,420,-212,210,-97,-1282,416,-66,-243,-861,-85,-594
,-521,-827,-137,532,160,-23,-1215,25,-11,-1008,32,2,-102,155,27,-458,-1169,453,22,-892,-36,-37,-11,-105,-196,-25,-3,-618,-207,-11,-21
,-838,-101,275,-788,-428,-200,-1197,490,253,-2119,-473,-63,930,20,125,78,150,-181,-227,21,-353,-204,-193,-244,-2266,381,96,-452,524,-292,-197
,-26,9,-100,108,-92,36,104,-89,-26,-138,25,45,-59,101,12,-34,-165,-20,-144,-165,-5,-38,-167,-34,-127,-41,-4,52,11,-110,-2
,-48,775,-106,10,-737,-142,-1212,-1012,-218,-413,-3,322,1232,-111,-148,-94,-223,23,-254,-384,605,-69,-393,-347,-281,275,-62,-72,-233,106,-50
,-152,-182,-13,-131,-223,-43,140,87,8,-589,-1056,-331,-968,302,181,700,-130,45,46,9,427,86,-28,-42,108,43,46,-32,-1582,-1405,51
,-81,-11,-34,26,-20,-133,14,-45,-9,-199,-47,-172,-201,-144,-146,-214,-280,-46,-112,-45,-104,-161,-11,35,-204,-20,-33,-11,-66,34,67
,-67,-94,49,-63,-133,-12,-4,9,-154,108,2,36,143,-25,-59,122,25,-51,-184,112,39,-150,-13,84,-48,-158,7,-95,50,8,-143
,-12,-567,-8,-260,-798,-67,58,-765,-70,-170,-869,-239,246,622,235,-583,203,-140,56,-1446,965,-115,136,195,423,-189,104,-1064,539,-308,208
,237,-848,166,-95,-870,175,-972,27,-248,612,-101,-158,-1536,196,-8,131,-823,-132,-187,63,-1816,162,-146,-14,131,102,149,-35,-1057,111,-195
,65,-191,-5,190,126,-83,14,-71,-220,216,-54,-98,-22,-173,-24,1,-143,-181,78,72,27,-18,-48,9,2,-74,-106,35,29,-98,60
,437,-298,1,522,-85,-118,298,162,-317,280,146,-151,576,134,101,777,439,-279,-5,15,-185,-28,-193,125,-107,191,-413,-16,102,67,101
,-810,-1014,-191,-41,290,-135,93,574,-36,16,31,-66,-3387,-1929,-310,1416,-182,121,-56,-258,417,-45,12,-225,12,-152,-38,605,380,286,21
,36,-765,-237,64,-87,-458,61,-1137,-161,-43,-1014,-103,286,-664,399,70,-23,-412,180,-94,-52,6,-137,219,557,49,63,199,274,-148,-1045
,382,-481,53,556,3,170,332,-1147,-22,-60,-535,-501,216,642,-134,-244,404,52,-159,-202,379,-356,247,-140,115,-199,-477,-301,417,-104,-87
,75,-153,-71,118,24,-155,15,-3,-131,-142,14,-154,-44,17,37,49,-66,-135,23,-122,-37,-114,-2,40,-39,-162,-90,36,-12,69,1
,4,-74,-142,20,-78,-155,210,-64,38,399,104,-114,-528,-375,30,-64,-1000,-19,-98,-167,-93,11,-153,-506,-211,-180,-151,7,-224,-44,1
,19,-169,-156,75,-294,-250,119,-274,-79,99,3,33,-913,-368,-243,44,-171,-115,-18,229,51,-19,-118,0,-324,-119,45,22,-304,-144,-16
,651,-282,-185,191,371,-121,841,127,107,-31,-164,-84,-1130,-999,-320,40,-176,131,100,-120,-160,177,-308,1135,380,-17,-274,174,44,128,-608
,298,64,340,-645,319,-141,312,107,-184,-24,-1200,-33,168,101,79,617,78,-256,-62,-51,-409,192,-79,0,180,-650,181,-62,-1282,-680,-31
,-3,-658,-287,-761,582,-73,-83,-263,-91,-238,283,120,1578,-1083,367,328,211,-511,-23,222,239,238,111,147,142,-91,-139,542,440,-174,14
,-220,-1166,-316,-829,272,-278,-217,-605,-37,181,22,-565,-574,-68,456,-56,-773,126,-38,1673,878,8,-130,-312,259,-24,-28,-41,-764,-37,123
,1366,-169,120,29,-85,88,307,-220,185,419,-1226,288,-2438,-1000,-186,580,-658,-91,-46,71,-755,9,29,244,-985,-16,52,-56,-2105,-161,26
,599,11,-415,-50,97,-424,117,93,117,-384,288,-27,-986,-339,-57,99,8,-92,-14,-88,18,-48,48,-321,-218,-451,-174,-94,-105,-213,120
,-316,-325,-576,-445,-687,42,-628,113,-143,-1452,506,-104,-952,673,235,94,-1,-122,-182,-78,-580,-370,-34,515,-339,-11,-157,-234,-327,99,141
,-361,-1500,-439,48,-1852,-153,-70,-333,-88,-121,-361,182,-117,-202,116,-10,295,-236,236,85,271,44,-1622,-112,-429,-12,-103,-73,-96,146,-1765
,-20,-322,130,777,-555,-57,202,-214,-178,-561,272,-489,-1042,741,71,-143,-82,49,-537,3,-61,-200,260,-155,-442,-283,-411,-271,69,115,-332
,-424,-911,-119,289,-1342,-164,-276,-236,12,-185,-508,-34,380,-565,-136,-196,-926,307,-12,-1016,864,269,-10,-428,115,53,-45,-849,605,86,4
,1,-102,52,-61,-158,-41,87,-36,-61,-99,-130,24,-4,-90,-188,167,-40,-134,17,-77,-44,-126,-46,-127,151,-21,-26,-128,-191,-122,31
,-183,-145,246,-249,-1101,345,9,418,-137,58,-285,-284,-1374,-960,-207,124,152,-176,-81,282,-1287,-96,-247,138,-282,106,-13,431,-456,-425,72
,44,-1055,87,-754,66,160,17,-547,320,89,48,112,393,-108,0,-211,490,-274,-251,-329,545,-282,-310,86,-165,-134,32,-753,876,-151,-149
,215,198,-388,373,-496,-16,301,261,-357,-486,135,-166,-1179,-788,-226,53,-730,443,36,249,-627,-275,-246,609,593,9,-114,-53,-478,126,233
,707,-11,141,119,-98,38,532,104,56,709,-257,-372,94,180,37,691,-188,-181,-402,646,-123,66,-91,451,-537,-434,132,427,-72,-169,14
,-630,431,343,506,44,289,-204,-461,104,-484,346,-9,720,-85,-192,-820,-112,-391,-96,-393,327,-296,189,-251,-45,-468,-26,-623,41,-54,-285
,-425,-1973,-287,-310,-140,-51,-148,87,-47,-215,43,-136,134,-1551,189,-286,-1306,500,-36,-149,376,-82,-104,88,-376,0,-58,-301,353,-128,-20
,284,22,-201,475,-630,50,303,-320,445,245,218,-717,818,-85,-561,35,-694,144,42,19,197,-102,36,12,-286,-139,81,-347,769,-89,-413
,-409,-245,-199,-642,-145,-28,-483,-217,-19,-411,-137,-56,521,337,96,-205,482,-51,-31,-340,-201,-5,-113,232,106,-60,-57,116,330,-99,-170
,254,-491,-52,-9,-466,-10,162,-647,5,170,-631,235,-397,53,227,22,-810,81,191,12,-1516,-319,-301,29,-379,42,-412,49,-20,-9,-389
,395,-426,100,-222,305,-560,-87,394,277,-106,-203,-179,-135,77,-172,88,103,-232,-637,-30,136,-447,78,-149,145,-214,-56,-153,226,36,-393
,-78,-92,-75,-139,-66,-109,-22,-155,-130,-2,-152,-4,32,-80,-141,157,-42,2,-156,48,-51,-3,44,-41,-119,-79,-145,-43,50,-49,-46
,199,-427,-407,-24,75,-9,-508,445,71,-375,-121,102,-1253,-375,-350,148,451,331,-175,-19,372,137,156,61,-473,-442,31,542,-562,-260,-41
,33,60,0,-1135,-698,-138,-655,8,2,-600,43,-9,334,132,23,43,47,-19,-16,-400,-392,436,17,-378,-116,-19,-7,-473,-81,-30,-13
,-342,-505,214,-901,196,-154,-987,434,-74,-20,-28,80,-2236,-928,39,1384,-1080,-78,204,14,-1308,-284,-155,587,5,5,-72,600,288,-116,-240
,29,128,-383,617,-674,-92,579,526,-200,961,220,93,96,-386,16,318,-214,-132,38,31,-467,-150,266,122,-573,95,-472,246,58,95,-41
,-26,-399,-125,-414,-445,-238,529,113,-102,83,-1263,223,-1955,-423,-40,-152,-940,238,56,800,-1024,199,-103,425,-151,85,-105,879,-701,-34,-3
,-141,-564,-519,128,-334,-201,-110,-555,29,-68,-642,9,164,-518,-312,13,-280,59,-260,97,-414,-236,103,-225,-266,-174,-792,-30,-91,295,127
,-24,70,-398,112,-174,-240,727,37,-168,393,-105,-152,1822,366,80,157,-46,85,-65,-271,-548,-150,221,217,126,-301,-192,-289,-1,95,115
,227,238,-385,-195,-1149,35,-118,-1065,241,251,381,-87,-146,-90,4,145,-574,234,-9,7,-1149,-3,-122,-461,-1379,-185,-10,-64,500,65,-187
,-991,-83,-35,-414,-40,-39,-69,-67,-76,19,-114,-41,2972,1118,189,-671,714,48,6,-480,451,28,-24,102,760,13,34,170,1047,69,35
,66,103,61,-443,-67,-62,-313,105,-226,60,240,244,255,285,-341,-143,-132,-536,-412,-33,-105,-825,-45,-135,-101,-74,-308,-22,271,-404,-406
,-328,371,-1,216,-88,-107,165,-207,-170,-175,-98,-40,851,1058,-18,-93,251,-32,-51,161,249,-32,-73,476,450,91,10,-240,254,-11,-21
,-354,-150,-113,-746,7,2,-1024,179,-88,-784,-913,-206,174,536,520,-456,215,-255,63,-528,-481,8,-172,229,-314,-208,199,-672,-28,-248,-66
,4,-438,75,244,151,-410,41,117,97,172,21,-181,-448,-241,190,-70,243,-36,-139,91,200,231,-565,-56,-994,-302,183,204,133,-52,-425
,392,-301,214,-658,-848,-125,-367,156,-122,379,256,-81,-666,189,49,-33,-304,132,-46,37,-2322,-1021,-134,701,-1370,-2,-37,1031,241,165,34
,-200,-783,-167,-1,-621,179,27,-1398,51,0,-763,364,-142,-311,-80,-72,203,-253,131,132,655,-24,-551,-15,-142,-456,-679,76,-633,124,-1270
,273,-598,-739,260,-644,-25,393,32,212,-306,-214,-460,174,546,147,-44,110,247,-255,-262,219,84,-196,-156,505,-169,-352,-120,-145,23,4
,-740,433,-952,-107,38,185,-629,-449,9,-462,54,48,568,-743,130,110,95,-47,7,87,369,190,-674,-71,478,-652,64,-54,-403,-44,-581
,14,-180,-58,469,-102,202,299,-135,-63,433,270,0,1633,530,-226,297,180,-73,-7,-266,31,-115,-385,-29,35,103,-380,-206,129,71,-113
,-240,389,-1,-91,-563,-178,-101,-481,-95,-60,-323,-165,501,313,14,-72,-9,-417,-69,-388,155,-75,47,-371,145,-111,68,-81,553,-199,-74
,559,-469,-28,-134,392,-274,484,107,-99,-239,219,92,-1740,-467,-66,-115,-1122,-269,-184,544,-565,128,32,359,-537,2,-130,119,850,-137,-105
,100,-17,-134,-2,-159,52,-156,-272,71,199,-94,-32,-802,-483,-136,64,-152,-55,-188,224,169,-7,-124,113,-127,-20,-24,-12,-172,4,-174
,-298,-187,-177,-199,-173,-275,-198,-208,1,269,-277,-138,1705,205,-147,-65,196,-208,-232,92,-132,-197,-154,298,160,-277,-143,474,311,-150,-144
,-212,405,-95,155,-155,-15,320,-39,-188,-235,-432,-140,-1648,-1358,-476,501,-217,-268,119,-251,-242,21,-207,446,774,179,-18,80,-132,321,-102
,-506,-128,187,-381,122,-484,-250,-147,-884,-147,-136,156,-129,534,287,-136,264,-125,-338,-42,332,150,-121,-122,-375,-518,-130,3,124,52,-409
,-1324,-866,-91,-1248,-194,183,-890,205,133,-957,-418,-117,437,607,87,-660,172,-248,230,-1141,216,50,39,-14,245,48,-100,-870,213,-95,-155
,-128,-871,-57,92,-521,-78,-234,-47,-213,-48,-143,-496,-383,-96,-463,130,457,-151,-124,-227,-60,217,-400,-109,603,-469,-166,-345,-279,80,171
,-259,-804,181,-372,-147,-186,-408,-483,-302,-673,-24,-1132,111,324,255,-110,566,-63,-207,-8,-347,126,136,-106,265,-280,-913,-130,596,-386,226
,-736,110,43,-665,-254,86,-277,-355,98,105,-697,119,2946,379,262,-646,684,0,98,-1188,731,-23,83,130,676,-90,102,-40,555,-107,123
,-24,-95,8,-95,-170,-43,69,-61,32,-37,-139,-261,448,57,10,-171,-13,-60,-55,-88,-36,-89,-63,237,382,-159,60,-28,-120,-54,-79
,58,-6,-185,-40,73,-224,-203,-66,-16,-38,-78,25,19,-148,-104,45,110,-27,-148,-117,4,-138,80,55,-25,-9,79,24,-190,-124,-15
,82,226,-257,572,-569,49,656,-280,-568,-503,284,-230,-2490,-1508,-318,-51,122,127,106,1023,406,14,174,1055,-153,263,48,138,-313,-30,19
,91,-249,-227,-64,-114,-34,-213,-46,-142,-94,-99,-25,459,169,-95,-136,-185,-96,-22,-143,-11,-257,-128,51,-35,-2,-157,-78,82,-16,-169
,-593,-377,-14,-971,-300,76,-1268,-78,73,-669,251,-105,464,1045,-856,-567,807,70,-12,-633,159,-20,40,35,-702,22,28,-770,308,136,122
,-808,-735,-103,-872,-610,264,-172,-655,-28,-122,-725,238,472,-328,118,-334,437,-301,-339,-233,229,-27,281,-29,164,99,-59,-932,618,-418,-192
,-299,-104,82,212,-235,-371,-229,100,-295,-192,24,-261,297,-229,-5,-220,249,-189,10,-348,387,-291,192,-24,196,-98,28,-255,202,-253,81
,250,369,114,700,-24,-91,307,-66,-694,72,94,602,-312,-68,-90,-1329,124,-262,-52,171,269,-213,-117,48,-211,99,-242,279,-324,-80,-187
,35,-690,303,-206,-817,0,-186,-49,-127,278,310,-327,-392,15,-6,131,22,46,-289,127,-762,-312,-292,129,-438,140,-22,-1,-482,-86,-244
,46,164,-68,211,127,215,592,-387,-390,503,-365,118,-261,-149,244,-6,5,44,-341,-95,142,53,63,-197,270,-454,-451,-255,-209,-95,-193
,-25,-86,45,-8,-46,52,-46,-171,-55,46,-176,-215,-158,145,63,-3,-446,-132,-232,-75,-417,-172,21,-179,-335,-173,-11,20,-229,-235,35
,18,142,-526,-171,-152,-604,-487,169,119,-91,-19,40,79,173,233,-138,125,36,-167,128,-392,-405,242,-128,236,-627,-161,-126,428,-529,-333
,176,65,-726,164,52,-126,300,-243,-230,251,484,66,-200,-325,186,329,36,204,-498,667,-575,-67,102,218,-545,-281,-610,633,-349,104,-162
,-697,-1711,-280,-824,-418,-115,-686,543,-147,464,-138,-62,139,291,258,-119,197,-108,307,-116,720,-68,98,613,557,-96,-271,6,-78,-38,-952
,-586,39,-187,-283,234,-1285,-345,-628,130,8,-119,-501,22,539,-61,102,142,-91,-369,-153,-101,243,-76,21,-241,-146,-231,23,225,114,-29
,188,-382,54,187,117,77,156,-420,-74,379,373,-220,-2575,-690,-81,-470,-614,44,-255,445,-161,-114,-90,-699,-125,316,-8,-480,594,15,265
,-298,-377,-75,-723,643,115,-794,-435,49,-218,-134,26,-1978,3,10,487,-864,176,43,103,-1259,-856,0,-125,-245,22,17,-183,-1167,18,-30
,32,-146,-122,-114,32,-32,159,19,-138,-11,103,-115,31,-57,64,-123,-131,-139,-45,69,41,15,-178,-100,71,-93,-38,-44,-67,-84,-127
,14,-204,-24,-114,-123,-165,-100,-228,-58,98,-173,-68,71,52,-110,-58,-5,2,-133,-131,-3,2,-86,50,25,58,-158,-173,51,-3,21
,-94,55,-179,55,66,-270,44,-22,-236,46,-47,-69,13,-151,-41,-101,-49,-123,46,-144,17,-198,-91,-44,-43,13,4,-7,58,39,49
,-86,-154,-136,-177,-84,-20,184,-19,-138,229,116,15,373,-22,-99,-53,-14,-167,43,-18,-120,-152,8,63,-86,-42,-45,124,87,-344,39
,-359,-84,-170,-284,213,11,26,99,-178,-83,34,-309,1367,195,404,635,403,-104,-35,-421,-38,-17,-181,-111,41,-37,-122,-241,604,69,-139
,118,-91,-20,50,0,-198,-3,43,-87,-202,26,-163,-172,-271,-109,50,63,-100,-22,-53,-89,-50,31,33,52,-28,-148,-135,-123,-144,-5
,-763,621,-366,-683,-52,-47,224,-587,-136,-369,-64,99,142,133,215,29,-1126,146,-57,-8,-1146,-20,-292,29,154,-425,44,-174,444,-640,58
,369,-248,-65,-865,206,-18,-1419,-407,-262,65,108,29,592,471,161,-31,-986,85,25,-150,-76,7,14,-73,-2794,-1387,80,-64,534,22,27
,290,187,-521,54,25,-183,-21,273,155,-92,-155,-61,653,238,-68,-92,-102,-808,222,275,-99,-287,-72,-141,-223,-644,-59,87,-151,44,58
,-27,-396,-40,-250,-436,14,-257,-506,-115,-235,-592,-49,207,173,33,-24,39,163,93,-144,209,-319,-230,-7,97,-83,-81,251,309,-340,-537
,-804,-407,124,314,327,-438,565,-40,160,-700,-856,-13,369,156,178,-550,-211,-254,-85,-557,-406,-795,68,-564,996,123,215,-73,-596,-232,24
,-20,-314,-143,-43,-30,-144,-164,9,-21,78,-207,-124,-332,-263,-189,-79,-166,10,-124,14,-115,51,-70,-84,-46,31,-99,-61,-186,-41,-125
,-75,-25,3,33,38,-11,-102,-87,35,55,11,-142,-244,-360,-134,33,54,43,-125,-57,101,-1,-170,167,71,-138,-84,-63,-28,-15,-267
,96,-161,43,112,-86,-18,115,-119,-204,142,2,-34,61,30,-128,-14,72,62,4,-55,-81,-50,-91,16,105,-191,-108,-107,-9,-70,42
,-78,-138,-80,-116,-36,-165,-43,-80,61,113,9,-86,19,-137,-83,144,-39,-146,-125,-69,34,-114,-108,66,-94,14,25,-89,99,-27,-101
,-50,-10,-24,-20,16,-129,41,-124,37,31,-109,-176,49,-100,-47,-36,-24,28,-56,40,81,-19,-28,92,-173,-34,42,-84,-259,-88,-82
,332,180,-14,338,-74,83,-77,170,124,220,-356,-26,-1498,-1002,-315,-145,225,-262,-20,-99,-24,-141,131,-48,-423,-125,-261,-88,-446,100,125
,-45,-123,-186,184,4,-147,28,58,-70,156,-21,37,8,18,35,116,108,-184,62,19,-70,-63,-78,-18,-24,-135,-8,88,-180,-127,-80
,-47,206,-21,-87,-787,107,-177,435,-237,-142,-1315,-465,-159,-260,-176,121,-779,106,-513,36,-254,163,328,131,-1763,-343,-77,-45,-348,41,-883
,-77,-127,-52,-11,8,-158,0,-55,-34,26,-148,-208,87,157,-178,44,-125,-165,25,33,-57,15,64,27,-126,-127,-48,-77,-190,-121,-40
,-188,-56,-233,175,-554,213,-529,-10,-273,583,694,-119,-1477,-721,-337,763,191,126,30,383,-86,118,71,399,-1079,58,-528,-280,224,108,-298
,-117,-122,-136,-108,-282,-158,217,22,-122,184,139,22,546,34,-203,-33,-146,-101,42,-173,-55,-36,-19,-166,-25,-32,-28,171,103,-317,-7
,-641,-730,147,97,-4,79,-96,341,-796,-51,-172,-368,-417,-376,181,47,-382,24,-31,-29,331,56,-309,-84,111,12,-456,226,416,-142,182
,-419,7,62,-249,-291,23,-60,422,-110,352,247,9,29,-392,-396,115,-155,-167,-306,17,-137,-112,-10,95,-407,106,-60,-149,-84,20,-6
,35,-403,341,174,-30,223,308,-54,-258,236,-586,-434,513,216,-291,698,110,-139,-37,225,159,-85,171,-88,189,-416,168,-5,459,92,-263
,368,449,-227,400,-486,130,430,-178,-93,116,-365,367,-1015,-118,86,-166,266,-176,-105,-139,-166,-350,-109,396,356,-176,-225,-56,-78,41,-344
,-386,-189,-166,-70,-19,-155,-219,-650,-352,-180,-954,77,-705,113,-43,-293,-162,-617,55,-210,128,-134,-104,-199,-294,352,-49,-257,-139,-111,137
,391,229,-87,-129,-204,-90,-401,-418,396,273,332,-386,-1802,-423,-146,323,48,-248,85,-86,-352,292,18,498,-546,-26,-195,296,521,-350,-244
,78,293,236,137,-185,73,-161,-348,-438,-355,-162,-253,974,260,-266,575,167,-126,-145,-92,-152,11,147,179,-969,-171,-83,-10,-697,-113,-56
,315,58,-201,321,402,100,317,-636,-598,365,-1059,-474,626,518,-310,-164,123,-215,128,-38,75,202,169,6,-369,-89,-406,-1,-119,271,-510
,-88,-26,-424,-95,-133,-169,-2,-215,13,-69,-87,159,141,-89,70,58,173,-115,-126,-12,-123,119,-456,103,110,-250,-223,-32,112,-249,8
,-55,-123,49,-123,-50,51,-89,6,-110,0,81,-227,-92,204,-16,-155,-484,-105,-86,-176,-228,-139,9,-133,-204,-151,-70,17,-220,-170,-2
,-861,-2,-9,-587,37,10,-992,-12,6,-1289,-724,-129,539,128,18,-206,-193,-18,-10,-384,-108,-28,-5,-231,-162,-34,-4,123,-785,446,24
,-81,-164,38,-122,10,-175,56,112,34,-9,-69,-118,-85,-114,-135,103,42,-31,-183,39,-58,-2,-31,-62,-64,-39,63,113,-63,-134,-33
,-34,-6,-86,-61,-90,-13,13,-21,26,-52,-58,-106,-104,-11,-95,-135,61,-79,-39,-93,-12,41,-119,-58,48,-119,-112,-25,100,-110,-73
,-402,429,-4,-682,-584,-118,-254,-1097,51,-905,-967,507,528,-159,-105,-476,12,76,38,-23,-642,17,103,-182,691,-456,-162,-410,-109,-328,-123
,-44,-318,-211,145,178,-275,-714,228,-80,-229,18,394,-1638,-675,-529,-138,-19,250,198,309,125,-159,-187,604,-176,-13,6,575,-424,-344,-58
,384,354,-316,-17,-589,-106,-757,271,-132,194,-34,-55,232,309,72,532,213,-186,36,-112,-13,137,-110,964,-980,8,24,-16,-68,-81,117
,-899,-221,-135,-36,-138,-273,-82,-348,-276,-323,105,-121,-588,972,124,117,-480,-106,-237,81,-663,-225,16,-283,-517,-91,7,-191,-450,-282,182
,190,113,-163,-231,-559,-399,-701,-659,-238,-694,-356,-89,154,636,-132,-308,187,3,4,-294,262,-14,-139,-45,-611,45,108,-288,-498,119,72
,-638,-491,-243,-561,-574,-91,-544,76,-503,-272,-289,-131,213,331,-660,-106,78,58,106,-94,-76,211,-331,-294,352,-265,-132,-144,-251,14,-58
,353,269,293,224,-368,-14,-197,-471,-92,169,636,14,378,-108,116,469,209,323,-36,-18,-372,-204,-146,-468,638,-130,-70,520,-273,11,-107
,-156,-600,34,-288,112,372,-452,170,67,773,-52,18,-453,115,19,-254,-300,-117,-499,-392,-947,-479,69,-194,132,-78,-188,153,347,115,-60
,469,-253,-48,-216,192,79,626,13,-104,588,-105,-198,171,477,-720,-349,191,-90,-212,140,-1838,424,71,50,225,-275,158,80,549,24,-171
,7,146,-131,11,-141,7,-153,-112,-95,36,-126,-177,-194,-103,-173,138,75,-118,-6,54,-48,17,-96,51,-119,40,-148,-6,-86,14,-185
,403,-195,140,-34,510,18,-451,253,-109,58,-162,-639,469,312,61,69,-1174,-7,190,-26,-435,-166,-299,-67,-369,-152,-148,-1,-583,-129,-423
,-218,-35,-44,-169,-63,-134,-173,-135,37,-73,-252,-156,354,184,-31,-76,213,-18,-98,-495,-39,16,-120,127,-98,-9,9,-121,49,-103,-21
,-5,401,-4,792,448,-265,323,165,229,388,-189,-60,1155,-119,-649,-84,-179,-186,-246,1105,-134,-200,71,132,60,280,-203,37,168,179,36
,-303,-47,-82,-311,-113,-45,-109,-79,-11,62,-42,-14,36,-92,18,-147,228,-4,-105,-156,100,39,-63,-150,-71,-190,-124,-173,65,-102,-50
,-605,221,32,-610,143,-19,-792,207,246,348,94,-211,-2596,-638,-321,423,79,-138,-103,24,136,-239,-90,160,74,230,-23,135,-766,-374,-111
,59,359,118,292,184,291,72,-577,-75,614,-406,22,-1925,-970,-600,-190,-133,-65,-93,546,440,-141,-41,564,47,-163,-249,198,173,-94,-41
,-9,-129,-56,254,-381,60,47,400,124,586,383,141,3014,651,58,246,285,-9,-24,543,335,-155,38,452,187,86,-25,622,85,69,-79
,-251,428,89,-564,232,302,-756,137,145,181,-41,-8,-2638,-870,-164,-105,-117,-234,-104,88,-19,-95,-336,27,101,-42,7,-109,-478,-86,-144
,-148,-244,-516,136,390,38,-646,-348,124,639,204,-235,311,-112,-70,283,-39,-26,-336,25,192,-520,71,-66,-946,-4,-11,-125,-422,330,-54
,41,-125,-56,-96,69,-60,-434,-288,-85,-15,-273,-40,202,10,132,30,132,-142,-229,-139,248,-36,6,-212,-147,37,-13,110,-8,-267,-228
,75,-183,-1,8,-69,-120,-203,-68,-33,-107,-164,-46,-365,-253,-50,-52,-37,-14,-133,97,-164,-44,-222,128,72,-55,36,-10,-304,-105,52
,-178,-362,-52,-203,155,63,-306,-79,-30,-171,-402,-161,1373,-134,-48,220,31,-49,-60,123,-49,215,-103,66,88,10,-152,277,-109,-156,-30
,209,-50,-203,-77,141,-430,-349,-287,-34,-67,-99,329,1121,445,-410,-320,-419,-24,160,122,338,-277,-596,291,-628,-98,205,-311,240,53,173
,412,159,-29,-71,41,-473,402,-207,50,-569,107,165,-540,-456,336,408,232,-75,-89,-305,-269,-173,230,-295,258,35,-183,-258,-609,-579,-206
,-189,-1258,-101,-8,637,-124,-261,-1593,3,32,-309,-1011,50,-1447,37,-172,-25,252,214,-88,-717,194,-148,30,-232,-528,-393,10,334,-35,-156
,-776,-187,-168,-662,-69,-143,-899,430,-50,-409,-301,-281,-259,281,411,-34,41,-101,-616,72,-71,-201,-215,-139,-566,-96,-157,-138,-1103,-146,389
,-696,-470,95,515,148,-258,650,-176,123,180,435,-237,95,74,-197,-665,-1181,-465,-128,-17,205,91,-60,-655,938,220,89,-150,-1279,-108,94
,-49,-150,-154,72,20,41,-37,-89,-67,26,-45,-107,42,25,8,144,-71,-96,-110,92,87,63,-54,87,-61,9,14,139,-99,-179,33
};

long weight_1_T_nvme1n1[256*31] = {
-49,-702,-104,-9,15,-162,-203,-319,-121,114,115,-53,88,44,-26,-16,-11,152,-74,-606,205,-141,8,-73,198,44,-4,-402,-27,-132,-209
,41,60,84,-64,60,-118,26,-87,-131,-85,-131,-16,-54,-31,-101,155,-143,-83,-146,-76,130,-3,-55,223,79,86,-161,-126,-142,-29,-113
,343,-286,93,357,-284,135,397,-496,-276,-829,-208,-417,386,594,-447,-334,257,-212,5,-323,253,252,-66,-365,560,-96,-312,-174,-521,-134,202
,-36,-375,-302,77,10,-85,-216,252,117,258,-273,-66,1965,602,95,570,550,-80,-87,-101,-75,-67,-89,78,103,-3,-100,-42,410,46,100
,-124,-78,-233,-451,15,9,-26,-342,-45,186,115,-213,184,-590,171,43,-12,317,-105,-2,439,-334,5,-63,124,-158,-225,199,363,-502,-38
,-345,214,-297,-457,43,18,135,-443,410,39,-47,245,46,196,-142,28,240,-318,48,-138,34,-345,-459,-8,290,-432,-436,-37,204,-588,-24
,4,246,29,323,-1029,82,459,393,-72,423,90,-78,-1233,231,185,-570,-859,-15,58,-474,-1794,-835,-96,-455,-335,-358,-172,75,-666,125,188
,-313,-89,1,-335,51,-183,-216,-270,-74,-112,-113,29,-53,35,43,27,-130,-219,41,-11,-21,-161,-65,111,-109,40,-92,134,44,45,-96
,-264,-297,-771,-180,308,239,-42,-40,-445,-303,-362,-135,123,164,167,-129,211,295,-465,100,469,6,-281,105,-89,-390,-200,58,-519,68,-250
,-24,-29,-1,112,-52,-8,90,-77,-141,-56,20,-31,133,-160,-121,-35,-57,-13,89,68,-117,-119,63,94,-88,-168,-145,-126,-78,-42,-142
,-427,106,-7,-306,450,215,-264,30,60,474,-111,-2,2783,151,-103,-428,309,-12,-104,-80,6,250,-83,-718,131,87,-88,662,139,-169,23
,-185,-290,115,132,-2,172,245,-39,58,463,453,-32,-992,-879,-235,-243,-754,-76,-17,82,-329,-402,-49,138,-122,-182,-112,409,739,-16,-204
,-125,-20,-14,-738,60,-5,-1586,-731,-134,411,50,-10,119,159,34,-361,-123,-2,-7,-485,-113,-33,-11,-668,213,428,21,-476,-78,-23,-5
,-475,-225,-21,-873,-26,-32,-213,-88,-16,-116,116,-112,738,-1602,314,-244,-436,92,-72,-481,106,-440,-67,-32,57,-238,-150,33,-652,449,102
,90,25,35,-160,52,4,77,-112,-1,-206,-63,25,-723,-370,-75,-88,-100,-119,-77,-55,-193,-124,-97,59,51,-17,-27,51,-48,-10,-49
,16,588,-48,-673,-617,236,-422,-337,-146,925,243,69,-1880,-592,72,-412,208,-55,-171,-12,-420,28,-342,-184,-663,30,180,-120,205,-455,-335
,190,-87,-208,416,221,-421,527,104,-474,-301,207,217,-870,-664,461,492,-36,14,-5,112,79,-117,-138,123,36,85,63,-31,185,-225,40
,85,-133,-63,-55,91,-106,123,-1,-112,52,-132,-26,93,114,-122,-97,-116,29,40,-63,-96,-41,-135,15,-121,60,-110,-29,69,-21,-139
,-28,-356,-135,-21,-347,29,-139,-1270,-69,-274,-968,-180,336,-139,-258,-239,-382,104,260,-151,453,-498,-10,-132,-332,272,-855,-96,-796,50,-1
,-8,-959,-524,324,-439,-602,-221,422,161,80,-1311,-378,-477,45,132,43,-516,-60,-1,-83,-383,-266,197,73,-845,324,-74,-51,-1385,-492,12
,-5,-196,-189,-100,70,-74,-75,-42,-225,63,-102,55,-335,-75,1,93,-186,25,-90,1,-130,44,-50,172,116,-190,-119,-15,39,-125,-30
,-254,-224,12,-278,-406,-228,-316,82,47,18,-144,-471,37,249,-91,-270,-448,-174,34,-497,-257,-154,-134,-312,-229,371,-22,-422,479,-224,-198
,-206,-535,11,-831,150,-247,-37,-307,-150,368,-159,-162,-84,869,43,-320,90,-141,51,-369,-73,-155,110,123,270,-531,148,-422,233,3,-140
,475,-104,-79,90,393,-532,-620,-151,-519,168,-507,292,-697,11,-86,334,274,-25,-252,66,241,-191,92,304,-72,-60,176,-274,225,-121,36
,166,443,-92,18,104,-105,-205,47,7,120,62,162,-2310,-695,32,-110,-382,-392,14,-4,-1312,188,115,-26,-598,-80,-283,-149,-716,-201,-156
,-68,12,49,148,-43,-29,-14,-121,-37,-49,23,-10,-231,-21,-89,29,4,-153,-188,-88,-10,-182,42,106,42,-46,-11,-67,36,-130,-80
,244,38,194,-10,751,-303,-1466,-131,32,-1023,190,-25,-1449,-73,-152,678,-199,-275,198,-323,-239,-104,-48,171,-2397,16,-2,429,-721,64,-60
,30,-342,-534,-23,-185,-155,-184,-467,36,98,-383,13,-246,-478,-356,-211,-461,-17,-307,-57,-398,-192,76,183,-192,-126,-525,8,-196,214,59
,113,33,369,439,-690,97,416,-104,-232,229,-54,-109,-621,-524,-70,72,149,150,6,224,148,7,-294,121,194,-573,-425,87,288,-103,196
,596,2,81,-157,333,-213,-85,276,-96,447,678,-134,571,-239,-200,80,-370,-67,-1,914,-765,47,-172,580,-145,194,-96,591,-6,-197,-166
,685,-123,-18,201,390,-273,851,-539,183,-696,135,-255,-2574,-165,-225,201,-836,89,136,66,-760,164,201,-240,-1441,-169,-28,-637,-172,78,94
,103,80,-66,113,-59,-44,-116,-191,-71,-77,-49,-79,-291,-153,-41,-78,-46,31,-206,-127,109,10,-44,116,66,-141,-4,18,-166,-98,-38
,-288,-986,-305,-190,81,-30,-12,222,-108,-479,-186,-49,491,-44,-140,-342,-35,-317,56,-242,827,217,135,-319,217,-205,173,-236,-443,-287,-119
,-490,-652,-642,-176,-1241,-15,11,-1,-591,-75,-1399,-330,-74,37,190,87,42,-247,14,-54,-310,182,-277,-101,-886,251,-140,-130,-126,197,-715
,-224,-48,14,49,-182,-81,12,123,-174,144,-63,-219,-105,-46,-189,-48,-64,-65,18,160,170,48,-136,94,90,-15,-54,-7,103,-6,-66
,417,44,58,-321,-688,63,18,-429,-724,-538,256,2,759,-59,105,-124,-1199,-635,121,-187,352,146,-77,-314,-197,64,154,12,-395,-446,40
,543,43,16,211,230,-86,318,-262,129,-871,-244,-65,-1214,-510,-27,62,207,-56,-136,1145,-201,50,254,142,-1798,-235,-223,242,29,136,-77
,-26,190,260,-748,-1327,-360,183,-240,54,592,-1279,-118,57,514,-227,131,-372,180,117,-57,-1338,-190,163,-40,-338,-136,-361,-36,-457,-20,145
,-959,-272,-217,-1406,36,-81,-819,26,-585,-220,-731,125,1380,503,-88,-947,322,-75,197,-712,334,139,-147,-365,769,-228,-261,-704,175,-91,155
,87,-383,131,-317,-219,-109,-317,371,-311,390,320,75,-703,-758,61,139,-732,-159,-24,84,-564,81,142,56,-441,-280,103,61,312,22,-263
,-419,-853,-99,162,-11,251,-133,-1987,-171,-603,614,-53,576,255,-347,75,-201,-37,286,-189,-365,218,-1061,-22,-1024,-175,-190,-159,-1077,-124,-1219
,-380,423,317,-945,90,301,-759,-27,123,-472,-908,-330,475,59,233,-109,593,31,-66,-47,-933,-125,-210,104,-1165,-470,-302,-26,-1533,-111,-819
,260,152,-76,-4,190,-144,-478,-92,-162,-435,59,88,-1886,-455,-84,-79,-475,-171,-64,261,-553,-34,-43,-229,-647,57,-144,78,-284,-196,-36
,-308,-369,-291,-277,-331,52,-419,-6,-160,-152,288,-346,-391,351,37,-89,-296,-227,7,51,-175,-57,-18,44,-144,-306,-53,-164,27,-137,-263
,-102,-40,12,-78,71,-19,-134,-32,55,39,41,-192,-245,-111,-17,132,-224,-31,-172,30,-240,-175,-47,-32,-138,-190,-157,-150,-13,-55,-38
,-170,45,39,88,-269,-39,71,-20,-143,-94,-151,-63,153,-28,57,-134,-146,24,-171,57,-120,-35,-62,-136,84,15,11,-48,-88,-135,-169
,-118,45,18,4,-200,-112,-206,-11,-90,-2,-14,-21,338,16,-27,61,-78,3,-20,-3,141,-48,-33,48,35,83,-39,-13,-93,-30,-82
,144,-232,10,169,-78,143,-15,193,-73,296,154,-286,1674,847,-618,118,41,4,19,-710,-74,-49,32,-466,256,50,-63,548,374,66,-18
,-51,621,-306,-278,-270,52,-564,334,-128,-7,-346,-78,275,-459,112,401,479,-178,-53,46,-22,-215,-244,680,-123,203,-237,164,69,310,-39
,38,110,-307,-198,-198,186,-49,-233,19,-567,-100,-78,-911,304,173,-130,-2070,-1107,32,439,-478,22,-12,-618,861,107,-34,-160,-604,72,-58
,-212,-542,-129,-491,269,-437,-391,-791,121,-94,666,233,393,-1529,36,-39,-359,-159,-1600,88,422,-1020,-178,-42,123,-241,-234,-36,-73,41,270
,-734,316,177,197,-312,214,8,-661,129,188,-280,-178,83,145,-1012,-182,23,211,177,83,347,-120,-775,-112,220,18,-81,-325,130,-345,-200
,-293,300,75,-194,-1198,-115,90,-84,107,-278,335,264,-276,341,-9,-278,-307,-361,-13,370,-45,103,-48,-743,943,-52,8,271,-412,-428,-10
,-15,-15,17,-105,-20,-161,-89,18,-236,-75,34,-97,-144,-177,-61,106,-209,-28,-119,220,-84,-128,12,38,-221,68,26,16,72,-91,-68
,210,248,137,-378,-659,-286,-361,322,-355,-128,181,-261,-26,-686,92,-105,368,-389,6,41,-137,143,109,-73,121,-231,-693,-91,447,197,-230
,88,-138,-158,-104,109,-157,-139,-28,-185,-92,-216,-16,-99,-107,24,0,0,108,-59,62,-79,-145,-226,5,91,12,-85,-87,-6,-152,94
,-232,-568,-15,208,-109,152,-190,-757,-95,-66,349,-310,1077,297,-329,40,-86,-120,2,-297,233,-211,-114,-180,-58,0,115,-169,-714,-49,195
,23,-3,-71,-72,-186,-92,-49,-138,-119,-119,-3,-119,119,67,-166,-54,26,-122,-181,-91,37,-10,-16,97,-171,-55,41,165,30,-12,-61
,39,20,-228,-61,-77,-56,-172,270,143,-67,-295,-127,-107,194,-59,-129,37,-306,-111,36,-478,178,-169,-4,256,-178,-35,-21,-472,-30,-353
,28,628,91,-462,-391,178,-485,73,2,-268,-128,-372,831,-494,-100,395,-2,-397,-349,15,159,-111,-118,131,-113,-287,6,134,232,-52,81
,-90,-323,-273,429,378,402,-496,-111,-568,-172,-2,-583,396,68,-342,302,319,144,82,153,402,-838,-117,-62,-324,-75,-108,482,-65,-27,19
,-143,-33,-178,136,35,62,35,-53,12,15,-120,-22,-114,-112,30,18,-165,-141,-135,91,-20,28,-154,-5,10,41,-119,30,83,-134,-186
,25,-530,-666,92,-162,-284,45,-617,-280,-217,-1907,-334,260,-252,-72,-86,83,-9,63,85,-1732,5,142,324,19,65,147,-87,-805,165,20
,-588,-1016,-142,-723,-656,-18,-486,-218,-179,-309,-305,187,-57,492,-151,-669,-63,-283,50,-480,326,-82,15,-212,427,-160,-148,-681,197,114,62
,174,122,-1,186,-331,-327,134,-359,-104,88,-15,71,-653,-502,41,-124,-32,71,-240,0,100,210,7,-46,-55,-290,-564,-22,175,-124,87
,-12,-176,-118,-71,-231,46,39,-40,39,106,-5,-23,-326,-47,9,52,-258,-13,-201,134,-295,16,-43,54,-59,-94,-119,-60,-160,-35,-128
,313,303,106,65,-809,328,-74,-86,175,-358,5,-12,-2517,-679,-157,107,-1144,-90,53,231,-1022,-144,-63,260,-298,-57,76,1021,-1177,-139,7
,-76,300,247,1123,-372,-10,312,397,-197,220,-193,-294,-832,-1122,7,-136,-167,-352,-158,115,184,69,242,107,-461,-7,-389,59,-113,-70,-102
,102,-2,-286,-803,673,-31,-541,156,-101,167,119,-451,468,-773,-4,-654,14,-390,-54,468,165,-164,45,-293,-257,240,-22,326,18,252,-215
,-132,-47,15,-102,-118,-18,-242,-261,-3,-5,76,-30,-3653,-2977,-511,-46,1290,165,22,-82,715,86,-5,1123,132,76,-5,175,615,9,31
,9,232,-12,-353,26,-121,-359,-53,-67,-515,12,-28,-2275,-556,-70,-365,-270,-197,-111,244,-289,37,-110,-213,-289,31,5,189,-268,-167,-40
,-269,-353,-203,88,102,-90,6,165,186,117,-160,-167,-1006,125,33,-230,-585,-615,48,616,591,196,160,454,443,-350,165,527,1,-559,109
,-345,45,80,-413,-154,-80,-177,-52,-139,77,-309,-134,175,101,-48,-484,101,51,13,-1,132,-130,-90,3,156,-171,-63,0,1,-2,-62
,-484,507,100,-765,-159,277,-1161,230,157,-416,194,117,-3771,-707,-180,196,-854,-162,52,1103,-1078,-74,10,-130,-852,-172,-54,995,-891,-156,42
,-73,75,-68,-46,-13,-186,-49,-123,-10,-140,-120,17,68,23,-148,-62,-139,-80,-147,-132,-1,25,37,6,-73,-116,-52,20,-53,-120,28
,38,-40,-11,264,-5,-306,95,-169,3,138,-91,-73,-165,-211,-137,34,-211,-120,17,-64,-109,-31,-104,370,168,-18,12,101,30,-31,-264
,298,-54,-104,-31,-10,-115,80,-178,80,-157,54,20,-53,-41,-20,8,-31,-35,-45,-45,43,-12,-156,14,-329,-177,-155,-150,-251,-22,3
,190,382,188,-539,-388,170,-792,-628,183,860,74,-484,-1187,-124,52,-54,481,-156,61,-22,-893,-105,-102,-82,-1558,-379,-225,-137,-1304,245,-52
,1437,-301,-9,265,113,-307,-298,-1611,172,-567,-290,123,-150,446,68,-1320,592,40,-312,195,-11,161,-232,73,-1923,-150,-253,-76,-1003,90,159
,-219,-234,-119,-137,-1280,374,-344,-522,49,-31,-738,-87,4,-155,-718,58,201,-406,-367,-161,401,-861,-195,-134,8,31,-180,-74,-60,185,-124
,-384,-543,-122,-201,-1411,-117,-48,-782,155,-93,-617,-78,285,-549,339,-18,324,-373,-286,-342,302,261,-431,-242,78,-344,-18,42,684,156,-313
,-55,310,86,-339,75,-219,-803,-331,-269,87,-1357,178,1068,462,-236,-357,-296,3,74,-269,-281,-98,-67,-361,-167,162,-88,48,367,-78,-139
,100,-107,-105,78,90,-141,-97,16,16,-118,-38,-121,60,-86,-169,102,35,-16,-92,-5,-87,2,-141,-17,-39,122,-114,125,55,-98,-197
,-38,-33,-198,107,-135,-175,85,-73,8,-342,-109,-226,-1051,-200,-39,-40,-17,-48,-161,-77,-123,47,28,-298,-28,15,-76,-32,-115,25,-48
,144,44,15,287,-115,-52,176,12,16,562,143,48,2809,989,147,105,545,57,71,523,376,-231,2,461,691,11,8,454,229,91,12
,-151,-267,-84,-109,-123,-6,-7,-314,-156,-181,-178,-141,146,-72,37,-54,111,59,5,-100,270,-200,-117,-152,124,-20,-91,83,170,-197,-283
,-43,247,-375,462,-355,30,392,-115,-5,613,339,-137,-711,-78,-141,187,118,-150,-430,10,-220,155,-68,-365,34,-226,11,-275,-939,279,-391
,-398,-42,14,-38,-691,-289,61,-631,-560,-121,45,-59,409,282,-410,-14,-168,44,230,-60,647,-206,172,10,371,19,177,-266,-995,-48,-464
,-51,-170,-170,-157,-244,100,110,-156,-18,40,5,-239,16,-274,0,-138,198,49,-121,-125,93,-85,-207,-49,-183,-56,-246,128,239,-238,63
,215,-434,20,-216,8,30,75,21,-339,-59,-219,-305,538,-1163,316,113,250,-1231,-323,-95,188,-184,-499,-241,220,-113,-107,-65,586,121,132
,-372,-407,70,-1355,151,-488,-503,230,142,406,-652,-438,390,248,26,143,-176,119,-390,65,494,-898,-224,-155,206,-281,-221,-83,-343,-73,408
,-18,-194,82,-93,128,-69,-132,-92,-110,0,119,-331,-930,-433,-23,221,-98,-238,-33,223,39,-12,-68,-73,105,-9,-90,-93,-301,-59,-53
,-181,-211,34,80,-145,-163,-187,-292,-328,226,-209,-18,2299,278,-70,-36,212,-100,-258,266,-53,-42,-183,268,438,-242,-167,405,112,-95,-161
,-113,90,-96,-45,52,-156,25,-35,-47,-6,-132,59,-18,109,-171,34,124,-132,-104,-74,-132,-98,-97,143,-83,-50,-156,-52,-121,26,0
,-140,-189,119,302,-253,-416,178,735,-48,-40,-129,-162,-1347,-440,162,300,147,58,-328,276,33,113,-98,149,83,-368,-331,-28,-281,119,-203
,-281,376,-72,-881,-355,-465,-1113,-339,-294,-735,-418,-139,518,481,332,295,-1579,200,50,108,141,-75,-268,159,-1055,-200,263,-156,-333,-270,-62
,65,-62,78,-310,-210,-268,-338,-282,206,-124,397,-834,-1141,-610,216,134,-126,8,-205,-127,135,24,-17,112,-390,-185,19,-165,-184,-2,-687
,-97,-16,-155,110,69,-134,-140,-5,41,-41,-5,-96,-136,20,-99,-106,28,42,-155,-116,-164,-50,-7,-63,-21,-144,15,-100,25,-37,-65
,84,-87,-121,-28,96,62,-50,-139,-91,41,31,-182,-96,72,-173,-9,-91,-117,-139,72,-7,-33,-98,52,-69,-185,80,-13,-82,-36,-115
,-896,-213,31,-226,-137,-322,-220,427,140,-336,41,-31,239,-6,-96,-37,279,-18,-48,-820,-358,-651,318,-283,574,-274,-263,532,-25,217,-223
,-5,-56,-15,52,8,164,-208,-214,-186,18,141,-187,1925,439,231,51,314,26,150,-181,30,-45,-94,173,328,-141,-203,191,-71,-39,-49
,-118,264,81,-421,135,191,-681,212,203,-226,-20,118,-1459,-1586,-240,65,-1904,-53,27,-114,-190,-207,-9,480,-1603,-144,-47,-218,-2899,-155,10
,4,-158,-211,743,201,-153,401,-179,211,822,85,138,51,-270,-408,466,-132,-255,-125,174,139,12,-593,203,-44,-612,30,-19,106,381,51
,-117,-54,-60,-197,-321,-112,-97,-488,-91,604,-832,-116,-2129,-985,-42,437,571,58,-1,178,621,118,18,180,298,104,50,-387,-1862,305,-62
,-235,-80,-276,-130,283,-247,72,-294,77,87,-691,-88,-1390,-1191,-629,563,205,113,-66,243,649,220,115,94,75,166,114,-264,-302,-172,-73
,212,-96,280,70,-456,-126,322,-463,70,-359,-1158,-470,429,167,58,-248,661,-3,-413,-540,62,-35,-268,-172,177,86,-159,-251,-871,-387,-3
,205,-55,-266,384,370,-51,206,156,-398,48,89,-257,-2530,-623,-35,585,-12,-169,248,277,389,-83,108,336,197,73,-308,-137,-296,-245,-129
,-65,-94,61,167,-805,91,-45,26,-222,456,-371,135,-421,-106,46,-71,-577,-404,19,211,-980,-200,263,94,289,81,-838,95,297,77,-471
,-169,-167,-5,-575,-725,210,-61,-268,-241,-116,-571,-103,56,-447,162,-213,131,-489,-355,-225,420,-212,210,-97,-1282,416,-66,-243,-861,-85,-594
,-521,-827,-137,532,160,-23,-1215,25,-11,-1008,32,2,-102,155,27,-458,-1169,453,22,-892,-36,-37,-11,-105,-196,-25,-3,-618,-207,-11,-21
,-838,-101,275,-788,-428,-200,-1197,490,253,-2119,-473,-63,930,20,125,78,150,-181,-227,21,-353,-204,-193,-244,-2266,381,96,-452,524,-292,-197
,-26,9,-100,108,-92,36,104,-89,-26,-138,25,45,-59,101,12,-34,-165,-20,-144,-165,-5,-38,-167,-34,-127,-41,-4,52,11,-110,-2
,-48,775,-106,10,-737,-142,-1212,-1012,-218,-413,-3,322,1232,-111,-148,-94,-223,23,-254,-384,605,-69,-393,-347,-281,275,-62,-72,-233,106,-50
,-152,-182,-13,-131,-223,-43,140,87,8,-589,-1056,-331,-968,302,181,700,-130,45,46,9,427,86,-28,-42,108,43,46,-32,-1582,-1405,51
,-81,-11,-34,26,-20,-133,14,-45,-9,-199,-47,-172,-201,-144,-146,-214,-280,-46,-112,-45,-104,-161,-11,35,-204,-20,-33,-11,-66,34,67
,-67,-94,49,-63,-133,-12,-4,9,-154,108,2,36,143,-25,-59,122,25,-51,-184,112,39,-150,-13,84,-48,-158,7,-95,50,8,-143
,-12,-567,-8,-260,-798,-67,58,-765,-70,-170,-869,-239,246,622,235,-583,203,-140,56,-1446,965,-115,136,195,423,-189,104,-1064,539,-308,208
,237,-848,166,-95,-870,175,-972,27,-248,612,-101,-158,-1536,196,-8,131,-823,-132,-187,63,-1816,162,-146,-14,131,102,149,-35,-1057,111,-195
,65,-191,-5,190,126,-83,14,-71,-220,216,-54,-98,-22,-173,-24,1,-143,-181,78,72,27,-18,-48,9,2,-74,-106,35,29,-98,60
,437,-298,1,522,-85,-118,298,162,-317,280,146,-151,576,134,101,777,439,-279,-5,15,-185,-28,-193,125,-107,191,-413,-16,102,67,101
,-810,-1014,-191,-41,290,-135,93,574,-36,16,31,-66,-3387,-1929,-310,1416,-182,121,-56,-258,417,-45,12,-225,12,-152,-38,605,380,286,21
,36,-765,-237,64,-87,-458,61,-1137,-161,-43,-1014,-103,286,-664,399,70,-23,-412,180,-94,-52,6,-137,219,557,49,63,199,274,-148,-1045
,382,-481,53,556,3,170,332,-1147,-22,-60,-535,-501,216,642,-134,-244,404,52,-159,-202,379,-356,247,-140,115,-199,-477,-301,417,-104,-87
,75,-153,-71,118,24,-155,15,-3,-131,-142,14,-154,-44,17,37,49,-66,-135,23,-122,-37,-114,-2,40,-39,-162,-90,36,-12,69,1
,4,-74,-142,20,-78,-155,210,-64,38,399,104,-114,-528,-375,30,-64,-1000,-19,-98,-167,-93,11,-153,-506,-211,-180,-151,7,-224,-44,1
,19,-169,-156,75,-294,-250,119,-274,-79,99,3,33,-913,-368,-243,44,-171,-115,-18,229,51,-19,-118,0,-324,-119,45,22,-304,-144,-16
,651,-282,-185,191,371,-121,841,127,107,-31,-164,-84,-1130,-999,-320,40,-176,131,100,-120,-160,177,-308,1135,380,-17,-274,174,44,128,-608
,298,64,340,-645,319,-141,312,107,-184,-24,-1200,-33,168,101,79,617,78,-256,-62,-51,-409,192,-79,0,180,-650,181,-62,-1282,-680,-31
,-3,-658,-287,-761,582,-73,-83,-263,-91,-238,283,120,1578,-1083,367,328,211,-511,-23,222,239,238,111,147,142,-91,-139,542,440,-174,14
,-220,-1166,-316,-829,272,-278,-217,-605,-37,181,22,-565,-574,-68,456,-56,-773,126,-38,1673,878,8,-130,-312,259,-24,-28,-41,-764,-37,123
,1366,-169,120,29,-85,88,307,-220,185,419,-1226,288,-2438,-1000,-186,580,-658,-91,-46,71,-755,9,29,244,-985,-16,52,-56,-2105,-161,26
,599,11,-415,-50,97,-424,117,93,117,-384,288,-27,-986,-339,-57,99,8,-92,-14,-88,18,-48,48,-321,-218,-451,-174,-94,-105,-213,120
,-316,-325,-576,-445,-687,42,-628,113,-143,-1452,506,-104,-952,673,235,94,-1,-122,-182,-78,-580,-370,-34,515,-339,-11,-157,-234,-327,99,141
,-361,-1500,-439,48,-1852,-153,-70,-333,-88,-121,-361,182,-117,-202,116,-10,295,-236,236,85,271,44,-1622,-112,-429,-12,-103,-73,-96,146,-1765
,-20,-322,130,777,-555,-57,202,-214,-178,-561,272,-489,-1042,741,71,-143,-82,49,-537,3,-61,-200,260,-155,-442,-283,-411,-271,69,115,-332
,-424,-911,-119,289,-1342,-164,-276,-236,12,-185,-508,-34,380,-565,-136,-196,-926,307,-12,-1016,864,269,-10,-428,115,53,-45,-849,605,86,4
,1,-102,52,-61,-158,-41,87,-36,-61,-99,-130,24,-4,-90,-188,167,-40,-134,17,-77,-44,-126,-46,-127,151,-21,-26,-128,-191,-122,31
,-183,-145,246,-249,-1101,345,9,418,-137,58,-285,-284,-1374,-960,-207,124,152,-176,-81,282,-1287,-96,-247,138,-282,106,-13,431,-456,-425,72
,44,-1055,87,-754,66,160,17,-547,320,89,48,112,393,-108,0,-211,490,-274,-251,-329,545,-282,-310,86,-165,-134,32,-753,876,-151,-149
,215,198,-388,373,-496,-16,301,261,-357,-486,135,-166,-1179,-788,-226,53,-730,443,36,249,-627,-275,-246,609,593,9,-114,-53,-478,126,233
,707,-11,141,119,-98,38,532,104,56,709,-257,-372,94,180,37,691,-188,-181,-402,646,-123,66,-91,451,-537,-434,132,427,-72,-169,14
,-630,431,343,506,44,289,-204,-461,104,-484,346,-9,720,-85,-192,-820,-112,-391,-96,-393,327,-296,189,-251,-45,-468,-26,-623,41,-54,-285
,-425,-1973,-287,-310,-140,-51,-148,87,-47,-215,43,-136,134,-1551,189,-286,-1306,500,-36,-149,376,-82,-104,88,-376,0,-58,-301,353,-128,-20
,284,22,-201,475,-630,50,303,-320,445,245,218,-717,818,-85,-561,35,-694,144,42,19,197,-102,36,12,-286,-139,81,-347,769,-89,-413
,-409,-245,-199,-642,-145,-28,-483,-217,-19,-411,-137,-56,521,337,96,-205,482,-51,-31,-340,-201,-5,-113,232,106,-60,-57,116,330,-99,-170
,254,-491,-52,-9,-466,-10,162,-647,5,170,-631,235,-397,53,227,22,-810,81,191,12,-1516,-319,-301,29,-379,42,-412,49,-20,-9,-389
,395,-426,100,-222,305,-560,-87,394,277,-106,-203,-179,-135,77,-172,88,103,-232,-637,-30,136,-447,78,-149,145,-214,-56,-153,226,36,-393
,-78,-92,-75,-139,-66,-109,-22,-155,-130,-2,-152,-4,32,-80,-141,157,-42,2,-156,48,-51,-3,44,-41,-119,-79,-145,-43,50,-49,-46
,199,-427,-407,-24,75,-9,-508,445,71,-375,-121,102,-1253,-375,-350,148,451,331,-175,-19,372,137,156,61,-473,-442,31,542,-562,-260,-41
,33,60,0,-1135,-698,-138,-655,8,2,-600,43,-9,334,132,23,43,47,-19,-16,-400,-392,436,17,-378,-116,-19,-7,-473,-81,-30,-13
,-342,-505,214,-901,196,-154,-987,434,-74,-20,-28,80,-2236,-928,39,1384,-1080,-78,204,14,-1308,-284,-155,587,5,5,-72,600,288,-116,-240
,29,128,-383,617,-674,-92,579,526,-200,961,220,93,96,-386,16,318,-214,-132,38,31,-467,-150,266,122,-573,95,-472,246,58,95,-41
,-26,-399,-125,-414,-445,-238,529,113,-102,83,-1263,223,-1955,-423,-40,-152,-940,238,56,800,-1024,199,-103,425,-151,85,-105,879,-701,-34,-3
,-141,-564,-519,128,-334,-201,-110,-555,29,-68,-642,9,164,-518,-312,13,-280,59,-260,97,-414,-236,103,-225,-266,-174,-792,-30,-91,295,127
,-24,70,-398,112,-174,-240,727,37,-168,393,-105,-152,1822,366,80,157,-46,85,-65,-271,-548,-150,221,217,126,-301,-192,-289,-1,95,115
,227,238,-385,-195,-1149,35,-118,-1065,241,251,381,-87,-146,-90,4,145,-574,234,-9,7,-1149,-3,-122,-461,-1379,-185,-10,-64,500,65,-187
,-991,-83,-35,-414,-40,-39,-69,-67,-76,19,-114,-41,2972,1118,189,-671,714,48,6,-480,451,28,-24,102,760,13,34,170,1047,69,35
,66,103,61,-443,-67,-62,-313,105,-226,60,240,244,255,285,-341,-143,-132,-536,-412,-33,-105,-825,-45,-135,-101,-74,-308,-22,271,-404,-406
,-328,371,-1,216,-88,-107,165,-207,-170,-175,-98,-40,851,1058,-18,-93,251,-32,-51,161,249,-32,-73,476,450,91,10,-240,254,-11,-21
,-354,-150,-113,-746,7,2,-1024,179,-88,-784,-913,-206,174,536,520,-456,215,-255,63,-528,-481,8,-172,229,-314,-208,199,-672,-28,-248,-66
,4,-438,75,244,151,-410,41,117,97,172,21,-181,-448,-241,190,-70,243,-36,-139,91,200,231,-565,-56,-994,-302,183,204,133,-52,-425
,392,-301,214,-658,-848,-125,-367,156,-122,379,256,-81,-666,189,49,-33,-304,132,-46,37,-2322,-1021,-134,701,-1370,-2,-37,1031,241,165,34
,-200,-783,-167,-1,-621,179,27,-1398,51,0,-763,364,-142,-311,-80,-72,203,-253,131,132,655,-24,-551,-15,-142,-456,-679,76,-633,124,-1270
,273,-598,-739,260,-644,-25,393,32,212,-306,-214,-460,174,546,147,-44,110,247,-255,-262,219,84,-196,-156,505,-169,-352,-120,-145,23,4
,-740,433,-952,-107,38,185,-629,-449,9,-462,54,48,568,-743,130,110,95,-47,7,87,369,190,-674,-71,478,-652,64,-54,-403,-44,-581
,14,-180,-58,469,-102,202,299,-135,-63,433,270,0,1633,530,-226,297,180,-73,-7,-266,31,-115,-385,-29,35,103,-380,-206,129,71,-113
,-240,389,-1,-91,-563,-178,-101,-481,-95,-60,-323,-165,501,313,14,-72,-9,-417,-69,-388,155,-75,47,-371,145,-111,68,-81,553,-199,-74
,559,-469,-28,-134,392,-274,484,107,-99,-239,219,92,-1740,-467,-66,-115,-1122,-269,-184,544,-565,128,32,359,-537,2,-130,119,850,-137,-105
,100,-17,-134,-2,-159,52,-156,-272,71,199,-94,-32,-802,-483,-136,64,-152,-55,-188,224,169,-7,-124,113,-127,-20,-24,-12,-172,4,-174
,-298,-187,-177,-199,-173,-275,-198,-208,1,269,-277,-138,1705,205,-147,-65,196,-208,-232,92,-132,-197,-154,298,160,-277,-143,474,311,-150,-144
,-212,405,-95,155,-155,-15,320,-39,-188,-235,-432,-140,-1648,-1358,-476,501,-217,-268,119,-251,-242,21,-207,446,774,179,-18,80,-132,321,-102
,-506,-128,187,-381,122,-484,-250,-147,-884,-147,-136,156,-129,534,287,-136,264,-125,-338,-42,332,150,-121,-122,-375,-518,-130,3,124,52,-409
,-1324,-866,-91,-1248,-194,183,-890,205,133,-957,-418,-117,437,607,87,-660,172,-248,230,-1141,216,50,39,-14,245,48,-100,-870,213,-95,-155
,-128,-871,-57,92,-521,-78,-234,-47,-213,-48,-143,-496,-383,-96,-463,130,457,-151,-124,-227,-60,217,-400,-109,603,-469,-166,-345,-279,80,171
,-259,-804,181,-372,-147,-186,-408,-483,-302,-673,-24,-1132,111,324,255,-110,566,-63,-207,-8,-347,126,136,-106,265,-280,-913,-130,596,-386,226
,-736,110,43,-665,-254,86,-277,-355,98,105,-697,119,2946,379,262,-646,684,0,98,-1188,731,-23,83,130,676,-90,102,-40,555,-107,123
,-24,-95,8,-95,-170,-43,69,-61,32,-37,-139,-261,448,57,10,-171,-13,-60,-55,-88,-36,-89,-63,237,382,-159,60,-28,-120,-54,-79
,58,-6,-185,-40,73,-224,-203,-66,-16,-38,-78,25,19,-148,-104,45,110,-27,-148,-117,4,-138,80,55,-25,-9,79,24,-190,-124,-15
,82,226,-257,572,-569,49,656,-280,-568,-503,284,-230,-2490,-1508,-318,-51,122,127,106,1023,406,14,174,1055,-153,263,48,138,-313,-30,19
,91,-249,-227,-64,-114,-34,-213,-46,-142,-94,-99,-25,459,169,-95,-136,-185,-96,-22,-143,-11,-257,-128,51,-35,-2,-157,-78,82,-16,-169
,-593,-377,-14,-971,-300,76,-1268,-78,73,-669,251,-105,464,1045,-856,-567,807,70,-12,-633,159,-20,40,35,-702,22,28,-770,308,136,122
,-808,-735,-103,-872,-610,264,-172,-655,-28,-122,-725,238,472,-328,118,-334,437,-301,-339,-233,229,-27,281,-29,164,99,-59,-932,618,-418,-192
,-299,-104,82,212,-235,-371,-229,100,-295,-192,24,-261,297,-229,-5,-220,249,-189,10,-348,387,-291,192,-24,196,-98,28,-255,202,-253,81
,250,369,114,700,-24,-91,307,-66,-694,72,94,602,-312,-68,-90,-1329,124,-262,-52,171,269,-213,-117,48,-211,99,-242,279,-324,-80,-187
,35,-690,303,-206,-817,0,-186,-49,-127,278,310,-327,-392,15,-6,131,22,46,-289,127,-762,-312,-292,129,-438,140,-22,-1,-482,-86,-244
,46,164,-68,211,127,215,592,-387,-390,503,-365,118,-261,-149,244,-6,5,44,-341,-95,142,53,63,-197,270,-454,-451,-255,-209,-95,-193
,-25,-86,45,-8,-46,52,-46,-171,-55,46,-176,-215,-158,145,63,-3,-446,-132,-232,-75,-417,-172,21,-179,-335,-173,-11,20,-229,-235,35
,18,142,-526,-171,-152,-604,-487,169,119,-91,-19,40,79,173,233,-138,125,36,-167,128,-392,-405,242,-128,236,-627,-161,-126,428,-529,-333
,176,65,-726,164,52,-126,300,-243,-230,251,484,66,-200,-325,186,329,36,204,-498,667,-575,-67,102,218,-545,-281,-610,633,-349,104,-162
,-697,-1711,-280,-824,-418,-115,-686,543,-147,464,-138,-62,139,291,258,-119,197,-108,307,-116,720,-68,98,613,557,-96,-271,6,-78,-38,-952
,-586,39,-187,-283,234,-1285,-345,-628,130,8,-119,-501,22,539,-61,102,142,-91,-369,-153,-101,243,-76,21,-241,-146,-231,23,225,114,-29
,188,-382,54,187,117,77,156,-420,-74,379,373,-220,-2575,-690,-81,-470,-614,44,-255,445,-161,-114,-90,-699,-125,316,-8,-480,594,15,265
,-298,-377,-75,-723,643,115,-794,-435,49,-218,-134,26,-1978,3,10,487,-864,176,43,103,-1259,-856,0,-125,-245,22,17,-183,-1167,18,-30
,32,-146,-122,-114,32,-32,159,19,-138,-11,103,-115,31,-57,64,-123,-131,-139,-45,69,41,15,-178,-100,71,-93,-38,-44,-67,-84,-127
,14,-204,-24,-114,-123,-165,-100,-228,-58,98,-173,-68,71,52,-110,-58,-5,2,-133,-131,-3,2,-86,50,25,58,-158,-173,51,-3,21
,-94,55,-179,55,66,-270,44,-22,-236,46,-47,-69,13,-151,-41,-101,-49,-123,46,-144,17,-198,-91,-44,-43,13,4,-7,58,39,49
,-86,-154,-136,-177,-84,-20,184,-19,-138,229,116,15,373,-22,-99,-53,-14,-167,43,-18,-120,-152,8,63,-86,-42,-45,124,87,-344,39
,-359,-84,-170,-284,213,11,26,99,-178,-83,34,-309,1367,195,404,635,403,-104,-35,-421,-38,-17,-181,-111,41,-37,-122,-241,604,69,-139
,118,-91,-20,50,0,-198,-3,43,-87,-202,26,-163,-172,-271,-109,50,63,-100,-22,-53,-89,-50,31,33,52,-28,-148,-135,-123,-144,-5
,-763,621,-366,-683,-52,-47,224,-587,-136,-369,-64,99,142,133,215,29,-1126,146,-57,-8,-1146,-20,-292,29,154,-425,44,-174,444,-640,58
,369,-248,-65,-865,206,-18,-1419,-407,-262,65,108,29,592,471,161,-31,-986,85,25,-150,-76,7,14,-73,-2794,-1387,80,-64,534,22,27
,290,187,-521,54,25,-183,-21,273,155,-92,-155,-61,653,238,-68,-92,-102,-808,222,275,-99,-287,-72,-141,-223,-644,-59,87,-151,44,58
,-27,-396,-40,-250,-436,14,-257,-506,-115,-235,-592,-49,207,173,33,-24,39,163,93,-144,209,-319,-230,-7,97,-83,-81,251,309,-340,-537
,-804,-407,124,314,327,-438,565,-40,160,-700,-856,-13,369,156,178,-550,-211,-254,-85,-557,-406,-795,68,-564,996,123,215,-73,-596,-232,24
,-20,-314,-143,-43,-30,-144,-164,9,-21,78,-207,-124,-332,-263,-189,-79,-166,10,-124,14,-115,51,-70,-84,-46,31,-99,-61,-186,-41,-125
,-75,-25,3,33,38,-11,-102,-87,35,55,11,-142,-244,-360,-134,33,54,43,-125,-57,101,-1,-170,167,71,-138,-84,-63,-28,-15,-267
,96,-161,43,112,-86,-18,115,-119,-204,142,2,-34,61,30,-128,-14,72,62,4,-55,-81,-50,-91,16,105,-191,-108,-107,-9,-70,42
,-78,-138,-80,-116,-36,-165,-43,-80,61,113,9,-86,19,-137,-83,144,-39,-146,-125,-69,34,-114,-108,66,-94,14,25,-89,99,-27,-101
,-50,-10,-24,-20,16,-129,41,-124,37,31,-109,-176,49,-100,-47,-36,-24,28,-56,40,81,-19,-28,92,-173,-34,42,-84,-259,-88,-82
,332,180,-14,338,-74,83,-77,170,124,220,-356,-26,-1498,-1002,-315,-145,225,-262,-20,-99,-24,-141,131,-48,-423,-125,-261,-88,-446,100,125
,-45,-123,-186,184,4,-147,28,58,-70,156,-21,37,8,18,35,116,108,-184,62,19,-70,-63,-78,-18,-24,-135,-8,88,-180,-127,-80
,-47,206,-21,-87,-787,107,-177,435,-237,-142,-1315,-465,-159,-260,-176,121,-779,106,-513,36,-254,163,328,131,-1763,-343,-77,-45,-348,41,-883
,-77,-127,-52,-11,8,-158,0,-55,-34,26,-148,-208,87,157,-178,44,-125,-165,25,33,-57,15,64,27,-126,-127,-48,-77,-190,-121,-40
,-188,-56,-233,175,-554,213,-529,-10,-273,583,694,-119,-1477,-721,-337,763,191,126,30,383,-86,118,71,399,-1079,58,-528,-280,224,108,-298
,-117,-122,-136,-108,-282,-158,217,22,-122,184,139,22,546,34,-203,-33,-146,-101,42,-173,-55,-36,-19,-166,-25,-32,-28,171,103,-317,-7
,-641,-730,147,97,-4,79,-96,341,-796,-51,-172,-368,-417,-376,181,47,-382,24,-31,-29,331,56,-309,-84,111,12,-456,226,416,-142,182
,-419,7,62,-249,-291,23,-60,422,-110,352,247,9,29,-392,-396,115,-155,-167,-306,17,-137,-112,-10,95,-407,106,-60,-149,-84,20,-6
,35,-403,341,174,-30,223,308,-54,-258,236,-586,-434,513,216,-291,698,110,-139,-37,225,159,-85,171,-88,189,-416,168,-5,459,92,-263
,368,449,-227,400,-486,130,430,-178,-93,116,-365,367,-1015,-118,86,-166,266,-176,-105,-139,-166,-350,-109,396,356,-176,-225,-56,-78,41,-344
,-386,-189,-166,-70,-19,-155,-219,-650,-352,-180,-954,77,-705,113,-43,-293,-162,-617,55,-210,128,-134,-104,-199,-294,352,-49,-257,-139,-111,137
,391,229,-87,-129,-204,-90,-401,-418,396,273,332,-386,-1802,-423,-146,323,48,-248,85,-86,-352,292,18,498,-546,-26,-195,296,521,-350,-244
,78,293,236,137,-185,73,-161,-348,-438,-355,-162,-253,974,260,-266,575,167,-126,-145,-92,-152,11,147,179,-969,-171,-83,-10,-697,-113,-56
,315,58,-201,321,402,100,317,-636,-598,365,-1059,-474,626,518,-310,-164,123,-215,128,-38,75,202,169,6,-369,-89,-406,-1,-119,271,-510
,-88,-26,-424,-95,-133,-169,-2,-215,13,-69,-87,159,141,-89,70,58,173,-115,-126,-12,-123,119,-456,103,110,-250,-223,-32,112,-249,8
,-55,-123,49,-123,-50,51,-89,6,-110,0,81,-227,-92,204,-16,-155,-484,-105,-86,-176,-228,-139,9,-133,-204,-151,-70,17,-220,-170,-2
,-861,-2,-9,-587,37,10,-992,-12,6,-1289,-724,-129,539,128,18,-206,-193,-18,-10,-384,-108,-28,-5,-231,-162,-34,-4,123,-785,446,24
,-81,-164,38,-122,10,-175,56,112,34,-9,-69,-118,-85,-114,-135,103,42,-31,-183,39,-58,-2,-31,-62,-64,-39,63,113,-63,-134,-33
,-34,-6,-86,-61,-90,-13,13,-21,26,-52,-58,-106,-104,-11,-95,-135,61,-79,-39,-93,-12,41,-119,-58,48,-119,-112,-25,100,-110,-73
,-402,429,-4,-682,-584,-118,-254,-1097,51,-905,-967,507,528,-159,-105,-476,12,76,38,-23,-642,17,103,-182,691,-456,-162,-410,-109,-328,-123
,-44,-318,-211,145,178,-275,-714,228,-80,-229,18,394,-1638,-675,-529,-138,-19,250,198,309,125,-159,-187,604,-176,-13,6,575,-424,-344,-58
,384,354,-316,-17,-589,-106,-757,271,-132,194,-34,-55,232,309,72,532,213,-186,36,-112,-13,137,-110,964,-980,8,24,-16,-68,-81,117
,-899,-221,-135,-36,-138,-273,-82,-348,-276,-323,105,-121,-588,972,124,117,-480,-106,-237,81,-663,-225,16,-283,-517,-91,7,-191,-450,-282,182
,190,113,-163,-231,-559,-399,-701,-659,-238,-694,-356,-89,154,636,-132,-308,187,3,4,-294,262,-14,-139,-45,-611,45,108,-288,-498,119,72
,-638,-491,-243,-561,-574,-91,-544,76,-503,-272,-289,-131,213,331,-660,-106,78,58,106,-94,-76,211,-331,-294,352,-265,-132,-144,-251,14,-58
,353,269,293,224,-368,-14,-197,-471,-92,169,636,14,378,-108,116,469,209,323,-36,-18,-372,-204,-146,-468,638,-130,-70,520,-273,11,-107
,-156,-600,34,-288,112,372,-452,170,67,773,-52,18,-453,115,19,-254,-300,-117,-499,-392,-947,-479,69,-194,132,-78,-188,153,347,115,-60
,469,-253,-48,-216,192,79,626,13,-104,588,-105,-198,171,477,-720,-349,191,-90,-212,140,-1838,424,71,50,225,-275,158,80,549,24,-171
,7,146,-131,11,-141,7,-153,-112,-95,36,-126,-177,-194,-103,-173,138,75,-118,-6,54,-48,17,-96,51,-119,40,-148,-6,-86,14,-185
,403,-195,140,-34,510,18,-451,253,-109,58,-162,-639,469,312,61,69,-1174,-7,190,-26,-435,-166,-299,-67,-369,-152,-148,-1,-583,-129,-423
,-218,-35,-44,-169,-63,-134,-173,-135,37,-73,-252,-156,354,184,-31,-76,213,-18,-98,-495,-39,16,-120,127,-98,-9,9,-121,49,-103,-21
,-5,401,-4,792,448,-265,323,165,229,388,-189,-60,1155,-119,-649,-84,-179,-186,-246,1105,-134,-200,71,132,60,280,-203,37,168,179,36
,-303,-47,-82,-311,-113,-45,-109,-79,-11,62,-42,-14,36,-92,18,-147,228,-4,-105,-156,100,39,-63,-150,-71,-190,-124,-173,65,-102,-50
,-605,221,32,-610,143,-19,-792,207,246,348,94,-211,-2596,-638,-321,423,79,-138,-103,24,136,-239,-90,160,74,230,-23,135,-766,-374,-111
,59,359,118,292,184,291,72,-577,-75,614,-406,22,-1925,-970,-600,-190,-133,-65,-93,546,440,-141,-41,564,47,-163,-249,198,173,-94,-41
,-9,-129,-56,254,-381,60,47,400,124,586,383,141,3014,651,58,246,285,-9,-24,543,335,-155,38,452,187,86,-25,622,85,69,-79
,-251,428,89,-564,232,302,-756,137,145,181,-41,-8,-2638,-870,-164,-105,-117,-234,-104,88,-19,-95,-336,27,101,-42,7,-109,-478,-86,-144
,-148,-244,-516,136,390,38,-646,-348,124,639,204,-235,311,-112,-70,283,-39,-26,-336,25,192,-520,71,-66,-946,-4,-11,-125,-422,330,-54
,41,-125,-56,-96,69,-60,-434,-288,-85,-15,-273,-40,202,10,132,30,132,-142,-229,-139,248,-36,6,-212,-147,37,-13,110,-8,-267,-228
,75,-183,-1,8,-69,-120,-203,-68,-33,-107,-164,-46,-365,-253,-50,-52,-37,-14,-133,97,-164,-44,-222,128,72,-55,36,-10,-304,-105,52
,-178,-362,-52,-203,155,63,-306,-79,-30,-171,-402,-161,1373,-134,-48,220,31,-49,-60,123,-49,215,-103,66,88,10,-152,277,-109,-156,-30
,209,-50,-203,-77,141,-430,-349,-287,-34,-67,-99,329,1121,445,-410,-320,-419,-24,160,122,338,-277,-596,291,-628,-98,205,-311,240,53,173
,412,159,-29,-71,41,-473,402,-207,50,-569,107,165,-540,-456,336,408,232,-75,-89,-305,-269,-173,230,-295,258,35,-183,-258,-609,-579,-206
,-189,-1258,-101,-8,637,-124,-261,-1593,3,32,-309,-1011,50,-1447,37,-172,-25,252,214,-88,-717,194,-148,30,-232,-528,-393,10,334,-35,-156
,-776,-187,-168,-662,-69,-143,-899,430,-50,-409,-301,-281,-259,281,411,-34,41,-101,-616,72,-71,-201,-215,-139,-566,-96,-157,-138,-1103,-146,389
,-696,-470,95,515,148,-258,650,-176,123,180,435,-237,95,74,-197,-665,-1181,-465,-128,-17,205,91,-60,-655,938,220,89,-150,-1279,-108,94
,-49,-150,-154,72,20,41,-37,-89,-67,26,-45,-107,42,25,8,144,-71,-96,-110,92,87,63,-54,87,-61,9,14,139,-99,-179,33
};

long bias_0_nvme1n1[1*256] = {
-756,-41,-280,-966,-220,94,544,-261,-66,-42,-1158,329,-1926,-857,285,-238,-128,0,-403,-422,158,-90,-357,-105,433,39,93,2,-152,-77,792,-25,-296,-104,3,-2,904,-108,-372,262,-299,-222,564,93,-62,-90,-500,-848,-454,718,267,-247,-332,81,17,-11,-552,-327,27,-207,23,-46,1030,-715,125,251,907,57,-271,112,567,542,-417,940,-45,0,25,274,360,166,-161,-779,-19,445,-1098,-280,399,481,-51,-318,246,371,-961,-46,179,60,478,-47,-52,311,-1069,718,-2,895,-335,-667,353,-13,-259,-1820,-499,-32,-447,661,200,-66,382,590,-13,-19,160,141,86,-27,490,457,491,-268,-218,1,680,397,463,-305,335,-1334,-26,422,152,63,-378,255,-792,152,-947,303,-134,-43,-99,-1897,384,-50,714,-243,-686,283,-1203,-79,-890,-340,-42,284,-120,-326,-134,-835,-566,764,342,-1012,280,112,-937,437,-72,-858,-350,-44,-63,-287,-148,-319,-519,449,253,-109,77,137,-125,528,166,738,726,-73,-303,-66,-284,-819,66,-71,465,-350,-231,234,270,190,-206,-50,-73,484,-41,113,-26,303,-382,140,-66,-388,-20,-70,22,-521,-190,59,4,-1949,-5,0,-190,-172,-1237,194,-614,-290,-790,137,-163,5,42,-600,-224,-250,502,321,-1104,444,-67,-366,133,-631,41,-285,-226,451,255,-155
};

long bias_1_nvme1n1[1*2] = {
702161,-412851
};

#endif
