
/* 30s_512k_110us.trace */

/**
 *  updated on 10/15/2022 06:15:15
 */

#ifndef __W_NVME0N1_H
#define __W_NVME0N1_H

char name_nvme0n1[] = "30s_512k_110us.trace/nvme0n1";

long weight_0_T_nvme0n1[256*31] = {
60,-137,-88,85,85,42,-96,-32,-73,-68,-95,-7,-22,-70,-132,-38,8,-88,144,50,-103,77,-12,11,-26,-2,25,59,-51,-103,-104
,22,65,-37,-61,-109,-148,82,2,76,-23,87,-179,-109,-21,14,77,72,-92,-181,-102,-19,-44,-43,28,-123,-22,-99,-49,52,95,-24
,-54,80,120,6,-59,52,107,-146,-72,-95,-131,54,10,112,-18,17,-79,-70,-83,40,-90,92,75,36,21,99,-130,99,-44,-154,-75
,72,69,1,63,-97,-93,-91,28,16,-165,0,-166,21,-190,35,1,-82,-9,-193,74,-44,18,-109,-196,1,29,67,39,83,-48,-77
,106,-8,-49,-72,-68,-140,-24,-24,-126,114,-66,-128,-127,75,46,107,59,27,-30,-34,128,141,22,58,-67,-51,-8,-6,-128,13,-118
,-7,-144,15,106,-93,-84,38,-74,-81,-151,-6,-121,-65,-151,26,-121,-37,-72,73,-100,94,-52,73,10,31,92,-176,32,-170,-99,41
,-93,86,2,-109,-103,60,-64,31,-48,-37,-25,-125,-52,-99,21,-56,-61,-89,57,-35,107,120,-142,12,20,83,-112,-3,-32,-138,67
,-156,93,4,-76,31,-121,67,-154,-106,-83,33,91,52,86,31,43,100,-111,-140,-4,-63,27,-111,61,95,3,22,-109,-111,15,-158
,-9,70,-109,87,47,-53,-87,-75,-6,49,-27,65,-121,-62,-89,96,85,48,-40,18,-69,-15,-7,-49,25,2,56,-40,-2,48,89
,-159,86,-33,-149,-99,-2,-130,86,-16,34,5,-87,14,-52,25,10,-4,54,22,-41,-135,-5,22,16,107,89,-86,71,91,-10,-5
,-114,103,-51,-3,-30,143,75,-76,115,-142,60,-137,-21,-84,71,-135,12,1,-63,-87,-115,36,-28,43,-43,49,-18,62,-122,130,-32
,112,-41,-47,-150,85,-106,-102,-111,-132,-16,50,38,48,-143,-111,96,-71,-151,-134,50,-41,-46,-67,8,-62,68,-40,6,107,24,9
,-97,-21,69,-125,-52,75,66,3,3,116,-52,-111,-26,65,-66,39,9,2,-52,-109,-150,-74,111,-30,-3,-116,-31,-68,33,-153,32
,55,27,-91,-85,103,129,114,-87,30,-78,-143,57,-28,85,12,-66,-113,-97,59,-65,-69,-83,111,-114,86,-4,105,-41,-52,-113,133
,87,-193,40,-159,-67,27,-18,-112,-68,25,-99,-168,-189,47,27,51,87,-29,1,-164,-24,-8,90,-130,-98,87,22,-92,-68,28,86
,-53,84,-121,85,27,-29,49,0,20,-112,-178,-96,-8,-103,-74,-161,-54,26,-98,-17,30,-140,-87,-152,88,96,-34,33,72,-131,99
,-89,-83,33,-13,58,-143,-155,15,78,17,-98,-48,53,-36,-134,-121,-127,20,-25,66,16,68,34,-54,10,43,-164,-148,4,38,-90
,12,-16,38,3,-72,-8,-93,-77,-73,21,12,-38,-29,-80,-20,45,48,33,-21,-56,-7,20,-64,44,46,-45,-30,-18,-25,-96,86
,-124,59,15,-24,19,-84,-172,6,76,48,31,-91,-172,48,-168,56,59,-49,37,5,41,59,-81,-136,9,-100,-41,-149,-86,92,14
,101,-34,-8,-121,19,56,127,-113,120,87,37,3,9,-88,-72,-72,-96,-38,-129,-86,132,-47,-11,-41,107,43,-91,136,39,-100,-59
,54,100,52,108,-167,91,83,-26,-12,-111,48,-9,-162,-175,84,-157,-27,-54,-10,-26,-151,104,-126,4,55,-61,-171,-114,-71,70,69
,-84,77,35,101,121,-65,80,70,22,75,-105,-60,-134,-148,76,106,-91,63,-47,-140,124,-89,-55,-36,-39,-33,-45,-2,43,-94,5
,120,-82,-24,117,83,-108,-128,17,113,114,59,1,-97,-131,-23,-87,-78,-118,64,-158,88,123,-32,-141,107,-20,-130,-48,15,44,91
,-51,16,118,105,-110,-123,116,2,13,18,-62,118,-135,-96,-64,-28,-42,140,29,-52,46,-152,-81,20,-84,-112,15,10,12,131,-98
,-80,3,75,-111,-153,60,-119,90,-146,-46,63,113,-25,-40,79,-14,-143,-18,31,37,-172,-105,-133,33,59,94,-169,-2,90,49,-2
,114,-135,17,-44,42,-105,87,-35,20,-123,-162,-20,64,84,-65,-158,37,107,-56,21,57,0,-19,-100,102,77,-165,64,-54,17,43
,6,-83,55,-97,-84,57,85,16,-18,86,-95,85,86,-12,-93,-127,-71,90,137,-131,-91,-5,-146,23,-132,53,38,48,-81,-148,116
,-31,10,87,-15,108,-149,105,-13,-9,110,-100,115,-41,-9,103,47,-101,-35,81,-135,-136,-6,-157,-73,-139,102,-42,-165,14,-56,47
,-123,83,99,-131,21,99,-53,106,32,34,-102,87,109,41,-81,50,-124,-19,-131,-106,-77,-61,-149,-108,-81,23,-96,64,4,-121,-23
,-8,19,-52,-69,143,-52,30,-53,9,-103,-31,10,-20,-8,9,35,-141,-5,-9,-65,-55,135,-30,-32,-127,-70,7,-46,47,115,-141
,-43,34,-97,-156,-156,-9,-45,-85,-134,-111,59,-158,62,-22,39,54,-68,-78,-163,-37,-36,36,94,40,22,59,-73,60,-76,31,-18
,104,91,127,94,50,27,-56,52,25,73,16,-6,-91,48,46,-143,-42,24,-118,-113,-76,46,-141,-62,110,67,-119,-75,-107,-147,-149
,66,-53,-57,-9,-27,-40,101,-71,125,-141,-46,-14,-74,-65,72,-84,48,-144,117,69,75,-90,-59,-121,83,53,113,-61,104,83,-162
,-8,-106,-84,-145,-77,130,-61,4,74,-73,56,93,-75,75,-119,-46,50,88,-62,-55,58,44,-100,82,-106,38,-9,60,73,-16,79
,-191,-59,-61,-1,18,24,47,40,68,-25,-54,-52,44,-112,16,-76,-66,-74,-2,-11,83,83,-47,-93,5,-3,-158,-162,8,46,53
,-71,-73,-161,77,-76,-34,-7,-32,58,121,-62,5,38,-52,-119,-111,99,53,61,-8,42,-83,-71,60,56,103,69,-41,69,-134,-113
,15,4,-89,-63,7,-48,4,-70,-114,-77,16,-75,-125,2,19,-86,84,109,-57,22,127,79,66,38,-100,-56,16,63,-97,-134,-63
,-110,-81,-108,-63,-2,-138,-40,-22,-66,-58,-158,-170,-143,-100,56,14,7,40,-55,-166,80,63,54,61,7,-57,25,36,14,2,106
,74,-57,100,80,-5,84,-107,31,68,16,43,-99,26,-134,-99,25,-91,-112,1,-146,19,25,-67,103,-98,99,15,-93,-140,79,89
,-31,28,120,102,75,59,-31,-60,59,76,-92,-143,57,-44,-140,-127,-124,-84,-18,71,108,-52,-114,-131,-121,-47,124,-68,55,-10,79
,-22,96,-147,38,-31,-95,-85,-43,-104,85,-158,25,-11,-36,-168,39,103,-125,10,-101,103,17,86,-114,9,-17,-35,44,-43,38,-143
,106,-27,-23,-41,117,81,68,-97,-34,19,-131,-49,-32,58,-138,-96,137,36,21,-32,19,-124,36,6,-125,-54,-24,43,118,-92,-61
,-137,-16,-78,-45,-86,55,-77,46,-132,-84,-98,-55,-12,99,123,-42,-64,92,-125,135,-68,-95,7,25,-114,144,134,109,-1,126,-144
,74,-128,94,91,58,-103,-24,97,27,115,29,45,-22,56,-26,61,-149,-57,-135,-78,-124,-69,7,-124,18,-114,-99,-92,122,-127,132
,-135,73,95,72,-120,-31,-103,75,-12,-79,18,-125,-170,49,-23,-119,-12,-12,108,31,-2,63,59,53,66,-85,17,0,-61,77,-63
,-3,74,-57,-30,-35,-11,-56,-97,-10,-36,40,120,-117,-11,41,110,-157,48,43,47,-103,-2,-137,93,-47,29,87,-89,-140,73,-53
,-77,48,-79,-145,-154,-139,-69,-24,64,-109,107,-85,-113,-86,-51,32,58,39,19,68,-95,-47,-62,-104,-41,111,-65,3,-77,76,49
,-104,-99,40,15,-120,71,127,-124,-116,-115,-131,90,-72,127,68,-105,-46,-34,-31,-109,72,13,-138,138,61,-121,111,142,-53,-85,40
,92,16,-48,-50,132,36,137,-95,-49,-94,118,-107,-65,-72,-120,-108,-23,-7,126,-141,-140,-128,22,56,-75,-111,72,-91,-75,130,-58
,70,-114,37,104,-82,-112,10,62,61,-132,-66,-149,-173,28,-102,75,-7,112,86,84,-94,2,-173,8,-21,-8,5,-36,109,8,-48
,-146,-130,-22,9,48,-100,-45,-36,41,97,-158,94,-112,-155,58,19,-171,-120,-164,96,-56,57,-134,-2,65,30,42,105,114,-77,-126
,125,-42,-47,-133,-121,22,95,-5,-72,72,-51,125,-132,111,34,19,130,-58,-63,-15,-40,38,-27,-95,-143,125,-62,-94,-95,-6,62
,50,-120,12,-22,-81,-25,53,21,33,71,35,92,-122,108,92,-170,78,106,7,-66,-33,30,14,-75,111,-45,-122,-97,30,-145,24
,-47,-160,-137,52,-107,101,-78,62,45,-154,62,94,104,27,-8,-115,-46,-56,-132,-77,-152,20,34,-7,76,66,101,-51,58,60,62
,-12,17,45,119,-16,-43,-8,77,6,-61,106,-137,-144,-15,-96,-129,-27,48,128,-25,-101,119,-115,-11,-77,9,120,53,-58,-68,89
,-27,-38,-19,-19,0,-116,-118,38,45,23,-55,84,-169,29,78,-92,34,64,-7,1,53,-11,-58,6,59,17,-26,-24,15,-107,-154
,-155,92,23,-11,-49,52,-95,-20,-171,-89,-102,-12,18,103,-4,50,41,-118,33,-36,87,19,89,30,73,105,-17,-41,-173,59,90
,-67,132,-81,-110,-20,55,126,-105,-121,-77,69,52,-14,-15,65,-92,22,35,120,64,-108,-68,7,-100,-138,-115,116,78,-140,36,132
,-126,-74,63,-47,-139,-13,-14,117,-2,-120,-116,-112,-143,-46,104,18,15,-129,53,100,52,107,-122,46,-87,-24,-11,-97,126,-7,86
,-71,-79,-144,90,-144,76,-15,-135,84,17,-86,-1,-1,14,102,-57,15,106,-81,-46,-67,-33,63,-47,-111,-90,1,-96,82,-23,114
,-115,-147,-61,-4,-102,-143,-97,106,62,-1,-6,-21,-135,-68,92,56,-127,-160,116,29,114,-119,-22,33,-73,112,55,-72,0,101,-32
,27,-95,-14,75,-148,102,98,105,77,23,65,-8,-78,-80,21,-91,-118,-22,6,20,-85,-154,-139,-123,-63,43,-119,12,72,-54,-40
,61,-23,129,34,-113,71,-61,-49,-4,-82,71,64,-50,102,-125,-15,34,61,91,-59,-80,-144,16,141,-36,-124,129,-62,-46,-104,109
,-25,-11,134,-137,-21,105,-110,119,-15,-115,-139,-68,75,-59,-76,-78,101,105,11,-137,7,-1,-141,-146,9,31,131,26,-61,-24,115
,-155,-179,76,-3,25,-66,-60,-83,-129,104,-61,40,45,-71,76,79,34,-57,-33,64,-161,68,-76,-56,-49,77,17,-17,45,-76,-101
,81,-90,-60,88,-73,33,-40,41,73,-130,-134,-106,116,-80,51,-121,54,-46,-120,-19,-121,27,98,-13,-1,-37,-37,-144,-87,-1,12
,-29,45,-101,-85,-142,39,83,80,75,86,-112,95,65,-129,9,-113,0,-59,-42,37,-79,-115,116,-79,-61,-39,-10,-140,118,118,-120
,12,-131,-159,-85,-138,-96,75,-80,-21,42,105,-63,84,-139,-73,-52,-68,62,1,-9,83,8,103,-78,-111,-122,14,28,-115,-152,-61
,-55,115,42,-116,7,93,77,-116,102,-129,131,-17,-21,-7,105,75,101,-101,-46,46,-25,15,-22,-71,111,-127,-142,21,-120,-71,-144
,-38,-32,-89,-43,-105,115,-125,57,-67,-96,88,-112,-57,44,86,68,-124,-117,10,-20,15,57,65,44,81,62,21,-92,65,-160,4
,-130,108,-87,-105,-92,23,118,134,-102,-61,-94,-68,109,-24,-131,-139,-23,-127,137,-27,-85,-101,-97,56,-72,-97,14,-138,-135,-8,-95
,18,70,-17,-73,-103,44,58,-94,-130,77,63,59,-51,-114,51,-101,0,-9,-11,-93,93,-54,-126,-23,38,104,-102,-2,-92,-155,30
,-9,75,-62,130,-80,-77,28,-48,-44,-43,-118,87,-101,-77,-26,-31,139,-136,-35,-101,-36,-22,133,-89,-43,16,-116,-144,-101,24,-134
,7,142,-110,-20,-141,116,-17,93,-144,125,-29,66,-135,-7,-140,-50,-38,-136,-28,-91,78,-90,83,127,130,-3,-134,17,78,-143,80
,32,21,60,-73,44,25,46,-101,-152,95,-13,-175,-82,108,-125,11,-109,-110,92,-40,-15,29,-8,71,50,9,-32,-171,-146,-101,-166
,96,-36,-60,-39,-99,-117,-149,-23,110,-146,-149,-47,-68,94,84,-63,99,-69,-79,-24,10,90,30,-92,-109,-108,46,38,-66,10,-122
,130,-129,49,-37,96,-82,55,44,-56,-150,-65,-37,4,-92,101,-18,102,117,-102,77,-135,121,-14,-52,119,-91,-100,-144,9,-148,31
,-164,55,44,-179,25,26,42,-137,73,-171,-95,88,42,-12,26,-50,-91,39,-70,4,-153,96,80,-25,91,-132,-143,-41,-49,-165,9
,-66,-34,90,75,51,-83,-124,-34,-69,-157,35,62,114,-152,-110,20,-21,88,-25,123,-159,96,-100,-29,-116,95,-8,-109,110,-53,-23
,-82,-50,55,76,-75,-92,-36,119,-63,-85,15,-135,77,-17,-98,36,-102,98,-42,-36,-74,-67,44,111,-21,138,-112,57,72,62,-91
,-86,18,-39,130,-23,-39,50,49,-66,-145,-9,108,34,-70,50,42,17,-108,-130,-13,133,-141,-95,-52,28,48,14,-155,48,-42,54
,43,10,-74,-97,83,40,66,130,-92,94,-106,-105,50,18,-131,115,0,-8,6,26,-21,-144,16,-79,-62,37,118,55,-117,0,-68
,86,93,-32,-2,-33,-115,98,-115,62,-107,-68,5,-4,83,4,-134,-108,19,-33,38,-94,75,-79,-28,-5,63,-176,-180,-1,96,-117
,2,5,43,-124,83,-76,-131,-78,130,-53,123,32,100,-106,35,134,-113,-61,-125,-127,25,35,-58,-94,-18,98,62,128,44,-47,-75
,-122,-58,-42,-110,121,-84,88,56,-42,128,-10,-37,-20,-112,123,17,17,9,19,36,-87,28,120,-30,-3,-125,-101,-51,-66,-88,-19
,79,-79,-36,31,-60,-59,2,-112,30,6,49,-191,-33,-67,-160,-55,76,-59,-113,59,-52,74,0,59,77,67,-100,38,-16,-50,-114
,-78,4,-63,58,-58,-124,16,16,104,99,84,13,-117,-112,-54,71,21,-118,74,-61,61,-46,-88,-117,26,52,48,75,93,-103,7
,41,-34,91,15,-125,48,-90,-33,46,-62,-47,-52,-179,12,-118,59,-43,16,-88,-124,-113,-17,-109,33,50,-30,-34,56,40,-144,1
,-101,42,131,-148,50,-107,-8,-139,-32,83,46,65,131,-12,22,-67,47,-101,125,0,113,-121,96,73,-58,24,-53,-129,-47,-120,-112
,67,-131,-31,-133,112,79,-97,42,-39,-40,6,113,70,-66,73,-4,88,72,26,-134,-103,-16,17,-98,-101,-21,-26,-75,81,15,93
,-44,-85,91,-58,-100,80,-74,23,35,-3,74,23,-34,-128,-29,-136,8,-92,39,32,-169,-111,53,97,-127,59,97,67,-93,66,-57
,-122,-96,111,52,47,-47,120,73,-131,97,-144,116,96,-13,-80,-70,-44,-93,25,-12,68,-133,-99,-90,-33,132,131,5,-103,-125,55
,136,-84,-49,-135,82,-108,-45,-99,-22,-71,82,-75,15,-121,60,-88,97,64,-115,131,-92,-19,-142,27,-64,-42,-88,102,115,126,77
,-75,-23,-100,-58,46,-37,27,2,37,108,-132,39,-87,100,-2,116,-77,-24,-50,-18,-174,-77,86,61,-169,-1,-87,5,-77,-31,104
,88,109,-75,-104,-12,-132,66,-54,93,-126,-125,70,-127,31,-38,92,-152,42,53,20,-96,-27,121,-41,-48,29,73,-2,-81,66,-69
,74,40,-90,26,40,-90,4,-103,-23,-89,-112,-50,59,-60,-10,88,33,-87,96,93,-107,-129,46,32,65,-46,-65,26,39,4,81
,-59,-139,3,-139,-11,16,12,-49,-104,86,-57,-71,-99,-66,-8,-50,60,68,-129,-147,-45,-149,51,-17,50,40,3,60,-103,-80,-31
,-97,33,91,34,-120,-1,-70,99,-6,83,-90,70,-18,-9,60,-66,-66,-15,-22,83,65,62,31,-32,-115,-118,-26,32,-163,-57,90
,48,99,65,-148,-117,120,51,11,38,11,-152,10,96,-161,-81,113,-75,-170,43,8,25,40,56,-79,-155,-65,70,-86,-86,-50,-128
,-67,6,-27,12,-42,-16,87,128,3,-56,-71,-128,23,-76,138,-116,56,-45,103,87,-23,64,16,-51,-39,56,-77,-9,-72,-123,36
,-144,40,-51,69,53,-125,-53,-55,-170,96,46,-154,-7,49,3,80,77,16,-51,22,0,76,43,-151,101,-166,36,-29,-117,-65,106
,11,-132,27,6,102,-5,77,67,-111,48,79,30,-26,-158,-29,-166,-169,-3,-81,8,48,101,98,74,-122,45,-163,-37,62,60,8
,-133,-71,-72,9,-53,-15,68,-95,127,-77,58,-91,-58,119,118,32,61,59,85,-47,-137,-98,42,87,58,-8,-24,102,-96,-14,-150
,-141,123,-43,-64,-25,142,-24,-26,-141,-29,54,106,-99,106,-127,129,-128,122,77,-84,-48,-133,-39,-139,119,-7,-44,-37,49,-124,16
,2,113,117,-68,106,-78,119,94,90,-64,36,4,12,-60,-153,-89,74,-23,-36,25,-142,-64,-90,125,95,-146,-11,117,-138,-148,-24
,-79,92,-37,66,121,35,121,-25,25,-101,-62,-10,-76,49,-104,-138,119,-101,-60,-41,-10,122,61,-37,-147,-136,19,86,-5,90,-92
,-129,62,-93,-124,-26,83,23,4,29,-144,10,97,-89,-83,-86,-71,-149,-28,42,16,-51,95,30,-133,104,-37,-44,7,8,102,-106
,-29,76,-89,-81,76,-97,-24,28,-91,69,-23,15,25,50,79,42,-194,-60,-196,-103,-15,-16,-179,36,34,-29,-102,-24,52,-29,17
,-110,-107,81,34,-103,126,-101,-92,27,96,-80,-102,51,-52,-57,-6,-52,-122,124,134,-29,93,-49,-141,-123,42,-27,-32,-76,-20,83
,-142,-128,110,137,89,-10,-101,37,70,-98,-53,108,-79,-105,-15,84,-125,-106,-1,-29,86,31,-87,110,115,100,-137,-15,-104,89,10
,-54,-4,-128,-94,-37,-68,-98,-115,119,24,-120,-89,-15,33,79,-67,129,71,13,-142,-72,-137,-40,-132,105,142,71,24,34,9,71
,-89,-117,-92,22,-30,95,77,105,-126,-15,18,-48,70,35,93,-24,8,-4,-58,-16,25,-94,43,-100,97,-17,-140,93,11,-128,78
,-134,13,-13,-144,-142,-17,0,-153,90,-11,60,-161,-23,2,80,22,31,-28,25,64,-108,116,-37,93,50,-42,-8,-151,29,89,18
,13,-175,-64,-161,-30,-30,20,49,-9,-30,8,-15,33,-106,-108,-99,53,-114,75,-104,-2,39,-157,-123,71,-30,69,-1,-182,-70,30
,7,105,-45,-37,80,128,-17,-7,111,73,5,-107,68,-100,-62,-138,-86,37,11,-12,9,-1,-109,46,-158,-39,-121,-114,-71,-155,65
,5,-128,-96,-90,-111,-80,-19,22,2,67,111,-104,-60,-116,44,-144,13,53,-2,108,80,-74,61,7,-18,8,68,51,8,61,-25
,-143,-105,101,24,97,65,-20,-23,-149,-47,-26,-15,83,66,76,-150,-7,43,73,40,99,-154,85,-42,-184,-40,53,77,41,-67,-112
,-111,-82,-139,-50,107,-5,-20,100,106,2,-125,88,114,-148,4,-80,-148,-44,-115,85,-21,35,91,83,-143,60,124,114,12,-89,13
,28,-33,66,56,-141,117,-32,-17,-25,52,-117,-172,-118,6,-61,17,-121,134,-127,-74,-108,-57,-115,-102,61,45,2,16,81,-81,91
,78,71,-118,12,-133,-59,-105,-106,95,102,-39,-121,103,109,-108,104,107,-95,-143,57,26,0,96,-86,77,-78,-56,-18,-144,79,-156
,6,-37,38,-136,30,84,-160,102,106,88,-150,115,-40,48,114,-20,-171,-83,65,8,-207,-23,29,-69,-24,-21,-52,-164,-156,-26,18
,-180,-150,20,-136,-138,-21,104,-141,90,-160,-1,11,2,74,-96,-163,-184,69,-174,83,-122,-59,96,-56,43,80,49,60,73,50,-54
,20,-77,36,53,108,-111,-30,-13,-98,123,111,-9,-58,-46,-86,69,-50,-104,77,-35,-127,-112,-8,89,-44,-53,18,63,-13,-135,87
,-71,27,89,24,-136,88,-102,55,103,-5,66,-31,-148,-35,-30,-130,18,-7,108,81,-33,-36,10,-140,95,-70,35,-162,62,-118,-130
,-139,28,-24,24,102,-92,57,-108,56,68,121,-52,128,13,-103,-10,16,-158,-77,6,6,8,89,-114,-92,-62,106,3,45,-49,-116
,-56,-134,-141,78,102,16,105,61,66,-12,81,36,-96,1,61,70,-32,-58,7,-161,-62,28,-149,-88,34,-113,-84,76,-109,-137,-39
,-40,74,69,-48,-63,132,49,36,-86,-78,-96,-26,-102,-139,-36,26,-139,-26,87,-152,3,-130,78,115,131,66,70,59,-79,-20,-133
,81,-61,15,115,3,-134,60,-71,-119,-32,-83,-166,-31,-137,75,6,-94,-91,-142,-118,97,59,57,-47,-48,-36,46,59,-98,-86,49
,42,-17,-49,-87,-43,-85,100,71,82,-38,-162,-41,-160,52,-26,49,-40,-120,-40,89,-43,22,99,36,62,-4,46,-11,-103,108,-38
,-97,-81,-116,34,-32,67,-60,-86,60,-33,-5,132,90,-64,40,-129,5,121,-86,33,-47,36,14,41,-116,27,11,-83,-142,79,-114
,-62,34,-23,-126,116,123,-20,-93,92,28,112,-142,11,-32,84,-92,-87,44,87,-45,81,77,-13,92,-79,-122,36,17,78,-124,-147
,55,-138,-142,-100,85,-50,-74,-174,14,43,69,-89,4,-98,-191,80,47,24,9,-68,77,63,-26,-9,-53,-86,-87,-136,30,-17,-17
,-90,27,-63,33,-17,-53,-121,129,-106,6,129,-56,6,-105,-97,60,105,95,-114,-86,-76,-46,-91,123,57,-67,-42,2,-28,-113,-141
,-66,92,-111,-48,-73,94,111,48,120,-124,-49,65,90,-8,-164,65,-23,-156,50,22,94,-28,87,83,-150,99,-70,-124,-77,-155,78
,28,66,76,52,51,-113,93,-97,-143,125,-132,114,-16,-31,6,-137,-75,-112,-17,8,-46,-26,47,38,-79,-130,-16,-26,14,-119,-13
,101,-110,-145,-144,124,62,9,-121,-151,-81,-25,94,-41,-88,21,-14,96,24,-136,83,18,81,-73,75,65,7,7,-37,-99,15,-133
,5,14,-76,75,-122,126,-82,54,-103,-53,-58,-53,86,136,16,-59,-76,-87,27,128,10,15,-21,-41,-62,-49,12,35,-11,-59,77
,79,94,76,-110,-60,-152,-169,73,-2,-57,-75,-152,1,-11,-15,82,0,78,111,-55,113,10,-58,-129,-164,-154,98,-59,-23,35,90
,-161,-85,-25,-111,-47,101,1,-73,10,-37,-3,-166,-46,-109,-7,-168,104,4,30,82,110,48,-157,96,-128,46,36,38,-139,-170,-6
,-80,-153,68,-33,-67,-4,120,-3,46,101,41,-127,37,116,-142,-109,29,-136,97,4,10,-83,79,-70,-12,-65,-103,96,-40,-95,-14
,108,-42,-129,-28,-27,125,-112,69,73,28,-125,-84,80,-120,120,-4,117,27,27,78,-107,86,34,7,-81,-113,-110,-52,-14,-15,112
,-113,-113,133,106,90,-47,47,-56,45,-94,-135,-51,10,-18,54,124,-84,-113,47,-120,85,14,66,-125,-139,-56,-54,-64,-90,129,-97
,-19,-58,134,34,-128,-69,129,-11,-120,12,-118,90,112,-33,87,-100,-65,-60,-38,67,67,-37,91,-69,-13,17,-92,-122,-140,91,-119
,68,-46,-85,-88,-136,-142,38,70,-61,-42,-43,11,-78,-73,46,87,-146,-97,46,-44,44,26,79,-63,5,-40,114,-136,57,-161,-126
,2,78,95,-41,77,-86,-109,-111,-127,142,-133,-11,138,27,-80,-34,49,-129,73,-28,-143,-131,-77,97,80,-122,89,-13,-16,-98,31
,-156,47,-60,-35,-163,84,-77,33,25,14,-22,24,-95,54,-91,-23,-72,61,-131,65,-98,57,23,19,-46,54,-39,-78,94,55,-68
,33,-155,-14,-141,-64,-78,-25,-97,-142,-99,-57,-22,7,73,15,60,-46,-88,-2,84,10,19,60,-73,88,-76,-167,63,0,112,16
,10,-139,-18,-133,-147,-117,-97,48,-4,106,102,-7,-50,63,62,-103,74,79,-13,-56,53,-46,94,-33,14,-61,78,-24,-95,15,94
,-16,101,22,99,-179,-45,-52,39,-92,-50,-65,-30,27,-95,43,-75,31,-29,-91,4,-27,52,-109,-128,-152,-66,103,35,25,-13,-115
,-132,3,60,-67,106,130,94,-62,-102,-122,54,-10,-55,-60,67,-32,-145,-121,-118,134,-52,24,-76,-8,-11,-69,65,88,76,25,-29
,143,-6,-46,-142,-38,46,102,-47,-87,7,-16,-122,-47,-95,-67,106,106,12,-34,101,-78,-107,-68,-18,141,34,-73,-74,6,-44,57
,5,-67,-105,-101,54,141,-14,130,45,129,-87,-49,5,-71,-3,-91,-51,-11,94,-13,96,-131,40,27,-88,-36,-60,74,-116,-64,-100
,11,-10,122,29,5,-24,-46,-71,-82,-80,126,-123,-108,-91,98,-127,-93,-36,-27,69,139,-35,65,-141,-36,-63,-28,-139,50,-35,-26
,-149,114,66,43,-97,102,100,52,-55,-54,-151,-51,-16,6,41,-76,-97,-106,-95,76,-75,-99,64,104,54,-88,-17,-147,-163,-41,-144
,-78,-151,-147,-97,-123,-123,10,5,-70,48,-87,67,1,103,42,-169,-34,90,50,-147,101,-32,59,-36,57,-116,34,2,-150,-13,-47
,-98,103,3,29,-36,-60,2,20,-21,-46,-70,15,15,26,-50,97,-109,-60,-130,64,-8,-98,96,-129,28,107,49,-76,73,-22,58
,-50,-130,115,35,126,-68,-41,72,-112,-142,-127,-46,-70,-110,-133,-138,56,-1,-54,-5,-13,-5,84,-69,-124,-61,-57,98,-63,62,0
,-135,115,-136,6,125,-104,-134,79,-50,48,-105,-44,-141,-128,-48,-56,-63,-42,-122,16,106,-144,130,-82,-102,-135,58,2,4,89,-113
,-124,-5,69,-32,-143,-50,27,-57,93,15,-144,38,-2,-3,-165,54,-33,15,102,119,107,-85,66,36,-41,120,19,32,-19,-143,-56
,-155,113,115,9,-16,92,-50,73,63,-130,-94,96,-68,-151,-42,-87,-54,67,121,27,-55,-109,-110,12,42,-86,19,49,8,112,41
,32,27,76,-125,30,-124,-74,53,-108,68,-67,-94,78,108,91,1,-79,-118,90,-26,-86,72,-8,9,107,-69,-98,89,-40,-101,32
,111,-140,38,78,113,-54,46,-46,88,3,92,-152,97,-138,-9,-58,-94,-137,-13,11,99,98,26,67,76,-69,-54,-138,-114,47,-121
,135,-141,8,-8,85,68,0,-28,-22,134,31,96,-7,-92,4,10,72,-91,-76,88,-104,61,-136,-113,-39,80,-81,-51,-117,-88,38
,101,42,108,-64,116,39,63,-101,-41,13,-161,57,-92,117,-36,-97,51,-102,48,-35,-91,-43,-1,-44,18,55,92,-140,-120,-18,-20
,79,-147,77,-41,-137,35,-64,-135,43,10,-183,-105,-96,80,-22,62,-70,32,-171,-74,-130,-44,31,107,93,90,-3,-11,-61,10,-137
,56,26,-47,134,-45,-121,-81,-21,99,79,-119,107,49,76,53,3,-92,-132,-60,44,-49,-55,26,-117,-94,-24,85,-49,-55,-88,-122
,-164,-136,39,29,-16,67,-161,-165,92,87,0,54,-33,47,-172,90,27,56,-14,15,45,-146,96,41,-136,66,88,45,-25,1,39
,-96,69,-99,4,-37,0,-55,118,49,58,-26,92,-18,69,-111,-70,48,-102,70,74,38,-3,-68,-31,-53,-97,65,-94,-99,-39,-129
,-87,-38,-131,-115,139,70,-76,-129,117,19,133,-123,-69,97,1,-73,-88,-124,109,32,-49,-52,35,116,-92,-59,138,22,-124,46,43
,102,-66,-93,-3,10,-169,7,78,-93,-29,55,-91,-63,41,113,-71,33,-133,-53,-94,-23,79,-62,-97,-70,72,43,-34,-89,-71,-148
,-37,11,109,-84,-94,21,108,-30,67,-101,-111,85,-23,49,25,-40,-79,-62,-123,-125,76,-134,-93,45,114,67,-88,75,-133,-91,32
,11,46,66,-59,46,103,109,-2,15,-121,-154,-25,64,-116,117,-45,-145,-18,53,-26,-78,88,-113,-144,129,-116,-112,-143,16,6,10
,91,-91,66,70,59,69,-168,38,22,-162,89,36,51,69,4,36,-172,-137,-77,-175,61,37,-171,13,-25,-16,-35,-1,48,-104,-180
,-90,-155,62,-25,65,22,-124,50,-127,39,4,-36,34,98,1,-33,19,56,-145,-4,29,18,113,-58,-61,-165,108,107,-127,-42,98
,-62,16,-44,102,99,-130,-20,-39,-171,90,63,-86,-88,-31,49,-54,26,23,-99,34,-94,58,53,84,98,78,-67,-130,21,-94,-80
,57,6,71,-173,-172,78,36,-150,67,-141,-77,81,12,-26,75,-67,-28,103,24,-128,-54,87,-7,-39,-84,-1,-152,-54,59,12,87
,31,-15,0,102,-98,-5,55,19,-34,-26,100,28,-14,-89,-100,-150,-130,-114,-13,86,-93,10,-67,104,-24,-11,-91,-35,-36,77,-12
,64,-96,-151,1,-68,-86,-101,-134,0,-118,-122,-107,78,45,32,125,102,-84,44,125,11,-28,-137,-63,-127,5,98,87,5,-54,-134
,57,-5,-36,-140,15,-47,-80,103,-27,9,-21,78,84,-99,-114,-26,-122,55,-53,-82,-81,-142,108,86,-93,75,77,-159,-141,59,-122
,-177,53,-110,-33,62,-138,-66,30,47,-35,-22,62,78,-129,-66,58,28,47,-43,-51,-122,-118,-16,101,71,67,26,-112,-172,-172,-96
,50,-177,-91,107,31,11,-39,80,49,82,67,10,-139,46,-159,-147,-68,45,-21,-67,-141,7,30,87,99,-67,56,97,90,-27,-68
,-39,-8,-115,-131,-27,-120,-72,-129,-71,-60,-132,34,64,-117,-19,95,-101,101,113,36,-68,-9,93,7,-28,14,-36,-21,-142,118,-7
,-52,-48,44,128,27,-69,-87,-24,130,19,66,51,-76,-110,89,-45,89,80,12,-68,-77,38,63,21,18,-138,106,-18,-127,9,-97
,-101,-173,90,-89,64,51,30,-35,82,46,-2,63,23,53,-11,47,60,-23,15,26,-206,-191,-8,-105,-97,-47,-137,53,-167,-127,24
,-117,-56,79,116,-115,-95,-119,-76,-34,-51,10,21,-74,-88,-37,115,-143,53,28,-25,76,32,-160,-49,9,-6,-25,110,0,-18,18
,55,57,115,119,-42,-119,-113,34,-11,-62,-80,-82,-123,-2,33,110,69,25,91,7,-95,-42,96,-40,86,-130,-129,-64,82,-112,-45
,109,-12,-125,-115,54,-111,56,65,40,-108,121,-58,-112,-115,-54,-8,-26,31,23,-108,5,31,48,-51,-5,118,-118,14,-38,11,-134
,61,54,15,-67,6,-32,-26,72,59,-74,-157,-76,-17,-89,63,-72,86,17,-82,-28,85,-126,-96,39,-4,-59,-113,-2,48,-167,16
,-92,94,-5,-86,-142,-37,-158,21,24,12,85,71,-8,-105,-184,-115,-53,95,9,36,-49,66,40,-160,21,-34,-68,89,22,81,-97
,33,-50,-89,-6,101,-77,-115,134,-109,-54,16,76,38,34,-51,60,-118,1,91,-98,-100,-73,54,14,22,-81,-36,-41,-125,-9,-101
,-37,-24,-137,-138,-48,24,63,24,-80,62,-70,-13,-93,28,34,-134,-140,-104,-91,-133,42,28,-68,-135,-68,-1,-5,-75,101,-15,-32
,-142,7,-114,16,-60,-114,-67,-101,71,-63,-50,104,-5,93,-53,85,-6,78,-2,92,-16,44,-168,-67,62,34,101,-101,106,21,-122
,82,-53,-45,66,36,-83,-54,53,-133,-84,-82,-33,-97,95,27,3,88,33,29,27,47,-136,19,120,-156,120,41,-112,9,-148,107
,-75,-57,5,-128,-110,-3,1,91,2,94,-35,41,-121,105,-16,-150,-12,0,-58,123,-143,-98,109,95,-28,6,-148,58,-81,-41,-48
,66,-180,-45,64,-67,82,-149,19,53,58,89,68,-72,68,-27,-26,58,-103,74,35,-72,-80,-121,-31,-212,-106,35,-25,-184,-159,2
,-40,129,-18,9,75,18,110,-120,-135,1,-13,46,-147,94,-139,-2,134,-48,64,27,-4,95,-81,-35,93,-75,-30,101,-137,-11,-143
,-115,-17,-103,-155,-71,-36,89,-71,96,22,-112,37,119,79,-10,86,-108,107,-45,-55,-40,-115,-71,-102,-172,12,39,53,-29,-97,-102
,17,70,86,36,-90,-11,-138,-100,109,-52,-9,-93,5,-97,75,66,-132,-59,-28,5,0,66,-129,-109,-11,125,103,4,-155,129,-75
,72,-82,81,42,54,-111,-52,85,32,-127,-129,45,-107,139,79,-42,-98,-112,-20,88,110,-120,-71,85,-133,4,65,76,-30,-115,-22
,-78,-79,6,12,-173,101,86,27,-87,-61,65,-108,65,-21,47,5,19,-112,57,-171,-54,-11,-140,48,-140,95,-41,84,26,-81,84
,58,104,61,-22,32,-130,-45,52,109,144,-83,-34,29,-71,-135,26,-87,144,-69,-88,143,-124,-122,-122,-77,73,-135,-101,-20,52,70
,112,25,-92,25,71,6,-64,23,-131,-28,-89,-179,91,-98,10,-148,17,12,-154,-134,-87,-53,-85,16,31,102,-60,-104,-54,126,42
,48,87,45,-32,74,-74,-120,41,-12,-109,-147,-128,-51,-175,6,-84,-166,-156,65,101,-67,97,17,93,93,77,5,-164,-80,105,-61
,23,83,-43,-162,-52,73,58,-86,38,-121,-7,8,89,6,-121,-63,110,-173,-80,-16,3,31,111,80,88,88,-115,77,-139,116,-132
,-26,55,132,-48,4,-27,-142,47,-4,61,-123,100,70,-64,-104,90,-92,40,137,-28,-79,64,-129,89,81,-11,-131,-109,69,-95,3
,67,15,21,85,-68,-117,35,-144,-162,67,55,77,67,30,-117,12,-157,-59,-124,42,-151,-130,-23,105,-51,111,101,-87,-150,14,-49
,-124,104,64,-127,52,-116,-100,8,23,104,9,-35,-124,-23,-21,84,131,-47,-113,1,137,-74,-10,38,-77,47,93,-24,-140,-54,-131
,-46,61,56,-147,94,78,15,-36,37,61,-160,60,-32,-133,-71,31,92,-162,56,-75,-94,8,-70,-126,-70,43,-131,-104,-14,37,-138
,53,-85,-58,139,-133,122,-123,-75,-78,-49,98,-99,-83,-64,-128,-83,-132,123,-40,81,-22,132,90,-36,141,-12,14,54,-66,-87,-73
,37,-1,52,42,85,-33,-29,89,68,-45,-169,32,-10,-76,7,-133,-36,-88,-114,-139,13,41,-106,12,-172,-78,-72,28,-162,40,32
,-28,96,-160,41,-155,-28,-3,-156,66,-1,-48,5,112,20,66,87,57,-139,-112,-145,1,-27,4,-11,-175,-168,-173,-75,100,47,47
,45,-96,-66,-126,52,-123,103,32,-117,-75,35,-174,-3,107,-10,-110,-143,72,81,-21,58,100,8,-107,-52,-138,-14,-94,34,-143,-95
,-149,-6,39,-39,-92,-79,-28,-50,2,69,-118,-37,-128,90,-151,-97,102,-82,132,88,81,-121,-111,117,0,13,-4,0,96,65,89
,71,67,116,-112,-162,117,-165,-57,54,-34,69,-74,58,-52,-152,-148,-163,-82,112,59,4,-113,8,4,-60,-83,89,-139,47,-19,74
,-102,7,78,35,-60,70,92,58,-1,8,-137,-153,-120,-143,-74,-109,-59,-136,83,90,43,-48,-160,0,-39,58,-93,-144,47,7,5
,-85,55,-2,90,138,-34,18,23,-10,45,25,-88,-48,-87,50,-140,-49,122,-90,76,-118,-58,139,-6,11,-120,-48,58,38,-122,39
,-98,-51,141,25,-67,86,27,74,-102,-120,-42,113,-119,-33,-84,26,85,-103,-128,-42,79,32,-14,-48,124,33,4,-140,-72,91,-46
,-89,33,-80,-56,-132,55,-139,26,-82,-33,-46,-83,-7,-60,117,60,-141,77,-10,-61,-37,22,62,-136,45,-63,69,35,72,41,135
,-73,-117,100,-43,98,5,-49,73,4,59,99,-117,-81,-57,-105,12,27,82,-23,-16,75,-42,43,60,-103,44,-140,113,-70,-139,67
,-138,-60,48,-64,-126,-15,-71,32,-51,-112,110,-103,11,-104,-111,-64,-47,41,-62,-55,-32,-32,37,32,120,-138,-88,-88,116,-64,88
,21,-61,93,-88,112,19,-125,-74,2,-108,-140,26,-130,-109,-92,-130,131,0,111,-15,-84,-135,-37,-49,108,-28,105,-74,-19,93,73
,-121,79,-21,-113,-143,-108,-119,-47,-101,-5,54,-136,-53,35,26,30,-25,-141,124,-125,86,85,-64,-57,116,-65,136,-46,41,125,114
,-89,18,83,-51,-176,23,25,2,3,78,35,7,46,76,96,-164,-121,43,-73,-41,-165,-112,-110,-73,-140,39,-135,60,-119,43,-99
,-146,65,74,-100,112,52,-10,-110,-67,-17,42,29,100,-111,-163,91,-98,55,49,-124,-180,-124,-142,-46,-168,-3,18,69,-25,-80,53
,57,49,-145,100,9,-145,68,3,86,-108,-33,51,-155,-41,91,-81,-57,-43,62,107,-38,55,-170,108,94,80,-147,-43,-115,-153,-36
,-21,-76,-36,-155,-111,21,-172,-111,62,80,21,-87,-21,-29,-108,93,52,93,-1,-112,-64,-107,-91,43,7,-45,-135,-56,108,29,-98
,-80,21,15,114,126,72,-79,-121,91,96,-2,70,51,-148,73,-77,25,17,-76,-49,-171,44,-38,119,-118,-54,-151,-63,-91,-5,-159
,71,-139,-103,134,84,38,26,43,-56,-140,89,19,-128,-26,-38,-74,-70,107,-108,70,123,-128,123,30,-21,42,-41,-70,-12,-42,-4
,55,-55,133,-6,-7,118,-119,27,-69,159,165,-39,47,2,-105,49,-124,-131,28,138,62,119,127,35,115,71,74,83,142,4,-61
,-66,-71,54,8,74,-75,-7,-70,72,-68,-47,20,67,-67,-81,115,12,-101,67,25,2,5,-22,-35,-62,68,86,5,-132,-59,-6
,-156,-77,31,-103,-103,50,13,-101,-85,-48,-49,92,-148,-54,-80,-118,-115,62,30,-125,81,14,-154,90,50,60,-60,4,-6,67,-17
,46,-11,-16,59,40,-12,-113,-82,-89,-3,-142,29,-35,32,-66,57,-32,126,-119,114,-129,-124,130,-85,-113,-140,54,-104,-62,95,-79
,12,33,9,-100,33,-23,-101,-91,-101,-68,-77,-97,-122,-67,10,-140,-110,67,24,-53,-115,141,-49,-69,108,122,12,-109,25,30,96
,55,70,-36,-44,-41,110,-103,57,-113,-15,95,-25,-93,-80,-19,-60,101,98,-59,-19,-95,13,-25,-65,-120,-109,41,-62,136,109,-92
,-96,105,59,124,-34,-110,94,-118,-104,-114,-34,-107,-41,121,-135,-97,14,-125,19,-43,127,36,-75,-56,-135,-113,65,16,-134,-86,-4
,-49,-127,53,-43,27,-52,30,-74,-19,94,26,86,14,53,101,-118,-64,107,-121,-29,-81,-100,7,-94,-64,-56,-106,-40,56,-56,-96
,86,-127,-78,-139,-54,84,5,-147,-89,13,71,-42,-52,100,17,71,-141,-69,-139,-18,51,-43,-50,124,-144,-6,118,13,42,40,57
,-32,-23,-77,0,63,-3,-34,121,70,96,3,-70,103,125,-135,-117,44,40,-93,56,-98,-107,8,-35,-80,-41,-53,-129,-141,-9,17
,83,-50,-148,10,-111,8,-134,31,19,-98,60,-12,82,4,100,-74,111,-80,36,47,-83,94,18,-124,-67,98,-57,19,-56,-150,74
,84,127,-129,112,115,-68,-145,-123,75,-103,19,94,70,-119,52,-37,73,-17,-94,-123,-13,26,-10,-151,68,24,32,-100,70,-54,60
,111,-82,70,-103,-85,4,-62,44,1,143,17,-127,-53,-24,102,7,-61,20,-65,85,-90,-119,-133,-144,-126,-108,-70,82,59,93,135
,-21,38,-73,78,-3,-37,-140,-146,-147,67,58,27,53,-4,64,-179,-10,-59,-21,-115,29,-29,48,-142,91,-60,80,96,-172,-177,-16
,-114,-52,-128,82,-34,79,-31,-97,-13,-101,-85,-131,-117,-40,63,106,-26,-106,-138,45,-48,142,-80,99,-12,8,-53,69,-62,-6,-20
,-31,-2,-53,-6,-70,-70,4,82,-35,-85,-2,-77,-104,-72,39,79,72,36,73,-5,73,-91,22,-131,48,-144,-189,-116,17,83,-186
,-74,-115,71,39,4,-105,72,-21,46,-82,7,124,-87,60,-52,-120,10,-16,-3,0,-137,79,79,-34,40,133,-21,58,4,-10,-131
,109,-119,7,6,-106,10,96,-10,-54,115,-100,-57,-108,91,56,-124,133,-19,88,-82,102,-103,-1,-42,123,-78,-104,-62,-14,125,16
,-42,-23,-182,-73,28,-51,-147,84,54,74,68,51,-71,53,-57,-29,-52,36,-86,22,33,21,41,-46,11,43,57,-88,-40,95,-9
,-43,51,45,-9,-125,25,23,-102,60,-62,130,-84,25,-27,-28,-40,-101,129,-23,-28,-22,131,21,40,-55,-75,-50,-112,121,-28,-42
,0,15,-111,-94,-134,88,-17,11,113,-23,-78,-126,-98,141,-109,124,-51,-43,-109,-80,96,-25,-53,104,-32,-69,-126,-141,12,-86,-141
,99,86,-154,-103,-153,-3,-74,-105,87,65,-106,100,-4,29,6,-49,-13,-165,-51,42,-48,-42,57,-71,8,80,-111,-70,107,2,-84
,-133,43,-16,22,-13,67,30,-131,111,72,53,-95,-118,-128,106,114,-44,-3,-13,-83,-35,18,-105,40,48,101,2,78,-102,32,-120
,113,79,-22,-33,78,-36,-145,67,-122,-81,-87,33,-105,-74,-115,-141,-85,117,-46,128,-112,-48,-125,141,-111,64,56,51,-68,-74,-50
,-26,-47,-81,10,71,-107,16,43,-93,7,-59,-37,-17,114,62,-55,-55,-133,-98,25,111,16,-100,-9,62,-41,36,48,-103,-1,124
,65,-63,-67,19,-35,-49,-18,-87,-17,-52,22,-78,-11,-53,-33,102,29,-95,2,131,-53,7,-14,31,-140,91,66,136,28,-131,-109
,-132,-124,98,-54,-1,119,-16,-36,15,107,-107,25,6,58,77,-90,47,-26,70,-58,-60,-5,-49,37,-45,11,-67,-42,-14,-71,-86
,75,119,-34,-134,69,-55,56,17,-81,42,46,-28,41,-16,-81,-75,1,-145,124,24,-64,-65,76,-134,54,66,37,-36,-29,-144,-116
};

long weight_1_T_nvme0n1[256*31] = {
60,-137,-88,85,85,42,-96,-32,-73,-68,-95,-7,-22,-70,-132,-38,8,-88,144,50,-103,77,-12,11,-26,-2,25,59,-51,-103,-104
,22,65,-37,-61,-109,-148,82,2,76,-23,87,-179,-109,-21,14,77,72,-92,-181,-102,-19,-44,-43,28,-123,-22,-99,-49,52,95,-24
,-54,80,120,6,-59,52,107,-146,-72,-95,-131,54,10,112,-18,17,-79,-70,-83,40,-90,92,75,36,21,99,-130,99,-44,-154,-75
,72,69,1,63,-97,-93,-91,28,16,-165,0,-166,21,-190,35,1,-82,-9,-193,74,-44,18,-109,-196,1,29,67,39,83,-48,-77
,106,-8,-49,-72,-68,-140,-24,-24,-126,114,-66,-128,-127,75,46,107,59,27,-30,-34,128,141,22,58,-67,-51,-8,-6,-128,13,-118
,-7,-144,15,106,-93,-84,38,-74,-81,-151,-6,-121,-65,-151,26,-121,-37,-72,73,-100,94,-52,73,10,31,92,-176,32,-170,-99,41
,-93,86,2,-109,-103,60,-64,31,-48,-37,-25,-125,-52,-99,21,-56,-61,-89,57,-35,107,120,-142,12,20,83,-112,-3,-32,-138,67
,-156,93,4,-76,31,-121,67,-154,-106,-83,33,91,52,86,31,43,100,-111,-140,-4,-63,27,-111,61,95,3,22,-109,-111,15,-158
,-9,70,-109,87,47,-53,-87,-75,-6,49,-27,65,-121,-62,-89,96,85,48,-40,18,-69,-15,-7,-49,25,2,56,-40,-2,48,89
,-159,86,-33,-149,-99,-2,-130,86,-16,34,5,-87,14,-52,25,10,-4,54,22,-41,-135,-5,22,16,107,89,-86,71,91,-10,-5
,-114,103,-51,-3,-30,143,75,-76,115,-142,60,-137,-21,-84,71,-135,12,1,-63,-87,-115,36,-28,43,-43,49,-18,62,-122,130,-32
,112,-41,-47,-150,85,-106,-102,-111,-132,-16,50,38,48,-143,-111,96,-71,-151,-134,50,-41,-46,-67,8,-62,68,-40,6,107,24,9
,-97,-21,69,-125,-52,75,66,3,3,116,-52,-111,-26,65,-66,39,9,2,-52,-109,-150,-74,111,-30,-3,-116,-31,-68,33,-153,32
,55,27,-91,-85,103,129,114,-87,30,-78,-143,57,-28,85,12,-66,-113,-97,59,-65,-69,-83,111,-114,86,-4,105,-41,-52,-113,133
,87,-193,40,-159,-67,27,-18,-112,-68,25,-99,-168,-189,47,27,51,87,-29,1,-164,-24,-8,90,-130,-98,87,22,-92,-68,28,86
,-53,84,-121,85,27,-29,49,0,20,-112,-178,-96,-8,-103,-74,-161,-54,26,-98,-17,30,-140,-87,-152,88,96,-34,33,72,-131,99
,-89,-83,33,-13,58,-143,-155,15,78,17,-98,-48,53,-36,-134,-121,-127,20,-25,66,16,68,34,-54,10,43,-164,-148,4,38,-90
,12,-16,38,3,-72,-8,-93,-77,-73,21,12,-38,-29,-80,-20,45,48,33,-21,-56,-7,20,-64,44,46,-45,-30,-18,-25,-96,86
,-124,59,15,-24,19,-84,-172,6,76,48,31,-91,-172,48,-168,56,59,-49,37,5,41,59,-81,-136,9,-100,-41,-149,-86,92,14
,101,-34,-8,-121,19,56,127,-113,120,87,37,3,9,-88,-72,-72,-96,-38,-129,-86,132,-47,-11,-41,107,43,-91,136,39,-100,-59
,54,100,52,108,-167,91,83,-26,-12,-111,48,-9,-162,-175,84,-157,-27,-54,-10,-26,-151,104,-126,4,55,-61,-171,-114,-71,70,69
,-84,77,35,101,121,-65,80,70,22,75,-105,-60,-134,-148,76,106,-91,63,-47,-140,124,-89,-55,-36,-39,-33,-45,-2,43,-94,5
,120,-82,-24,117,83,-108,-128,17,113,114,59,1,-97,-131,-23,-87,-78,-118,64,-158,88,123,-32,-141,107,-20,-130,-48,15,44,91
,-51,16,118,105,-110,-123,116,2,13,18,-62,118,-135,-96,-64,-28,-42,140,29,-52,46,-152,-81,20,-84,-112,15,10,12,131,-98
,-80,3,75,-111,-153,60,-119,90,-146,-46,63,113,-25,-40,79,-14,-143,-18,31,37,-172,-105,-133,33,59,94,-169,-2,90,49,-2
,114,-135,17,-44,42,-105,87,-35,20,-123,-162,-20,64,84,-65,-158,37,107,-56,21,57,0,-19,-100,102,77,-165,64,-54,17,43
,6,-83,55,-97,-84,57,85,16,-18,86,-95,85,86,-12,-93,-127,-71,90,137,-131,-91,-5,-146,23,-132,53,38,48,-81,-148,116
,-31,10,87,-15,108,-149,105,-13,-9,110,-100,115,-41,-9,103,47,-101,-35,81,-135,-136,-6,-157,-73,-139,102,-42,-165,14,-56,47
,-123,83,99,-131,21,99,-53,106,32,34,-102,87,109,41,-81,50,-124,-19,-131,-106,-77,-61,-149,-108,-81,23,-96,64,4,-121,-23
,-8,19,-52,-69,143,-52,30,-53,9,-103,-31,10,-20,-8,9,35,-141,-5,-9,-65,-55,135,-30,-32,-127,-70,7,-46,47,115,-141
,-43,34,-97,-156,-156,-9,-45,-85,-134,-111,59,-158,62,-22,39,54,-68,-78,-163,-37,-36,36,94,40,22,59,-73,60,-76,31,-18
,104,91,127,94,50,27,-56,52,25,73,16,-6,-91,48,46,-143,-42,24,-118,-113,-76,46,-141,-62,110,67,-119,-75,-107,-147,-149
,66,-53,-57,-9,-27,-40,101,-71,125,-141,-46,-14,-74,-65,72,-84,48,-144,117,69,75,-90,-59,-121,83,53,113,-61,104,83,-162
,-8,-106,-84,-145,-77,130,-61,4,74,-73,56,93,-75,75,-119,-46,50,88,-62,-55,58,44,-100,82,-106,38,-9,60,73,-16,79
,-191,-59,-61,-1,18,24,47,40,68,-25,-54,-52,44,-112,16,-76,-66,-74,-2,-11,83,83,-47,-93,5,-3,-158,-162,8,46,53
,-71,-73,-161,77,-76,-34,-7,-32,58,121,-62,5,38,-52,-119,-111,99,53,61,-8,42,-83,-71,60,56,103,69,-41,69,-134,-113
,15,4,-89,-63,7,-48,4,-70,-114,-77,16,-75,-125,2,19,-86,84,109,-57,22,127,79,66,38,-100,-56,16,63,-97,-134,-63
,-110,-81,-108,-63,-2,-138,-40,-22,-66,-58,-158,-170,-143,-100,56,14,7,40,-55,-166,80,63,54,61,7,-57,25,36,14,2,106
,74,-57,100,80,-5,84,-107,31,68,16,43,-99,26,-134,-99,25,-91,-112,1,-146,19,25,-67,103,-98,99,15,-93,-140,79,89
,-31,28,120,102,75,59,-31,-60,59,76,-92,-143,57,-44,-140,-127,-124,-84,-18,71,108,-52,-114,-131,-121,-47,124,-68,55,-10,79
,-22,96,-147,38,-31,-95,-85,-43,-104,85,-158,25,-11,-36,-168,39,103,-125,10,-101,103,17,86,-114,9,-17,-35,44,-43,38,-143
,106,-27,-23,-41,117,81,68,-97,-34,19,-131,-49,-32,58,-138,-96,137,36,21,-32,19,-124,36,6,-125,-54,-24,43,118,-92,-61
,-137,-16,-78,-45,-86,55,-77,46,-132,-84,-98,-55,-12,99,123,-42,-64,92,-125,135,-68,-95,7,25,-114,144,134,109,-1,126,-144
,74,-128,94,91,58,-103,-24,97,27,115,29,45,-22,56,-26,61,-149,-57,-135,-78,-124,-69,7,-124,18,-114,-99,-92,122,-127,132
,-135,73,95,72,-120,-31,-103,75,-12,-79,18,-125,-170,49,-23,-119,-12,-12,108,31,-2,63,59,53,66,-85,17,0,-61,77,-63
,-3,74,-57,-30,-35,-11,-56,-97,-10,-36,40,120,-117,-11,41,110,-157,48,43,47,-103,-2,-137,93,-47,29,87,-89,-140,73,-53
,-77,48,-79,-145,-154,-139,-69,-24,64,-109,107,-85,-113,-86,-51,32,58,39,19,68,-95,-47,-62,-104,-41,111,-65,3,-77,76,49
,-104,-99,40,15,-120,71,127,-124,-116,-115,-131,90,-72,127,68,-105,-46,-34,-31,-109,72,13,-138,138,61,-121,111,142,-53,-85,40
,92,16,-48,-50,132,36,137,-95,-49,-94,118,-107,-65,-72,-120,-108,-23,-7,126,-141,-140,-128,22,56,-75,-111,72,-91,-75,130,-58
,70,-114,37,104,-82,-112,10,62,61,-132,-66,-149,-173,28,-102,75,-7,112,86,84,-94,2,-173,8,-21,-8,5,-36,109,8,-48
,-146,-130,-22,9,48,-100,-45,-36,41,97,-158,94,-112,-155,58,19,-171,-120,-164,96,-56,57,-134,-2,65,30,42,105,114,-77,-126
,125,-42,-47,-133,-121,22,95,-5,-72,72,-51,125,-132,111,34,19,130,-58,-63,-15,-40,38,-27,-95,-143,125,-62,-94,-95,-6,62
,50,-120,12,-22,-81,-25,53,21,33,71,35,92,-122,108,92,-170,78,106,7,-66,-33,30,14,-75,111,-45,-122,-97,30,-145,24
,-47,-160,-137,52,-107,101,-78,62,45,-154,62,94,104,27,-8,-115,-46,-56,-132,-77,-152,20,34,-7,76,66,101,-51,58,60,62
,-12,17,45,119,-16,-43,-8,77,6,-61,106,-137,-144,-15,-96,-129,-27,48,128,-25,-101,119,-115,-11,-77,9,120,53,-58,-68,89
,-27,-38,-19,-19,0,-116,-118,38,45,23,-55,84,-169,29,78,-92,34,64,-7,1,53,-11,-58,6,59,17,-26,-24,15,-107,-154
,-155,92,23,-11,-49,52,-95,-20,-171,-89,-102,-12,18,103,-4,50,41,-118,33,-36,87,19,89,30,73,105,-17,-41,-173,59,90
,-67,132,-81,-110,-20,55,126,-105,-121,-77,69,52,-14,-15,65,-92,22,35,120,64,-108,-68,7,-100,-138,-115,116,78,-140,36,132
,-126,-74,63,-47,-139,-13,-14,117,-2,-120,-116,-112,-143,-46,104,18,15,-129,53,100,52,107,-122,46,-87,-24,-11,-97,126,-7,86
,-71,-79,-144,90,-144,76,-15,-135,84,17,-86,-1,-1,14,102,-57,15,106,-81,-46,-67,-33,63,-47,-111,-90,1,-96,82,-23,114
,-115,-147,-61,-4,-102,-143,-97,106,62,-1,-6,-21,-135,-68,92,56,-127,-160,116,29,114,-119,-22,33,-73,112,55,-72,0,101,-32
,27,-95,-14,75,-148,102,98,105,77,23,65,-8,-78,-80,21,-91,-118,-22,6,20,-85,-154,-139,-123,-63,43,-119,12,72,-54,-40
,61,-23,129,34,-113,71,-61,-49,-4,-82,71,64,-50,102,-125,-15,34,61,91,-59,-80,-144,16,141,-36,-124,129,-62,-46,-104,109
,-25,-11,134,-137,-21,105,-110,119,-15,-115,-139,-68,75,-59,-76,-78,101,105,11,-137,7,-1,-141,-146,9,31,131,26,-61,-24,115
,-155,-179,76,-3,25,-66,-60,-83,-129,104,-61,40,45,-71,76,79,34,-57,-33,64,-161,68,-76,-56,-49,77,17,-17,45,-76,-101
,81,-90,-60,88,-73,33,-40,41,73,-130,-134,-106,116,-80,51,-121,54,-46,-120,-19,-121,27,98,-13,-1,-37,-37,-144,-87,-1,12
,-29,45,-101,-85,-142,39,83,80,75,86,-112,95,65,-129,9,-113,0,-59,-42,37,-79,-115,116,-79,-61,-39,-10,-140,118,118,-120
,12,-131,-159,-85,-138,-96,75,-80,-21,42,105,-63,84,-139,-73,-52,-68,62,1,-9,83,8,103,-78,-111,-122,14,28,-115,-152,-61
,-55,115,42,-116,7,93,77,-116,102,-129,131,-17,-21,-7,105,75,101,-101,-46,46,-25,15,-22,-71,111,-127,-142,21,-120,-71,-144
,-38,-32,-89,-43,-105,115,-125,57,-67,-96,88,-112,-57,44,86,68,-124,-117,10,-20,15,57,65,44,81,62,21,-92,65,-160,4
,-130,108,-87,-105,-92,23,118,134,-102,-61,-94,-68,109,-24,-131,-139,-23,-127,137,-27,-85,-101,-97,56,-72,-97,14,-138,-135,-8,-95
,18,70,-17,-73,-103,44,58,-94,-130,77,63,59,-51,-114,51,-101,0,-9,-11,-93,93,-54,-126,-23,38,104,-102,-2,-92,-155,30
,-9,75,-62,130,-80,-77,28,-48,-44,-43,-118,87,-101,-77,-26,-31,139,-136,-35,-101,-36,-22,133,-89,-43,16,-116,-144,-101,24,-134
,7,142,-110,-20,-141,116,-17,93,-144,125,-29,66,-135,-7,-140,-50,-38,-136,-28,-91,78,-90,83,127,130,-3,-134,17,78,-143,80
,32,21,60,-73,44,25,46,-101,-152,95,-13,-175,-82,108,-125,11,-109,-110,92,-40,-15,29,-8,71,50,9,-32,-171,-146,-101,-166
,96,-36,-60,-39,-99,-117,-149,-23,110,-146,-149,-47,-68,94,84,-63,99,-69,-79,-24,10,90,30,-92,-109,-108,46,38,-66,10,-122
,130,-129,49,-37,96,-82,55,44,-56,-150,-65,-37,4,-92,101,-18,102,117,-102,77,-135,121,-14,-52,119,-91,-100,-144,9,-148,31
,-164,55,44,-179,25,26,42,-137,73,-171,-95,88,42,-12,26,-50,-91,39,-70,4,-153,96,80,-25,91,-132,-143,-41,-49,-165,9
,-66,-34,90,75,51,-83,-124,-34,-69,-157,35,62,114,-152,-110,20,-21,88,-25,123,-159,96,-100,-29,-116,95,-8,-109,110,-53,-23
,-82,-50,55,76,-75,-92,-36,119,-63,-85,15,-135,77,-17,-98,36,-102,98,-42,-36,-74,-67,44,111,-21,138,-112,57,72,62,-91
,-86,18,-39,130,-23,-39,50,49,-66,-145,-9,108,34,-70,50,42,17,-108,-130,-13,133,-141,-95,-52,28,48,14,-155,48,-42,54
,43,10,-74,-97,83,40,66,130,-92,94,-106,-105,50,18,-131,115,0,-8,6,26,-21,-144,16,-79,-62,37,118,55,-117,0,-68
,86,93,-32,-2,-33,-115,98,-115,62,-107,-68,5,-4,83,4,-134,-108,19,-33,38,-94,75,-79,-28,-5,63,-176,-180,-1,96,-117
,2,5,43,-124,83,-76,-131,-78,130,-53,123,32,100,-106,35,134,-113,-61,-125,-127,25,35,-58,-94,-18,98,62,128,44,-47,-75
,-122,-58,-42,-110,121,-84,88,56,-42,128,-10,-37,-20,-112,123,17,17,9,19,36,-87,28,120,-30,-3,-125,-101,-51,-66,-88,-19
,79,-79,-36,31,-60,-59,2,-112,30,6,49,-191,-33,-67,-160,-55,76,-59,-113,59,-52,74,0,59,77,67,-100,38,-16,-50,-114
,-78,4,-63,58,-58,-124,16,16,104,99,84,13,-117,-112,-54,71,21,-118,74,-61,61,-46,-88,-117,26,52,48,75,93,-103,7
,41,-34,91,15,-125,48,-90,-33,46,-62,-47,-52,-179,12,-118,59,-43,16,-88,-124,-113,-17,-109,33,50,-30,-34,56,40,-144,1
,-101,42,131,-148,50,-107,-8,-139,-32,83,46,65,131,-12,22,-67,47,-101,125,0,113,-121,96,73,-58,24,-53,-129,-47,-120,-112
,67,-131,-31,-133,112,79,-97,42,-39,-40,6,113,70,-66,73,-4,88,72,26,-134,-103,-16,17,-98,-101,-21,-26,-75,81,15,93
,-44,-85,91,-58,-100,80,-74,23,35,-3,74,23,-34,-128,-29,-136,8,-92,39,32,-169,-111,53,97,-127,59,97,67,-93,66,-57
,-122,-96,111,52,47,-47,120,73,-131,97,-144,116,96,-13,-80,-70,-44,-93,25,-12,68,-133,-99,-90,-33,132,131,5,-103,-125,55
,136,-84,-49,-135,82,-108,-45,-99,-22,-71,82,-75,15,-121,60,-88,97,64,-115,131,-92,-19,-142,27,-64,-42,-88,102,115,126,77
,-75,-23,-100,-58,46,-37,27,2,37,108,-132,39,-87,100,-2,116,-77,-24,-50,-18,-174,-77,86,61,-169,-1,-87,5,-77,-31,104
,88,109,-75,-104,-12,-132,66,-54,93,-126,-125,70,-127,31,-38,92,-152,42,53,20,-96,-27,121,-41,-48,29,73,-2,-81,66,-69
,74,40,-90,26,40,-90,4,-103,-23,-89,-112,-50,59,-60,-10,88,33,-87,96,93,-107,-129,46,32,65,-46,-65,26,39,4,81
,-59,-139,3,-139,-11,16,12,-49,-104,86,-57,-71,-99,-66,-8,-50,60,68,-129,-147,-45,-149,51,-17,50,40,3,60,-103,-80,-31
,-97,33,91,34,-120,-1,-70,99,-6,83,-90,70,-18,-9,60,-66,-66,-15,-22,83,65,62,31,-32,-115,-118,-26,32,-163,-57,90
,48,99,65,-148,-117,120,51,11,38,11,-152,10,96,-161,-81,113,-75,-170,43,8,25,40,56,-79,-155,-65,70,-86,-86,-50,-128
,-67,6,-27,12,-42,-16,87,128,3,-56,-71,-128,23,-76,138,-116,56,-45,103,87,-23,64,16,-51,-39,56,-77,-9,-72,-123,36
,-144,40,-51,69,53,-125,-53,-55,-170,96,46,-154,-7,49,3,80,77,16,-51,22,0,76,43,-151,101,-166,36,-29,-117,-65,106
,11,-132,27,6,102,-5,77,67,-111,48,79,30,-26,-158,-29,-166,-169,-3,-81,8,48,101,98,74,-122,45,-163,-37,62,60,8
,-133,-71,-72,9,-53,-15,68,-95,127,-77,58,-91,-58,119,118,32,61,59,85,-47,-137,-98,42,87,58,-8,-24,102,-96,-14,-150
,-141,123,-43,-64,-25,142,-24,-26,-141,-29,54,106,-99,106,-127,129,-128,122,77,-84,-48,-133,-39,-139,119,-7,-44,-37,49,-124,16
,2,113,117,-68,106,-78,119,94,90,-64,36,4,12,-60,-153,-89,74,-23,-36,25,-142,-64,-90,125,95,-146,-11,117,-138,-148,-24
,-79,92,-37,66,121,35,121,-25,25,-101,-62,-10,-76,49,-104,-138,119,-101,-60,-41,-10,122,61,-37,-147,-136,19,86,-5,90,-92
,-129,62,-93,-124,-26,83,23,4,29,-144,10,97,-89,-83,-86,-71,-149,-28,42,16,-51,95,30,-133,104,-37,-44,7,8,102,-106
,-29,76,-89,-81,76,-97,-24,28,-91,69,-23,15,25,50,79,42,-194,-60,-196,-103,-15,-16,-179,36,34,-29,-102,-24,52,-29,17
,-110,-107,81,34,-103,126,-101,-92,27,96,-80,-102,51,-52,-57,-6,-52,-122,124,134,-29,93,-49,-141,-123,42,-27,-32,-76,-20,83
,-142,-128,110,137,89,-10,-101,37,70,-98,-53,108,-79,-105,-15,84,-125,-106,-1,-29,86,31,-87,110,115,100,-137,-15,-104,89,10
,-54,-4,-128,-94,-37,-68,-98,-115,119,24,-120,-89,-15,33,79,-67,129,71,13,-142,-72,-137,-40,-132,105,142,71,24,34,9,71
,-89,-117,-92,22,-30,95,77,105,-126,-15,18,-48,70,35,93,-24,8,-4,-58,-16,25,-94,43,-100,97,-17,-140,93,11,-128,78
,-134,13,-13,-144,-142,-17,0,-153,90,-11,60,-161,-23,2,80,22,31,-28,25,64,-108,116,-37,93,50,-42,-8,-151,29,89,18
,13,-175,-64,-161,-30,-30,20,49,-9,-30,8,-15,33,-106,-108,-99,53,-114,75,-104,-2,39,-157,-123,71,-30,69,-1,-182,-70,30
,7,105,-45,-37,80,128,-17,-7,111,73,5,-107,68,-100,-62,-138,-86,37,11,-12,9,-1,-109,46,-158,-39,-121,-114,-71,-155,65
,5,-128,-96,-90,-111,-80,-19,22,2,67,111,-104,-60,-116,44,-144,13,53,-2,108,80,-74,61,7,-18,8,68,51,8,61,-25
,-143,-105,101,24,97,65,-20,-23,-149,-47,-26,-15,83,66,76,-150,-7,43,73,40,99,-154,85,-42,-184,-40,53,77,41,-67,-112
,-111,-82,-139,-50,107,-5,-20,100,106,2,-125,88,114,-148,4,-80,-148,-44,-115,85,-21,35,91,83,-143,60,124,114,12,-89,13
,28,-33,66,56,-141,117,-32,-17,-25,52,-117,-172,-118,6,-61,17,-121,134,-127,-74,-108,-57,-115,-102,61,45,2,16,81,-81,91
,78,71,-118,12,-133,-59,-105,-106,95,102,-39,-121,103,109,-108,104,107,-95,-143,57,26,0,96,-86,77,-78,-56,-18,-144,79,-156
,6,-37,38,-136,30,84,-160,102,106,88,-150,115,-40,48,114,-20,-171,-83,65,8,-207,-23,29,-69,-24,-21,-52,-164,-156,-26,18
,-180,-150,20,-136,-138,-21,104,-141,90,-160,-1,11,2,74,-96,-163,-184,69,-174,83,-122,-59,96,-56,43,80,49,60,73,50,-54
,20,-77,36,53,108,-111,-30,-13,-98,123,111,-9,-58,-46,-86,69,-50,-104,77,-35,-127,-112,-8,89,-44,-53,18,63,-13,-135,87
,-71,27,89,24,-136,88,-102,55,103,-5,66,-31,-148,-35,-30,-130,18,-7,108,81,-33,-36,10,-140,95,-70,35,-162,62,-118,-130
,-139,28,-24,24,102,-92,57,-108,56,68,121,-52,128,13,-103,-10,16,-158,-77,6,6,8,89,-114,-92,-62,106,3,45,-49,-116
,-56,-134,-141,78,102,16,105,61,66,-12,81,36,-96,1,61,70,-32,-58,7,-161,-62,28,-149,-88,34,-113,-84,76,-109,-137,-39
,-40,74,69,-48,-63,132,49,36,-86,-78,-96,-26,-102,-139,-36,26,-139,-26,87,-152,3,-130,78,115,131,66,70,59,-79,-20,-133
,81,-61,15,115,3,-134,60,-71,-119,-32,-83,-166,-31,-137,75,6,-94,-91,-142,-118,97,59,57,-47,-48,-36,46,59,-98,-86,49
,42,-17,-49,-87,-43,-85,100,71,82,-38,-162,-41,-160,52,-26,49,-40,-120,-40,89,-43,22,99,36,62,-4,46,-11,-103,108,-38
,-97,-81,-116,34,-32,67,-60,-86,60,-33,-5,132,90,-64,40,-129,5,121,-86,33,-47,36,14,41,-116,27,11,-83,-142,79,-114
,-62,34,-23,-126,116,123,-20,-93,92,28,112,-142,11,-32,84,-92,-87,44,87,-45,81,77,-13,92,-79,-122,36,17,78,-124,-147
,55,-138,-142,-100,85,-50,-74,-174,14,43,69,-89,4,-98,-191,80,47,24,9,-68,77,63,-26,-9,-53,-86,-87,-136,30,-17,-17
,-90,27,-63,33,-17,-53,-121,129,-106,6,129,-56,6,-105,-97,60,105,95,-114,-86,-76,-46,-91,123,57,-67,-42,2,-28,-113,-141
,-66,92,-111,-48,-73,94,111,48,120,-124,-49,65,90,-8,-164,65,-23,-156,50,22,94,-28,87,83,-150,99,-70,-124,-77,-155,78
,28,66,76,52,51,-113,93,-97,-143,125,-132,114,-16,-31,6,-137,-75,-112,-17,8,-46,-26,47,38,-79,-130,-16,-26,14,-119,-13
,101,-110,-145,-144,124,62,9,-121,-151,-81,-25,94,-41,-88,21,-14,96,24,-136,83,18,81,-73,75,65,7,7,-37,-99,15,-133
,5,14,-76,75,-122,126,-82,54,-103,-53,-58,-53,86,136,16,-59,-76,-87,27,128,10,15,-21,-41,-62,-49,12,35,-11,-59,77
,79,94,76,-110,-60,-152,-169,73,-2,-57,-75,-152,1,-11,-15,82,0,78,111,-55,113,10,-58,-129,-164,-154,98,-59,-23,35,90
,-161,-85,-25,-111,-47,101,1,-73,10,-37,-3,-166,-46,-109,-7,-168,104,4,30,82,110,48,-157,96,-128,46,36,38,-139,-170,-6
,-80,-153,68,-33,-67,-4,120,-3,46,101,41,-127,37,116,-142,-109,29,-136,97,4,10,-83,79,-70,-12,-65,-103,96,-40,-95,-14
,108,-42,-129,-28,-27,125,-112,69,73,28,-125,-84,80,-120,120,-4,117,27,27,78,-107,86,34,7,-81,-113,-110,-52,-14,-15,112
,-113,-113,133,106,90,-47,47,-56,45,-94,-135,-51,10,-18,54,124,-84,-113,47,-120,85,14,66,-125,-139,-56,-54,-64,-90,129,-97
,-19,-58,134,34,-128,-69,129,-11,-120,12,-118,90,112,-33,87,-100,-65,-60,-38,67,67,-37,91,-69,-13,17,-92,-122,-140,91,-119
,68,-46,-85,-88,-136,-142,38,70,-61,-42,-43,11,-78,-73,46,87,-146,-97,46,-44,44,26,79,-63,5,-40,114,-136,57,-161,-126
,2,78,95,-41,77,-86,-109,-111,-127,142,-133,-11,138,27,-80,-34,49,-129,73,-28,-143,-131,-77,97,80,-122,89,-13,-16,-98,31
,-156,47,-60,-35,-163,84,-77,33,25,14,-22,24,-95,54,-91,-23,-72,61,-131,65,-98,57,23,19,-46,54,-39,-78,94,55,-68
,33,-155,-14,-141,-64,-78,-25,-97,-142,-99,-57,-22,7,73,15,60,-46,-88,-2,84,10,19,60,-73,88,-76,-167,63,0,112,16
,10,-139,-18,-133,-147,-117,-97,48,-4,106,102,-7,-50,63,62,-103,74,79,-13,-56,53,-46,94,-33,14,-61,78,-24,-95,15,94
,-16,101,22,99,-179,-45,-52,39,-92,-50,-65,-30,27,-95,43,-75,31,-29,-91,4,-27,52,-109,-128,-152,-66,103,35,25,-13,-115
,-132,3,60,-67,106,130,94,-62,-102,-122,54,-10,-55,-60,67,-32,-145,-121,-118,134,-52,24,-76,-8,-11,-69,65,88,76,25,-29
,143,-6,-46,-142,-38,46,102,-47,-87,7,-16,-122,-47,-95,-67,106,106,12,-34,101,-78,-107,-68,-18,141,34,-73,-74,6,-44,57
,5,-67,-105,-101,54,141,-14,130,45,129,-87,-49,5,-71,-3,-91,-51,-11,94,-13,96,-131,40,27,-88,-36,-60,74,-116,-64,-100
,11,-10,122,29,5,-24,-46,-71,-82,-80,126,-123,-108,-91,98,-127,-93,-36,-27,69,139,-35,65,-141,-36,-63,-28,-139,50,-35,-26
,-149,114,66,43,-97,102,100,52,-55,-54,-151,-51,-16,6,41,-76,-97,-106,-95,76,-75,-99,64,104,54,-88,-17,-147,-163,-41,-144
,-78,-151,-147,-97,-123,-123,10,5,-70,48,-87,67,1,103,42,-169,-34,90,50,-147,101,-32,59,-36,57,-116,34,2,-150,-13,-47
,-98,103,3,29,-36,-60,2,20,-21,-46,-70,15,15,26,-50,97,-109,-60,-130,64,-8,-98,96,-129,28,107,49,-76,73,-22,58
,-50,-130,115,35,126,-68,-41,72,-112,-142,-127,-46,-70,-110,-133,-138,56,-1,-54,-5,-13,-5,84,-69,-124,-61,-57,98,-63,62,0
,-135,115,-136,6,125,-104,-134,79,-50,48,-105,-44,-141,-128,-48,-56,-63,-42,-122,16,106,-144,130,-82,-102,-135,58,2,4,89,-113
,-124,-5,69,-32,-143,-50,27,-57,93,15,-144,38,-2,-3,-165,54,-33,15,102,119,107,-85,66,36,-41,120,19,32,-19,-143,-56
,-155,113,115,9,-16,92,-50,73,63,-130,-94,96,-68,-151,-42,-87,-54,67,121,27,-55,-109,-110,12,42,-86,19,49,8,112,41
,32,27,76,-125,30,-124,-74,53,-108,68,-67,-94,78,108,91,1,-79,-118,90,-26,-86,72,-8,9,107,-69,-98,89,-40,-101,32
,111,-140,38,78,113,-54,46,-46,88,3,92,-152,97,-138,-9,-58,-94,-137,-13,11,99,98,26,67,76,-69,-54,-138,-114,47,-121
,135,-141,8,-8,85,68,0,-28,-22,134,31,96,-7,-92,4,10,72,-91,-76,88,-104,61,-136,-113,-39,80,-81,-51,-117,-88,38
,101,42,108,-64,116,39,63,-101,-41,13,-161,57,-92,117,-36,-97,51,-102,48,-35,-91,-43,-1,-44,18,55,92,-140,-120,-18,-20
,79,-147,77,-41,-137,35,-64,-135,43,10,-183,-105,-96,80,-22,62,-70,32,-171,-74,-130,-44,31,107,93,90,-3,-11,-61,10,-137
,56,26,-47,134,-45,-121,-81,-21,99,79,-119,107,49,76,53,3,-92,-132,-60,44,-49,-55,26,-117,-94,-24,85,-49,-55,-88,-122
,-164,-136,39,29,-16,67,-161,-165,92,87,0,54,-33,47,-172,90,27,56,-14,15,45,-146,96,41,-136,66,88,45,-25,1,39
,-96,69,-99,4,-37,0,-55,118,49,58,-26,92,-18,69,-111,-70,48,-102,70,74,38,-3,-68,-31,-53,-97,65,-94,-99,-39,-129
,-87,-38,-131,-115,139,70,-76,-129,117,19,133,-123,-69,97,1,-73,-88,-124,109,32,-49,-52,35,116,-92,-59,138,22,-124,46,43
,102,-66,-93,-3,10,-169,7,78,-93,-29,55,-91,-63,41,113,-71,33,-133,-53,-94,-23,79,-62,-97,-70,72,43,-34,-89,-71,-148
,-37,11,109,-84,-94,21,108,-30,67,-101,-111,85,-23,49,25,-40,-79,-62,-123,-125,76,-134,-93,45,114,67,-88,75,-133,-91,32
,11,46,66,-59,46,103,109,-2,15,-121,-154,-25,64,-116,117,-45,-145,-18,53,-26,-78,88,-113,-144,129,-116,-112,-143,16,6,10
,91,-91,66,70,59,69,-168,38,22,-162,89,36,51,69,4,36,-172,-137,-77,-175,61,37,-171,13,-25,-16,-35,-1,48,-104,-180
,-90,-155,62,-25,65,22,-124,50,-127,39,4,-36,34,98,1,-33,19,56,-145,-4,29,18,113,-58,-61,-165,108,107,-127,-42,98
,-62,16,-44,102,99,-130,-20,-39,-171,90,63,-86,-88,-31,49,-54,26,23,-99,34,-94,58,53,84,98,78,-67,-130,21,-94,-80
,57,6,71,-173,-172,78,36,-150,67,-141,-77,81,12,-26,75,-67,-28,103,24,-128,-54,87,-7,-39,-84,-1,-152,-54,59,12,87
,31,-15,0,102,-98,-5,55,19,-34,-26,100,28,-14,-89,-100,-150,-130,-114,-13,86,-93,10,-67,104,-24,-11,-91,-35,-36,77,-12
,64,-96,-151,1,-68,-86,-101,-134,0,-118,-122,-107,78,45,32,125,102,-84,44,125,11,-28,-137,-63,-127,5,98,87,5,-54,-134
,57,-5,-36,-140,15,-47,-80,103,-27,9,-21,78,84,-99,-114,-26,-122,55,-53,-82,-81,-142,108,86,-93,75,77,-159,-141,59,-122
,-177,53,-110,-33,62,-138,-66,30,47,-35,-22,62,78,-129,-66,58,28,47,-43,-51,-122,-118,-16,101,71,67,26,-112,-172,-172,-96
,50,-177,-91,107,31,11,-39,80,49,82,67,10,-139,46,-159,-147,-68,45,-21,-67,-141,7,30,87,99,-67,56,97,90,-27,-68
,-39,-8,-115,-131,-27,-120,-72,-129,-71,-60,-132,34,64,-117,-19,95,-101,101,113,36,-68,-9,93,7,-28,14,-36,-21,-142,118,-7
,-52,-48,44,128,27,-69,-87,-24,130,19,66,51,-76,-110,89,-45,89,80,12,-68,-77,38,63,21,18,-138,106,-18,-127,9,-97
,-101,-173,90,-89,64,51,30,-35,82,46,-2,63,23,53,-11,47,60,-23,15,26,-206,-191,-8,-105,-97,-47,-137,53,-167,-127,24
,-117,-56,79,116,-115,-95,-119,-76,-34,-51,10,21,-74,-88,-37,115,-143,53,28,-25,76,32,-160,-49,9,-6,-25,110,0,-18,18
,55,57,115,119,-42,-119,-113,34,-11,-62,-80,-82,-123,-2,33,110,69,25,91,7,-95,-42,96,-40,86,-130,-129,-64,82,-112,-45
,109,-12,-125,-115,54,-111,56,65,40,-108,121,-58,-112,-115,-54,-8,-26,31,23,-108,5,31,48,-51,-5,118,-118,14,-38,11,-134
,61,54,15,-67,6,-32,-26,72,59,-74,-157,-76,-17,-89,63,-72,86,17,-82,-28,85,-126,-96,39,-4,-59,-113,-2,48,-167,16
,-92,94,-5,-86,-142,-37,-158,21,24,12,85,71,-8,-105,-184,-115,-53,95,9,36,-49,66,40,-160,21,-34,-68,89,22,81,-97
,33,-50,-89,-6,101,-77,-115,134,-109,-54,16,76,38,34,-51,60,-118,1,91,-98,-100,-73,54,14,22,-81,-36,-41,-125,-9,-101
,-37,-24,-137,-138,-48,24,63,24,-80,62,-70,-13,-93,28,34,-134,-140,-104,-91,-133,42,28,-68,-135,-68,-1,-5,-75,101,-15,-32
,-142,7,-114,16,-60,-114,-67,-101,71,-63,-50,104,-5,93,-53,85,-6,78,-2,92,-16,44,-168,-67,62,34,101,-101,106,21,-122
,82,-53,-45,66,36,-83,-54,53,-133,-84,-82,-33,-97,95,27,3,88,33,29,27,47,-136,19,120,-156,120,41,-112,9,-148,107
,-75,-57,5,-128,-110,-3,1,91,2,94,-35,41,-121,105,-16,-150,-12,0,-58,123,-143,-98,109,95,-28,6,-148,58,-81,-41,-48
,66,-180,-45,64,-67,82,-149,19,53,58,89,68,-72,68,-27,-26,58,-103,74,35,-72,-80,-121,-31,-212,-106,35,-25,-184,-159,2
,-40,129,-18,9,75,18,110,-120,-135,1,-13,46,-147,94,-139,-2,134,-48,64,27,-4,95,-81,-35,93,-75,-30,101,-137,-11,-143
,-115,-17,-103,-155,-71,-36,89,-71,96,22,-112,37,119,79,-10,86,-108,107,-45,-55,-40,-115,-71,-102,-172,12,39,53,-29,-97,-102
,17,70,86,36,-90,-11,-138,-100,109,-52,-9,-93,5,-97,75,66,-132,-59,-28,5,0,66,-129,-109,-11,125,103,4,-155,129,-75
,72,-82,81,42,54,-111,-52,85,32,-127,-129,45,-107,139,79,-42,-98,-112,-20,88,110,-120,-71,85,-133,4,65,76,-30,-115,-22
,-78,-79,6,12,-173,101,86,27,-87,-61,65,-108,65,-21,47,5,19,-112,57,-171,-54,-11,-140,48,-140,95,-41,84,26,-81,84
,58,104,61,-22,32,-130,-45,52,109,144,-83,-34,29,-71,-135,26,-87,144,-69,-88,143,-124,-122,-122,-77,73,-135,-101,-20,52,70
,112,25,-92,25,71,6,-64,23,-131,-28,-89,-179,91,-98,10,-148,17,12,-154,-134,-87,-53,-85,16,31,102,-60,-104,-54,126,42
,48,87,45,-32,74,-74,-120,41,-12,-109,-147,-128,-51,-175,6,-84,-166,-156,65,101,-67,97,17,93,93,77,5,-164,-80,105,-61
,23,83,-43,-162,-52,73,58,-86,38,-121,-7,8,89,6,-121,-63,110,-173,-80,-16,3,31,111,80,88,88,-115,77,-139,116,-132
,-26,55,132,-48,4,-27,-142,47,-4,61,-123,100,70,-64,-104,90,-92,40,137,-28,-79,64,-129,89,81,-11,-131,-109,69,-95,3
,67,15,21,85,-68,-117,35,-144,-162,67,55,77,67,30,-117,12,-157,-59,-124,42,-151,-130,-23,105,-51,111,101,-87,-150,14,-49
,-124,104,64,-127,52,-116,-100,8,23,104,9,-35,-124,-23,-21,84,131,-47,-113,1,137,-74,-10,38,-77,47,93,-24,-140,-54,-131
,-46,61,56,-147,94,78,15,-36,37,61,-160,60,-32,-133,-71,31,92,-162,56,-75,-94,8,-70,-126,-70,43,-131,-104,-14,37,-138
,53,-85,-58,139,-133,122,-123,-75,-78,-49,98,-99,-83,-64,-128,-83,-132,123,-40,81,-22,132,90,-36,141,-12,14,54,-66,-87,-73
,37,-1,52,42,85,-33,-29,89,68,-45,-169,32,-10,-76,7,-133,-36,-88,-114,-139,13,41,-106,12,-172,-78,-72,28,-162,40,32
,-28,96,-160,41,-155,-28,-3,-156,66,-1,-48,5,112,20,66,87,57,-139,-112,-145,1,-27,4,-11,-175,-168,-173,-75,100,47,47
,45,-96,-66,-126,52,-123,103,32,-117,-75,35,-174,-3,107,-10,-110,-143,72,81,-21,58,100,8,-107,-52,-138,-14,-94,34,-143,-95
,-149,-6,39,-39,-92,-79,-28,-50,2,69,-118,-37,-128,90,-151,-97,102,-82,132,88,81,-121,-111,117,0,13,-4,0,96,65,89
,71,67,116,-112,-162,117,-165,-57,54,-34,69,-74,58,-52,-152,-148,-163,-82,112,59,4,-113,8,4,-60,-83,89,-139,47,-19,74
,-102,7,78,35,-60,70,92,58,-1,8,-137,-153,-120,-143,-74,-109,-59,-136,83,90,43,-48,-160,0,-39,58,-93,-144,47,7,5
,-85,55,-2,90,138,-34,18,23,-10,45,25,-88,-48,-87,50,-140,-49,122,-90,76,-118,-58,139,-6,11,-120,-48,58,38,-122,39
,-98,-51,141,25,-67,86,27,74,-102,-120,-42,113,-119,-33,-84,26,85,-103,-128,-42,79,32,-14,-48,124,33,4,-140,-72,91,-46
,-89,33,-80,-56,-132,55,-139,26,-82,-33,-46,-83,-7,-60,117,60,-141,77,-10,-61,-37,22,62,-136,45,-63,69,35,72,41,135
,-73,-117,100,-43,98,5,-49,73,4,59,99,-117,-81,-57,-105,12,27,82,-23,-16,75,-42,43,60,-103,44,-140,113,-70,-139,67
,-138,-60,48,-64,-126,-15,-71,32,-51,-112,110,-103,11,-104,-111,-64,-47,41,-62,-55,-32,-32,37,32,120,-138,-88,-88,116,-64,88
,21,-61,93,-88,112,19,-125,-74,2,-108,-140,26,-130,-109,-92,-130,131,0,111,-15,-84,-135,-37,-49,108,-28,105,-74,-19,93,73
,-121,79,-21,-113,-143,-108,-119,-47,-101,-5,54,-136,-53,35,26,30,-25,-141,124,-125,86,85,-64,-57,116,-65,136,-46,41,125,114
,-89,18,83,-51,-176,23,25,2,3,78,35,7,46,76,96,-164,-121,43,-73,-41,-165,-112,-110,-73,-140,39,-135,60,-119,43,-99
,-146,65,74,-100,112,52,-10,-110,-67,-17,42,29,100,-111,-163,91,-98,55,49,-124,-180,-124,-142,-46,-168,-3,18,69,-25,-80,53
,57,49,-145,100,9,-145,68,3,86,-108,-33,51,-155,-41,91,-81,-57,-43,62,107,-38,55,-170,108,94,80,-147,-43,-115,-153,-36
,-21,-76,-36,-155,-111,21,-172,-111,62,80,21,-87,-21,-29,-108,93,52,93,-1,-112,-64,-107,-91,43,7,-45,-135,-56,108,29,-98
,-80,21,15,114,126,72,-79,-121,91,96,-2,70,51,-148,73,-77,25,17,-76,-49,-171,44,-38,119,-118,-54,-151,-63,-91,-5,-159
,71,-139,-103,134,84,38,26,43,-56,-140,89,19,-128,-26,-38,-74,-70,107,-108,70,123,-128,123,30,-21,42,-41,-70,-12,-42,-4
,55,-55,133,-6,-7,118,-119,27,-69,159,165,-39,47,2,-105,49,-124,-131,28,138,62,119,127,35,115,71,74,83,142,4,-61
,-66,-71,54,8,74,-75,-7,-70,72,-68,-47,20,67,-67,-81,115,12,-101,67,25,2,5,-22,-35,-62,68,86,5,-132,-59,-6
,-156,-77,31,-103,-103,50,13,-101,-85,-48,-49,92,-148,-54,-80,-118,-115,62,30,-125,81,14,-154,90,50,60,-60,4,-6,67,-17
,46,-11,-16,59,40,-12,-113,-82,-89,-3,-142,29,-35,32,-66,57,-32,126,-119,114,-129,-124,130,-85,-113,-140,54,-104,-62,95,-79
,12,33,9,-100,33,-23,-101,-91,-101,-68,-77,-97,-122,-67,10,-140,-110,67,24,-53,-115,141,-49,-69,108,122,12,-109,25,30,96
,55,70,-36,-44,-41,110,-103,57,-113,-15,95,-25,-93,-80,-19,-60,101,98,-59,-19,-95,13,-25,-65,-120,-109,41,-62,136,109,-92
,-96,105,59,124,-34,-110,94,-118,-104,-114,-34,-107,-41,121,-135,-97,14,-125,19,-43,127,36,-75,-56,-135,-113,65,16,-134,-86,-4
,-49,-127,53,-43,27,-52,30,-74,-19,94,26,86,14,53,101,-118,-64,107,-121,-29,-81,-100,7,-94,-64,-56,-106,-40,56,-56,-96
,86,-127,-78,-139,-54,84,5,-147,-89,13,71,-42,-52,100,17,71,-141,-69,-139,-18,51,-43,-50,124,-144,-6,118,13,42,40,57
,-32,-23,-77,0,63,-3,-34,121,70,96,3,-70,103,125,-135,-117,44,40,-93,56,-98,-107,8,-35,-80,-41,-53,-129,-141,-9,17
,83,-50,-148,10,-111,8,-134,31,19,-98,60,-12,82,4,100,-74,111,-80,36,47,-83,94,18,-124,-67,98,-57,19,-56,-150,74
,84,127,-129,112,115,-68,-145,-123,75,-103,19,94,70,-119,52,-37,73,-17,-94,-123,-13,26,-10,-151,68,24,32,-100,70,-54,60
,111,-82,70,-103,-85,4,-62,44,1,143,17,-127,-53,-24,102,7,-61,20,-65,85,-90,-119,-133,-144,-126,-108,-70,82,59,93,135
,-21,38,-73,78,-3,-37,-140,-146,-147,67,58,27,53,-4,64,-179,-10,-59,-21,-115,29,-29,48,-142,91,-60,80,96,-172,-177,-16
,-114,-52,-128,82,-34,79,-31,-97,-13,-101,-85,-131,-117,-40,63,106,-26,-106,-138,45,-48,142,-80,99,-12,8,-53,69,-62,-6,-20
,-31,-2,-53,-6,-70,-70,4,82,-35,-85,-2,-77,-104,-72,39,79,72,36,73,-5,73,-91,22,-131,48,-144,-189,-116,17,83,-186
,-74,-115,71,39,4,-105,72,-21,46,-82,7,124,-87,60,-52,-120,10,-16,-3,0,-137,79,79,-34,40,133,-21,58,4,-10,-131
,109,-119,7,6,-106,10,96,-10,-54,115,-100,-57,-108,91,56,-124,133,-19,88,-82,102,-103,-1,-42,123,-78,-104,-62,-14,125,16
,-42,-23,-182,-73,28,-51,-147,84,54,74,68,51,-71,53,-57,-29,-52,36,-86,22,33,21,41,-46,11,43,57,-88,-40,95,-9
,-43,51,45,-9,-125,25,23,-102,60,-62,130,-84,25,-27,-28,-40,-101,129,-23,-28,-22,131,21,40,-55,-75,-50,-112,121,-28,-42
,0,15,-111,-94,-134,88,-17,11,113,-23,-78,-126,-98,141,-109,124,-51,-43,-109,-80,96,-25,-53,104,-32,-69,-126,-141,12,-86,-141
,99,86,-154,-103,-153,-3,-74,-105,87,65,-106,100,-4,29,6,-49,-13,-165,-51,42,-48,-42,57,-71,8,80,-111,-70,107,2,-84
,-133,43,-16,22,-13,67,30,-131,111,72,53,-95,-118,-128,106,114,-44,-3,-13,-83,-35,18,-105,40,48,101,2,78,-102,32,-120
,113,79,-22,-33,78,-36,-145,67,-122,-81,-87,33,-105,-74,-115,-141,-85,117,-46,128,-112,-48,-125,141,-111,64,56,51,-68,-74,-50
,-26,-47,-81,10,71,-107,16,43,-93,7,-59,-37,-17,114,62,-55,-55,-133,-98,25,111,16,-100,-9,62,-41,36,48,-103,-1,124
,65,-63,-67,19,-35,-49,-18,-87,-17,-52,22,-78,-11,-53,-33,102,29,-95,2,131,-53,7,-14,31,-140,91,66,136,28,-131,-109
,-132,-124,98,-54,-1,119,-16,-36,15,107,-107,25,6,58,77,-90,47,-26,70,-58,-60,-5,-49,37,-45,11,-67,-42,-14,-71,-86
,75,119,-34,-134,69,-55,56,17,-81,42,46,-28,41,-16,-81,-75,1,-145,124,24,-64,-65,76,-134,54,66,37,-36,-29,-144,-116
};

long bias_0_nvme0n1[1*256] = {
0,-37,-7,-58,0,-32,0,-22,-26,-31,0,-26,-27,0,-50,-25,-37,-31,-29,0,-35,-6,-19,-12,-30,-25,-6,-25,-33,0,-33,-12,-19,-6,-49,-18,0,-26,-35,0,-32,0,0,-5,-28,-20,-23,0,0,-31,-28,0,-31,-25,-8,-37,-31,0,0,0,-16,-16,0,-8,-35,0,-12,-32,-6,-19,0,-40,0,0,-36,-23,-11,-46,-16,-6,-11,-9,-42,-6,0,-56,-37,-54,-12,-4,-16,0,0,-21,-11,-16,-45,-28,-22,-3,-27,-32,-16,0,-15,-9,-19,-56,0,-1,0,-17,-26,-51,-17,-24,-37,-9,-11,-35,-30,-37,0,-23,-8,-33,-11,-29,-20,0,-16,-51,0,-24,0,-16,-8,-32,-33,-9,-11,-12,0,-25,0,-42,-25,-22,-41,-5,0,0,0,-27,-29,-15,0,0,-21,-22,-28,-12,-6,-23,-37,0,-47,-12,0,-27,0,-11,-40,-32,-34,-30,-15,-19,-28,-29,-37,0,-14,-41,-25,0,-21,-39,-48,0,0,-40,-13,-12,-52,-6,-24,-11,0,-42,0,-17,-40,-28,-6,-21,0,-21,0,-45,-26,-31,-9,-26,-29,0,0,0,0,0,0,0,-40,-25,-25,-31,-15,0,20,-10,-30,0,0,0,0,-19,-16,-18,-27,-8,0,-38,0,-60,-11,0,-42,-8,0,-34,-31,0,0,0,0,-11
};

long bias_1_nvme0n1[1*2] = {
251737,-174392
};

#endif
