
/* Trace */

/**
 *  updated on 10/06/2022 19:51:07
 */

#ifndef __W_NVME2N1_H
#define __W_NVME2N1_H

char name_nvme2n1[] = "Trace/nvme2n1";

long weight_0_T_nvme2n1[256*31] = {
-530,-237,-14,139,157,-272,-1458,305,-9,-949,258,-135,-827,485,-356,-179,-1030,-101,-118,200,13,206,-8,-35,-484,-522,-185,-16,233,68,43
,317,276,-63,-84,226,-204,102,-348,117,-181,118,-1052,-1342,51,-355,-177,-645,-92,-21,91,114,-95,80,-31,-989,146,-251,203,-808,25,15
,726,-647,-223,-160,-188,160,21,-400,6,94,454,315,-21,-47,-276,269,322,-123,94,-676,-246,-302,-54,184,-68,98,-247,602,952,2,-331
,278,-557,109,-76,171,76,-619,170,42,-268,670,-89,-161,171,-372,-242,92,42,-382,-162,-41,-36,-512,-162,-153,-223,-323,-143,266,53,-450
,32,-136,27,235,-157,-43,38,-279,13,140,-98,-200,245,-249,-44,147,-64,72,-52,54,177,-259,-154,-34,76,-48,-68,-143,237,-189,-139
,-366,-200,444,24,8,-94,678,-55,-316,338,447,-325,-990,-291,-239,43,-896,89,-196,32,-177,-70,-162,-2,-414,-67,-269,-111,-501,144,7
,80,-758,-211,-78,298,349,108,18,-373,51,185,-1360,-29,-322,277,65,-102,292,-109,-69,-742,-339,-259,-128,400,103,-415,44,-434,-277,-689
,-11,246,-41,5,-147,-60,-381,-93,-104,103,138,-146,485,1081,-92,18,-12,-139,-75,118,138,102,6,350,502,93,-40,545,532,63,-26
,-950,-31,33,-505,-18,-49,-977,244,-131,-866,-688,249,69,108,-645,-266,-8,-179,-224,-1590,13,384,-79,-1991,533,-333,119,-1355,708,-501,-94
,94,156,72,140,-31,-995,-176,116,-49,364,-116,-176,-238,-754,67,-162,-201,-263,184,116,-106,-149,-92,-139,-219,-263,65,165,63,223,-255
,-444,-673,261,-431,-679,-279,565,221,-350,252,56,287,505,439,-304,137,218,303,-250,-27,-501,-90,-156,-230,-247,111,-315,-310,-18,-125,-261
,221,27,-46,66,98,-128,-136,-216,-68,-145,-263,-183,-343,8,-455,6,245,-168,-333,147,232,94,-40,149,-118,2,-91,87,-285,-236,86
,168,38,-77,14,-72,-79,150,-143,-1,194,145,-81,-785,-214,52,179,164,-286,-343,105,117,-198,-113,-164,72,-215,-23,-145,392,11,-88
,-92,4,-134,138,105,-66,-387,142,-192,-147,160,10,1933,-405,-93,266,-105,30,-110,90,218,-54,-96,129,-414,-37,-149,-54,204,26,-314
,-42,-81,8,-133,-59,-147,-17,-164,40,-34,-143,-178,-95,38,74,83,-81,-62,-131,17,-83,-129,-143,-61,-102,50,-97,88,60,27,-145
,3,-90,33,25,36,-103,-47,-203,65,-106,-79,-87,-203,-26,-115,75,-69,-157,-68,169,-194,10,-4,71,-200,-126,-61,142,-115,-13,18
,-313,-772,-339,13,440,-102,-242,-5,261,-205,-31,78,-632,-558,-333,37,37,76,-230,-299,381,-237,-380,159,425,-304,-389,-45,331,374,-52
,-910,-54,152,-469,-134,216,-552,-114,-95,-436,144,-212,1079,314,196,110,502,-739,-73,290,645,-504,-1,-505,293,277,-51,-593,341,-514,-198
,-493,4,-254,-513,160,-221,-571,-219,-103,-646,-175,-133,494,250,70,-280,219,-227,47,125,123,18,-81,118,-283,8,-139,-272,279,-318,-213
,-636,426,-71,-423,182,-319,-1822,426,-80,-1900,9,273,-417,223,-81,100,5,-158,153,-25,-108,-292,-517,322,281,-120,-89,420,303,155,-368
,790,429,-123,-60,84,-305,77,153,-102,218,595,59,276,-1103,44,-405,-444,30,-450,-423,-488,39,-797,-164,187,-185,-59,-210,-273,-73,12
,-344,-540,189,-144,-256,-40,-409,-71,127,-144,-1694,-237,-51,109,-457,-106,358,-789,-267,-235,-195,209,70,374,639,-745,-290,-175,-948,71,111
,111,6,24,-119,-18,-95,-29,40,-129,86,-190,-45,-608,-366,69,-176,-233,-127,-44,-99,116,-83,-162,-79,-435,56,28,99,-366,-238,-143
,23,-142,-49,36,-166,-236,-103,35,-133,-42,-44,-119,663,-104,-9,-69,72,-202,-92,-26,52,-33,-86,-20,88,-180,-208,56,52,-128,4
,-74,4,-82,17,20,-38,-20,-86,-62,-145,-189,37,188,-79,-179,64,-15,-193,33,-46,-105,16,-19,-175,5,5,-5,-148,93,17,7
,-40,307,46,-1049,43,-332,-363,189,-48,226,-6,-204,-693,280,-210,-146,503,140,-423,71,-1627,-176,180,65,65,166,-228,-74,-128,50,-873
,-80,-139,-57,300,-278,-80,946,-293,-17,1022,-379,-57,-227,-3923,-540,-287,408,105,-8,451,-210,301,4,72,-123,131,-35,-92,-1230,332,-18
,620,162,-5,236,-246,-177,-72,-137,166,-166,-49,-96,-323,-892,186,119,529,-186,-128,532,-14,333,-194,85,-33,-273,-483,43,-754,-15,-72
,-96,-92,-2,-188,-65,10,-31,-68,-34,-78,-140,-78,898,-42,-177,-5,-46,-131,0,-174,-44,2,-71,-116,2,-47,-107,-129,181,-45,-13
,-228,138,-132,93,-202,-190,158,-158,-462,-337,491,216,77,359,72,19,97,-36,155,-73,255,-562,-86,-173,380,-274,-242,-214,-495,59,-47
,-60,-351,-146,57,278,45,9,-837,-218,83,-720,-330,-241,-1393,-162,-28,-100,-315,-783,-152,77,-114,155,60,-274,135,-110,140,-276,328,-382
,24,-67,-180,-100,59,-217,182,-169,-125,66,-43,-79,-395,-232,-94,-70,-2,-83,-120,182,-24,0,-37,-49,161,-228,34,-157,283,-195,-189
,290,-1195,-78,204,13,94,80,-74,204,-65,-115,-650,68,426,-505,21,-50,257,-110,-1094,265,-343,-372,-315,268,-784,6,-393,217,-94,285
,-1114,-944,111,-84,-343,-72,-317,-875,47,734,215,-80,-28,61,-622,-37,-47,-570,-237,-119,-1178,247,139,-200,-191,401,-121,-972,514,-277,50
,79,-1377,-184,-479,-1654,-117,-124,-257,-13,-332,-23,-21,-160,-2299,-294,74,-1037,389,16,-1064,774,259,-19,-129,-146,-17,-21,-156,-328,-10,-13
,-226,-374,216,-254,-174,-154,-87,-99,-218,-143,-225,-33,115,31,169,185,75,-233,-109,42,245,-439,-253,-140,270,117,-229,-356,-354,365,-194
,-326,-108,-274,50,-415,14,79,-64,-179,-127,358,98,165,-352,131,-359,142,-175,70,152,216,151,-396,-187,-88,35,-251,-712,724,-603,-221
,-217,-419,-3,57,-505,-569,-218,-448,-94,-360,-51,-267,-759,507,257,26,310,-291,107,126,-80,396,-9,-82,635,-519,-211,-49,220,-30,-553
,363,1,44,-195,335,-39,-58,-141,-58,95,-119,0,999,907,73,106,-133,-186,-55,-546,470,-131,-51,-323,-614,126,-72,-5,110,-51,-32
,168,121,-115,156,-164,-122,-29,57,-445,-171,-24,-485,-449,-450,-208,-358,242,475,89,213,69,-214,-226,-4,-408,-47,34,-22,115,-347,41
,10,-76,-179,-117,-113,108,-81,37,-105,112,52,30,123,35,-1,-42,19,-176,-231,98,122,-338,-68,-55,-100,-23,-28,-34,77,-138,-102
,-254,24,109,390,158,25,156,169,-94,202,156,-130,1409,174,-162,-173,-186,-336,-265,-111,-239,41,-226,-240,-556,65,-138,-280,180,-136,79
,-414,-65,-72,-895,132,11,-713,-523,-26,-939,486,-15,-2268,-2917,-429,-163,-826,54,19,-200,326,-54,-44,855,115,401,-57,635,910,66,-98
,-72,106,-140,26,86,-143,-2,-135,-73,-265,-21,-151,579,1196,-41,-192,379,161,-133,-86,435,125,-192,-578,363,70,-198,-845,831,252,-93
,136,-1,2,-60,-4,2,-5,8,3,-119,-4,-4,1677,4,4,727,279,2,3,-262,189,8,2,307,128,3,6,-261,362,18,4
,207,-320,-282,88,126,202,-97,-335,-355,118,-75,-287,-763,-5,-80,5,172,214,-723,325,327,-222,169,608,444,146,33,362,-229,-174,-171
,7,-206,-34,167,-79,-114,-74,-210,-55,-21,-39,-45,820,-120,-87,86,-40,77,-126,208,181,-238,-79,-9,19,49,-77,33,-39,-111,-84
,-198,-124,-170,-69,-45,-92,-76,4,-59,-94,-111,-170,909,-540,-62,-413,172,-262,-169,-208,251,-160,-100,-298,196,-127,-150,-166,-41,-48,-130
,-699,-26,62,-523,297,-219,-561,233,-869,-292,-244,97,453,-285,-656,-17,6,-553,24,518,126,363,-56,537,-463,131,93,-161,775,60,-400
,19,-557,-26,613,166,-216,442,-445,-741,839,-46,-41,372,675,-241,-375,-75,293,46,-213,407,-330,-26,-403,-243,-37,53,441,121,341,43
,104,-192,-134,751,274,72,-248,-623,-91,281,-721,-9,-906,109,-119,577,-164,-43,-143,-67,-412,40,-55,532,659,493,24,-203,-1627,-449,-46
,-1094,8,278,-518,-479,5,-249,190,-27,-795,-387,189,459,175,-431,-470,1026,-324,-362,138,237,-91,-130,-33,148,193,-119,-826,545,-589,-25
,-163,-134,-8,-441,-326,70,746,-295,-74,-422,-71,-318,-949,444,-434,-311,290,120,22,-673,-798,409,1,-254,-430,-63,-121,-159,390,322,55
,262,-820,-21,77,75,134,-303,39,-59,276,-520,-356,331,399,78,751,48,222,-71,570,331,383,-216,244,93,-147,-569,110,262,-237,-252
,165,11,-30,275,95,-144,192,-145,-459,47,53,246,-776,-175,-226,121,369,36,-80,347,230,-852,191,-157,300,-347,-147,-96,-5,-166,34
,163,-264,-97,74,-200,-97,205,-340,-152,-555,-84,-60,-385,309,-221,-93,53,-16,26,-225,145,-31,-33,-308,2,34,-5,98,148,-353,-36
,-101,-119,42,4,-39,-75,-123,-145,-205,105,-116,-106,239,-120,-114,8,9,18,17,-15,169,-26,-170,38,29,-38,-171,-13,84,68,5
,-16,-40,-34,-47,-28,-35,16,117,-135,-167,74,-85,5,-7,-94,112,70,-160,109,71,-163,-21,-25,-135,-29,-124,-81,-115,9,-100,-110
,-454,388,58,-410,-823,-31,-598,-279,65,604,389,76,267,-842,11,-243,611,181,-21,-109,362,-981,46,13,509,-577,-625,-174,-1510,239,-63
,392,-46,-150,555,-324,-93,-192,303,-362,-197,495,-429,344,-232,176,-144,-489,-274,35,164,-659,-74,-163,29,-1277,200,-116,55,-457,-40,-150
,-74,169,-159,-79,106,-149,-164,-123,-90,-49,106,-24,-222,101,-207,-85,58,-67,20,-26,211,-135,-12,-82,148,-122,110,-90,-91,-122,-182
,-106,148,-69,-158,5,-124,-419,10,-427,-230,51,112,1840,-81,-119,306,-78,67,-81,-43,179,70,-160,2,-517,36,-143,-104,585,-213,-305
,45,80,-2,-98,-44,-40,52,-109,-159,89,21,-61,137,-22,-2,-16,67,80,17,128,-80,-147,-135,105,-79,-93,-117,-73,79,-106,4
,-845,277,314,-958,-80,105,-564,188,-48,-846,115,98,-911,376,-99,-31,332,-477,-592,-251,-313,-10,-940,35,-187,114,-86,24,59,-452,-12
,-765,-120,-26,-888,-45,-6,-108,-195,-14,-790,-127,6,1051,1043,-94,-235,-1907,149,-14,-304,-659,-21,-1,830,-1235,141,9,472,-223,69,4
,155,-114,19,-612,-365,-148,427,-397,-69,-495,-2010,-176,-562,-741,-890,574,-210,117,-16,-218,15,81,26,-170,-30,112,34,-150,-447,458,52
,-117,-384,-188,-10,-700,87,-74,644,53,-39,-1004,-116,-26,430,-2125,-49,42,-761,130,-2,-56,-94,-597,-225,521,-59,241,38,-241,-18,-664
,144,149,-271,254,114,-163,340,-34,-54,-123,-275,-214,-199,-246,20,317,-77,-226,-194,-6,-283,-179,-296,394,238,177,-61,7,-53,-412,-28
,28,-26,-131,776,-149,39,706,-559,-56,583,157,7,545,231,185,-247,-300,379,-238,110,-1417,-499,-132,-216,-90,276,-51,176,-698,-320,-3
,-176,-121,-74,-34,-214,-6,-28,32,-134,-65,-143,-71,101,-120,-3,55,118,-263,-106,108,-61,19,62,-177,144,-204,17,-7,-46,80,-139
,70,-129,-23,-249,-317,-71,341,-2576,-231,67,-308,-82,-193,-2492,-134,371,255,73,-28,-682,303,8,-45,-55,-1133,554,24,-547,229,25,-67
,413,-146,-23,184,491,29,-446,-206,-41,-295,-21,124,-884,-295,-222,139,-177,-218,-115,58,649,183,-524,-31,-526,313,-80,364,63,-481,-130
,102,568,-104,39,-273,186,-185,-146,-28,212,231,-436,-1029,-183,-215,45,414,74,-202,244,-3,-101,-428,542,-447,60,50,-120,-380,-451,-153
,337,121,-295,124,-152,-115,-233,-109,-174,-179,124,-12,1204,-63,-154,27,-73,7,89,80,180,-196,118,-90,-493,95,-83,-30,196,-192,-274
,-113,-378,-11,-258,-33,-252,-17,160,26,-144,37,-126,120,-326,-179,-25,-64,83,-188,-97,112,-220,10,22,189,-66,-209,-166,209,-256,-139
,-68,89,4,29,-147,-168,12,-167,78,16,-83,-63,144,24,-29,-127,-201,27,-126,34,72,-29,-60,-58,-48,-97,-190,77,85,-12,-71
,127,-78,-19,-36,-9,-12,10,-103,-161,-21,-64,-159,-546,39,-125,2,-102,-99,-171,89,-56,20,59,72,-114,-78,23,306,-379,-167,-209
,471,210,-19,435,388,23,-167,382,-68,499,427,-104,1008,-73,-68,285,9,-394,-140,964,203,-272,131,685,-245,-25,-208,626,-233,292,-62
,-156,-506,-70,-75,-497,240,-337,24,70,295,525,-133,-224,-26,-243,58,-665,-267,27,466,-523,-224,-276,238,458,110,-200,-20,525,104,-208
,-244,-119,-59,-200,-89,-87,-113,-239,6,68,-92,-9,253,69,-27,3,113,39,-62,13,94,-92,-68,9,146,52,-10,-51,-64,21,-56
,112,-173,-117,-56,275,-341,321,-110,-666,-381,-643,-134,-158,-102,211,170,25,-228,261,186,335,292,120,-17,213,-394,-653,-116,-948,-200,-75
,329,173,-12,179,117,-188,-589,117,61,-793,-40,-294,-681,-373,-13,101,582,362,-105,-382,178,-344,-499,58,-465,-250,-249,20,-708,-28,129
,-50,-309,-259,-327,129,-151,-361,-72,-430,-256,20,-87,1057,21,-97,-212,13,4,9,75,354,9,33,121,91,-43,-200,146,362,72,-168
,-4,-143,-80,71,0,-69,112,126,50,-21,-47,-50,-24,-225,-73,80,72,-137,-44,-48,19,-53,-104,5,-52,-166,-1,-62,74,34,-170
,538,333,82,-384,-269,-94,-921,91,68,-218,199,42,-2460,-650,-698,307,14,-23,-70,821,322,-12,-49,384,119,46,-371,547,571,-131,-124
,596,-317,-481,194,-672,165,26,-406,5,375,320,-2,-678,-528,-218,509,471,-278,-106,70,-131,-325,-491,43,-221,51,164,-231,294,390,98
,-87,-8,-63,-79,-25,-30,68,16,-151,-133,15,-157,-40,-171,-67,-54,-22,-60,18,-108,42,-102,-125,84,5,-100,-123,75,-16,70,24
,-175,296,-141,-135,154,-19,250,280,17,-89,1,-316,601,373,-73,-5,-42,167,-82,-106,-80,-510,-130,699,460,353,323,-587,-150,-492,-235
,354,173,-415,-52,302,-111,80,-701,160,529,-549,29,-279,-372,110,153,70,163,-97,-72,93,225,-606,-139,48,-157,-20,-146,742,-289,-109
,39,138,-50,-79,-270,-215,46,110,-145,-137,-354,55,-213,-107,16,-114,92,151,-344,36,248,-128,-196,-47,-287,122,125,-143,-97,-64,-208
,-94,-12,44,19,-185,-152,-91,26,-231,-168,-223,-167,338,-85,-186,29,199,-244,-121,-86,162,-39,-100,58,186,73,-41,-28,-50,-40,-67
,-52,-596,-161,11,-632,-384,-132,-559,251,-113,-231,-495,169,512,200,59,-285,-471,-153,-45,-603,-66,-314,54,-192,368,45,55,-938,-10,-462
,177,329,-633,3,388,-206,235,-183,-237,-963,-337,46,-681,299,-23,-299,462,122,85,-364,-347,-37,-132,82,184,-10,-45,288,-319,-255,-735
,-138,-9,-176,-19,-107,-86,97,29,68,3,36,-119,50,-91,-140,80,13,-8,12,-72,-32,-71,-151,130,-149,-102,-12,-133,7,71,-65
,-30,-123,-256,-25,187,266,-177,-465,-259,-175,-268,-227,-587,179,202,26,-268,214,-150,-31,-2094,97,-261,-103,-571,198,-364,241,-1419,-175,-338
,-94,-267,-60,-52,-293,-147,-88,92,-54,23,254,-590,-237,67,-793,59,-101,-183,-558,157,-102,-85,167,-17,-33,251,-26,195,169,-420,-88
,249,-628,-204,216,-372,-234,197,384,19,-101,398,-97,186,-608,127,-456,-338,63,-388,-1011,84,168,24,-122,216,200,-227,-298,314,-369,-307
,148,-450,116,43,-371,-141,-204,-307,134,55,321,-125,152,560,20,-212,-753,-551,-54,1051,125,-163,-78,621,464,-17,33,448,586,8,6
,463,-519,53,-643,240,-409,334,-19,-60,285,-499,226,-549,340,-678,-8,-81,138,-39,-113,120,-85,-469,-89,284,-7,136,101,-338,-305,91
,-825,66,-37,-331,308,-1,-998,-747,114,-699,-686,110,-176,-532,194,32,162,-226,-128,-701,169,-365,-122,-1483,214,-552,78,-560,813,-1693,112
,-423,29,-215,-390,-45,-20,-335,-281,-202,-464,-123,84,1226,134,70,-61,109,239,-130,-43,-92,-186,-20,-327,22,181,41,-192,560,-109,-73
,-262,39,5,-388,-170,-94,-589,-98,-38,256,336,136,412,1066,-393,1,46,-7,-14,-293,555,52,-52,471,13,-8,-180,-325,455,114,72
,81,75,-153,-140,-210,-37,-19,-60,-243,138,-96,86,-100,-42,-175,90,133,-210,-22,-9,-11,-165,-187,-16,21,-117,2,128,259,-129,6
,-328,52,182,-703,554,-249,-884,-101,252,-150,-48,-843,-56,-82,-49,-15,-1136,-226,-513,-65,58,126,-1077,265,-440,-46,85,469,434,100,-247
,-162,-130,80,-150,-54,-250,0,103,-165,-135,34,-54,-353,-225,-32,118,111,-160,-5,-46,-88,57,-40,-134,-244,-11,-104,343,-225,-36,-123
,279,-65,-198,-13,256,-2,533,332,221,160,-172,-111,-2172,-908,-303,538,344,4,-83,673,306,-216,44,509,505,-193,11,324,625,-73,-53
,-172,-32,22,65,-36,-74,-58,9,-40,654,-190,-66,1867,935,-38,-162,-206,-5,-55,-430,82,44,-5,113,30,-96,-22,-333,-312,262,-22
,401,181,-179,-332,-457,-620,-343,-94,-143,-813,-264,100,-259,151,-176,123,72,134,111,-479,-1430,472,-294,-934,638,-144,16,-225,320,-356,0
,-67,-56,-178,-179,-113,-61,-107,-187,-10,-60,-129,3,-118,-27,22,66,-67,-68,-182,108,-308,-67,-10,325,-108,35,-90,278,-229,20,-64
,2,-15,-316,52,167,-170,27,-88,-69,14,80,-53,1069,-319,70,211,-110,-42,185,-12,167,-42,-308,-69,201,-27,-82,51,262,102,-477
,-2,80,30,26,-101,-177,88,-103,93,-123,33,-73,-225,-136,11,-110,-34,-24,-54,11,-46,-80,12,-96,-343,-121,-31,4,-117,-104,-198
,-110,-415,-195,-88,-1387,-312,21,-988,-82,-110,-452,-161,-60,-1884,-82,-123,-401,-354,-6,38,-1529,292,-120,84,276,395,-160,-318,360,200,33
,110,-11,-182,114,-40,-174,-115,-100,18,98,46,18,-27,-189,30,-33,-27,-103,-65,-24,-96,85,-63,-4,-131,-31,-152,-62,-168,9,2
,-277,-60,-7,-296,-99,3,-367,-91,8,-378,-200,-11,-577,-184,68,-474,314,127,-7,-651,403,153,-11,609,562,97,-7,-847,-446,181,13
,-214,-249,81,-35,-274,43,600,-211,-7,314,-408,-68,70,-2342,-485,385,-308,-78,-12,158,811,53,-48,401,-11,30,-35,465,-477,428,38
,-251,-961,-355,-29,391,-86,-410,-157,-478,-1445,-274,-282,-186,730,-284,-313,-836,-644,118,231,-85,335,-66,294,330,108,-93,149,-1297,-282,151
,-139,55,-27,89,-121,-95,102,-57,-122,3,16,-35,-214,56,14,18,77,-75,50,-147,23,-103,26,-143,-86,-48,-45,6,-82,-35,-175
,420,41,-163,-829,-814,-130,-1251,-333,-27,402,-58,39,601,-1188,77,-330,591,-9,-20,-815,-732,369,38,-1457,823,-499,-96,-584,622,140,-55
,111,86,-50,49,-207,-31,-172,149,3,248,-229,-204,9,169,-59,24,71,-47,-82,223,-112,-243,-217,141,63,-112,-218,108,90,49,23
,48,-4,-615,-43,12,-762,257,149,138,234,200,-43,-1106,-522,-117,190,149,38,-162,54,71,-88,39,10,258,377,-62,-83,-31,-148,-106
,53,48,-173,-136,-105,-39,27,-74,-89,57,3,-8,93,-77,-179,131,-44,-177,59,-77,-58,-153,-158,-78,-54,-1,-30,-17,-132,-43,-20
,-614,-139,-47,-187,-570,-65,-226,-380,-37,240,299,-6,1882,-3265,165,-729,261,64,-33,-407,292,292,1,-1132,-115,151,-2,-1115,102,-73,-7
,-155,-137,-82,-116,-5,-171,43,63,34,68,-22,-133,362,-77,-3,16,-152,30,-122,-196,56,23,33,43,113,-138,-40,-117,144,-177,-170
,-217,-166,-88,-199,-31,-101,-311,-187,0,-90,17,-17,366,-77,-34,-17,25,-72,-118,-233,-286,109,3,-271,241,-166,-64,-179,59,-107,-49
,-45,65,-20,-170,-77,-140,-178,43,-74,61,45,83,-107,70,-146,-129,-58,-43,-156,71,-133,-138,-100,27,33,22,23,-61,-83,-13,-146
,423,-262,-150,-157,517,-459,282,-89,-157,60,-48,-215,-1344,-392,-576,83,160,-80,-59,46,217,288,-35,-68,-94,-48,97,198,-523,-185,124
,3,-281,-126,-221,-1351,194,-233,215,-803,-76,-1141,179,-493,-121,336,100,166,-82,-888,-32,-1402,-157,-428,-56,372,139,-516,245,-788,-34,-376
,433,-67,-13,-125,-137,18,764,-80,-54,144,-589,-80,-1155,-3061,-606,260,424,254,-5,383,356,91,-29,563,527,106,8,1395,-460,240,16
,36,311,-166,-157,28,30,-176,-109,-131,-511,-314,-214,-744,32,129,606,-252,-480,-33,-187,-862,-212,-341,-21,-313,348,49,-175,-211,201,-317
,-1034,-235,-162,-416,28,-6,-267,-495,1,-452,6,-17,622,14,-87,-728,57,152,-61,620,366,-476,-2,-1158,-23,453,28,-1167,975,53,29
,-75,-164,-42,176,-58,-79,-113,-25,-15,92,-13,-91,-57,13,-180,101,4,17,-106,-116,-136,-88,-59,-23,131,-145,-65,68,-111,91,35
,106,364,173,-264,-276,170,-839,-384,-216,-391,-350,52,-653,122,-768,43,-186,-31,-200,1276,280,-298,-120,1370,887,291,37,391,-1126,-97,-6
,32,-134,49,76,55,-83,-34,-21,-45,-48,-89,-81,-422,-112,-242,-6,53,-57,33,116,-32,-12,34,243,121,-76,-120,153,45,-12,-62
,-1379,60,-38,-269,42,-11,-736,-39,-46,-839,-126,-69,439,1226,280,-297,321,-32,-54,-30,-146,-174,-54,-251,-24,12,-34,423,-85,-1,-43
,-226,-152,-111,-171,20,-125,-59,-40,-40,194,-164,-113,653,-30,-155,16,139,-93,-73,-173,13,-90,38,-67,12,-161,2,-104,203,53,36
,-122,-155,-109,-94,20,-89,-44,-30,-81,113,52,1,-131,-125,-186,-7,37,-130,36,-24,-24,-167,-128,24,-54,-9,41,-14,-114,-190,-72
,-376,-306,-341,-752,92,-239,-304,-810,132,-726,-257,-594,-868,652,-83,-468,400,-369,-142,-117,63,472,-124,-42,-850,39,7,58,175,94,203
,-866,484,-460,-750,-524,-511,100,305,38,-99,147,53,401,-144,172,-469,242,-419,71,200,-218,-713,-28,-104,-93,237,-158,-210,-212,117,-300
,27,-203,-46,232,-32,-33,107,-61,-160,-18,155,-173,325,7,-26,-42,132,88,-92,128,-41,-187,-1,-22,-156,-27,-5,163,-35,-25,-103
,-146,75,362,473,140,-156,809,-90,-15,191,184,-191,1716,-149,-223,133,252,-394,-70,-155,-35,-9,-326,-172,-529,159,158,-38,-112,-205,-445
,155,-227,-58,332,-60,-152,-160,-202,90,-180,274,41,25,-455,107,184,-25,378,144,-60,159,-683,-105,-73,-275,-65,-173,-96,-23,-401,-264
,-1093,-389,100,-924,-359,47,-305,-524,69,-318,80,8,276,639,-90,-1603,741,-670,-92,-1346,658,-750,18,-1346,226,-156,32,-1312,599,303,-8
,35,-116,-56,186,226,-243,154,58,-86,57,97,-180,335,-276,17,41,-153,-186,96,-192,-68,-43,-100,-78,-173,-71,-4,-59,-74,-102,-228
,178,76,-48,254,48,-98,157,-34,-27,-288,-154,-143,333,-149,-41,-102,216,-157,-112,175,-6,407,32,-10,-204,-153,97,42,-420,-222,-131
,413,399,-384,389,116,72,-9,-288,87,-623,-110,-263,-1237,76,54,-29,-268,156,-171,-14,367,-309,-64,-68,-491,9,-659,-38,-642,12,-88
,-532,233,65,-212,290,-48,85,-84,162,-679,8,-112,-3659,-795,-375,-166,754,436,-50,610,-137,64,-6,788,158,-42,-140,521,734,-305,-203
,-14,-708,-4,82,-377,201,-33,-337,-303,-202,128,-453,665,-219,-185,-499,112,353,-108,445,657,-91,-38,-103,-351,265,136,14,123,-436,-3
,61,-49,-39,5,-48,-132,100,17,22,-129,-80,-112,-484,-115,6,-59,-17,-55,43,2,-47,-55,-213,-83,-195,-80,-124,-164,-57,-90,-68
,-149,-115,-53,450,139,-153,258,210,-44,312,335,-475,1109,-298,92,-136,-462,-258,-406,-1,27,-164,21,110,-756,136,-135,208,-89,-180,-139
,-45,-481,-93,-816,-740,-44,-262,-328,-284,-438,266,5,-90,-141,-109,-123,-121,318,-41,163,288,-239,-4,-854,-199,190,-161,-668,-90,-307,-88
,-147,101,-130,-49,-66,-50,-20,70,-83,61,-84,-44,-1448,-352,2,-60,-152,-30,-80,226,-252,-162,-22,-7,-98,-5,22,179,-470,-20,-63
,-26,-64,-190,118,-52,-213,152,-56,-139,-129,102,95,-244,-144,-85,72,98,-13,-25,104,-46,-17,-35,-111,-41,-127,53,12,-34,-92,-190
,-324,-1280,238,-245,-360,-67,68,-1127,-239,-71,10,-545,308,471,337,-127,-83,-109,29,-87,4,-87,-87,90,158,-41,-496,-151,787,-237,-296
,-164,464,-495,-283,-288,89,-181,60,-116,85,241,13,-552,-436,48,61,-184,-181,40,-109,-82,-9,-96,53,77,101,-558,-22,-118,148,-488
,-636,-105,-225,42,56,-36,-914,239,172,-754,436,-307,-819,344,-269,-174,-1423,-126,-45,-105,-370,125,-195,-179,-1234,147,-41,133,48,-568,5
,19,176,-742,-17,108,-456,346,-10,-35,363,-78,-112,-1651,-684,-156,155,235,104,-283,426,40,320,-37,227,277,-112,136,179,308,-162,37
,408,330,203,-65,337,-390,-84,-73,108,-22,-646,-162,-973,-634,-128,485,527,-245,-61,-30,-154,-220,93,3,-610,-160,-21,198,-398,6,-238
,-176,-26,-43,12,-245,-130,-163,-270,-98,-442,-239,-71,1226,-21,-68,164,-49,100,-95,-73,193,-105,-20,-209,147,9,-12,-299,141,-124,-160
,-782,-1129,131,-810,9,-49,-978,464,-217,-146,-687,-181,1039,78,66,-1434,47,258,-122,-1645,697,-194,-50,567,668,-372,-66,180,44,348,50
,-101,13,-76,48,-133,79,11,16,-62,-64,-50,-20,12,1,-112,74,-99,-82,-101,92,92,-74,-61,-60,-134,36,-71,-30,-47,-119,-62
,-76,34,100,-206,-521,-407,-366,-467,181,-239,-123,-215,-564,584,-167,196,-158,-41,-173,254,-573,59,-206,283,-298,-61,-612,117,23,-10,-414
,-95,249,36,-223,-30,-115,-267,-100,-94,-336,-48,30,1033,93,-132,-201,133,93,-273,-20,276,183,30,216,36,-483,16,-89,356,-279,-147
,-195,-150,54,-216,59,-751,-649,-404,-276,-356,495,70,-417,344,-476,-415,307,-161,118,-213,588,-252,108,-345,-891,-98,130,-185,759,-627,-181
,514,87,-1,400,295,-184,125,-67,-117,20,-236,-172,-827,-133,-133,-74,133,-63,-70,198,100,133,-145,-111,73,-225,-28,-43,63,-350,-354
,58,131,-5,75,-79,-200,55,-94,10,-98,136,-168,-15,19,-69,-45,192,33,54,30,-16,-111,-47,-94,-65,-157,-153,19,5,-346,-14
,-94,-318,153,-58,279,100,112,-635,-79,-142,-80,-192,-307,-33,-138,-84,-908,455,-29,39,435,-161,-410,54,-695,-356,-390,-29,-327,-163,-896
,-327,-83,71,-98,-7,-90,-317,-259,-75,-230,-170,-15,508,20,-35,-10,290,-120,-167,-325,279,-63,-129,-149,13,-33,-37,-303,-2,-93,-3
,118,-54,-3,52,-18,-118,-106,111,43,51,40,-49,-464,-308,-197,122,-52,-118,-5,43,-168,-118,-53,86,-105,-95,-23,115,-163,-57,-156
,-5,387,-303,144,-278,234,-77,181,-361,-396,-357,-259,-298,-557,23,-200,-73,328,-286,-46,303,-198,-105,56,284,-107,-264,52,-557,216,-83
,-96,-308,-493,-4,373,-160,18,30,189,-58,-247,141,-75,421,-466,52,-778,-153,-389,10,297,-43,-1887,103,-142,59,33,-106,-290,-1,-501
,286,0,-131,-300,-310,-215,57,81,192,134,45,75,437,217,71,67,-518,-232,-113,58,650,-114,110,549,-738,-195,-86,552,957,-621,-247
,-1141,-35,-8,-262,45,51,-858,1,15,-1090,-208,-100,3565,-429,45,-191,465,-107,14,-630,361,-65,-25,-854,382,94,-10,-149,1283,-326,-32
,150,188,-3,-34,-286,290,89,-110,-208,-126,-79,-324,903,-44,-61,-9,-93,32,-437,923,486,348,71,639,-166,-118,-133,423,208,-506,-271
,156,-171,-173,98,94,-95,-34,2,-100,52,-50,-66,-736,78,-183,117,-204,65,-45,-218,-11,-106,-24,-46,126,3,32,265,-260,-96,-72
,-1054,-143,-54,-449,-171,29,-696,-444,-7,-1248,-314,-145,-574,66,66,-173,-146,283,-51,-1590,253,217,-45,-1789,765,98,-23,164,1483,-520,9
,-195,-167,-164,29,-373,-150,-258,-131,216,83,-320,-196,1417,-108,-24,48,75,-52,-186,402,227,173,-456,123,479,-46,-217,-34,180,50,-112
,230,134,129,358,102,-385,379,464,-177,-208,-81,318,-1298,-380,-160,234,165,-593,-132,-304,236,187,161,-209,-188,-132,-324,1793,219,180,-307
,-1506,-158,37,-599,-139,-67,-235,-331,-18,-799,-416,-21,-1686,1221,-184,-1225,167,-462,-69,-841,635,90,13,-112,749,172,-12,-1651,-571,283,25
,202,-294,-190,126,-11,-18,144,-120,-217,137,-143,-71,-258,-142,-55,122,144,-3,-192,237,246,17,-145,8,-78,-271,-177,115,65,-199,22
,-156,33,34,-25,-12,-378,486,123,-396,35,369,-676,-731,-527,358,24,337,142,-69,-123,-108,-179,-112,-167,-105,112,-87,-130,-133,-240,-152
,-2921,-24,-56,-1098,-76,48,-1672,-203,-43,399,-427,-71,2005,15,18,-47,889,-203,-29,-982,-951,411,36,-1711,533,123,12,-550,1285,-91,-38
,-12,-408,-238,587,-43,-59,-14,-339,-395,121,166,116,323,-1456,-294,-56,231,148,17,266,588,251,40,-212,-183,311,-13,-185,-441,-481,-131
,-272,-21,12,-791,267,253,134,-151,1,236,158,75,1121,579,69,-296,-170,-439,-47,-210,-295,-467,-139,289,-196,-117,-11,534,944,-564,-64
,274,-166,-496,224,83,-539,325,-455,-247,-20,150,12,-47,256,-52,207,183,-240,10,109,153,-281,-75,38,478,-393,-26,164,337,358,-17
,-1875,83,78,-54,-125,-66,355,17,-3,488,76,-95,-15,-48,-7,-326,-2297,311,-28,-2056,-65,182,-10,-1368,633,30,-40,-343,217,17,-28
,124,-93,-48,138,-149,-151,-26,96,5,144,-58,-195,57,-35,-41,-73,53,4,-69,-73,-4,49,-74,90,5,-157,15,-116,-3,45,-94
,-89,-296,-256,227,5,-236,141,-102,-182,115,89,-193,-225,-250,82,240,183,-205,-128,37,87,-49,-14,-173,-41,-103,-63,11,186,28,-141
,21,-99,-193,148,123,-132,10,-83,5,168,27,-87,-100,-187,58,-62,-136,-24,-209,-83,-45,41,-130,-68,-1,-172,-7,143,-142,44,4
,-1161,-440,-88,-1292,-16,-4,-1876,74,44,-831,-381,-80,-315,-667,162,-387,-1927,284,101,-2222,624,-353,-64,-1355,1031,-154,-110,219,1495,-427,-104
,-111,101,-241,-117,-283,-22,-90,68,-155,47,20,-9,-71,-73,-56,-30,114,-183,-65,5,50,-90,30,-4,-41,-12,-186,16,116,-26,-70
,195,-53,6,-39,-60,-71,-117,-62,12,-105,-192,-59,-888,-211,-19,-205,-9,-6,-159,135,-20,-17,-25,11,-217,-125,26,-106,-82,-149,-32
,286,176,-36,319,-381,11,51,281,-258,240,-841,-292,279,378,-413,-110,-12,127,-263,72,245,-193,-170,161,-70,-259,3,68,-239,43,57
,-97,-398,-426,99,-21,4,314,-173,-126,360,-39,-147,884,481,-108,-22,46,48,-566,-408,317,-193,-175,-420,355,8,-193,-355,62,239,8
,125,-26,-154,-81,-153,-96,44,-76,-58,76,95,-12,99,54,70,-130,-121,5,-128,-104,-91,34,-11,116,74,-96,-78,-116,58,-135,-32
,2,-190,-122,-31,-263,-209,119,-124,-219,-5,-60,7,-134,-140,-122,108,-193,-88,8,29,8,-67,-29,79,-146,-80,-175,-49,-119,-22,114
,-157,-52,-491,97,-952,251,229,-768,50,223,269,67,540,120,-599,-196,168,68,-323,-119,445,-487,111,-144,-187,-22,-488,-485,556,157,-223
,-112,22,-32,-137,69,-6,-184,-76,29,91,-165,-153,318,22,35,71,-113,-126,-7,-44,23,-67,2,52,48,-110,-36,-157,81,-41,-2
,-4,-88,-17,6,-16,-28,121,-138,37,122,-127,-107,-82,-19,-2,28,21,-96,-20,44,-59,15,-24,201,7,33,-45,185,-211,-76,-126
,358,-858,199,353,351,95,-513,-344,-270,-293,-228,120,-1258,602,-39,116,-1491,-515,75,-92,-938,-131,-905,-123,-1533,-354,-110,-99,-176,382,-764
,329,-361,-113,548,296,-788,762,-185,-84,332,478,47,-1377,-629,-197,633,-658,34,-36,-5,-252,-101,-137,351,113,-135,224,1,821,230,-179
,-220,50,103,-282,330,185,-275,225,-157,90,-55,-543,-1695,-801,-121,301,132,-158,-134,-261,340,-322,-389,-45,196,-27,151,358,-172,-51,63
,-90,20,-40,34,-75,-1,-270,-116,-23,48,-19,-75,556,-239,-106,-10,94,-158,-21,40,-46,24,-56,-166,-130,-85,37,5,13,-126,-196
,171,-464,-51,239,270,-90,-182,184,70,740,-157,-43,-1401,745,-1435,59,-598,-25,-102,351,-505,132,33,1201,-659,-1,-54,8,-838,84,96
,-33,-95,-114,-25,0,-103,-107,-108,89,15,-135,-91,14,57,-118,65,-87,-89,-40,-140,-90,-71,24,28,103,4,25,-94,-135,-166,-146
,267,-880,-222,296,197,-136,-422,-354,-279,430,426,-28,346,394,-182,-315,80,433,12,33,-36,17,-222,-17,-806,-101,-174,-301,38,-203,224
,-8,13,-159,-74,-501,-216,182,-747,-162,83,156,177,-548,-92,-700,985,381,62,-179,287,281,94,27,-149,134,72,303,-157,-858,-410,-332
,16,-223,-144,140,-152,-159,-25,26,3,-18,-175,-75,31,-130,-93,-20,-79,-15,16,87,32,-77,53,-118,61,-42,-35,45,-133,36,-103
,15,-45,-190,-224,62,-165,-116,103,-3,360,-110,-126,-650,78,-123,98,7,-104,-93,205,-126,60,-53,-77,-158,-24,-129,-149,-216,-87,-78
,150,-99,-8,55,-126,-122,-4,-33,25,43,223,-183,57,-94,60,-101,83,-141,-217,38,-92,-92,-162,62,97,-129,-128,124,94,-48,-115
,-879,26,82,-1123,506,-173,-252,303,-47,-850,234,-10,-3168,-2328,-258,-161,300,240,-135,-209,-624,15,-114,453,540,-88,16,-580,-73,245,-124
,-141,-43,-159,194,-103,-14,43,-196,-60,-122,74,-140,834,-99,46,111,175,-134,-104,-230,-74,18,-169,-33,2,60,2,-235,293,-127,43
,-178,-8,-21,159,-50,-35,177,-15,-18,558,94,-24,1631,1351,-100,47,81,119,-15,-274,559,87,12,-1066,433,59,-11,-6,412,63,-1
,-168,-182,-116,-77,-181,3,-122,87,72,-138,78,-149,33,44,45,57,126,-229,-27,-188,76,-83,-38,-133,5,-239,-147,0,-37,-133,-119
,-363,-847,-111,291,-1789,-199,265,-2128,-149,857,-1073,-217,528,611,104,472,569,131,-47,753,721,239,-67,320,226,222,-44,-283,366,111,-55
,125,19,-312,-111,103,1,-220,32,-372,-216,-6,91,855,139,-202,58,-455,96,-79,58,256,-301,-330,-71,-186,-157,-7,29,-101,97,-269
,262,-115,-28,-95,-102,-142,-386,-397,11,-85,-314,51,-842,-494,-222,549,376,-280,-147,-82,-499,-455,12,183,-653,431,74,131,-519,-250,-50
,-364,206,-397,-289,-149,-28,-540,-167,-138,592,225,-292,-692,-465,-137,-64,-979,6,-302,205,-284,-40,169,56,-237,-5,-551,-79,129,378,112
,-108,-35,-19,-112,-29,-147,115,2,-104,-4,-27,-64,-359,-133,-168,-36,57,-212,-136,182,-8,-116,-22,142,117,-259,-201,52,75,-212,-83
,-863,452,-200,-583,-2,36,-467,-22,-34,-934,312,243,-470,102,-221,-43,300,40,-159,-68,-440,-339,-152,-38,-280,-287,-635,58,220,-560,84
,-1163,-262,-77,-22,-603,12,-37,-727,-49,-671,45,-18,-333,-2515,-561,-47,47,166,-18,463,271,189,6,169,-580,313,62,486,566,-50,-2
,-270,-100,-95,-98,-10,-97,-213,-65,-166,92,-491,-184,-17,-211,-154,-98,-160,-310,-121,-85,66,86,-24,-292,288,-5,-6,-283,-30,160,10
,-41,151,37,-101,-62,-132,-187,-128,-103,-32,-126,2,-130,-176,-90,101,-121,-32,-87,45,-105,-261,-97,37,92,-94,-49,31,186,-82,-101
,-129,-629,-16,-180,-744,169,159,136,28,564,418,-658,183,-514,-15,93,-419,-60,-30,107,-157,-189,31,365,52,104,-105,552,933,-369,12
,347,-490,-185,200,574,16,447,-167,-397,243,-136,-228,-168,-499,-312,277,-375,-40,135,1,64,462,-64,11,-376,-222,-210,317,657,-77,14
,45,-199,15,-74,-111,-180,48,-50,-186,31,49,-47,-26,-43,-170,81,40,5,-102,-41,-50,-6,-78,142,63,19,-187,17,74,-66,-87
,227,17,-12,-1206,-57,-26,-1120,-33,4,-718,-558,-88,1639,-1853,186,-684,107,18,-12,252,165,-3,-10,-441,259,19,-14,-666,-375,305,12
,396,21,-89,-65,-4,-60,139,-60,-59,-266,-54,26,-1323,-154,-102,-162,-12,-141,-127,30,14,37,-40,44,-38,54,-145,200,-256,-237,-79
,227,-397,-261,-177,-489,-247,38,-791,-41,-317,-206,215,202,414,-44,-199,-407,127,-134,-12,-26,-489,-110,-47,28,-409,-93,13,156,392,-138
,-120,308,191,143,324,-11,-187,-520,-892,-150,76,-356,593,-203,-200,846,361,22,-8,530,274,253,-159,-16,-205,-100,-195,-188,-150,-82,121
,25,301,271,-171,-52,51,257,-306,-470,335,-281,-214,-486,-45,310,-316,156,111,54,-227,52,-527,-164,-200,-61,-72,-59,-163,347,-693,-277
,189,-124,-375,-79,86,-218,158,-107,-32,-8,-164,59,-402,-330,-103,154,271,-324,-75,64,226,29,-21,63,-46,-35,-169,-100,8,-71,-61
,29,-40,-333,-298,401,-842,-425,332,-3,529,-1220,-183,445,259,4,-241,496,163,-20,-84,-4,97,-193,-414,-1086,-115,12,-100,231,54,-185
,373,-106,-87,617,-91,-90,226,-185,-41,74,-178,-7,-502,-170,-136,1,-359,-33,-62,663,51,-36,-50,-21,238,-29,-22,477,-658,-162,-90
,32,1,17,-13,21,-76,-172,4,-11,-160,24,9,-69,20,-116,-132,42,-189,-105,56,-25,-88,-102,22,-144,-38,-101,-78,-99,53,50
,388,13,-64,135,126,-96,10,27,-67,-144,71,-5,-841,-291,-128,-56,-316,-49,-55,295,-317,-35,-137,-227,-192,-21,-6,221,-102,-87,-77
,105,87,-163,-45,27,-56,-26,83,-39,-21,-3,-120,-471,-206,-222,225,29,-36,-10,273,150,-30,-39,24,23,-10,-101,19,-146,-85,-92
,247,-252,-1028,-415,-636,-455,-236,322,-401,-96,192,-53,324,243,-202,-143,440,228,203,12,-988,-555,142,39,185,65,-354,-156,673,-407,-42
,-194,-1,-47,360,31,162,-332,-491,-32,-517,322,-27,-1041,650,-181,-222,384,-123,-270,-32,-31,-172,-16,11,-1199,-227,-250,-157,431,49,-188
,-16,-311,-5,-59,106,-24,66,223,-388,156,3,-441,980,-156,9,139,-181,-565,-46,-394,-3,483,103,-114,-126,79,-339,241,489,-237,16
,-2,165,-393,-26,-139,-281,-90,-46,-10,271,184,71,203,-432,-212,115,-8,-34,83,25,49,216,-112,105,-9,-68,-278,29,-73,91,-258
,22,268,55,8,66,-330,-247,90,219,11,-739,-464,43,410,-347,3,-196,89,135,-74,103,-83,15,-176,396,-255,-500,-189,148,-193,-306
,-40,-149,-17,-1824,-52,-14,-1210,-251,22,-51,-216,7,2161,-144,-19,980,254,107,12,141,350,102,-29,1121,-891,271,29,-1151,227,162,-24
,52,66,-102,-4,65,-153,-81,-22,-123,-40,-75,-125,-49,49,-62,69,16,60,-46,31,73,21,69,37,-5,-103,-91,117,-125,-147,-9
,212,-46,-123,172,254,71,-152,-190,-6,-79,-441,-243,-662,-134,-25,-15,-227,79,-26,-25,-78,-245,-96,-218,-76,-244,-64,-215,-712,17,-98
,78,-106,-66,-79,16,-30,-88,-92,-67,-207,66,-48,-1170,-13,-176,-96,-347,-24,-15,167,-178,53,-130,-130,-83,-56,-44,174,-348,-88,-62
,457,-446,190,236,-106,262,-184,-62,56,-74,185,68,-1080,-247,-94,-161,440,-112,-118,-390,372,104,-346,-233,-311,-455,-356,134,535,-56,-111
,266,-20,-33,-263,-84,-33,-697,-2,-74,396,-381,88,2280,56,-110,-125,253,95,-23,-724,229,155,-7,357,593,-303,-11,-961,-632,431,23
,331,-285,-111,654,638,127,555,-695,-80,84,46,-126,234,2,-642,-151,115,33,-251,353,-89,-290,-256,-45,122,445,-149,-378,-238,134,93
,-254,-835,269,-25,-807,-120,-437,-254,154,-344,-809,-361,-191,21,114,-49,-144,-533,-95,-821,410,334,116,-636,804,-65,-257,-835,423,-347,-435
,235,303,-207,192,-32,117,364,145,-46,311,90,419,-773,-614,38,-189,78,-584,30,110,374,-932,-166,207,-22,-337,-4,122,204,-323,-105
,-401,16,-70,-71,1,-144,-372,46,-1,-669,-43,18,722,48,6,308,-90,-184,-191,-185,0,-66,-137,-131,143,-248,32,358,50,-30,-44
,-422,-1035,-100,-201,-521,-504,-394,-561,-143,-860,402,-408,-1291,534,224,-34,26,-30,130,41,408,43,-486,-130,-779,-264,-63,244,-887,257,-104
,326,-374,-338,34,104,-93,86,-101,-131,180,-79,-145,-163,-357,-129,55,253,-105,-186,127,-125,98,-148,-1,67,34,44,67,-26,-33,-136
,-326,-49,9,384,449,14,204,379,-118,580,-75,65,-923,-833,92,69,-82,59,-49,176,-120,19,-16,253,37,-891,-175,222,-457,-787,-51
,394,58,33,442,143,-472,150,-2,221,526,-362,-1112,451,-7,-819,90,1,54,-137,-7,148,-240,-157,93,-119,-185,26,282,285,146,-236
,-228,-83,-31,-168,30,-84,-220,114,3,-121,47,16,-222,-56,9,-99,-59,-40,-181,-69,-89,31,-200,-90,177,-198,-184,103,-113,-115,2
};

long weight_1_T_nvme2n1[256*31] = {
-530,-237,-14,139,157,-272,-1458,305,-9,-949,258,-135,-827,485,-356,-179,-1030,-101,-118,200,13,206,-8,-35,-484,-522,-185,-16,233,68,43
,317,276,-63,-84,226,-204,102,-348,117,-181,118,-1052,-1342,51,-355,-177,-645,-92,-21,91,114,-95,80,-31,-989,146,-251,203,-808,25,15
,726,-647,-223,-160,-188,160,21,-400,6,94,454,315,-21,-47,-276,269,322,-123,94,-676,-246,-302,-54,184,-68,98,-247,602,952,2,-331
,278,-557,109,-76,171,76,-619,170,42,-268,670,-89,-161,171,-372,-242,92,42,-382,-162,-41,-36,-512,-162,-153,-223,-323,-143,266,53,-450
,32,-136,27,235,-157,-43,38,-279,13,140,-98,-200,245,-249,-44,147,-64,72,-52,54,177,-259,-154,-34,76,-48,-68,-143,237,-189,-139
,-366,-200,444,24,8,-94,678,-55,-316,338,447,-325,-990,-291,-239,43,-896,89,-196,32,-177,-70,-162,-2,-414,-67,-269,-111,-501,144,7
,80,-758,-211,-78,298,349,108,18,-373,51,185,-1360,-29,-322,277,65,-102,292,-109,-69,-742,-339,-259,-128,400,103,-415,44,-434,-277,-689
,-11,246,-41,5,-147,-60,-381,-93,-104,103,138,-146,485,1081,-92,18,-12,-139,-75,118,138,102,6,350,502,93,-40,545,532,63,-26
,-950,-31,33,-505,-18,-49,-977,244,-131,-866,-688,249,69,108,-645,-266,-8,-179,-224,-1590,13,384,-79,-1991,533,-333,119,-1355,708,-501,-94
,94,156,72,140,-31,-995,-176,116,-49,364,-116,-176,-238,-754,67,-162,-201,-263,184,116,-106,-149,-92,-139,-219,-263,65,165,63,223,-255
,-444,-673,261,-431,-679,-279,565,221,-350,252,56,287,505,439,-304,137,218,303,-250,-27,-501,-90,-156,-230,-247,111,-315,-310,-18,-125,-261
,221,27,-46,66,98,-128,-136,-216,-68,-145,-263,-183,-343,8,-455,6,245,-168,-333,147,232,94,-40,149,-118,2,-91,87,-285,-236,86
,168,38,-77,14,-72,-79,150,-143,-1,194,145,-81,-785,-214,52,179,164,-286,-343,105,117,-198,-113,-164,72,-215,-23,-145,392,11,-88
,-92,4,-134,138,105,-66,-387,142,-192,-147,160,10,1933,-405,-93,266,-105,30,-110,90,218,-54,-96,129,-414,-37,-149,-54,204,26,-314
,-42,-81,8,-133,-59,-147,-17,-164,40,-34,-143,-178,-95,38,74,83,-81,-62,-131,17,-83,-129,-143,-61,-102,50,-97,88,60,27,-145
,3,-90,33,25,36,-103,-47,-203,65,-106,-79,-87,-203,-26,-115,75,-69,-157,-68,169,-194,10,-4,71,-200,-126,-61,142,-115,-13,18
,-313,-772,-339,13,440,-102,-242,-5,261,-205,-31,78,-632,-558,-333,37,37,76,-230,-299,381,-237,-380,159,425,-304,-389,-45,331,374,-52
,-910,-54,152,-469,-134,216,-552,-114,-95,-436,144,-212,1079,314,196,110,502,-739,-73,290,645,-504,-1,-505,293,277,-51,-593,341,-514,-198
,-493,4,-254,-513,160,-221,-571,-219,-103,-646,-175,-133,494,250,70,-280,219,-227,47,125,123,18,-81,118,-283,8,-139,-272,279,-318,-213
,-636,426,-71,-423,182,-319,-1822,426,-80,-1900,9,273,-417,223,-81,100,5,-158,153,-25,-108,-292,-517,322,281,-120,-89,420,303,155,-368
,790,429,-123,-60,84,-305,77,153,-102,218,595,59,276,-1103,44,-405,-444,30,-450,-423,-488,39,-797,-164,187,-185,-59,-210,-273,-73,12
,-344,-540,189,-144,-256,-40,-409,-71,127,-144,-1694,-237,-51,109,-457,-106,358,-789,-267,-235,-195,209,70,374,639,-745,-290,-175,-948,71,111
,111,6,24,-119,-18,-95,-29,40,-129,86,-190,-45,-608,-366,69,-176,-233,-127,-44,-99,116,-83,-162,-79,-435,56,28,99,-366,-238,-143
,23,-142,-49,36,-166,-236,-103,35,-133,-42,-44,-119,663,-104,-9,-69,72,-202,-92,-26,52,-33,-86,-20,88,-180,-208,56,52,-128,4
,-74,4,-82,17,20,-38,-20,-86,-62,-145,-189,37,188,-79,-179,64,-15,-193,33,-46,-105,16,-19,-175,5,5,-5,-148,93,17,7
,-40,307,46,-1049,43,-332,-363,189,-48,226,-6,-204,-693,280,-210,-146,503,140,-423,71,-1627,-176,180,65,65,166,-228,-74,-128,50,-873
,-80,-139,-57,300,-278,-80,946,-293,-17,1022,-379,-57,-227,-3923,-540,-287,408,105,-8,451,-210,301,4,72,-123,131,-35,-92,-1230,332,-18
,620,162,-5,236,-246,-177,-72,-137,166,-166,-49,-96,-323,-892,186,119,529,-186,-128,532,-14,333,-194,85,-33,-273,-483,43,-754,-15,-72
,-96,-92,-2,-188,-65,10,-31,-68,-34,-78,-140,-78,898,-42,-177,-5,-46,-131,0,-174,-44,2,-71,-116,2,-47,-107,-129,181,-45,-13
,-228,138,-132,93,-202,-190,158,-158,-462,-337,491,216,77,359,72,19,97,-36,155,-73,255,-562,-86,-173,380,-274,-242,-214,-495,59,-47
,-60,-351,-146,57,278,45,9,-837,-218,83,-720,-330,-241,-1393,-162,-28,-100,-315,-783,-152,77,-114,155,60,-274,135,-110,140,-276,328,-382
,24,-67,-180,-100,59,-217,182,-169,-125,66,-43,-79,-395,-232,-94,-70,-2,-83,-120,182,-24,0,-37,-49,161,-228,34,-157,283,-195,-189
,290,-1195,-78,204,13,94,80,-74,204,-65,-115,-650,68,426,-505,21,-50,257,-110,-1094,265,-343,-372,-315,268,-784,6,-393,217,-94,285
,-1114,-944,111,-84,-343,-72,-317,-875,47,734,215,-80,-28,61,-622,-37,-47,-570,-237,-119,-1178,247,139,-200,-191,401,-121,-972,514,-277,50
,79,-1377,-184,-479,-1654,-117,-124,-257,-13,-332,-23,-21,-160,-2299,-294,74,-1037,389,16,-1064,774,259,-19,-129,-146,-17,-21,-156,-328,-10,-13
,-226,-374,216,-254,-174,-154,-87,-99,-218,-143,-225,-33,115,31,169,185,75,-233,-109,42,245,-439,-253,-140,270,117,-229,-356,-354,365,-194
,-326,-108,-274,50,-415,14,79,-64,-179,-127,358,98,165,-352,131,-359,142,-175,70,152,216,151,-396,-187,-88,35,-251,-712,724,-603,-221
,-217,-419,-3,57,-505,-569,-218,-448,-94,-360,-51,-267,-759,507,257,26,310,-291,107,126,-80,396,-9,-82,635,-519,-211,-49,220,-30,-553
,363,1,44,-195,335,-39,-58,-141,-58,95,-119,0,999,907,73,106,-133,-186,-55,-546,470,-131,-51,-323,-614,126,-72,-5,110,-51,-32
,168,121,-115,156,-164,-122,-29,57,-445,-171,-24,-485,-449,-450,-208,-358,242,475,89,213,69,-214,-226,-4,-408,-47,34,-22,115,-347,41
,10,-76,-179,-117,-113,108,-81,37,-105,112,52,30,123,35,-1,-42,19,-176,-231,98,122,-338,-68,-55,-100,-23,-28,-34,77,-138,-102
,-254,24,109,390,158,25,156,169,-94,202,156,-130,1409,174,-162,-173,-186,-336,-265,-111,-239,41,-226,-240,-556,65,-138,-280,180,-136,79
,-414,-65,-72,-895,132,11,-713,-523,-26,-939,486,-15,-2268,-2917,-429,-163,-826,54,19,-200,326,-54,-44,855,115,401,-57,635,910,66,-98
,-72,106,-140,26,86,-143,-2,-135,-73,-265,-21,-151,579,1196,-41,-192,379,161,-133,-86,435,125,-192,-578,363,70,-198,-845,831,252,-93
,136,-1,2,-60,-4,2,-5,8,3,-119,-4,-4,1677,4,4,727,279,2,3,-262,189,8,2,307,128,3,6,-261,362,18,4
,207,-320,-282,88,126,202,-97,-335,-355,118,-75,-287,-763,-5,-80,5,172,214,-723,325,327,-222,169,608,444,146,33,362,-229,-174,-171
,7,-206,-34,167,-79,-114,-74,-210,-55,-21,-39,-45,820,-120,-87,86,-40,77,-126,208,181,-238,-79,-9,19,49,-77,33,-39,-111,-84
,-198,-124,-170,-69,-45,-92,-76,4,-59,-94,-111,-170,909,-540,-62,-413,172,-262,-169,-208,251,-160,-100,-298,196,-127,-150,-166,-41,-48,-130
,-699,-26,62,-523,297,-219,-561,233,-869,-292,-244,97,453,-285,-656,-17,6,-553,24,518,126,363,-56,537,-463,131,93,-161,775,60,-400
,19,-557,-26,613,166,-216,442,-445,-741,839,-46,-41,372,675,-241,-375,-75,293,46,-213,407,-330,-26,-403,-243,-37,53,441,121,341,43
,104,-192,-134,751,274,72,-248,-623,-91,281,-721,-9,-906,109,-119,577,-164,-43,-143,-67,-412,40,-55,532,659,493,24,-203,-1627,-449,-46
,-1094,8,278,-518,-479,5,-249,190,-27,-795,-387,189,459,175,-431,-470,1026,-324,-362,138,237,-91,-130,-33,148,193,-119,-826,545,-589,-25
,-163,-134,-8,-441,-326,70,746,-295,-74,-422,-71,-318,-949,444,-434,-311,290,120,22,-673,-798,409,1,-254,-430,-63,-121,-159,390,322,55
,262,-820,-21,77,75,134,-303,39,-59,276,-520,-356,331,399,78,751,48,222,-71,570,331,383,-216,244,93,-147,-569,110,262,-237,-252
,165,11,-30,275,95,-144,192,-145,-459,47,53,246,-776,-175,-226,121,369,36,-80,347,230,-852,191,-157,300,-347,-147,-96,-5,-166,34
,163,-264,-97,74,-200,-97,205,-340,-152,-555,-84,-60,-385,309,-221,-93,53,-16,26,-225,145,-31,-33,-308,2,34,-5,98,148,-353,-36
,-101,-119,42,4,-39,-75,-123,-145,-205,105,-116,-106,239,-120,-114,8,9,18,17,-15,169,-26,-170,38,29,-38,-171,-13,84,68,5
,-16,-40,-34,-47,-28,-35,16,117,-135,-167,74,-85,5,-7,-94,112,70,-160,109,71,-163,-21,-25,-135,-29,-124,-81,-115,9,-100,-110
,-454,388,58,-410,-823,-31,-598,-279,65,604,389,76,267,-842,11,-243,611,181,-21,-109,362,-981,46,13,509,-577,-625,-174,-1510,239,-63
,392,-46,-150,555,-324,-93,-192,303,-362,-197,495,-429,344,-232,176,-144,-489,-274,35,164,-659,-74,-163,29,-1277,200,-116,55,-457,-40,-150
,-74,169,-159,-79,106,-149,-164,-123,-90,-49,106,-24,-222,101,-207,-85,58,-67,20,-26,211,-135,-12,-82,148,-122,110,-90,-91,-122,-182
,-106,148,-69,-158,5,-124,-419,10,-427,-230,51,112,1840,-81,-119,306,-78,67,-81,-43,179,70,-160,2,-517,36,-143,-104,585,-213,-305
,45,80,-2,-98,-44,-40,52,-109,-159,89,21,-61,137,-22,-2,-16,67,80,17,128,-80,-147,-135,105,-79,-93,-117,-73,79,-106,4
,-845,277,314,-958,-80,105,-564,188,-48,-846,115,98,-911,376,-99,-31,332,-477,-592,-251,-313,-10,-940,35,-187,114,-86,24,59,-452,-12
,-765,-120,-26,-888,-45,-6,-108,-195,-14,-790,-127,6,1051,1043,-94,-235,-1907,149,-14,-304,-659,-21,-1,830,-1235,141,9,472,-223,69,4
,155,-114,19,-612,-365,-148,427,-397,-69,-495,-2010,-176,-562,-741,-890,574,-210,117,-16,-218,15,81,26,-170,-30,112,34,-150,-447,458,52
,-117,-384,-188,-10,-700,87,-74,644,53,-39,-1004,-116,-26,430,-2125,-49,42,-761,130,-2,-56,-94,-597,-225,521,-59,241,38,-241,-18,-664
,144,149,-271,254,114,-163,340,-34,-54,-123,-275,-214,-199,-246,20,317,-77,-226,-194,-6,-283,-179,-296,394,238,177,-61,7,-53,-412,-28
,28,-26,-131,776,-149,39,706,-559,-56,583,157,7,545,231,185,-247,-300,379,-238,110,-1417,-499,-132,-216,-90,276,-51,176,-698,-320,-3
,-176,-121,-74,-34,-214,-6,-28,32,-134,-65,-143,-71,101,-120,-3,55,118,-263,-106,108,-61,19,62,-177,144,-204,17,-7,-46,80,-139
,70,-129,-23,-249,-317,-71,341,-2576,-231,67,-308,-82,-193,-2492,-134,371,255,73,-28,-682,303,8,-45,-55,-1133,554,24,-547,229,25,-67
,413,-146,-23,184,491,29,-446,-206,-41,-295,-21,124,-884,-295,-222,139,-177,-218,-115,58,649,183,-524,-31,-526,313,-80,364,63,-481,-130
,102,568,-104,39,-273,186,-185,-146,-28,212,231,-436,-1029,-183,-215,45,414,74,-202,244,-3,-101,-428,542,-447,60,50,-120,-380,-451,-153
,337,121,-295,124,-152,-115,-233,-109,-174,-179,124,-12,1204,-63,-154,27,-73,7,89,80,180,-196,118,-90,-493,95,-83,-30,196,-192,-274
,-113,-378,-11,-258,-33,-252,-17,160,26,-144,37,-126,120,-326,-179,-25,-64,83,-188,-97,112,-220,10,22,189,-66,-209,-166,209,-256,-139
,-68,89,4,29,-147,-168,12,-167,78,16,-83,-63,144,24,-29,-127,-201,27,-126,34,72,-29,-60,-58,-48,-97,-190,77,85,-12,-71
,127,-78,-19,-36,-9,-12,10,-103,-161,-21,-64,-159,-546,39,-125,2,-102,-99,-171,89,-56,20,59,72,-114,-78,23,306,-379,-167,-209
,471,210,-19,435,388,23,-167,382,-68,499,427,-104,1008,-73,-68,285,9,-394,-140,964,203,-272,131,685,-245,-25,-208,626,-233,292,-62
,-156,-506,-70,-75,-497,240,-337,24,70,295,525,-133,-224,-26,-243,58,-665,-267,27,466,-523,-224,-276,238,458,110,-200,-20,525,104,-208
,-244,-119,-59,-200,-89,-87,-113,-239,6,68,-92,-9,253,69,-27,3,113,39,-62,13,94,-92,-68,9,146,52,-10,-51,-64,21,-56
,112,-173,-117,-56,275,-341,321,-110,-666,-381,-643,-134,-158,-102,211,170,25,-228,261,186,335,292,120,-17,213,-394,-653,-116,-948,-200,-75
,329,173,-12,179,117,-188,-589,117,61,-793,-40,-294,-681,-373,-13,101,582,362,-105,-382,178,-344,-499,58,-465,-250,-249,20,-708,-28,129
,-50,-309,-259,-327,129,-151,-361,-72,-430,-256,20,-87,1057,21,-97,-212,13,4,9,75,354,9,33,121,91,-43,-200,146,362,72,-168
,-4,-143,-80,71,0,-69,112,126,50,-21,-47,-50,-24,-225,-73,80,72,-137,-44,-48,19,-53,-104,5,-52,-166,-1,-62,74,34,-170
,538,333,82,-384,-269,-94,-921,91,68,-218,199,42,-2460,-650,-698,307,14,-23,-70,821,322,-12,-49,384,119,46,-371,547,571,-131,-124
,596,-317,-481,194,-672,165,26,-406,5,375,320,-2,-678,-528,-218,509,471,-278,-106,70,-131,-325,-491,43,-221,51,164,-231,294,390,98
,-87,-8,-63,-79,-25,-30,68,16,-151,-133,15,-157,-40,-171,-67,-54,-22,-60,18,-108,42,-102,-125,84,5,-100,-123,75,-16,70,24
,-175,296,-141,-135,154,-19,250,280,17,-89,1,-316,601,373,-73,-5,-42,167,-82,-106,-80,-510,-130,699,460,353,323,-587,-150,-492,-235
,354,173,-415,-52,302,-111,80,-701,160,529,-549,29,-279,-372,110,153,70,163,-97,-72,93,225,-606,-139,48,-157,-20,-146,742,-289,-109
,39,138,-50,-79,-270,-215,46,110,-145,-137,-354,55,-213,-107,16,-114,92,151,-344,36,248,-128,-196,-47,-287,122,125,-143,-97,-64,-208
,-94,-12,44,19,-185,-152,-91,26,-231,-168,-223,-167,338,-85,-186,29,199,-244,-121,-86,162,-39,-100,58,186,73,-41,-28,-50,-40,-67
,-52,-596,-161,11,-632,-384,-132,-559,251,-113,-231,-495,169,512,200,59,-285,-471,-153,-45,-603,-66,-314,54,-192,368,45,55,-938,-10,-462
,177,329,-633,3,388,-206,235,-183,-237,-963,-337,46,-681,299,-23,-299,462,122,85,-364,-347,-37,-132,82,184,-10,-45,288,-319,-255,-735
,-138,-9,-176,-19,-107,-86,97,29,68,3,36,-119,50,-91,-140,80,13,-8,12,-72,-32,-71,-151,130,-149,-102,-12,-133,7,71,-65
,-30,-123,-256,-25,187,266,-177,-465,-259,-175,-268,-227,-587,179,202,26,-268,214,-150,-31,-2094,97,-261,-103,-571,198,-364,241,-1419,-175,-338
,-94,-267,-60,-52,-293,-147,-88,92,-54,23,254,-590,-237,67,-793,59,-101,-183,-558,157,-102,-85,167,-17,-33,251,-26,195,169,-420,-88
,249,-628,-204,216,-372,-234,197,384,19,-101,398,-97,186,-608,127,-456,-338,63,-388,-1011,84,168,24,-122,216,200,-227,-298,314,-369,-307
,148,-450,116,43,-371,-141,-204,-307,134,55,321,-125,152,560,20,-212,-753,-551,-54,1051,125,-163,-78,621,464,-17,33,448,586,8,6
,463,-519,53,-643,240,-409,334,-19,-60,285,-499,226,-549,340,-678,-8,-81,138,-39,-113,120,-85,-469,-89,284,-7,136,101,-338,-305,91
,-825,66,-37,-331,308,-1,-998,-747,114,-699,-686,110,-176,-532,194,32,162,-226,-128,-701,169,-365,-122,-1483,214,-552,78,-560,813,-1693,112
,-423,29,-215,-390,-45,-20,-335,-281,-202,-464,-123,84,1226,134,70,-61,109,239,-130,-43,-92,-186,-20,-327,22,181,41,-192,560,-109,-73
,-262,39,5,-388,-170,-94,-589,-98,-38,256,336,136,412,1066,-393,1,46,-7,-14,-293,555,52,-52,471,13,-8,-180,-325,455,114,72
,81,75,-153,-140,-210,-37,-19,-60,-243,138,-96,86,-100,-42,-175,90,133,-210,-22,-9,-11,-165,-187,-16,21,-117,2,128,259,-129,6
,-328,52,182,-703,554,-249,-884,-101,252,-150,-48,-843,-56,-82,-49,-15,-1136,-226,-513,-65,58,126,-1077,265,-440,-46,85,469,434,100,-247
,-162,-130,80,-150,-54,-250,0,103,-165,-135,34,-54,-353,-225,-32,118,111,-160,-5,-46,-88,57,-40,-134,-244,-11,-104,343,-225,-36,-123
,279,-65,-198,-13,256,-2,533,332,221,160,-172,-111,-2172,-908,-303,538,344,4,-83,673,306,-216,44,509,505,-193,11,324,625,-73,-53
,-172,-32,22,65,-36,-74,-58,9,-40,654,-190,-66,1867,935,-38,-162,-206,-5,-55,-430,82,44,-5,113,30,-96,-22,-333,-312,262,-22
,401,181,-179,-332,-457,-620,-343,-94,-143,-813,-264,100,-259,151,-176,123,72,134,111,-479,-1430,472,-294,-934,638,-144,16,-225,320,-356,0
,-67,-56,-178,-179,-113,-61,-107,-187,-10,-60,-129,3,-118,-27,22,66,-67,-68,-182,108,-308,-67,-10,325,-108,35,-90,278,-229,20,-64
,2,-15,-316,52,167,-170,27,-88,-69,14,80,-53,1069,-319,70,211,-110,-42,185,-12,167,-42,-308,-69,201,-27,-82,51,262,102,-477
,-2,80,30,26,-101,-177,88,-103,93,-123,33,-73,-225,-136,11,-110,-34,-24,-54,11,-46,-80,12,-96,-343,-121,-31,4,-117,-104,-198
,-110,-415,-195,-88,-1387,-312,21,-988,-82,-110,-452,-161,-60,-1884,-82,-123,-401,-354,-6,38,-1529,292,-120,84,276,395,-160,-318,360,200,33
,110,-11,-182,114,-40,-174,-115,-100,18,98,46,18,-27,-189,30,-33,-27,-103,-65,-24,-96,85,-63,-4,-131,-31,-152,-62,-168,9,2
,-277,-60,-7,-296,-99,3,-367,-91,8,-378,-200,-11,-577,-184,68,-474,314,127,-7,-651,403,153,-11,609,562,97,-7,-847,-446,181,13
,-214,-249,81,-35,-274,43,600,-211,-7,314,-408,-68,70,-2342,-485,385,-308,-78,-12,158,811,53,-48,401,-11,30,-35,465,-477,428,38
,-251,-961,-355,-29,391,-86,-410,-157,-478,-1445,-274,-282,-186,730,-284,-313,-836,-644,118,231,-85,335,-66,294,330,108,-93,149,-1297,-282,151
,-139,55,-27,89,-121,-95,102,-57,-122,3,16,-35,-214,56,14,18,77,-75,50,-147,23,-103,26,-143,-86,-48,-45,6,-82,-35,-175
,420,41,-163,-829,-814,-130,-1251,-333,-27,402,-58,39,601,-1188,77,-330,591,-9,-20,-815,-732,369,38,-1457,823,-499,-96,-584,622,140,-55
,111,86,-50,49,-207,-31,-172,149,3,248,-229,-204,9,169,-59,24,71,-47,-82,223,-112,-243,-217,141,63,-112,-218,108,90,49,23
,48,-4,-615,-43,12,-762,257,149,138,234,200,-43,-1106,-522,-117,190,149,38,-162,54,71,-88,39,10,258,377,-62,-83,-31,-148,-106
,53,48,-173,-136,-105,-39,27,-74,-89,57,3,-8,93,-77,-179,131,-44,-177,59,-77,-58,-153,-158,-78,-54,-1,-30,-17,-132,-43,-20
,-614,-139,-47,-187,-570,-65,-226,-380,-37,240,299,-6,1882,-3265,165,-729,261,64,-33,-407,292,292,1,-1132,-115,151,-2,-1115,102,-73,-7
,-155,-137,-82,-116,-5,-171,43,63,34,68,-22,-133,362,-77,-3,16,-152,30,-122,-196,56,23,33,43,113,-138,-40,-117,144,-177,-170
,-217,-166,-88,-199,-31,-101,-311,-187,0,-90,17,-17,366,-77,-34,-17,25,-72,-118,-233,-286,109,3,-271,241,-166,-64,-179,59,-107,-49
,-45,65,-20,-170,-77,-140,-178,43,-74,61,45,83,-107,70,-146,-129,-58,-43,-156,71,-133,-138,-100,27,33,22,23,-61,-83,-13,-146
,423,-262,-150,-157,517,-459,282,-89,-157,60,-48,-215,-1344,-392,-576,83,160,-80,-59,46,217,288,-35,-68,-94,-48,97,198,-523,-185,124
,3,-281,-126,-221,-1351,194,-233,215,-803,-76,-1141,179,-493,-121,336,100,166,-82,-888,-32,-1402,-157,-428,-56,372,139,-516,245,-788,-34,-376
,433,-67,-13,-125,-137,18,764,-80,-54,144,-589,-80,-1155,-3061,-606,260,424,254,-5,383,356,91,-29,563,527,106,8,1395,-460,240,16
,36,311,-166,-157,28,30,-176,-109,-131,-511,-314,-214,-744,32,129,606,-252,-480,-33,-187,-862,-212,-341,-21,-313,348,49,-175,-211,201,-317
,-1034,-235,-162,-416,28,-6,-267,-495,1,-452,6,-17,622,14,-87,-728,57,152,-61,620,366,-476,-2,-1158,-23,453,28,-1167,975,53,29
,-75,-164,-42,176,-58,-79,-113,-25,-15,92,-13,-91,-57,13,-180,101,4,17,-106,-116,-136,-88,-59,-23,131,-145,-65,68,-111,91,35
,106,364,173,-264,-276,170,-839,-384,-216,-391,-350,52,-653,122,-768,43,-186,-31,-200,1276,280,-298,-120,1370,887,291,37,391,-1126,-97,-6
,32,-134,49,76,55,-83,-34,-21,-45,-48,-89,-81,-422,-112,-242,-6,53,-57,33,116,-32,-12,34,243,121,-76,-120,153,45,-12,-62
,-1379,60,-38,-269,42,-11,-736,-39,-46,-839,-126,-69,439,1226,280,-297,321,-32,-54,-30,-146,-174,-54,-251,-24,12,-34,423,-85,-1,-43
,-226,-152,-111,-171,20,-125,-59,-40,-40,194,-164,-113,653,-30,-155,16,139,-93,-73,-173,13,-90,38,-67,12,-161,2,-104,203,53,36
,-122,-155,-109,-94,20,-89,-44,-30,-81,113,52,1,-131,-125,-186,-7,37,-130,36,-24,-24,-167,-128,24,-54,-9,41,-14,-114,-190,-72
,-376,-306,-341,-752,92,-239,-304,-810,132,-726,-257,-594,-868,652,-83,-468,400,-369,-142,-117,63,472,-124,-42,-850,39,7,58,175,94,203
,-866,484,-460,-750,-524,-511,100,305,38,-99,147,53,401,-144,172,-469,242,-419,71,200,-218,-713,-28,-104,-93,237,-158,-210,-212,117,-300
,27,-203,-46,232,-32,-33,107,-61,-160,-18,155,-173,325,7,-26,-42,132,88,-92,128,-41,-187,-1,-22,-156,-27,-5,163,-35,-25,-103
,-146,75,362,473,140,-156,809,-90,-15,191,184,-191,1716,-149,-223,133,252,-394,-70,-155,-35,-9,-326,-172,-529,159,158,-38,-112,-205,-445
,155,-227,-58,332,-60,-152,-160,-202,90,-180,274,41,25,-455,107,184,-25,378,144,-60,159,-683,-105,-73,-275,-65,-173,-96,-23,-401,-264
,-1093,-389,100,-924,-359,47,-305,-524,69,-318,80,8,276,639,-90,-1603,741,-670,-92,-1346,658,-750,18,-1346,226,-156,32,-1312,599,303,-8
,35,-116,-56,186,226,-243,154,58,-86,57,97,-180,335,-276,17,41,-153,-186,96,-192,-68,-43,-100,-78,-173,-71,-4,-59,-74,-102,-228
,178,76,-48,254,48,-98,157,-34,-27,-288,-154,-143,333,-149,-41,-102,216,-157,-112,175,-6,407,32,-10,-204,-153,97,42,-420,-222,-131
,413,399,-384,389,116,72,-9,-288,87,-623,-110,-263,-1237,76,54,-29,-268,156,-171,-14,367,-309,-64,-68,-491,9,-659,-38,-642,12,-88
,-532,233,65,-212,290,-48,85,-84,162,-679,8,-112,-3659,-795,-375,-166,754,436,-50,610,-137,64,-6,788,158,-42,-140,521,734,-305,-203
,-14,-708,-4,82,-377,201,-33,-337,-303,-202,128,-453,665,-219,-185,-499,112,353,-108,445,657,-91,-38,-103,-351,265,136,14,123,-436,-3
,61,-49,-39,5,-48,-132,100,17,22,-129,-80,-112,-484,-115,6,-59,-17,-55,43,2,-47,-55,-213,-83,-195,-80,-124,-164,-57,-90,-68
,-149,-115,-53,450,139,-153,258,210,-44,312,335,-475,1109,-298,92,-136,-462,-258,-406,-1,27,-164,21,110,-756,136,-135,208,-89,-180,-139
,-45,-481,-93,-816,-740,-44,-262,-328,-284,-438,266,5,-90,-141,-109,-123,-121,318,-41,163,288,-239,-4,-854,-199,190,-161,-668,-90,-307,-88
,-147,101,-130,-49,-66,-50,-20,70,-83,61,-84,-44,-1448,-352,2,-60,-152,-30,-80,226,-252,-162,-22,-7,-98,-5,22,179,-470,-20,-63
,-26,-64,-190,118,-52,-213,152,-56,-139,-129,102,95,-244,-144,-85,72,98,-13,-25,104,-46,-17,-35,-111,-41,-127,53,12,-34,-92,-190
,-324,-1280,238,-245,-360,-67,68,-1127,-239,-71,10,-545,308,471,337,-127,-83,-109,29,-87,4,-87,-87,90,158,-41,-496,-151,787,-237,-296
,-164,464,-495,-283,-288,89,-181,60,-116,85,241,13,-552,-436,48,61,-184,-181,40,-109,-82,-9,-96,53,77,101,-558,-22,-118,148,-488
,-636,-105,-225,42,56,-36,-914,239,172,-754,436,-307,-819,344,-269,-174,-1423,-126,-45,-105,-370,125,-195,-179,-1234,147,-41,133,48,-568,5
,19,176,-742,-17,108,-456,346,-10,-35,363,-78,-112,-1651,-684,-156,155,235,104,-283,426,40,320,-37,227,277,-112,136,179,308,-162,37
,408,330,203,-65,337,-390,-84,-73,108,-22,-646,-162,-973,-634,-128,485,527,-245,-61,-30,-154,-220,93,3,-610,-160,-21,198,-398,6,-238
,-176,-26,-43,12,-245,-130,-163,-270,-98,-442,-239,-71,1226,-21,-68,164,-49,100,-95,-73,193,-105,-20,-209,147,9,-12,-299,141,-124,-160
,-782,-1129,131,-810,9,-49,-978,464,-217,-146,-687,-181,1039,78,66,-1434,47,258,-122,-1645,697,-194,-50,567,668,-372,-66,180,44,348,50
,-101,13,-76,48,-133,79,11,16,-62,-64,-50,-20,12,1,-112,74,-99,-82,-101,92,92,-74,-61,-60,-134,36,-71,-30,-47,-119,-62
,-76,34,100,-206,-521,-407,-366,-467,181,-239,-123,-215,-564,584,-167,196,-158,-41,-173,254,-573,59,-206,283,-298,-61,-612,117,23,-10,-414
,-95,249,36,-223,-30,-115,-267,-100,-94,-336,-48,30,1033,93,-132,-201,133,93,-273,-20,276,183,30,216,36,-483,16,-89,356,-279,-147
,-195,-150,54,-216,59,-751,-649,-404,-276,-356,495,70,-417,344,-476,-415,307,-161,118,-213,588,-252,108,-345,-891,-98,130,-185,759,-627,-181
,514,87,-1,400,295,-184,125,-67,-117,20,-236,-172,-827,-133,-133,-74,133,-63,-70,198,100,133,-145,-111,73,-225,-28,-43,63,-350,-354
,58,131,-5,75,-79,-200,55,-94,10,-98,136,-168,-15,19,-69,-45,192,33,54,30,-16,-111,-47,-94,-65,-157,-153,19,5,-346,-14
,-94,-318,153,-58,279,100,112,-635,-79,-142,-80,-192,-307,-33,-138,-84,-908,455,-29,39,435,-161,-410,54,-695,-356,-390,-29,-327,-163,-896
,-327,-83,71,-98,-7,-90,-317,-259,-75,-230,-170,-15,508,20,-35,-10,290,-120,-167,-325,279,-63,-129,-149,13,-33,-37,-303,-2,-93,-3
,118,-54,-3,52,-18,-118,-106,111,43,51,40,-49,-464,-308,-197,122,-52,-118,-5,43,-168,-118,-53,86,-105,-95,-23,115,-163,-57,-156
,-5,387,-303,144,-278,234,-77,181,-361,-396,-357,-259,-298,-557,23,-200,-73,328,-286,-46,303,-198,-105,56,284,-107,-264,52,-557,216,-83
,-96,-308,-493,-4,373,-160,18,30,189,-58,-247,141,-75,421,-466,52,-778,-153,-389,10,297,-43,-1887,103,-142,59,33,-106,-290,-1,-501
,286,0,-131,-300,-310,-215,57,81,192,134,45,75,437,217,71,67,-518,-232,-113,58,650,-114,110,549,-738,-195,-86,552,957,-621,-247
,-1141,-35,-8,-262,45,51,-858,1,15,-1090,-208,-100,3565,-429,45,-191,465,-107,14,-630,361,-65,-25,-854,382,94,-10,-149,1283,-326,-32
,150,188,-3,-34,-286,290,89,-110,-208,-126,-79,-324,903,-44,-61,-9,-93,32,-437,923,486,348,71,639,-166,-118,-133,423,208,-506,-271
,156,-171,-173,98,94,-95,-34,2,-100,52,-50,-66,-736,78,-183,117,-204,65,-45,-218,-11,-106,-24,-46,126,3,32,265,-260,-96,-72
,-1054,-143,-54,-449,-171,29,-696,-444,-7,-1248,-314,-145,-574,66,66,-173,-146,283,-51,-1590,253,217,-45,-1789,765,98,-23,164,1483,-520,9
,-195,-167,-164,29,-373,-150,-258,-131,216,83,-320,-196,1417,-108,-24,48,75,-52,-186,402,227,173,-456,123,479,-46,-217,-34,180,50,-112
,230,134,129,358,102,-385,379,464,-177,-208,-81,318,-1298,-380,-160,234,165,-593,-132,-304,236,187,161,-209,-188,-132,-324,1793,219,180,-307
,-1506,-158,37,-599,-139,-67,-235,-331,-18,-799,-416,-21,-1686,1221,-184,-1225,167,-462,-69,-841,635,90,13,-112,749,172,-12,-1651,-571,283,25
,202,-294,-190,126,-11,-18,144,-120,-217,137,-143,-71,-258,-142,-55,122,144,-3,-192,237,246,17,-145,8,-78,-271,-177,115,65,-199,22
,-156,33,34,-25,-12,-378,486,123,-396,35,369,-676,-731,-527,358,24,337,142,-69,-123,-108,-179,-112,-167,-105,112,-87,-130,-133,-240,-152
,-2921,-24,-56,-1098,-76,48,-1672,-203,-43,399,-427,-71,2005,15,18,-47,889,-203,-29,-982,-951,411,36,-1711,533,123,12,-550,1285,-91,-38
,-12,-408,-238,587,-43,-59,-14,-339,-395,121,166,116,323,-1456,-294,-56,231,148,17,266,588,251,40,-212,-183,311,-13,-185,-441,-481,-131
,-272,-21,12,-791,267,253,134,-151,1,236,158,75,1121,579,69,-296,-170,-439,-47,-210,-295,-467,-139,289,-196,-117,-11,534,944,-564,-64
,274,-166,-496,224,83,-539,325,-455,-247,-20,150,12,-47,256,-52,207,183,-240,10,109,153,-281,-75,38,478,-393,-26,164,337,358,-17
,-1875,83,78,-54,-125,-66,355,17,-3,488,76,-95,-15,-48,-7,-326,-2297,311,-28,-2056,-65,182,-10,-1368,633,30,-40,-343,217,17,-28
,124,-93,-48,138,-149,-151,-26,96,5,144,-58,-195,57,-35,-41,-73,53,4,-69,-73,-4,49,-74,90,5,-157,15,-116,-3,45,-94
,-89,-296,-256,227,5,-236,141,-102,-182,115,89,-193,-225,-250,82,240,183,-205,-128,37,87,-49,-14,-173,-41,-103,-63,11,186,28,-141
,21,-99,-193,148,123,-132,10,-83,5,168,27,-87,-100,-187,58,-62,-136,-24,-209,-83,-45,41,-130,-68,-1,-172,-7,143,-142,44,4
,-1161,-440,-88,-1292,-16,-4,-1876,74,44,-831,-381,-80,-315,-667,162,-387,-1927,284,101,-2222,624,-353,-64,-1355,1031,-154,-110,219,1495,-427,-104
,-111,101,-241,-117,-283,-22,-90,68,-155,47,20,-9,-71,-73,-56,-30,114,-183,-65,5,50,-90,30,-4,-41,-12,-186,16,116,-26,-70
,195,-53,6,-39,-60,-71,-117,-62,12,-105,-192,-59,-888,-211,-19,-205,-9,-6,-159,135,-20,-17,-25,11,-217,-125,26,-106,-82,-149,-32
,286,176,-36,319,-381,11,51,281,-258,240,-841,-292,279,378,-413,-110,-12,127,-263,72,245,-193,-170,161,-70,-259,3,68,-239,43,57
,-97,-398,-426,99,-21,4,314,-173,-126,360,-39,-147,884,481,-108,-22,46,48,-566,-408,317,-193,-175,-420,355,8,-193,-355,62,239,8
,125,-26,-154,-81,-153,-96,44,-76,-58,76,95,-12,99,54,70,-130,-121,5,-128,-104,-91,34,-11,116,74,-96,-78,-116,58,-135,-32
,2,-190,-122,-31,-263,-209,119,-124,-219,-5,-60,7,-134,-140,-122,108,-193,-88,8,29,8,-67,-29,79,-146,-80,-175,-49,-119,-22,114
,-157,-52,-491,97,-952,251,229,-768,50,223,269,67,540,120,-599,-196,168,68,-323,-119,445,-487,111,-144,-187,-22,-488,-485,556,157,-223
,-112,22,-32,-137,69,-6,-184,-76,29,91,-165,-153,318,22,35,71,-113,-126,-7,-44,23,-67,2,52,48,-110,-36,-157,81,-41,-2
,-4,-88,-17,6,-16,-28,121,-138,37,122,-127,-107,-82,-19,-2,28,21,-96,-20,44,-59,15,-24,201,7,33,-45,185,-211,-76,-126
,358,-858,199,353,351,95,-513,-344,-270,-293,-228,120,-1258,602,-39,116,-1491,-515,75,-92,-938,-131,-905,-123,-1533,-354,-110,-99,-176,382,-764
,329,-361,-113,548,296,-788,762,-185,-84,332,478,47,-1377,-629,-197,633,-658,34,-36,-5,-252,-101,-137,351,113,-135,224,1,821,230,-179
,-220,50,103,-282,330,185,-275,225,-157,90,-55,-543,-1695,-801,-121,301,132,-158,-134,-261,340,-322,-389,-45,196,-27,151,358,-172,-51,63
,-90,20,-40,34,-75,-1,-270,-116,-23,48,-19,-75,556,-239,-106,-10,94,-158,-21,40,-46,24,-56,-166,-130,-85,37,5,13,-126,-196
,171,-464,-51,239,270,-90,-182,184,70,740,-157,-43,-1401,745,-1435,59,-598,-25,-102,351,-505,132,33,1201,-659,-1,-54,8,-838,84,96
,-33,-95,-114,-25,0,-103,-107,-108,89,15,-135,-91,14,57,-118,65,-87,-89,-40,-140,-90,-71,24,28,103,4,25,-94,-135,-166,-146
,267,-880,-222,296,197,-136,-422,-354,-279,430,426,-28,346,394,-182,-315,80,433,12,33,-36,17,-222,-17,-806,-101,-174,-301,38,-203,224
,-8,13,-159,-74,-501,-216,182,-747,-162,83,156,177,-548,-92,-700,985,381,62,-179,287,281,94,27,-149,134,72,303,-157,-858,-410,-332
,16,-223,-144,140,-152,-159,-25,26,3,-18,-175,-75,31,-130,-93,-20,-79,-15,16,87,32,-77,53,-118,61,-42,-35,45,-133,36,-103
,15,-45,-190,-224,62,-165,-116,103,-3,360,-110,-126,-650,78,-123,98,7,-104,-93,205,-126,60,-53,-77,-158,-24,-129,-149,-216,-87,-78
,150,-99,-8,55,-126,-122,-4,-33,25,43,223,-183,57,-94,60,-101,83,-141,-217,38,-92,-92,-162,62,97,-129,-128,124,94,-48,-115
,-879,26,82,-1123,506,-173,-252,303,-47,-850,234,-10,-3168,-2328,-258,-161,300,240,-135,-209,-624,15,-114,453,540,-88,16,-580,-73,245,-124
,-141,-43,-159,194,-103,-14,43,-196,-60,-122,74,-140,834,-99,46,111,175,-134,-104,-230,-74,18,-169,-33,2,60,2,-235,293,-127,43
,-178,-8,-21,159,-50,-35,177,-15,-18,558,94,-24,1631,1351,-100,47,81,119,-15,-274,559,87,12,-1066,433,59,-11,-6,412,63,-1
,-168,-182,-116,-77,-181,3,-122,87,72,-138,78,-149,33,44,45,57,126,-229,-27,-188,76,-83,-38,-133,5,-239,-147,0,-37,-133,-119
,-363,-847,-111,291,-1789,-199,265,-2128,-149,857,-1073,-217,528,611,104,472,569,131,-47,753,721,239,-67,320,226,222,-44,-283,366,111,-55
,125,19,-312,-111,103,1,-220,32,-372,-216,-6,91,855,139,-202,58,-455,96,-79,58,256,-301,-330,-71,-186,-157,-7,29,-101,97,-269
,262,-115,-28,-95,-102,-142,-386,-397,11,-85,-314,51,-842,-494,-222,549,376,-280,-147,-82,-499,-455,12,183,-653,431,74,131,-519,-250,-50
,-364,206,-397,-289,-149,-28,-540,-167,-138,592,225,-292,-692,-465,-137,-64,-979,6,-302,205,-284,-40,169,56,-237,-5,-551,-79,129,378,112
,-108,-35,-19,-112,-29,-147,115,2,-104,-4,-27,-64,-359,-133,-168,-36,57,-212,-136,182,-8,-116,-22,142,117,-259,-201,52,75,-212,-83
,-863,452,-200,-583,-2,36,-467,-22,-34,-934,312,243,-470,102,-221,-43,300,40,-159,-68,-440,-339,-152,-38,-280,-287,-635,58,220,-560,84
,-1163,-262,-77,-22,-603,12,-37,-727,-49,-671,45,-18,-333,-2515,-561,-47,47,166,-18,463,271,189,6,169,-580,313,62,486,566,-50,-2
,-270,-100,-95,-98,-10,-97,-213,-65,-166,92,-491,-184,-17,-211,-154,-98,-160,-310,-121,-85,66,86,-24,-292,288,-5,-6,-283,-30,160,10
,-41,151,37,-101,-62,-132,-187,-128,-103,-32,-126,2,-130,-176,-90,101,-121,-32,-87,45,-105,-261,-97,37,92,-94,-49,31,186,-82,-101
,-129,-629,-16,-180,-744,169,159,136,28,564,418,-658,183,-514,-15,93,-419,-60,-30,107,-157,-189,31,365,52,104,-105,552,933,-369,12
,347,-490,-185,200,574,16,447,-167,-397,243,-136,-228,-168,-499,-312,277,-375,-40,135,1,64,462,-64,11,-376,-222,-210,317,657,-77,14
,45,-199,15,-74,-111,-180,48,-50,-186,31,49,-47,-26,-43,-170,81,40,5,-102,-41,-50,-6,-78,142,63,19,-187,17,74,-66,-87
,227,17,-12,-1206,-57,-26,-1120,-33,4,-718,-558,-88,1639,-1853,186,-684,107,18,-12,252,165,-3,-10,-441,259,19,-14,-666,-375,305,12
,396,21,-89,-65,-4,-60,139,-60,-59,-266,-54,26,-1323,-154,-102,-162,-12,-141,-127,30,14,37,-40,44,-38,54,-145,200,-256,-237,-79
,227,-397,-261,-177,-489,-247,38,-791,-41,-317,-206,215,202,414,-44,-199,-407,127,-134,-12,-26,-489,-110,-47,28,-409,-93,13,156,392,-138
,-120,308,191,143,324,-11,-187,-520,-892,-150,76,-356,593,-203,-200,846,361,22,-8,530,274,253,-159,-16,-205,-100,-195,-188,-150,-82,121
,25,301,271,-171,-52,51,257,-306,-470,335,-281,-214,-486,-45,310,-316,156,111,54,-227,52,-527,-164,-200,-61,-72,-59,-163,347,-693,-277
,189,-124,-375,-79,86,-218,158,-107,-32,-8,-164,59,-402,-330,-103,154,271,-324,-75,64,226,29,-21,63,-46,-35,-169,-100,8,-71,-61
,29,-40,-333,-298,401,-842,-425,332,-3,529,-1220,-183,445,259,4,-241,496,163,-20,-84,-4,97,-193,-414,-1086,-115,12,-100,231,54,-185
,373,-106,-87,617,-91,-90,226,-185,-41,74,-178,-7,-502,-170,-136,1,-359,-33,-62,663,51,-36,-50,-21,238,-29,-22,477,-658,-162,-90
,32,1,17,-13,21,-76,-172,4,-11,-160,24,9,-69,20,-116,-132,42,-189,-105,56,-25,-88,-102,22,-144,-38,-101,-78,-99,53,50
,388,13,-64,135,126,-96,10,27,-67,-144,71,-5,-841,-291,-128,-56,-316,-49,-55,295,-317,-35,-137,-227,-192,-21,-6,221,-102,-87,-77
,105,87,-163,-45,27,-56,-26,83,-39,-21,-3,-120,-471,-206,-222,225,29,-36,-10,273,150,-30,-39,24,23,-10,-101,19,-146,-85,-92
,247,-252,-1028,-415,-636,-455,-236,322,-401,-96,192,-53,324,243,-202,-143,440,228,203,12,-988,-555,142,39,185,65,-354,-156,673,-407,-42
,-194,-1,-47,360,31,162,-332,-491,-32,-517,322,-27,-1041,650,-181,-222,384,-123,-270,-32,-31,-172,-16,11,-1199,-227,-250,-157,431,49,-188
,-16,-311,-5,-59,106,-24,66,223,-388,156,3,-441,980,-156,9,139,-181,-565,-46,-394,-3,483,103,-114,-126,79,-339,241,489,-237,16
,-2,165,-393,-26,-139,-281,-90,-46,-10,271,184,71,203,-432,-212,115,-8,-34,83,25,49,216,-112,105,-9,-68,-278,29,-73,91,-258
,22,268,55,8,66,-330,-247,90,219,11,-739,-464,43,410,-347,3,-196,89,135,-74,103,-83,15,-176,396,-255,-500,-189,148,-193,-306
,-40,-149,-17,-1824,-52,-14,-1210,-251,22,-51,-216,7,2161,-144,-19,980,254,107,12,141,350,102,-29,1121,-891,271,29,-1151,227,162,-24
,52,66,-102,-4,65,-153,-81,-22,-123,-40,-75,-125,-49,49,-62,69,16,60,-46,31,73,21,69,37,-5,-103,-91,117,-125,-147,-9
,212,-46,-123,172,254,71,-152,-190,-6,-79,-441,-243,-662,-134,-25,-15,-227,79,-26,-25,-78,-245,-96,-218,-76,-244,-64,-215,-712,17,-98
,78,-106,-66,-79,16,-30,-88,-92,-67,-207,66,-48,-1170,-13,-176,-96,-347,-24,-15,167,-178,53,-130,-130,-83,-56,-44,174,-348,-88,-62
,457,-446,190,236,-106,262,-184,-62,56,-74,185,68,-1080,-247,-94,-161,440,-112,-118,-390,372,104,-346,-233,-311,-455,-356,134,535,-56,-111
,266,-20,-33,-263,-84,-33,-697,-2,-74,396,-381,88,2280,56,-110,-125,253,95,-23,-724,229,155,-7,357,593,-303,-11,-961,-632,431,23
,331,-285,-111,654,638,127,555,-695,-80,84,46,-126,234,2,-642,-151,115,33,-251,353,-89,-290,-256,-45,122,445,-149,-378,-238,134,93
,-254,-835,269,-25,-807,-120,-437,-254,154,-344,-809,-361,-191,21,114,-49,-144,-533,-95,-821,410,334,116,-636,804,-65,-257,-835,423,-347,-435
,235,303,-207,192,-32,117,364,145,-46,311,90,419,-773,-614,38,-189,78,-584,30,110,374,-932,-166,207,-22,-337,-4,122,204,-323,-105
,-401,16,-70,-71,1,-144,-372,46,-1,-669,-43,18,722,48,6,308,-90,-184,-191,-185,0,-66,-137,-131,143,-248,32,358,50,-30,-44
,-422,-1035,-100,-201,-521,-504,-394,-561,-143,-860,402,-408,-1291,534,224,-34,26,-30,130,41,408,43,-486,-130,-779,-264,-63,244,-887,257,-104
,326,-374,-338,34,104,-93,86,-101,-131,180,-79,-145,-163,-357,-129,55,253,-105,-186,127,-125,98,-148,-1,67,34,44,67,-26,-33,-136
,-326,-49,9,384,449,14,204,379,-118,580,-75,65,-923,-833,92,69,-82,59,-49,176,-120,19,-16,253,37,-891,-175,222,-457,-787,-51
,394,58,33,442,143,-472,150,-2,221,526,-362,-1112,451,-7,-819,90,1,54,-137,-7,148,-240,-157,93,-119,-185,26,282,285,146,-236
,-228,-83,-31,-168,30,-84,-220,114,3,-121,47,16,-222,-56,9,-99,-59,-40,-181,-69,-89,31,-200,-90,177,-198,-184,103,-113,-115,2
};

long bias_0_nvme2n1[1*256] = {
276,426,-147,-193,-271,11,127,-1121,-285,-184,-458,141,-189,-804,-18,74,234,-353,-218,92,15,-144,-42,-439,-297,-76,112,-247,-426,-158,260,-180,0,153,-1514,-579,-749,-73,-936,40,-107,-383,284,360,1074,-151,-558,-572,-615,-137,14,244,-1089,54,-380,-375,-316,-41,-18,-501,-27,-598,-24,159,-1492,-544,49,-105,-678,-127,-1165,10,-48,-482,-289,-34,220,-357,95,-434,46,-25,-357,-78,218,-302,-43,-372,-227,48,-418,-529,210,-51,426,2,-979,-506,64,159,-514,-754,25,32,163,-233,-1360,-439,234,-531,18,-247,-149,-1866,168,188,1,-755,56,-164,-56,-1670,-282,-195,-64,83,343,-62,109,-1131,-39,299,48,-1274,-397,-52,-240,-214,-256,-400,-449,-185,-190,-361,208,116,-970,224,-2,-1025,423,-25,-253,92,-143,-236,26,-542,-786,0,395,-590,23,113,-133,352,-465,107,91,139,90,-264,-667,261,-945,-511,-238,-677,-6,289,-1305,-929,-386,-282,-1753,-401,-144,-207,-250,-180,190,74,369,-45,37,-199,-297,158,-371,33,-141,-384,420,-26,115,-107,47,333,-79,234,-557,-1472,-135,289,-375,-18,31,-151,376,169,-253,-33,87,-11,-63,-1895,384,-114,-687,-175,-119,498,1130,-42,878,130,-5,640,-350,-812,300,-1912,-30,-54,577,12,-1328,-185,-266,-96,-85,-84,210,-138,255,-11
};

long bias_1_nvme2n1[1*2] = {
713614,-293827
};

#endif
