#include "weights.h"

//got from sde
long weight_0_T[256*31] = {
-1078,367,-304,-260,-89,-59,-575,470,-146,-768,168,-22,-1161,364,-6,-227,17,10,-164,-414,-189,-23,11,-653,-74,277,-364,-1011,-412,-214,-78
,4,-143,-73,0,-72,34,39,-21,-26,188,-26,-25,135,91,-112,20,24,-95,21,-27,-218,-96,0,102,-27,-39,30,-34,-155,23,-68
,-146,-34,-57,-65,149,-224,92,43,-189,-160,92,-31,-238,-63,-1,-91,69,-184,5,-87,-116,16,-128,-179,-54,-132,-1,-74,-21,-50,57
,9,35,-64,74,-113,-1,-117,-97,-106,68,63,-166,-129,57,74,-40,-124,-196,-188,7,-44,49,-3,-46,20,-124,-12,20,-108,12,-148
,-37,91,-172,-13,-129,-151,64,49,79,83,-29,-134,28,-53,-126,-68,-3,54,-20,-65,-99,-79,-161,-158,55,22,-62,-143,71,-75,-35
,-332,13,-18,-366,10,-88,-91,-222,-170,-255,84,-101,1749,-150,-25,-91,-95,9,-33,1,-118,-86,-81,4,50,-3,-38,172,17,-125,-59
,-15,56,0,-13,-110,-139,154,-84,11,44,-46,-101,-1489,-8,-95,-43,30,8,9,-3,-87,-65,-62,-125,-78,-45,-74,-231,-61,-7,-7
,-238,317,70,158,398,-180,441,-133,-754,223,-102,-65,-1238,68,-227,-46,-135,87,-22,388,-388,-62,-447,-378,16,90,-204,-149,-66,159,157
,-269,1,-127,-333,-310,-133,-145,-102,-374,-69,30,34,37,436,62,-1091,-155,-360,-25,-390,502,-134,-400,-469,-479,103,13,-1344,452,79,-175
,-231,122,221,273,1,-189,-465,249,207,862,-536,202,1333,532,-436,88,-346,-234,-253,560,273,107,39,372,-879,5,33,-1202,-630,-193,-184
,-344,-39,-55,-323,-137,-49,-18,-92,-11,-285,-49,-75,1642,-166,-10,-8,12,-107,-7,0,-105,-64,-51,211,-180,-1,-51,13,11,-95,-102
,-261,-162,33,-208,38,-221,-81,-1342,196,87,-329,-269,-1251,759,13,486,-272,-324,-123,310,108,-35,-18,257,435,-271,-175,-131,260,-62,-46
,90,-180,-17,436,-145,-2,226,10,-41,-107,-31,-52,-633,39,-5,334,-97,-139,-53,-363,-9,-205,-30,-562,-113,46,-160,-76,-29,-79,-174
,849,-70,-255,334,368,-597,-320,195,-192,-692,-684,-213,-1081,591,91,332,363,-44,-128,-293,-306,-172,-197,-836,262,-45,215,-429,-727,88,108
,31,-67,6,7,-68,-221,-311,210,-201,-804,-22,-107,-893,33,-75,229,-77,-14,-84,869,-147,135,-69,211,-829,183,-116,-371,-90,-501,159
,-68,-54,-596,107,75,-801,41,-163,-190,1,-378,-150,415,156,-757,-151,31,318,158,274,-26,51,-9,106,-12,0,-161,-344,-33,-50,-390
,-455,-259,16,-382,86,-104,46,257,68,-331,-96,47,1708,-1486,133,178,-141,-87,-178,-187,42,-5,-141,625,300,-57,30,968,-324,-370,-34
,-265,-114,-19,62,-198,-195,31,158,-1402,-69,536,-36,-83,-271,-246,724,402,-218,-201,30,-289,-482,-65,379,48,275,-381,-128,10,203,-48
,2,21,-50,-9,25,33,106,87,-204,26,-224,-7,-115,182,-87,-44,-45,-31,-188,51,78,-173,-139,-111,40,22,-174,-19,-122,-150,-123
,485,-65,-104,486,-20,-191,441,32,-110,-354,54,-106,-2099,-232,-180,-146,-189,-110,-118,-223,-208,-184,-102,-142,-167,-112,-127,-938,-101,-97,-118
,48,24,-83,-109,-170,19,82,-160,-111,8,59,-82,-154,84,-68,-28,-208,34,29,30,-132,23,-138,2,67,-113,-160,20,-148,-113,71
,-77,349,-74,-170,-790,-3,-141,-868,-248,56,-247,-272,212,-1720,257,-335,-181,47,-319,-321,-749,99,-515,29,512,-207,168,151,-259,-224,-408
,-301,-9,-68,-424,-114,-115,-163,38,-25,-103,33,-52,1709,-102,-32,-47,18,-91,-58,75,-148,-150,-46,-10,-60,-60,-6,367,-155,39,-125
,-35,-1029,-505,-54,-461,-255,54,-513,22,-76,-33,177,-162,86,-42,-266,-192,-164,-940,-51,-144,383,-69,-236,-348,-78,-397,-283,-200,-1348,121
,-828,155,-257,-245,-183,-697,-625,333,-43,-384,221,-301,-9,-323,32,579,139,107,-142,369,68,-436,-359,-844,185,-310,162,-115,211,134,-61
,-135,92,-167,31,-161,-15,-40,58,-108,115,-19,79,-64,-2,-103,-7,-31,-46,-84,15,-110,17,36,41,-155,29,-14,27,-202,-40,-75
,-83,86,46,220,351,-299,-43,317,-278,-34,-8,105,-652,-105,-105,25,-251,153,-60,797,203,9,-299,-214,-606,269,-64,-405,-243,-316,-362
,-392,-303,-240,-676,-493,-78,-350,-425,-293,-91,738,-614,117,547,54,-127,-326,-331,-138,-426,-1447,110,387,-475,-632,290,10,-365,-490,-225,-165
,-107,-40,32,11,-67,-165,-62,40,-83,120,-94,36,-34,25,-14,-133,-65,-157,-114,-91,-141,13,69,-106,-95,-76,-83,7,-61,-14,6
,92,-61,-449,500,-115,95,51,104,-11,-429,-51,-562,151,-414,-10,515,153,56,-25,-48,-216,-70,-34,211,-447,-620,-763,745,373,170,-88
,77,-136,-81,-61,56,32,18,23,-159,-78,1,74,-32,100,-18,-191,-66,53,-180,-157,-179,-152,-8,63,-33,-42,-162,23,-42,10,-125
,-146,7,-85,22,-104,-79,-28,-14,-177,-60,-99,-24,-40,143,-119,70,31,20,-68,-118,49,14,-3,54,-52,-10,-32,-133,-143,-131,63
,202,-141,-904,170,191,59,-220,170,-264,-798,304,-80,-155,261,150,-13,-245,15,221,299,129,238,-78,327,-240,-128,-350,-476,-77,-327,-342
,184,-94,-109,46,84,-305,27,-5,129,-154,262,12,-1193,217,5,229,-626,-83,30,662,274,-177,-338,277,-98,-593,206,-299,-67,-322,97
,-105,277,-128,-439,-61,-298,-545,227,-913,267,-190,152,352,286,-225,-158,-39,-309,-35,46,453,-4,-197,131,202,-199,94,647,-730,-507,111
,86,129,-97,181,-171,64,123,-119,-47,155,235,93,507,-202,59,0,59,-134,-100,-18,143,80,-56,357,-694,11,-468,272,-1029,-96,-202
,-852,5,-1,-955,69,-11,-40,-256,-15,-55,-275,-48,3746,-332,1,-178,-58,-29,-17,-381,15,13,-1,115,-61,-32,-12,-255,13,22,-3
,-726,-763,512,-836,189,-331,-836,-1,-394,-893,97,-269,-451,534,-205,-407,72,-98,-270,-1964,-21,-120,77,-778,257,133,-453,-260,-274,-708,-80
,-253,-116,21,-82,188,-195,-493,-39,100,-508,-52,-154,-67,-1395,-213,1013,-38,-181,-33,24,275,-177,31,394,93,-126,48,-609,-80,-258,10
,3,-77,38,-111,0,-104,-32,-130,-224,-42,-49,-6,928,-69,-120,38,61,-48,2,186,-31,3,-56,-30,-6,-190,-49,-27,3,-41,14
,110,552,-15,-69,212,200,-20,93,-407,-432,335,-304,2147,152,-82,-341,-227,-269,-9,-486,-387,69,68,-58,16,147,-622,27,-171,-566,200
,145,-93,-70,157,92,-139,-73,-47,39,105,-85,51,-89,42,-24,-3,56,-49,-122,-55,-143,53,-105,-95,68,-93,8,-129,-60,-185,-132
,-211,-126,-99,-240,-199,-75,-1,-67,-78,-82,-40,21,702,129,25,3,-72,-22,30,120,85,-70,-46,261,26,-32,-152,-51,-122,-58,-119
,188,712,42,445,310,-44,-189,-428,129,-78,-489,18,-249,98,-98,112,-531,-190,-294,163,-61,-89,-646,338,-48,98,361,-228,-724,-381,-117
,325,-440,36,167,360,-550,136,-436,-322,-449,317,129,-2134,311,81,-1301,-173,-465,-55,-931,5,-233,-191,-468,371,250,84,360,-17,8,-98
,-125,-21,-74,22,-97,25,112,-147,-112,-83,-93,-170,-90,-67,15,-130,48,5,31,-51,-145,4,18,12,33,-169,-163,-114,-175,-70,-139
,-125,-138,-309,-114,128,-36,-280,230,-138,-456,-393,-397,-208,616,-515,204,409,-26,8,419,-58,-88,-216,651,-347,-40,156,-257,-90,-171,-17
,-384,-861,-73,23,-173,94,20,-362,-15,-1161,-632,-90,-268,-1074,-190,421,-109,-96,-176,808,1,-152,121,845,318,-85,-19,-106,117,62,6
,91,25,0,115,-12,2,-42,-76,-90,85,-45,18,-24,-3,19,-101,-86,-116,-68,87,89,-138,-22,-135,-24,-167,-172,-95,-18,-149,-95
,32,25,-64,87,92,-2,223,68,-150,-5,-68,-173,-867,-41,-139,-87,-154,-34,15,-134,12,30,-184,-138,-17,-35,-58,29,71,-100,12
,-32,171,-519,123,-121,168,45,-27,-171,349,368,-170,306,-1,-172,89,39,-343,203,25,22,-4,-137,-223,-172,-117,-231,42,216,-228,-352
,-34,-194,-147,-123,29,-69,128,18,24,8,-171,-103,-47,125,20,-1,-75,-22,-4,54,14,-16,-172,86,-217,-113,-81,-121,-206,27,-122
,104,87,-2,206,-51,-129,80,98,-68,39,-30,-90,-568,52,36,-454,-64,-62,-243,-297,-109,-47,16,-168,-120,-101,-91,-20,80,-156,-180
,-7,-89,-19,124,14,-100,-86,-26,-112,14,-129,-102,-45,37,-24,123,173,-86,-28,110,-85,-63,-147,-52,-72,-29,-132,100,-179,-260,60
,330,-661,-140,407,-352,-448,260,-499,157,217,-154,-596,-57,-324,80,182,-404,225,50,859,-258,-172,-330,-74,-128,-595,-451,-27,407,110,89
,-262,40,-212,79,80,13,52,-11,-226,-2,69,-137,-223,12,-120,94,-210,-119,-40,-14,-168,-14,-265,26,-23,27,-90,87,-61,-85,73
,-678,327,-171,-316,378,70,-730,36,18,165,-24,-55,-703,2,35,-1370,-562,-118,-14,-1511,-424,-104,89,559,-172,7,-4,867,278,-124,-85
,-786,109,305,-910,-967,-18,-286,570,-143,-987,-369,-277,-501,391,44,-976,117,-293,-148,685,-293,-437,-435,-297,415,-179,-118,-886,-352,39,24
,-66,-16,-26,-54,-102,-125,75,-34,-173,20,13,-157,61,19,52,27,-2,-37,-70,-2,34,88,10,4,-155,56,-74,-168,-194,-17,-120
,187,-112,21,43,-60,0,37,-37,-140,-154,-71,-107,-590,9,22,22,-30,-144,-40,-64,-43,-140,65,-105,-20,-136,-97,-169,-40,-51,-278
,215,58,-58,150,-89,-40,173,159,25,-118,-34,-216,-104,-30,42,-68,27,51,-18,-152,-79,-181,-118,-298,-55,-128,-12,47,-82,-53,-160
,94,-54,33,-47,136,-291,57,61,-122,16,-10,-187,-229,-14,-2,-62,-131,-210,35,91,-126,-10,-115,-172,-3,-191,-157,-108,-28,66,47
,-106,-43,-13,-230,-109,-81,-284,8,15,-387,120,-39,343,257,-95,-114,42,1,-106,-140,13,-52,-65,-106,-57,-41,-141,199,-533,-69,-78
,-87,34,-272,-227,-57,-505,-293,273,-287,187,-347,87,1971,81,0,4,-542,-600,122,-603,305,-26,-7,-574,566,-128,-470,66,-272,117,66
,-400,408,-170,-430,-155,96,-67,535,166,278,-499,-153,239,-103,-49,-520,87,-31,-111,478,78,-351,-217,-231,-202,-171,-471,580,334,-69,187
,-557,237,-44,-463,213,-52,-480,118,-571,-965,-822,-97,-621,-268,-57,-2137,53,-464,157,376,207,-549,49,140,300,-175,-165,-143,483,-525,-65
,98,296,256,-24,-143,-198,300,8,-250,118,135,79,-1165,540,-249,-235,-462,299,-370,-119,139,-329,-137,-1142,-75,-5,-56,-418,104,44,-75
,67,-48,-167,96,-110,-53,6,-295,-80,52,-222,-39,74,-118,-89,-100,-127,-6,-66,56,-64,-126,-23,126,-36,-76,92,22,-157,74,-53
,-394,221,-112,29,279,58,-51,440,-289,-1068,57,-117,-1536,-240,86,-1448,139,81,77,344,-570,-188,-290,-313,236,-10,-86,-162,-257,-250,74
,-85,-283,-374,104,-249,-115,102,48,-339,79,-275,-43,549,-131,-247,129,31,37,81,219,241,265,-434,754,370,-791,-127,427,-786,-195,35
,27,-751,-267,213,-321,-106,-35,-347,289,-381,400,-1,-817,531,-15,-27,-18,-236,-239,511,131,-26,170,-143,-196,127,-50,-182,-321,-177,-907
,-63,-293,191,-171,55,-139,80,136,-609,-96,-508,-146,-277,33,-82,105,4,-382,-241,-434,336,-84,53,-195,171,-330,112,-47,-157,201,-410
,-251,-79,-27,-377,-239,-122,-373,86,-50,-27,84,-39,2645,-316,-18,38,-124,-78,-69,-206,145,-137,-64,24,-244,-72,-106,308,-204,-42,-51
,-447,223,60,-189,-380,61,-209,-289,47,-270,89,41,143,-105,15,205,60,-87,-326,282,-139,-277,-413,365,-3,-174,-1,391,77,-484,150
,52,-81,-84,146,116,50,116,2,-147,86,33,26,-853,-71,43,-22,-11,-11,-108,-232,12,-16,-160,-363,-93,-57,-85,-189,-23,-105,-41
,599,-48,-132,480,-215,-34,568,138,63,-1,-180,-53,-793,29,0,-17,-24,-410,-259,162,158,108,-71,63,-104,-261,-355,-134,-684,-162,-101
,416,-198,61,-71,133,55,-104,70,-234,-295,128,-1774,331,441,-321,110,-154,-277,135,117,-135,-158,87,-281,182,-105,-566,451,-150,-66,-12
,-100,-162,39,34,-12,-198,-53,284,129,17,8,34,-499,-106,-223,788,149,-226,80,148,-89,-192,-433,216,-122,-412,-46,274,96,-691,231
,138,101,18,168,55,-90,-55,-237,10,-77,2,-59,-226,-166,-132,31,-172,-119,-26,6,96,-101,-36,0,31,-106,-157,-246,61,-7,15
,-209,-132,-225,-582,117,2,-1192,-284,-6,-721,-301,-269,-845,-75,81,-219,571,4,-938,148,-36,-470,-64,-75,256,-233,-141,-375,437,91,-237
,71,63,-112,78,122,-67,108,106,-178,-66,-50,0,157,-59,58,-94,-101,18,-149,-109,9,-196,-131,-26,-99,-179,48,-127,-147,-46,-123
,-11,-90,-159,-23,-118,-93,-111,-126,-126,31,-39,-102,54,39,-88,-77,-52,-127,3,59,-50,99,-98,-75,41,18,14,-117,-138,56,-105
,-117,491,-9,-50,-400,-273,-61,35,-17,-13,7,224,-510,-320,-38,-311,232,-216,-419,531,174,-345,-86,-199,265,-271,90,135,-317,20,-431
,-556,-681,-201,-506,-211,-281,-522,-207,-84,63,-251,236,1380,-88,74,-182,-13,-180,-92,-1067,-208,-166,63,685,341,-205,-257,748,-147,-240,-39
,130,173,-123,283,106,38,243,18,105,-339,13,-11,-178,86,-249,-453,-306,-103,-345,-91,44,-483,-70,377,-156,-245,46,-84,19,-213,-38
,25,-41,309,-72,135,175,-195,-322,-1310,-2,191,-91,132,390,-963,-687,75,-337,-342,179,-239,-3,-215,-14,-105,41,210,-642,-192,-433,-1
,-59,90,-78,52,92,-150,212,-42,-36,23,-19,-83,-1127,19,2,-28,-153,-27,-91,37,58,-63,-38,-78,-61,-12,-4,-393,-66,-37,24
,26,-114,65,2,-100,1,-10,-136,26,64,-116,-61,-126,91,-171,21,35,-58,-40,-11,-40,-33,-94,35,-79,57,-68,128,-15,-139,-102
,125,-4,-18,-6,-113,-13,-86,99,0,-83,-119,-130,54,15,-69,-89,4,-115,-117,16,-51,107,-12,-123,-49,-140,-135,-18,-143,27,12
,99,-262,294,41,434,14,6,-446,-57,297,268,-253,-758,-219,-65,-135,-334,-223,-210,-525,89,-215,55,444,55,-824,-378,340,133,168,79
,-525,-185,-112,363,66,-80,-553,-39,-119,67,-173,-35,-952,-1178,-229,775,106,-63,17,553,15,61,-82,841,61,76,8,1195,117,85,-66
,-23,-308,208,-76,-187,-428,-88,-507,-88,27,-259,-133,92,192,-84,-266,-642,99,73,123,-201,-783,13,96,-593,-51,199,579,-1294,-137,-36
,-255,252,-69,541,-102,-12,11,626,-482,-245,-326,-10,-507,-272,52,176,-46,-81,-449,-409,95,-101,-154,56,465,-106,-32,510,-440,-2,-41
,-587,-289,67,-287,-225,-18,-2041,-132,50,63,316,51,-228,543,45,-122,-49,-862,156,-667,-104,-161,-268,798,-465,271,-58,-1095,-1007,-358,-61
,116,-53,-93,145,-130,109,-613,393,-12,-403,-404,187,359,171,-301,672,-165,-182,-43,791,-633,-378,28,-144,-573,-244,-102,-182,-59,-224,27
,1074,-24,76,698,-75,-41,1048,403,-39,-6,-137,91,-2629,-243,-15,-126,15,-90,-191,78,-66,-267,-106,-436,-212,-203,-63,-1008,102,23,-165
,26,49,-568,-214,-160,-67,-94,-1009,-360,-43,-630,-176,42,53,-89,151,-1653,-104,-201,315,-218,-10,107,102,-166,317,419,-196,-289,-555,-240
,-49,-17,-47,177,77,-94,148,-137,-23,33,81,-124,-280,45,-4,-213,-89,59,55,-256,-187,-124,-78,-42,49,-142,42,196,-167,-77,-128
,459,245,24,217,-337,330,-58,372,14,-471,-159,-136,398,27,-97,4,-867,-309,292,345,-644,-1605,-150,257,163,-105,-434,-14,-234,71,-357
,251,513,-251,-70,-308,-38,101,9,-592,679,-75,-392,-392,-7,-189,715,-42,-198,39,-52,38,327,60,45,-407,32,-22,-294,-60,-227,13
,-620,25,93,-213,349,-365,-481,-298,-479,-599,-31,257,-35,616,-297,559,-78,-489,-513,-58,312,-392,115,-858,-181,-102,108,58,-194,158,-32
,-123,70,62,-85,-138,-82,-195,48,-121,-80,0,7,687,20,-17,43,-119,29,-18,-2,-26,-121,-41,93,-174,-98,-61,-17,-43,-18,-56
,-475,157,206,-298,-762,-310,48,-1001,296,193,223,-375,-451,-167,-322,413,-52,38,-250,511,352,-344,77,343,302,-101,-125,462,-267,-270,-365
,-9,183,-728,-112,23,-659,-331,-483,-111,-230,259,-29,306,255,223,-1010,360,43,-132,177,-1594,36,-125,681,-1752,-73,28,-626,-684,121,36
,-460,-304,-432,-568,344,-129,-177,-454,-271,102,-230,80,-56,244,-224,352,458,-295,-171,233,91,-646,-9,142,-28,-222,54,-587,-137,247,193
,-429,210,-394,-354,-211,-182,-548,300,-18,-291,64,-130,450,-178,-29,242,-86,-200,-162,311,27,-552,-44,398,-380,-271,185,134,165,167,-365
,344,23,-123,458,9,-129,659,138,-57,60,62,-121,-1666,-139,-75,-470,-94,-120,-116,-374,-69,-169,-135,-288,-66,-111,-197,-477,-60,-229,-30
,193,-8,60,21,-28,-133,112,-25,63,203,69,-155,-53,127,27,-156,-104,-324,-136,-115,-167,-229,3,21,10,-251,93,-23,-171,-157,-21
,-86,-616,-256,-219,533,-397,-151,438,-12,-123,-428,172,381,614,-55,-8,-155,-175,186,-109,-585,93,-357,-707,31,205,-135,-1210,-82,-369,-697
,66,-35,-19,69,-37,-139,-43,44,-49,-24,-149,24,29,-20,54,43,-149,-11,-40,59,0,-85,-29,-32,96,-111,-107,94,-42,-3,-131
,151,35,-85,209,-176,-62,148,87,-88,50,68,64,-931,-97,-44,-372,85,-66,-76,-167,-23,17,-89,-453,26,-31,-104,-440,-43,0,-168
,-351,-867,66,-134,-785,179,-180,-558,-22,-1079,-102,-20,2,-509,-122,-360,195,82,69,86,48,-166,4,139,257,-365,-89,1135,-295,-268,-98
,95,56,-26,69,-111,-40,-110,-73,-34,94,44,-173,-120,97,66,62,-82,-73,61,-136,-175,-18,-160,71,-4,-21,-5,34,-40,-132,-118
,-57,-123,9,136,66,-25,-4,-163,-27,112,-6,-153,127,-125,-151,85,30,57,-122,65,-130,-55,-56,-107,65,-168,-88,-55,-79,39,33
,1,234,-425,-41,310,-284,-446,-4,-273,38,416,-126,-221,-1070,102,-170,104,-273,-215,107,-22,-612,-392,46,-115,62,-334,561,-145,101,238
,136,-331,-15,262,145,34,370,294,116,476,149,-248,419,213,124,294,175,-669,132,-332,116,-316,-183,-712,-472,114,-279,385,315,-486,-312
,-465,405,-223,-600,211,43,-355,-44,67,-138,-309,-169,1835,-249,-191,375,-421,68,-148,-494,300,-356,-13,-626,-46,-111,-265,649,-230,19,48
,-652,-55,-16,-77,-88,12,-1086,359,-73,-247,43,-10,2838,-189,-6,-216,55,-112,0,-1278,172,19,47,-495,-199,-84,-3,118,-185,-22,-157
,-130,39,26,38,-31,52,-184,84,-60,99,-69,-250,7,-70,-39,112,-25,-100,-151,-15,-67,-17,-60,90,28,-68,2,18,24,-1,-11
,113,-98,10,64,-17,-3,87,-68,-52,69,15,-191,-26,-71,6,-237,-91,-113,9,-30,-143,-122,40,-9,-28,-10,-7,-43,-38,-111,-41
,22,-88,-75,-95,11,-144,-66,86,-56,120,-5,3,3,60,-44,60,-37,-16,34,-92,-89,92,-97,-107,-50,-156,-137,67,-115,-126,-130
,113,-31,-20,-107,-179,-142,64,45,-103,-16,-37,-130,168,-128,-69,102,-249,-136,25,111,134,-41,40,-161,1,-150,32,-115,65,-11,-5
,190,326,-311,70,-131,101,380,-589,30,-44,-437,-51,79,130,-288,-705,-107,-130,-251,322,-112,207,-223,903,202,-130,65,72,-324,193,-374
,73,134,-234,-117,-144,21,-10,-29,65,-76,-123,-84,99,50,38,105,-73,-57,-119,12,-128,-140,-86,171,-182,-81,66,-62,-52,-56,-19
,267,-214,-86,216,177,-412,375,-49,101,406,164,-384,-685,-420,-165,140,-62,138,-305,438,441,-550,125,20,-414,48,-58,-477,63,27,-54
,-171,-24,-108,-151,17,-148,7,-192,48,-2,85,-186,792,-272,-60,37,-194,-173,-95,142,104,-28,-95,-179,-208,-175,-38,340,-260,-90,-74
,24,11,51,28,-69,-1,-21,-123,28,105,60,-40,-50,-23,-115,-154,-165,-125,-93,122,105,-71,-46,-106,-130,-83,-40,-54,104,-64,-51
,23,-219,-52,-29,-133,-55,22,33,-29,80,-106,75,233,85,-145,23,-126,-36,53,80,-137,-17,25,-52,-150,30,-25,-109,-169,-127,-38
,66,25,-214,-87,89,-112,-40,82,-183,97,-102,10,8,96,-20,-220,-138,-96,-12,-73,-128,-189,104,-113,-59,87,-140,195,72,-124,-59
,394,9,-70,212,-384,253,-417,550,-56,-735,-449,305,-264,642,-112,444,-119,-16,38,553,-236,-26,-117,-448,-53,-235,-415,-239,-447,-362,-276
,102,-83,-24,92,28,-57,-108,-84,45,-48,-91,-13,-10,-26,-38,-122,-87,-137,-104,94,-129,47,35,-6,17,-23,-40,122,-59,3,-121
,-145,-92,-34,-56,-41,4,-65,-161,-116,89,11,-130,-105,-109,-177,78,-67,-166,-103,-206,-91,-13,-146,62,-4,-104,28,-222,-148,-62,9
,124,-4,-184,-399,245,-420,183,237,-492,-70,127,12,-980,-290,-179,119,115,-155,341,-282,243,144,-3,342,-389,-168,-457,-139,-157,-11,-1
,136,-99,-121,128,-38,-111,131,-136,-106,113,-83,28,-82,-70,-147,7,-185,34,-104,-46,-38,37,19,-131,-11,-16,59,-63,-10,-110,-32
,248,3,-34,141,-198,-166,344,160,-67,176,-125,-138,-768,-3,-36,293,-71,-60,-144,-340,74,-84,-118,-178,-28,-106,-144,-606,2,-88,-57
,130,-1314,-1,174,-854,-215,-957,425,166,-790,260,-8,2203,783,-173,-755,-235,237,-244,-1418,12,114,-151,-1276,-430,-30,-46,654,-194,-127,-274
,-187,-10,-457,23,-97,-54,-2,-424,-30,47,-597,-205,35,23,166,301,72,-35,-115,138,-592,-144,-14,322,271,89,-309,-67,-579,122,-499
,13,66,-809,215,21,-16,158,48,-169,168,247,-55,154,-487,-152,7,-123,161,102,-177,15,-532,124,245,232,-557,-233,308,-268,-619,-104
,194,54,62,117,241,-90,517,-1268,35,74,123,-286,3203,-297,-102,-840,-128,-232,40,-209,89,105,-164,-487,219,-264,-136,41,117,-77,-115
,-392,-431,-154,-487,-258,-53,-515,13,-203,-185,-205,-153,409,531,35,826,197,-127,173,-67,110,-214,-297,259,103,-231,-475,647,163,62,168
,-1241,-769,63,-1217,458,-532,-1176,504,-682,-941,190,-306,-879,498,-19,-1740,65,122,9,-1524,-85,-251,120,562,-263,-227,-485,167,-381,193,201
,-274,-160,-56,-285,-159,-110,-289,-193,-166,-173,-22,-73,2208,95,-7,32,43,-108,-158,90,-61,-87,-40,82,-5,-54,-105,81,-74,-37,-99
,-556,93,-230,-201,-258,-85,-385,-86,-145,-584,-91,-112,506,200,24,187,-36,-112,-73,-123,-82,-43,34,-295,212,-127,-64,313,-162,-127,-33
,-271,-22,-102,-296,309,-317,-483,-490,106,163,-251,-36,113,-254,-192,136,-144,28,150,6,-153,-198,-172,361,373,244,-512,672,-38,-575,-187
,216,3,-24,-3,-468,161,218,-323,-318,-285,-220,-123,-456,-193,-35,344,-154,-10,32,506,158,-27,-163,-142,386,-50,-214,-252,-307,-177,-261
,-102,-389,-178,-45,-558,-265,-129,208,186,9,142,86,126,-660,-431,-235,-135,-76,-24,-199,-290,-147,169,-170,-400,-150,-171,331,310,-105,-288
,27,32,-4,14,-137,-75,11,20,-19,-36,186,-1,-58,80,-83,-179,55,-6,-246,71,-199,-84,14,123,-136,-70,-69,-159,-80,-16,-99
,515,-864,-207,327,306,38,210,-312,-119,175,-417,6,2422,396,-215,233,-359,-193,-86,213,-476,76,-446,183,-283,10,146,-484,402,11,7
,-18,-41,-29,111,-122,-192,26,-21,32,-27,-221,-114,306,-110,-32,266,-199,-92,-24,3,-62,-63,-132,146,87,-12,-47,-163,-8,-96,-90
,-589,488,77,-8,-57,-105,-71,75,-69,229,-298,-363,-909,-390,-198,-559,216,-395,3,-157,-82,-34,-159,802,241,-78,309,125,-136,-181,-259
,292,379,57,154,567,-643,-458,87,-289,-597,23,136,-223,338,-181,-157,-664,95,-557,238,-348,-84,-49,-247,127,-758,-328,150,289,-245,43
,619,61,140,89,-274,199,88,185,-384,59,117,-325,-694,157,-365,204,166,-118,-335,-599,-309,-338,246,239,-87,153,-345,29,45,-246,117
,127,659,-132,472,-23,-424,-898,-99,-494,-207,-564,-204,85,55,40,155,-77,177,-609,390,243,-132,-1,591,-187,43,-89,27,372,-211,12
,106,29,-17,-165,-29,-2,-22,-21,11,113,84,-223,20,-58,-27,-8,73,97,-213,-285,46,8,-175,-95,-44,-193,-197,-289,-22,-52,-218
,-579,85,24,-380,14,-171,-300,-173,-292,-478,140,-85,682,-669,-466,457,104,-677,-118,330,235,163,-67,-32,455,-979,-250,523,-79,125,-278
,-52,-177,-151,-575,356,-166,-815,173,147,-338,390,114,-558,43,108,520,307,-112,-1214,484,-83,-43,-99,-813,-30,-281,-51,-550,-115,-91,-187
,-156,-310,-86,-287,-77,-747,-91,47,77,-141,343,-158,146,29,187,147,256,-1269,-232,-214,-375,-307,-227,750,-187,208,-14,769,199,20,39
,553,24,-1,-667,-16,-227,-584,154,-21,-433,359,-254,-756,41,64,672,149,-99,-107,-1060,-422,59,-382,680,-87,-229,-396,431,-125,192,65
,-326,18,-136,148,-271,52,-183,136,178,-397,285,-312,-770,342,-147,-524,217,-337,-565,-177,-197,167,-680,-149,-186,60,122,-491,32,-246,-97
,212,-2,97,252,-260,-118,-200,126,0,-312,-83,-128,-475,-82,-261,290,-5,-448,202,167,137,-540,-20,-428,278,-324,-306,-28,-403,161,24
,161,116,-36,-9,31,-51,68,-175,-38,46,-88,-26,-298,-118,-40,-128,-26,34,-202,-37,-191,16,-124,-2,-68,-3,-23,-143,2,-39,-43
,145,-558,-311,216,220,-264,96,-1136,398,0,-229,-47,-484,476,-354,-224,-173,-208,-547,-159,1,-367,-1249,-180,49,26,211,-370,-22,89,-294
,120,59,-119,-6,-91,-89,132,53,-12,-18,88,-90,-1076,49,-28,-153,22,-146,-48,-207,7,-83,-75,-7,-115,-14,-50,-261,-24,-48,-112
,12,24,-3,-285,-185,-186,-165,-150,-72,-174,-143,-31,323,155,52,60,-109,-74,-1,-56,-31,-85,-118,46,21,10,7,-7,-256,11,-113
,842,14,0,631,119,-167,155,-74,53,-370,-69,62,-2439,-260,-167,541,-290,-11,85,323,-178,-166,-27,-356,-45,-90,-150,-619,-147,24,-84
,122,-73,-87,190,32,-113,159,31,2,-34,56,-9,-1283,-8,-104,-110,12,45,-28,83,-32,-42,-21,-43,-46,-135,-45,-246,-89,-19,-20
,306,102,-493,26,-652,-108,123,161,295,-39,299,-441,52,533,-104,734,-694,-908,56,-63,-286,20,-159,-931,225,-259,206,-765,163,-753,-146
,-91,-188,-143,57,-286,-539,-20,-796,-603,-67,-137,-39,-60,826,53,21,-1119,-63,311,28,-1737,-285,59,-130,-1065,35,-105,87,-1455,233,-114
,-775,84,-471,-711,327,-140,-538,142,-429,-720,82,5,-581,104,-566,472,-201,-74,113,-550,-28,-353,156,-511,120,-277,131,-241,-70,176,-67
,-226,378,24,81,-623,-190,72,-599,-254,-475,15,-140,-119,340,-225,81,-304,-533,-364,444,189,-324,207,571,113,-79,11,308,-295,277,-83
,-30,26,-167,57,66,-41,96,-59,-32,190,48,52,-311,-53,15,-17,-122,-138,-181,42,-154,-22,-195,-126,66,-102,-57,-108,-132,-94,-138
,-615,27,-5,-497,-495,117,-417,141,-586,-733,562,-212,1841,162,-217,230,119,-109,134,232,-139,23,-271,-430,-41,-143,157,811,-534,-76,-262
,-88,387,-237,-20,-3,-271,-185,-175,60,-280,248,125,-501,582,-78,-683,139,-166,-5,454,80,-314,-536,-334,-41,-399,-8,-490,171,-57,-417
,28,-182,89,-222,-890,-84,-95,78,-280,-193,325,107,382,185,92,-475,-273,177,4,-199,8,-648,-266,627,-168,-795,262,840,-735,-404,-108
,-89,-6,8,-123,-9,5,-5,6,6,267,11,5,9,147,11,383,2,9,6,312,13,6,4,342,3,3,3,592,9,7,6
,-99,72,-145,-4,130,-50,130,-142,74,119,-125,-81,6,-42,-155,-24,-137,-149,-134,16,60,-170,6,105,-104,-27,-83,-126,118,-120,-33
,39,-15,-182,5,-123,-190,77,52,-4,41,-45,32,-139,-117,-19,52,-90,64,-158,-8,-203,60,-105,-199,1,-32,-187,20,-24,-93,36
,81,-86,-63,-72,-78,-103,64,-20,-74,-103,-27,-112,-21,-56,-144,-138,-134,-77,-102,141,-71,-67,-3,-125,25,-24,-122,84,83,-108,110
,70,-19,-150,-114,-128,-48,145,-103,30,154,-145,79,-2,-61,-62,-95,-182,-54,25,62,-79,-17,-41,-171,-163,-10,-185,-83,-66,-19,30
,168,12,23,220,100,-311,44,142,-121,-41,-112,-262,135,100,-47,177,-276,-30,132,376,-207,-404,28,226,-78,3,-18,89,0,-166,-623
,673,-348,-547,-720,-176,255,-912,-975,35,-202,-58,-31,89,570,-48,217,-11,-342,-200,-189,391,-351,-1378,311,-337,228,-138,-186,257,-117,-71
,-146,-864,17,-133,-46,-546,130,83,73,-290,-484,180,130,-545,-305,544,411,-350,-297,-302,350,-155,-342,46,-646,-78,133,407,-210,-35,-207
,353,20,127,516,88,-91,260,72,-281,-179,216,-138,1271,-312,58,645,-116,-48,11,728,520,-143,-68,-309,-163,-763,-241,59,-60,52,16
,-21,112,-43,148,-39,-83,212,-165,-170,-88,18,-82,-336,-180,-229,-117,-5,-130,-165,8,-176,-34,58,167,49,-45,44,103,-124,52,-105
,174,21,-102,26,-89,-123,75,-77,-14,49,-174,47,55,-93,-112,-51,100,-44,-35,-92,-109,57,-75,76,-75,17,-49,106,-124,-19,-49
,-63,246,-40,352,-46,23,-65,-104,244,261,-23,162,-41,503,-538,196,98,-397,-579,-410,-123,-295,-159,233,35,-137,75,-780,-145,-9,-276
,-122,-17,-41,-144,-83,69,111,-38,-143,114,-154,18,22,-96,0,-46,-151,-68,20,-13,-15,27,-89,26,-46,5,-90,18,-75,-83,-145
,-33,-263,120,59,-573,-106,-175,-14,6,-80,-128,-356,96,377,3,-451,-423,8,67,-580,-352,-359,119,311,-5,-322,22,391,464,-55,-214
,-96,-535,-312,73,182,-366,-74,-515,252,89,-354,-116,-690,-79,-902,296,-16,-599,179,177,108,-67,83,-257,-38,127,-49,-260,-127,-293,-709
,-40,60,-122,42,-111,-121,17,-149,120,48,43,-142,-130,-42,66,-56,-102,-60,-82,-5,-90,10,-108,-64,1,-61,8,106,-30,-125,-139
,-132,21,-83,3,159,-63,28,-44,-245,20,-70,-6,-160,95,-85,181,28,-90,-69,137,-21,-107,-82,-290,-182,51,-171,-252,-78,-92,21
,-82,157,-728,59,37,47,-341,-286,-131,-242,-548,-464,262,301,-73,-173,-69,-60,-387,-949,9,72,-218,212,-31,-588,-234,-816,604,-340,298
,-338,-168,87,-342,-145,-753,-369,201,-358,-248,377,-142,-973,17,-471,-55,62,-78,-422,382,-137,239,103,243,129,-80,1,444,140,101,-505
,63,-43,22,105,55,-123,151,5,37,59,-103,8,-21,-16,25,3,-180,-90,-81,82,-98,-209,-1,-43,-320,-89,-31,-184,-288,-25,-46
,220,-91,66,40,101,-16,203,-66,-20,-33,40,-123,109,-113,-114,54,-142,-20,-15,12,25,-61,-190,135,-171,-124,7,-53,-231,-177,-164
,85,-5,31,192,-96,-172,149,95,-9,614,126,-114,261,802,158,793,-130,-125,177,-85,-64,-382,-252,165,242,-55,-148,522,68,-169,-38
,35,-51,-150,-44,-5,-32,-90,150,31,28,1,-231,-260,-9,-12,-147,16,125,-81,-140,20,-159,-117,-65,45,-69,-268,-133,-209,-100,-234
,577,382,-29,709,-333,-214,-475,-57,-28,407,124,93,-780,-667,-63,-80,105,-53,-186,392,308,-191,77,862,283,-94,-171,-635,314,-48,-126
,-227,30,174,141,238,-54,-30,276,-37,-81,-23,-144,-930,-430,-426,212,141,-7,-546,-192,-330,-236,-174,507,-407,-244,204,799,223,-1,-9
,-293,233,184,-1016,257,-92,-1247,-164,-82,-1337,421,-1102,657,467,-8,141,221,-356,-606,-317,-86,-110,-225,-3,74,157,-27,-83,263,-145,20
,320,370,220,109,-173,-139,-184,-102,147,-1,-199,-33,44,-216,-206,253,40,-664,-107,-644,-590,-1051,-695,656,290,-281,-84,478,56,197,46
,-60,93,18,-112,-110,-141,-109,85,-47,133,18,-57,56,-58,-46,77,-80,-26,-96,58,25,-132,34,-147,36,-153,40,-117,-81,-120,-65
,82,-44,-67,107,80,-104,-67,-153,26,-121,35,-149,-98,-81,-192,-164,-23,-130,62,-109,64,32,-26,-27,-114,-141,-35,-70,-154,38,-44
,-74,85,-65,178,-31,177,398,-349,-417,66,-197,120,-277,-318,-284,281,97,-313,173,-387,-35,-201,-188,584,52,5,-120,-71,163,-780,-146
,-332,-12,-231,-417,-211,-448,-145,-381,241,-89,294,313,-97,580,-103,127,-892,134,-112,-1033,-389,-155,-72,154,239,188,-140,-625,-567,-382,-1779
,418,33,134,250,-23,-412,-91,-533,-67,-199,-182,-268,-395,321,-117,-272,105,185,-548,-292,311,43,-573,53,218,36,-48,-104,-87,-270,-209
,-90,-182,25,-145,-12,-64,-38,-14,-166,92,81,-67,97,39,-113,-155,-174,-53,-197,180,-1,-151,23,-53,-151,-6,-91,70,-179,60,-92
,101,-1301,69,154,-677,-82,-19,-109,-1092,313,93,262,688,-77,-114,97,-553,-135,-84,705,-155,-82,-101,126,490,-5,-41,17,72,-64,-180
,202,-26,-24,189,-80,-170,296,105,-37,94,-60,11,-1547,2,-31,-19,-24,-7,-13,-119,27,-110,-45,-192,-119,-35,-69,-285,38,-71,-23
,343,-104,183,-615,-108,-325,-934,343,-57,-315,15,-406,-1067,428,191,-318,-354,-207,-106,-706,98,76,-393,-569,-57,-316,-760,337,14,67,105
,-666,-193,-181,561,680,-183,436,268,-221,-287,-1394,-57,17,-538,273,-592,-49,-240,-567,279,187,-276,52,-188,93,-256,-190,-382,-312,-360,120
,1,24,-131,-55,-86,104,-303,123,58,140,198,-139,1833,286,-347,-283,-168,-251,140,317,114,315,-198,-186,75,-43,-8,155,-357,-85,-629
,55,-17,-30,-55,38,-129,-68,-114,26,-44,50,53,50,-165,-135,-50,-152,7,15,-170,-121,-135,-126,-124,21,-80,-36,-133,14,6,6
,-128,-16,-117,0,-129,-63,12,58,-114,-158,-262,41,28,-195,-40,-3,85,-15,-105,13,22,-118,-110,76,-47,-63,6,78,-38,72,-109
,-1054,195,-132,140,-312,-396,-731,221,-415,-289,40,-112,-1434,-124,-139,-259,360,33,39,456,-63,-17,-176,-724,-372,-373,277,70,378,32,-244
,-894,512,-177,-346,-222,4,-281,70,-84,-567,58,-146,-775,430,73,-865,-725,83,-137,798,95,96,121,790,2,-244,-137,106,-62,-247,4
,118,-20,-100,82,-125,31,45,-205,-108,126,18,-133,96,-77,3,-94,-64,-70,-53,72,-55,-221,20,-2,-158,70,-26,65,18,-129,36
,676,191,-5,376,35,11,223,-42,35,107,93,-9,1580,72,-403,455,-7,-546,8,243,-318,-137,-269,340,-253,-44,36,243,167,32,63
,-75,-43,-12,-140,-174,-94,68,-96,-81,-172,7,-184,-105,-30,-25,131,39,52,-60,-105,-64,-168,2,53,34,13,55,-57,-16,-120,-67
,76,-29,-127,67,-54,-12,131,-134,-148,-91,131,28,-33,16,98,-129,-147,0,-152,71,-21,-48,-60,-5,33,-135,-128,9,-125,-32,-77
,67,-137,-66,20,-121,-141,47,-55,-133,50,-150,34,-68,-136,-37,-14,-75,102,-60,49,-143,-140,74,-41,-6,-91,-11,-51,-47,-102,-108
,-39,172,-66,188,307,21,651,58,-37,-74,-408,254,118,-905,76,433,23,-170,-212,276,266,-355,-91,452,368,-160,-320,-131,-553,-966,-364
,-14,-6,-608,-292,-173,-235,-642,-103,64,126,369,-700,-348,118,-14,640,251,-2,1,697,72,-233,69,-630,-220,-52,6,236,-230,223,-195
,-369,-1334,-43,38,404,-92,-293,-48,-43,-182,297,-218,73,436,-315,-723,8,-210,171,92,3,-76,132,632,-961,-803,-317,486,-115,-7,262
,-465,-7,-324,-261,142,-571,-236,-641,-263,-334,-39,12,-428,315,-257,89,-121,-105,-90,-459,409,69,46,-901,416,102,-196,-676,-557,37,-470
,130,-64,-12,-117,95,117,-57,-3,-6,54,-140,-22,-142,34,1,-51,-95,18,-100,-122,-92,-105,-80,-137,-67,-157,-93,107,-166,-22,-151
,-124,-604,147,23,-129,-125,-4,-408,-63,121,-164,-297,422,354,136,-431,-477,-623,-924,-255,-361,-664,-321,49,-102,288,128,-102,-1139,190,140
,-328,61,-126,404,-362,49,-379,52,161,243,-1116,155,-424,424,-362,489,-346,-129,-297,-765,325,13,-328,-194,149,117,-26,74,-330,-327,-127
,179,-21,-30,265,390,-36,378,-288,135,378,277,-173,-252,282,47,-148,-757,-302,-170,43,-44,-13,-398,131,291,-321,171,645,309,-237,-48
,-111,273,155,-51,-760,114,93,-693,54,65,342,-183,-82,-150,-546,-439,-58,-241,-273,-27,-378,-231,121,-315,-145,50,-186,-246,195,-511,-897
,-339,-39,-20,173,-29,-130,-226,-197,-77,-110,242,-120,1956,-5,58,-11,-76,45,-141,-43,-144,-65,-83,-121,-25,-78,-44,167,-156,-175,-101
,105,-122,-569,142,18,232,85,367,-421,207,-300,-170,27,-153,139,558,-816,-327,0,422,165,14,-22,166,-316,-186,73,-48,185,-38,-2
,-192,-93,-83,10,-10,-62,66,-9,-70,76,-75,-12,526,-99,-1,-23,23,-23,-24,-9,-55,-118,-31,23,-123,-160,9,-50,-188,-88,-32
,21,-69,21,36,12,-43,-56,-5,-158,-26,-3,46,-66,-47,-186,-75,34,86,-102,-138,-85,-37,-9,-53,-40,-158,7,-89,-70,-161,-99
,344,123,91,170,362,-195,159,34,-48,-223,-74,47,159,-613,-3,503,-276,-490,36,45,42,-763,-149,542,-552,118,-46,279,105,-384,-890
,-684,26,93,-638,526,-577,104,101,43,-751,-82,-380,-933,186,-230,-138,273,-410,-259,-425,-227,-326,94,-15,-148,199,-26,687,-296,-219,185
,-82,-105,15,89,-96,-227,-106,-82,-37,45,-156,-142,25,-188,-55,-32,-222,-100,40,-9,-19,-39,-135,-52,35,21,-26,-161,-25,40,47
,-1121,-241,-409,-241,69,121,-301,673,-4,-223,-177,78,-388,562,306,-699,-805,13,27,-705,-215,-622,-442,445,-362,-236,52,-59,85,-1414,-195
,-102,205,-476,-171,169,-33,-5,144,-122,-146,-168,-589,-46,-97,-58,-104,-82,193,-324,394,-154,-308,-791,-488,-159,-779,42,-124,423,-588,346
,107,-144,-95,47,50,-157,-17,92,19,154,-198,-94,-10,-191,-127,-111,-59,37,-47,144,-176,45,41,249,-64,-240,-246,117,68,43,-181
,-12,48,-101,343,-275,-146,376,38,-72,-256,148,-72,-1115,12,-119,-243,-257,-57,-211,351,-19,-120,-256,-152,-43,-15,-56,-434,-113,-141,-28
,-588,-108,-83,101,120,-51,-115,32,-77,194,-61,-61,583,896,-5,586,102,-26,-69,557,56,-45,9,618,91,-33,-18,1077,61,-76,-37
,592,223,-161,542,226,205,341,-1,-151,195,260,-255,-1379,-271,-99,-277,75,17,-203,-262,67,-176,-328,-558,154,-63,-154,-537,79,-185,-213
,297,-57,10,64,687,19,-710,-166,3,63,-74,112,-497,-80,74,529,-104,-298,-233,265,168,-34,36,-277,-90,-228,-174,136,-87,-219,-240
,-196,-169,-52,492,-121,-121,751,178,-63,524,-471,5,-954,565,-336,380,158,-272,35,454,65,-157,-719,94,-347,-203,398,-550,-223,-87,-104
,-1077,-372,-72,-715,363,-106,-829,106,-225,-571,348,-175,-1511,-592,79,1009,265,78,-167,601,-279,-315,-217,-585,194,-347,181,130,-139,-26,-113
,-442,-306,-263,-100,24,-51,-510,-206,-39,-190,-36,-5,-485,401,-293,-221,100,221,-136,-593,509,-113,-305,-1292,-41,-339,-929,866,-49,-290,51
,-479,-40,-51,-378,-26,-41,-66,-8,-48,-140,-91,-43,2156,974,60,633,89,-1,-31,605,87,-22,-11,779,92,8,-10,1135,138,-12,-27
,199,438,-287,-271,-152,-246,-374,-28,102,238,-208,-229,105,231,143,-723,-207,18,-291,330,-242,86,-265,-57,-39,-52,-427,121,274,219,-306
,542,-52,-29,296,107,-124,123,66,-28,135,63,-42,-967,32,-53,-343,-40,-6,7,-515,-110,-175,-60,-201,-54,-82,-4,-84,12,-96,-87
,-58,220,-1007,9,-960,220,-57,-267,344,20,-913,17,-68,555,-41,-335,-33,-509,-128,-443,280,30,-25,-226,-175,-661,-358,-110,-430,-261,-262
,541,196,-44,849,261,17,223,130,8,-173,-248,-172,-1896,-226,-81,-99,401,74,-25,-75,353,-113,-240,-92,48,-72,-288,-1349,-335,-328,-19
,-1150,201,-532,-963,337,-82,-257,51,-20,-997,252,-273,13,432,235,-1088,245,-1493,88,-186,0,-160,-13,-74,-96,-233,-387,555,-132,136,-237
,123,75,-235,41,-176,10,120,-158,-177,-127,88,48,-67,-151,-116,163,27,68,-31,160,-80,-109,-270,134,15,-134,-177,-168,-67,-241,-64
,-1111,-15,-81,-177,-372,139,-221,-107,-92,-210,-19,-82,-713,250,-101,1126,300,46,-213,620,80,29,-70,-416,83,-83,-255,-4,211,15,-230
,-6,-104,22,-136,-149,-152,-61,21,30,110,-49,-109,-179,-98,-191,198,-5,-86,-223,58,-25,-129,30,49,64,-17,-45,-105,-40,40,27
};

long weight_1_T[256*31] = {
-1078,367,-304,-260,-89,-59,-575,470,-146,-768,168,-22,-1161,364,-6,-227,17,10,-164,-414,-189,-23,11,-653,-74,277,-364,-1011,-412,-214,-78
,4,-143,-73,0,-72,34,39,-21,-26,188,-26,-25,135,91,-112,20,24,-95,21,-27,-218,-96,0,102,-27,-39,30,-34,-155,23,-68
,-146,-34,-57,-65,149,-224,92,43,-189,-160,92,-31,-238,-63,-1,-91,69,-184,5,-87,-116,16,-128,-179,-54,-132,-1,-74,-21,-50,57
,9,35,-64,74,-113,-1,-117,-97,-106,68,63,-166,-129,57,74,-40,-124,-196,-188,7,-44,49,-3,-46,20,-124,-12,20,-108,12,-148
,-37,91,-172,-13,-129,-151,64,49,79,83,-29,-134,28,-53,-126,-68,-3,54,-20,-65,-99,-79,-161,-158,55,22,-62,-143,71,-75,-35
,-332,13,-18,-366,10,-88,-91,-222,-170,-255,84,-101,1749,-150,-25,-91,-95,9,-33,1,-118,-86,-81,4,50,-3,-38,172,17,-125,-59
,-15,56,0,-13,-110,-139,154,-84,11,44,-46,-101,-1489,-8,-95,-43,30,8,9,-3,-87,-65,-62,-125,-78,-45,-74,-231,-61,-7,-7
,-238,317,70,158,398,-180,441,-133,-754,223,-102,-65,-1238,68,-227,-46,-135,87,-22,388,-388,-62,-447,-378,16,90,-204,-149,-66,159,157
,-269,1,-127,-333,-310,-133,-145,-102,-374,-69,30,34,37,436,62,-1091,-155,-360,-25,-390,502,-134,-400,-469,-479,103,13,-1344,452,79,-175
,-231,122,221,273,1,-189,-465,249,207,862,-536,202,1333,532,-436,88,-346,-234,-253,560,273,107,39,372,-879,5,33,-1202,-630,-193,-184
,-344,-39,-55,-323,-137,-49,-18,-92,-11,-285,-49,-75,1642,-166,-10,-8,12,-107,-7,0,-105,-64,-51,211,-180,-1,-51,13,11,-95,-102
,-261,-162,33,-208,38,-221,-81,-1342,196,87,-329,-269,-1251,759,13,486,-272,-324,-123,310,108,-35,-18,257,435,-271,-175,-131,260,-62,-46
,90,-180,-17,436,-145,-2,226,10,-41,-107,-31,-52,-633,39,-5,334,-97,-139,-53,-363,-9,-205,-30,-562,-113,46,-160,-76,-29,-79,-174
,849,-70,-255,334,368,-597,-320,195,-192,-692,-684,-213,-1081,591,91,332,363,-44,-128,-293,-306,-172,-197,-836,262,-45,215,-429,-727,88,108
,31,-67,6,7,-68,-221,-311,210,-201,-804,-22,-107,-893,33,-75,229,-77,-14,-84,869,-147,135,-69,211,-829,183,-116,-371,-90,-501,159
,-68,-54,-596,107,75,-801,41,-163,-190,1,-378,-150,415,156,-757,-151,31,318,158,274,-26,51,-9,106,-12,0,-161,-344,-33,-50,-390
,-455,-259,16,-382,86,-104,46,257,68,-331,-96,47,1708,-1486,133,178,-141,-87,-178,-187,42,-5,-141,625,300,-57,30,968,-324,-370,-34
,-265,-114,-19,62,-198,-195,31,158,-1402,-69,536,-36,-83,-271,-246,724,402,-218,-201,30,-289,-482,-65,379,48,275,-381,-128,10,203,-48
,2,21,-50,-9,25,33,106,87,-204,26,-224,-7,-115,182,-87,-44,-45,-31,-188,51,78,-173,-139,-111,40,22,-174,-19,-122,-150,-123
,485,-65,-104,486,-20,-191,441,32,-110,-354,54,-106,-2099,-232,-180,-146,-189,-110,-118,-223,-208,-184,-102,-142,-167,-112,-127,-938,-101,-97,-118
,48,24,-83,-109,-170,19,82,-160,-111,8,59,-82,-154,84,-68,-28,-208,34,29,30,-132,23,-138,2,67,-113,-160,20,-148,-113,71
,-77,349,-74,-170,-790,-3,-141,-868,-248,56,-247,-272,212,-1720,257,-335,-181,47,-319,-321,-749,99,-515,29,512,-207,168,151,-259,-224,-408
,-301,-9,-68,-424,-114,-115,-163,38,-25,-103,33,-52,1709,-102,-32,-47,18,-91,-58,75,-148,-150,-46,-10,-60,-60,-6,367,-155,39,-125
,-35,-1029,-505,-54,-461,-255,54,-513,22,-76,-33,177,-162,86,-42,-266,-192,-164,-940,-51,-144,383,-69,-236,-348,-78,-397,-283,-200,-1348,121
,-828,155,-257,-245,-183,-697,-625,333,-43,-384,221,-301,-9,-323,32,579,139,107,-142,369,68,-436,-359,-844,185,-310,162,-115,211,134,-61
,-135,92,-167,31,-161,-15,-40,58,-108,115,-19,79,-64,-2,-103,-7,-31,-46,-84,15,-110,17,36,41,-155,29,-14,27,-202,-40,-75
,-83,86,46,220,351,-299,-43,317,-278,-34,-8,105,-652,-105,-105,25,-251,153,-60,797,203,9,-299,-214,-606,269,-64,-405,-243,-316,-362
,-392,-303,-240,-676,-493,-78,-350,-425,-293,-91,738,-614,117,547,54,-127,-326,-331,-138,-426,-1447,110,387,-475,-632,290,10,-365,-490,-225,-165
,-107,-40,32,11,-67,-165,-62,40,-83,120,-94,36,-34,25,-14,-133,-65,-157,-114,-91,-141,13,69,-106,-95,-76,-83,7,-61,-14,6
,92,-61,-449,500,-115,95,51,104,-11,-429,-51,-562,151,-414,-10,515,153,56,-25,-48,-216,-70,-34,211,-447,-620,-763,745,373,170,-88
,77,-136,-81,-61,56,32,18,23,-159,-78,1,74,-32,100,-18,-191,-66,53,-180,-157,-179,-152,-8,63,-33,-42,-162,23,-42,10,-125
,-146,7,-85,22,-104,-79,-28,-14,-177,-60,-99,-24,-40,143,-119,70,31,20,-68,-118,49,14,-3,54,-52,-10,-32,-133,-143,-131,63
,202,-141,-904,170,191,59,-220,170,-264,-798,304,-80,-155,261,150,-13,-245,15,221,299,129,238,-78,327,-240,-128,-350,-476,-77,-327,-342
,184,-94,-109,46,84,-305,27,-5,129,-154,262,12,-1193,217,5,229,-626,-83,30,662,274,-177,-338,277,-98,-593,206,-299,-67,-322,97
,-105,277,-128,-439,-61,-298,-545,227,-913,267,-190,152,352,286,-225,-158,-39,-309,-35,46,453,-4,-197,131,202,-199,94,647,-730,-507,111
,86,129,-97,181,-171,64,123,-119,-47,155,235,93,507,-202,59,0,59,-134,-100,-18,143,80,-56,357,-694,11,-468,272,-1029,-96,-202
,-852,5,-1,-955,69,-11,-40,-256,-15,-55,-275,-48,3746,-332,1,-178,-58,-29,-17,-381,15,13,-1,115,-61,-32,-12,-255,13,22,-3
,-726,-763,512,-836,189,-331,-836,-1,-394,-893,97,-269,-451,534,-205,-407,72,-98,-270,-1964,-21,-120,77,-778,257,133,-453,-260,-274,-708,-80
,-253,-116,21,-82,188,-195,-493,-39,100,-508,-52,-154,-67,-1395,-213,1013,-38,-181,-33,24,275,-177,31,394,93,-126,48,-609,-80,-258,10
,3,-77,38,-111,0,-104,-32,-130,-224,-42,-49,-6,928,-69,-120,38,61,-48,2,186,-31,3,-56,-30,-6,-190,-49,-27,3,-41,14
,110,552,-15,-69,212,200,-20,93,-407,-432,335,-304,2147,152,-82,-341,-227,-269,-9,-486,-387,69,68,-58,16,147,-622,27,-171,-566,200
,145,-93,-70,157,92,-139,-73,-47,39,105,-85,51,-89,42,-24,-3,56,-49,-122,-55,-143,53,-105,-95,68,-93,8,-129,-60,-185,-132
,-211,-126,-99,-240,-199,-75,-1,-67,-78,-82,-40,21,702,129,25,3,-72,-22,30,120,85,-70,-46,261,26,-32,-152,-51,-122,-58,-119
,188,712,42,445,310,-44,-189,-428,129,-78,-489,18,-249,98,-98,112,-531,-190,-294,163,-61,-89,-646,338,-48,98,361,-228,-724,-381,-117
,325,-440,36,167,360,-550,136,-436,-322,-449,317,129,-2134,311,81,-1301,-173,-465,-55,-931,5,-233,-191,-468,371,250,84,360,-17,8,-98
,-125,-21,-74,22,-97,25,112,-147,-112,-83,-93,-170,-90,-67,15,-130,48,5,31,-51,-145,4,18,12,33,-169,-163,-114,-175,-70,-139
,-125,-138,-309,-114,128,-36,-280,230,-138,-456,-393,-397,-208,616,-515,204,409,-26,8,419,-58,-88,-216,651,-347,-40,156,-257,-90,-171,-17
,-384,-861,-73,23,-173,94,20,-362,-15,-1161,-632,-90,-268,-1074,-190,421,-109,-96,-176,808,1,-152,121,845,318,-85,-19,-106,117,62,6
,91,25,0,115,-12,2,-42,-76,-90,85,-45,18,-24,-3,19,-101,-86,-116,-68,87,89,-138,-22,-135,-24,-167,-172,-95,-18,-149,-95
,32,25,-64,87,92,-2,223,68,-150,-5,-68,-173,-867,-41,-139,-87,-154,-34,15,-134,12,30,-184,-138,-17,-35,-58,29,71,-100,12
,-32,171,-519,123,-121,168,45,-27,-171,349,368,-170,306,-1,-172,89,39,-343,203,25,22,-4,-137,-223,-172,-117,-231,42,216,-228,-352
,-34,-194,-147,-123,29,-69,128,18,24,8,-171,-103,-47,125,20,-1,-75,-22,-4,54,14,-16,-172,86,-217,-113,-81,-121,-206,27,-122
,104,87,-2,206,-51,-129,80,98,-68,39,-30,-90,-568,52,36,-454,-64,-62,-243,-297,-109,-47,16,-168,-120,-101,-91,-20,80,-156,-180
,-7,-89,-19,124,14,-100,-86,-26,-112,14,-129,-102,-45,37,-24,123,173,-86,-28,110,-85,-63,-147,-52,-72,-29,-132,100,-179,-260,60
,330,-661,-140,407,-352,-448,260,-499,157,217,-154,-596,-57,-324,80,182,-404,225,50,859,-258,-172,-330,-74,-128,-595,-451,-27,407,110,89
,-262,40,-212,79,80,13,52,-11,-226,-2,69,-137,-223,12,-120,94,-210,-119,-40,-14,-168,-14,-265,26,-23,27,-90,87,-61,-85,73
,-678,327,-171,-316,378,70,-730,36,18,165,-24,-55,-703,2,35,-1370,-562,-118,-14,-1511,-424,-104,89,559,-172,7,-4,867,278,-124,-85
,-786,109,305,-910,-967,-18,-286,570,-143,-987,-369,-277,-501,391,44,-976,117,-293,-148,685,-293,-437,-435,-297,415,-179,-118,-886,-352,39,24
,-66,-16,-26,-54,-102,-125,75,-34,-173,20,13,-157,61,19,52,27,-2,-37,-70,-2,34,88,10,4,-155,56,-74,-168,-194,-17,-120
,187,-112,21,43,-60,0,37,-37,-140,-154,-71,-107,-590,9,22,22,-30,-144,-40,-64,-43,-140,65,-105,-20,-136,-97,-169,-40,-51,-278
,215,58,-58,150,-89,-40,173,159,25,-118,-34,-216,-104,-30,42,-68,27,51,-18,-152,-79,-181,-118,-298,-55,-128,-12,47,-82,-53,-160
,94,-54,33,-47,136,-291,57,61,-122,16,-10,-187,-229,-14,-2,-62,-131,-210,35,91,-126,-10,-115,-172,-3,-191,-157,-108,-28,66,47
,-106,-43,-13,-230,-109,-81,-284,8,15,-387,120,-39,343,257,-95,-114,42,1,-106,-140,13,-52,-65,-106,-57,-41,-141,199,-533,-69,-78
,-87,34,-272,-227,-57,-505,-293,273,-287,187,-347,87,1971,81,0,4,-542,-600,122,-603,305,-26,-7,-574,566,-128,-470,66,-272,117,66
,-400,408,-170,-430,-155,96,-67,535,166,278,-499,-153,239,-103,-49,-520,87,-31,-111,478,78,-351,-217,-231,-202,-171,-471,580,334,-69,187
,-557,237,-44,-463,213,-52,-480,118,-571,-965,-822,-97,-621,-268,-57,-2137,53,-464,157,376,207,-549,49,140,300,-175,-165,-143,483,-525,-65
,98,296,256,-24,-143,-198,300,8,-250,118,135,79,-1165,540,-249,-235,-462,299,-370,-119,139,-329,-137,-1142,-75,-5,-56,-418,104,44,-75
,67,-48,-167,96,-110,-53,6,-295,-80,52,-222,-39,74,-118,-89,-100,-127,-6,-66,56,-64,-126,-23,126,-36,-76,92,22,-157,74,-53
,-394,221,-112,29,279,58,-51,440,-289,-1068,57,-117,-1536,-240,86,-1448,139,81,77,344,-570,-188,-290,-313,236,-10,-86,-162,-257,-250,74
,-85,-283,-374,104,-249,-115,102,48,-339,79,-275,-43,549,-131,-247,129,31,37,81,219,241,265,-434,754,370,-791,-127,427,-786,-195,35
,27,-751,-267,213,-321,-106,-35,-347,289,-381,400,-1,-817,531,-15,-27,-18,-236,-239,511,131,-26,170,-143,-196,127,-50,-182,-321,-177,-907
,-63,-293,191,-171,55,-139,80,136,-609,-96,-508,-146,-277,33,-82,105,4,-382,-241,-434,336,-84,53,-195,171,-330,112,-47,-157,201,-410
,-251,-79,-27,-377,-239,-122,-373,86,-50,-27,84,-39,2645,-316,-18,38,-124,-78,-69,-206,145,-137,-64,24,-244,-72,-106,308,-204,-42,-51
,-447,223,60,-189,-380,61,-209,-289,47,-270,89,41,143,-105,15,205,60,-87,-326,282,-139,-277,-413,365,-3,-174,-1,391,77,-484,150
,52,-81,-84,146,116,50,116,2,-147,86,33,26,-853,-71,43,-22,-11,-11,-108,-232,12,-16,-160,-363,-93,-57,-85,-189,-23,-105,-41
,599,-48,-132,480,-215,-34,568,138,63,-1,-180,-53,-793,29,0,-17,-24,-410,-259,162,158,108,-71,63,-104,-261,-355,-134,-684,-162,-101
,416,-198,61,-71,133,55,-104,70,-234,-295,128,-1774,331,441,-321,110,-154,-277,135,117,-135,-158,87,-281,182,-105,-566,451,-150,-66,-12
,-100,-162,39,34,-12,-198,-53,284,129,17,8,34,-499,-106,-223,788,149,-226,80,148,-89,-192,-433,216,-122,-412,-46,274,96,-691,231
,138,101,18,168,55,-90,-55,-237,10,-77,2,-59,-226,-166,-132,31,-172,-119,-26,6,96,-101,-36,0,31,-106,-157,-246,61,-7,15
,-209,-132,-225,-582,117,2,-1192,-284,-6,-721,-301,-269,-845,-75,81,-219,571,4,-938,148,-36,-470,-64,-75,256,-233,-141,-375,437,91,-237
,71,63,-112,78,122,-67,108,106,-178,-66,-50,0,157,-59,58,-94,-101,18,-149,-109,9,-196,-131,-26,-99,-179,48,-127,-147,-46,-123
,-11,-90,-159,-23,-118,-93,-111,-126,-126,31,-39,-102,54,39,-88,-77,-52,-127,3,59,-50,99,-98,-75,41,18,14,-117,-138,56,-105
,-117,491,-9,-50,-400,-273,-61,35,-17,-13,7,224,-510,-320,-38,-311,232,-216,-419,531,174,-345,-86,-199,265,-271,90,135,-317,20,-431
,-556,-681,-201,-506,-211,-281,-522,-207,-84,63,-251,236,1380,-88,74,-182,-13,-180,-92,-1067,-208,-166,63,685,341,-205,-257,748,-147,-240,-39
,130,173,-123,283,106,38,243,18,105,-339,13,-11,-178,86,-249,-453,-306,-103,-345,-91,44,-483,-70,377,-156,-245,46,-84,19,-213,-38
,25,-41,309,-72,135,175,-195,-322,-1310,-2,191,-91,132,390,-963,-687,75,-337,-342,179,-239,-3,-215,-14,-105,41,210,-642,-192,-433,-1
,-59,90,-78,52,92,-150,212,-42,-36,23,-19,-83,-1127,19,2,-28,-153,-27,-91,37,58,-63,-38,-78,-61,-12,-4,-393,-66,-37,24
,26,-114,65,2,-100,1,-10,-136,26,64,-116,-61,-126,91,-171,21,35,-58,-40,-11,-40,-33,-94,35,-79,57,-68,128,-15,-139,-102
,125,-4,-18,-6,-113,-13,-86,99,0,-83,-119,-130,54,15,-69,-89,4,-115,-117,16,-51,107,-12,-123,-49,-140,-135,-18,-143,27,12
,99,-262,294,41,434,14,6,-446,-57,297,268,-253,-758,-219,-65,-135,-334,-223,-210,-525,89,-215,55,444,55,-824,-378,340,133,168,79
,-525,-185,-112,363,66,-80,-553,-39,-119,67,-173,-35,-952,-1178,-229,775,106,-63,17,553,15,61,-82,841,61,76,8,1195,117,85,-66
,-23,-308,208,-76,-187,-428,-88,-507,-88,27,-259,-133,92,192,-84,-266,-642,99,73,123,-201,-783,13,96,-593,-51,199,579,-1294,-137,-36
,-255,252,-69,541,-102,-12,11,626,-482,-245,-326,-10,-507,-272,52,176,-46,-81,-449,-409,95,-101,-154,56,465,-106,-32,510,-440,-2,-41
,-587,-289,67,-287,-225,-18,-2041,-132,50,63,316,51,-228,543,45,-122,-49,-862,156,-667,-104,-161,-268,798,-465,271,-58,-1095,-1007,-358,-61
,116,-53,-93,145,-130,109,-613,393,-12,-403,-404,187,359,171,-301,672,-165,-182,-43,791,-633,-378,28,-144,-573,-244,-102,-182,-59,-224,27
,1074,-24,76,698,-75,-41,1048,403,-39,-6,-137,91,-2629,-243,-15,-126,15,-90,-191,78,-66,-267,-106,-436,-212,-203,-63,-1008,102,23,-165
,26,49,-568,-214,-160,-67,-94,-1009,-360,-43,-630,-176,42,53,-89,151,-1653,-104,-201,315,-218,-10,107,102,-166,317,419,-196,-289,-555,-240
,-49,-17,-47,177,77,-94,148,-137,-23,33,81,-124,-280,45,-4,-213,-89,59,55,-256,-187,-124,-78,-42,49,-142,42,196,-167,-77,-128
,459,245,24,217,-337,330,-58,372,14,-471,-159,-136,398,27,-97,4,-867,-309,292,345,-644,-1605,-150,257,163,-105,-434,-14,-234,71,-357
,251,513,-251,-70,-308,-38,101,9,-592,679,-75,-392,-392,-7,-189,715,-42,-198,39,-52,38,327,60,45,-407,32,-22,-294,-60,-227,13
,-620,25,93,-213,349,-365,-481,-298,-479,-599,-31,257,-35,616,-297,559,-78,-489,-513,-58,312,-392,115,-858,-181,-102,108,58,-194,158,-32
,-123,70,62,-85,-138,-82,-195,48,-121,-80,0,7,687,20,-17,43,-119,29,-18,-2,-26,-121,-41,93,-174,-98,-61,-17,-43,-18,-56
,-475,157,206,-298,-762,-310,48,-1001,296,193,223,-375,-451,-167,-322,413,-52,38,-250,511,352,-344,77,343,302,-101,-125,462,-267,-270,-365
,-9,183,-728,-112,23,-659,-331,-483,-111,-230,259,-29,306,255,223,-1010,360,43,-132,177,-1594,36,-125,681,-1752,-73,28,-626,-684,121,36
,-460,-304,-432,-568,344,-129,-177,-454,-271,102,-230,80,-56,244,-224,352,458,-295,-171,233,91,-646,-9,142,-28,-222,54,-587,-137,247,193
,-429,210,-394,-354,-211,-182,-548,300,-18,-291,64,-130,450,-178,-29,242,-86,-200,-162,311,27,-552,-44,398,-380,-271,185,134,165,167,-365
,344,23,-123,458,9,-129,659,138,-57,60,62,-121,-1666,-139,-75,-470,-94,-120,-116,-374,-69,-169,-135,-288,-66,-111,-197,-477,-60,-229,-30
,193,-8,60,21,-28,-133,112,-25,63,203,69,-155,-53,127,27,-156,-104,-324,-136,-115,-167,-229,3,21,10,-251,93,-23,-171,-157,-21
,-86,-616,-256,-219,533,-397,-151,438,-12,-123,-428,172,381,614,-55,-8,-155,-175,186,-109,-585,93,-357,-707,31,205,-135,-1210,-82,-369,-697
,66,-35,-19,69,-37,-139,-43,44,-49,-24,-149,24,29,-20,54,43,-149,-11,-40,59,0,-85,-29,-32,96,-111,-107,94,-42,-3,-131
,151,35,-85,209,-176,-62,148,87,-88,50,68,64,-931,-97,-44,-372,85,-66,-76,-167,-23,17,-89,-453,26,-31,-104,-440,-43,0,-168
,-351,-867,66,-134,-785,179,-180,-558,-22,-1079,-102,-20,2,-509,-122,-360,195,82,69,86,48,-166,4,139,257,-365,-89,1135,-295,-268,-98
,95,56,-26,69,-111,-40,-110,-73,-34,94,44,-173,-120,97,66,62,-82,-73,61,-136,-175,-18,-160,71,-4,-21,-5,34,-40,-132,-118
,-57,-123,9,136,66,-25,-4,-163,-27,112,-6,-153,127,-125,-151,85,30,57,-122,65,-130,-55,-56,-107,65,-168,-88,-55,-79,39,33
,1,234,-425,-41,310,-284,-446,-4,-273,38,416,-126,-221,-1070,102,-170,104,-273,-215,107,-22,-612,-392,46,-115,62,-334,561,-145,101,238
,136,-331,-15,262,145,34,370,294,116,476,149,-248,419,213,124,294,175,-669,132,-332,116,-316,-183,-712,-472,114,-279,385,315,-486,-312
,-465,405,-223,-600,211,43,-355,-44,67,-138,-309,-169,1835,-249,-191,375,-421,68,-148,-494,300,-356,-13,-626,-46,-111,-265,649,-230,19,48
,-652,-55,-16,-77,-88,12,-1086,359,-73,-247,43,-10,2838,-189,-6,-216,55,-112,0,-1278,172,19,47,-495,-199,-84,-3,118,-185,-22,-157
,-130,39,26,38,-31,52,-184,84,-60,99,-69,-250,7,-70,-39,112,-25,-100,-151,-15,-67,-17,-60,90,28,-68,2,18,24,-1,-11
,113,-98,10,64,-17,-3,87,-68,-52,69,15,-191,-26,-71,6,-237,-91,-113,9,-30,-143,-122,40,-9,-28,-10,-7,-43,-38,-111,-41
,22,-88,-75,-95,11,-144,-66,86,-56,120,-5,3,3,60,-44,60,-37,-16,34,-92,-89,92,-97,-107,-50,-156,-137,67,-115,-126,-130
,113,-31,-20,-107,-179,-142,64,45,-103,-16,-37,-130,168,-128,-69,102,-249,-136,25,111,134,-41,40,-161,1,-150,32,-115,65,-11,-5
,190,326,-311,70,-131,101,380,-589,30,-44,-437,-51,79,130,-288,-705,-107,-130,-251,322,-112,207,-223,903,202,-130,65,72,-324,193,-374
,73,134,-234,-117,-144,21,-10,-29,65,-76,-123,-84,99,50,38,105,-73,-57,-119,12,-128,-140,-86,171,-182,-81,66,-62,-52,-56,-19
,267,-214,-86,216,177,-412,375,-49,101,406,164,-384,-685,-420,-165,140,-62,138,-305,438,441,-550,125,20,-414,48,-58,-477,63,27,-54
,-171,-24,-108,-151,17,-148,7,-192,48,-2,85,-186,792,-272,-60,37,-194,-173,-95,142,104,-28,-95,-179,-208,-175,-38,340,-260,-90,-74
,24,11,51,28,-69,-1,-21,-123,28,105,60,-40,-50,-23,-115,-154,-165,-125,-93,122,105,-71,-46,-106,-130,-83,-40,-54,104,-64,-51
,23,-219,-52,-29,-133,-55,22,33,-29,80,-106,75,233,85,-145,23,-126,-36,53,80,-137,-17,25,-52,-150,30,-25,-109,-169,-127,-38
,66,25,-214,-87,89,-112,-40,82,-183,97,-102,10,8,96,-20,-220,-138,-96,-12,-73,-128,-189,104,-113,-59,87,-140,195,72,-124,-59
,394,9,-70,212,-384,253,-417,550,-56,-735,-449,305,-264,642,-112,444,-119,-16,38,553,-236,-26,-117,-448,-53,-235,-415,-239,-447,-362,-276
,102,-83,-24,92,28,-57,-108,-84,45,-48,-91,-13,-10,-26,-38,-122,-87,-137,-104,94,-129,47,35,-6,17,-23,-40,122,-59,3,-121
,-145,-92,-34,-56,-41,4,-65,-161,-116,89,11,-130,-105,-109,-177,78,-67,-166,-103,-206,-91,-13,-146,62,-4,-104,28,-222,-148,-62,9
,124,-4,-184,-399,245,-420,183,237,-492,-70,127,12,-980,-290,-179,119,115,-155,341,-282,243,144,-3,342,-389,-168,-457,-139,-157,-11,-1
,136,-99,-121,128,-38,-111,131,-136,-106,113,-83,28,-82,-70,-147,7,-185,34,-104,-46,-38,37,19,-131,-11,-16,59,-63,-10,-110,-32
,248,3,-34,141,-198,-166,344,160,-67,176,-125,-138,-768,-3,-36,293,-71,-60,-144,-340,74,-84,-118,-178,-28,-106,-144,-606,2,-88,-57
,130,-1314,-1,174,-854,-215,-957,425,166,-790,260,-8,2203,783,-173,-755,-235,237,-244,-1418,12,114,-151,-1276,-430,-30,-46,654,-194,-127,-274
,-187,-10,-457,23,-97,-54,-2,-424,-30,47,-597,-205,35,23,166,301,72,-35,-115,138,-592,-144,-14,322,271,89,-309,-67,-579,122,-499
,13,66,-809,215,21,-16,158,48,-169,168,247,-55,154,-487,-152,7,-123,161,102,-177,15,-532,124,245,232,-557,-233,308,-268,-619,-104
,194,54,62,117,241,-90,517,-1268,35,74,123,-286,3203,-297,-102,-840,-128,-232,40,-209,89,105,-164,-487,219,-264,-136,41,117,-77,-115
,-392,-431,-154,-487,-258,-53,-515,13,-203,-185,-205,-153,409,531,35,826,197,-127,173,-67,110,-214,-297,259,103,-231,-475,647,163,62,168
,-1241,-769,63,-1217,458,-532,-1176,504,-682,-941,190,-306,-879,498,-19,-1740,65,122,9,-1524,-85,-251,120,562,-263,-227,-485,167,-381,193,201
,-274,-160,-56,-285,-159,-110,-289,-193,-166,-173,-22,-73,2208,95,-7,32,43,-108,-158,90,-61,-87,-40,82,-5,-54,-105,81,-74,-37,-99
,-556,93,-230,-201,-258,-85,-385,-86,-145,-584,-91,-112,506,200,24,187,-36,-112,-73,-123,-82,-43,34,-295,212,-127,-64,313,-162,-127,-33
,-271,-22,-102,-296,309,-317,-483,-490,106,163,-251,-36,113,-254,-192,136,-144,28,150,6,-153,-198,-172,361,373,244,-512,672,-38,-575,-187
,216,3,-24,-3,-468,161,218,-323,-318,-285,-220,-123,-456,-193,-35,344,-154,-10,32,506,158,-27,-163,-142,386,-50,-214,-252,-307,-177,-261
,-102,-389,-178,-45,-558,-265,-129,208,186,9,142,86,126,-660,-431,-235,-135,-76,-24,-199,-290,-147,169,-170,-400,-150,-171,331,310,-105,-288
,27,32,-4,14,-137,-75,11,20,-19,-36,186,-1,-58,80,-83,-179,55,-6,-246,71,-199,-84,14,123,-136,-70,-69,-159,-80,-16,-99
,515,-864,-207,327,306,38,210,-312,-119,175,-417,6,2422,396,-215,233,-359,-193,-86,213,-476,76,-446,183,-283,10,146,-484,402,11,7
,-18,-41,-29,111,-122,-192,26,-21,32,-27,-221,-114,306,-110,-32,266,-199,-92,-24,3,-62,-63,-132,146,87,-12,-47,-163,-8,-96,-90
,-589,488,77,-8,-57,-105,-71,75,-69,229,-298,-363,-909,-390,-198,-559,216,-395,3,-157,-82,-34,-159,802,241,-78,309,125,-136,-181,-259
,292,379,57,154,567,-643,-458,87,-289,-597,23,136,-223,338,-181,-157,-664,95,-557,238,-348,-84,-49,-247,127,-758,-328,150,289,-245,43
,619,61,140,89,-274,199,88,185,-384,59,117,-325,-694,157,-365,204,166,-118,-335,-599,-309,-338,246,239,-87,153,-345,29,45,-246,117
,127,659,-132,472,-23,-424,-898,-99,-494,-207,-564,-204,85,55,40,155,-77,177,-609,390,243,-132,-1,591,-187,43,-89,27,372,-211,12
,106,29,-17,-165,-29,-2,-22,-21,11,113,84,-223,20,-58,-27,-8,73,97,-213,-285,46,8,-175,-95,-44,-193,-197,-289,-22,-52,-218
,-579,85,24,-380,14,-171,-300,-173,-292,-478,140,-85,682,-669,-466,457,104,-677,-118,330,235,163,-67,-32,455,-979,-250,523,-79,125,-278
,-52,-177,-151,-575,356,-166,-815,173,147,-338,390,114,-558,43,108,520,307,-112,-1214,484,-83,-43,-99,-813,-30,-281,-51,-550,-115,-91,-187
,-156,-310,-86,-287,-77,-747,-91,47,77,-141,343,-158,146,29,187,147,256,-1269,-232,-214,-375,-307,-227,750,-187,208,-14,769,199,20,39
,553,24,-1,-667,-16,-227,-584,154,-21,-433,359,-254,-756,41,64,672,149,-99,-107,-1060,-422,59,-382,680,-87,-229,-396,431,-125,192,65
,-326,18,-136,148,-271,52,-183,136,178,-397,285,-312,-770,342,-147,-524,217,-337,-565,-177,-197,167,-680,-149,-186,60,122,-491,32,-246,-97
,212,-2,97,252,-260,-118,-200,126,0,-312,-83,-128,-475,-82,-261,290,-5,-448,202,167,137,-540,-20,-428,278,-324,-306,-28,-403,161,24
,161,116,-36,-9,31,-51,68,-175,-38,46,-88,-26,-298,-118,-40,-128,-26,34,-202,-37,-191,16,-124,-2,-68,-3,-23,-143,2,-39,-43
,145,-558,-311,216,220,-264,96,-1136,398,0,-229,-47,-484,476,-354,-224,-173,-208,-547,-159,1,-367,-1249,-180,49,26,211,-370,-22,89,-294
,120,59,-119,-6,-91,-89,132,53,-12,-18,88,-90,-1076,49,-28,-153,22,-146,-48,-207,7,-83,-75,-7,-115,-14,-50,-261,-24,-48,-112
,12,24,-3,-285,-185,-186,-165,-150,-72,-174,-143,-31,323,155,52,60,-109,-74,-1,-56,-31,-85,-118,46,21,10,7,-7,-256,11,-113
,842,14,0,631,119,-167,155,-74,53,-370,-69,62,-2439,-260,-167,541,-290,-11,85,323,-178,-166,-27,-356,-45,-90,-150,-619,-147,24,-84
,122,-73,-87,190,32,-113,159,31,2,-34,56,-9,-1283,-8,-104,-110,12,45,-28,83,-32,-42,-21,-43,-46,-135,-45,-246,-89,-19,-20
,306,102,-493,26,-652,-108,123,161,295,-39,299,-441,52,533,-104,734,-694,-908,56,-63,-286,20,-159,-931,225,-259,206,-765,163,-753,-146
,-91,-188,-143,57,-286,-539,-20,-796,-603,-67,-137,-39,-60,826,53,21,-1119,-63,311,28,-1737,-285,59,-130,-1065,35,-105,87,-1455,233,-114
,-775,84,-471,-711,327,-140,-538,142,-429,-720,82,5,-581,104,-566,472,-201,-74,113,-550,-28,-353,156,-511,120,-277,131,-241,-70,176,-67
,-226,378,24,81,-623,-190,72,-599,-254,-475,15,-140,-119,340,-225,81,-304,-533,-364,444,189,-324,207,571,113,-79,11,308,-295,277,-83
,-30,26,-167,57,66,-41,96,-59,-32,190,48,52,-311,-53,15,-17,-122,-138,-181,42,-154,-22,-195,-126,66,-102,-57,-108,-132,-94,-138
,-615,27,-5,-497,-495,117,-417,141,-586,-733,562,-212,1841,162,-217,230,119,-109,134,232,-139,23,-271,-430,-41,-143,157,811,-534,-76,-262
,-88,387,-237,-20,-3,-271,-185,-175,60,-280,248,125,-501,582,-78,-683,139,-166,-5,454,80,-314,-536,-334,-41,-399,-8,-490,171,-57,-417
,28,-182,89,-222,-890,-84,-95,78,-280,-193,325,107,382,185,92,-475,-273,177,4,-199,8,-648,-266,627,-168,-795,262,840,-735,-404,-108
,-89,-6,8,-123,-9,5,-5,6,6,267,11,5,9,147,11,383,2,9,6,312,13,6,4,342,3,3,3,592,9,7,6
,-99,72,-145,-4,130,-50,130,-142,74,119,-125,-81,6,-42,-155,-24,-137,-149,-134,16,60,-170,6,105,-104,-27,-83,-126,118,-120,-33
,39,-15,-182,5,-123,-190,77,52,-4,41,-45,32,-139,-117,-19,52,-90,64,-158,-8,-203,60,-105,-199,1,-32,-187,20,-24,-93,36
,81,-86,-63,-72,-78,-103,64,-20,-74,-103,-27,-112,-21,-56,-144,-138,-134,-77,-102,141,-71,-67,-3,-125,25,-24,-122,84,83,-108,110
,70,-19,-150,-114,-128,-48,145,-103,30,154,-145,79,-2,-61,-62,-95,-182,-54,25,62,-79,-17,-41,-171,-163,-10,-185,-83,-66,-19,30
,168,12,23,220,100,-311,44,142,-121,-41,-112,-262,135,100,-47,177,-276,-30,132,376,-207,-404,28,226,-78,3,-18,89,0,-166,-623
,673,-348,-547,-720,-176,255,-912,-975,35,-202,-58,-31,89,570,-48,217,-11,-342,-200,-189,391,-351,-1378,311,-337,228,-138,-186,257,-117,-71
,-146,-864,17,-133,-46,-546,130,83,73,-290,-484,180,130,-545,-305,544,411,-350,-297,-302,350,-155,-342,46,-646,-78,133,407,-210,-35,-207
,353,20,127,516,88,-91,260,72,-281,-179,216,-138,1271,-312,58,645,-116,-48,11,728,520,-143,-68,-309,-163,-763,-241,59,-60,52,16
,-21,112,-43,148,-39,-83,212,-165,-170,-88,18,-82,-336,-180,-229,-117,-5,-130,-165,8,-176,-34,58,167,49,-45,44,103,-124,52,-105
,174,21,-102,26,-89,-123,75,-77,-14,49,-174,47,55,-93,-112,-51,100,-44,-35,-92,-109,57,-75,76,-75,17,-49,106,-124,-19,-49
,-63,246,-40,352,-46,23,-65,-104,244,261,-23,162,-41,503,-538,196,98,-397,-579,-410,-123,-295,-159,233,35,-137,75,-780,-145,-9,-276
,-122,-17,-41,-144,-83,69,111,-38,-143,114,-154,18,22,-96,0,-46,-151,-68,20,-13,-15,27,-89,26,-46,5,-90,18,-75,-83,-145
,-33,-263,120,59,-573,-106,-175,-14,6,-80,-128,-356,96,377,3,-451,-423,8,67,-580,-352,-359,119,311,-5,-322,22,391,464,-55,-214
,-96,-535,-312,73,182,-366,-74,-515,252,89,-354,-116,-690,-79,-902,296,-16,-599,179,177,108,-67,83,-257,-38,127,-49,-260,-127,-293,-709
,-40,60,-122,42,-111,-121,17,-149,120,48,43,-142,-130,-42,66,-56,-102,-60,-82,-5,-90,10,-108,-64,1,-61,8,106,-30,-125,-139
,-132,21,-83,3,159,-63,28,-44,-245,20,-70,-6,-160,95,-85,181,28,-90,-69,137,-21,-107,-82,-290,-182,51,-171,-252,-78,-92,21
,-82,157,-728,59,37,47,-341,-286,-131,-242,-548,-464,262,301,-73,-173,-69,-60,-387,-949,9,72,-218,212,-31,-588,-234,-816,604,-340,298
,-338,-168,87,-342,-145,-753,-369,201,-358,-248,377,-142,-973,17,-471,-55,62,-78,-422,382,-137,239,103,243,129,-80,1,444,140,101,-505
,63,-43,22,105,55,-123,151,5,37,59,-103,8,-21,-16,25,3,-180,-90,-81,82,-98,-209,-1,-43,-320,-89,-31,-184,-288,-25,-46
,220,-91,66,40,101,-16,203,-66,-20,-33,40,-123,109,-113,-114,54,-142,-20,-15,12,25,-61,-190,135,-171,-124,7,-53,-231,-177,-164
,85,-5,31,192,-96,-172,149,95,-9,614,126,-114,261,802,158,793,-130,-125,177,-85,-64,-382,-252,165,242,-55,-148,522,68,-169,-38
,35,-51,-150,-44,-5,-32,-90,150,31,28,1,-231,-260,-9,-12,-147,16,125,-81,-140,20,-159,-117,-65,45,-69,-268,-133,-209,-100,-234
,577,382,-29,709,-333,-214,-475,-57,-28,407,124,93,-780,-667,-63,-80,105,-53,-186,392,308,-191,77,862,283,-94,-171,-635,314,-48,-126
,-227,30,174,141,238,-54,-30,276,-37,-81,-23,-144,-930,-430,-426,212,141,-7,-546,-192,-330,-236,-174,507,-407,-244,204,799,223,-1,-9
,-293,233,184,-1016,257,-92,-1247,-164,-82,-1337,421,-1102,657,467,-8,141,221,-356,-606,-317,-86,-110,-225,-3,74,157,-27,-83,263,-145,20
,320,370,220,109,-173,-139,-184,-102,147,-1,-199,-33,44,-216,-206,253,40,-664,-107,-644,-590,-1051,-695,656,290,-281,-84,478,56,197,46
,-60,93,18,-112,-110,-141,-109,85,-47,133,18,-57,56,-58,-46,77,-80,-26,-96,58,25,-132,34,-147,36,-153,40,-117,-81,-120,-65
,82,-44,-67,107,80,-104,-67,-153,26,-121,35,-149,-98,-81,-192,-164,-23,-130,62,-109,64,32,-26,-27,-114,-141,-35,-70,-154,38,-44
,-74,85,-65,178,-31,177,398,-349,-417,66,-197,120,-277,-318,-284,281,97,-313,173,-387,-35,-201,-188,584,52,5,-120,-71,163,-780,-146
,-332,-12,-231,-417,-211,-448,-145,-381,241,-89,294,313,-97,580,-103,127,-892,134,-112,-1033,-389,-155,-72,154,239,188,-140,-625,-567,-382,-1779
,418,33,134,250,-23,-412,-91,-533,-67,-199,-182,-268,-395,321,-117,-272,105,185,-548,-292,311,43,-573,53,218,36,-48,-104,-87,-270,-209
,-90,-182,25,-145,-12,-64,-38,-14,-166,92,81,-67,97,39,-113,-155,-174,-53,-197,180,-1,-151,23,-53,-151,-6,-91,70,-179,60,-92
,101,-1301,69,154,-677,-82,-19,-109,-1092,313,93,262,688,-77,-114,97,-553,-135,-84,705,-155,-82,-101,126,490,-5,-41,17,72,-64,-180
,202,-26,-24,189,-80,-170,296,105,-37,94,-60,11,-1547,2,-31,-19,-24,-7,-13,-119,27,-110,-45,-192,-119,-35,-69,-285,38,-71,-23
,343,-104,183,-615,-108,-325,-934,343,-57,-315,15,-406,-1067,428,191,-318,-354,-207,-106,-706,98,76,-393,-569,-57,-316,-760,337,14,67,105
,-666,-193,-181,561,680,-183,436,268,-221,-287,-1394,-57,17,-538,273,-592,-49,-240,-567,279,187,-276,52,-188,93,-256,-190,-382,-312,-360,120
,1,24,-131,-55,-86,104,-303,123,58,140,198,-139,1833,286,-347,-283,-168,-251,140,317,114,315,-198,-186,75,-43,-8,155,-357,-85,-629
,55,-17,-30,-55,38,-129,-68,-114,26,-44,50,53,50,-165,-135,-50,-152,7,15,-170,-121,-135,-126,-124,21,-80,-36,-133,14,6,6
,-128,-16,-117,0,-129,-63,12,58,-114,-158,-262,41,28,-195,-40,-3,85,-15,-105,13,22,-118,-110,76,-47,-63,6,78,-38,72,-109
,-1054,195,-132,140,-312,-396,-731,221,-415,-289,40,-112,-1434,-124,-139,-259,360,33,39,456,-63,-17,-176,-724,-372,-373,277,70,378,32,-244
,-894,512,-177,-346,-222,4,-281,70,-84,-567,58,-146,-775,430,73,-865,-725,83,-137,798,95,96,121,790,2,-244,-137,106,-62,-247,4
,118,-20,-100,82,-125,31,45,-205,-108,126,18,-133,96,-77,3,-94,-64,-70,-53,72,-55,-221,20,-2,-158,70,-26,65,18,-129,36
,676,191,-5,376,35,11,223,-42,35,107,93,-9,1580,72,-403,455,-7,-546,8,243,-318,-137,-269,340,-253,-44,36,243,167,32,63
,-75,-43,-12,-140,-174,-94,68,-96,-81,-172,7,-184,-105,-30,-25,131,39,52,-60,-105,-64,-168,2,53,34,13,55,-57,-16,-120,-67
,76,-29,-127,67,-54,-12,131,-134,-148,-91,131,28,-33,16,98,-129,-147,0,-152,71,-21,-48,-60,-5,33,-135,-128,9,-125,-32,-77
,67,-137,-66,20,-121,-141,47,-55,-133,50,-150,34,-68,-136,-37,-14,-75,102,-60,49,-143,-140,74,-41,-6,-91,-11,-51,-47,-102,-108
,-39,172,-66,188,307,21,651,58,-37,-74,-408,254,118,-905,76,433,23,-170,-212,276,266,-355,-91,452,368,-160,-320,-131,-553,-966,-364
,-14,-6,-608,-292,-173,-235,-642,-103,64,126,369,-700,-348,118,-14,640,251,-2,1,697,72,-233,69,-630,-220,-52,6,236,-230,223,-195
,-369,-1334,-43,38,404,-92,-293,-48,-43,-182,297,-218,73,436,-315,-723,8,-210,171,92,3,-76,132,632,-961,-803,-317,486,-115,-7,262
,-465,-7,-324,-261,142,-571,-236,-641,-263,-334,-39,12,-428,315,-257,89,-121,-105,-90,-459,409,69,46,-901,416,102,-196,-676,-557,37,-470
,130,-64,-12,-117,95,117,-57,-3,-6,54,-140,-22,-142,34,1,-51,-95,18,-100,-122,-92,-105,-80,-137,-67,-157,-93,107,-166,-22,-151
,-124,-604,147,23,-129,-125,-4,-408,-63,121,-164,-297,422,354,136,-431,-477,-623,-924,-255,-361,-664,-321,49,-102,288,128,-102,-1139,190,140
,-328,61,-126,404,-362,49,-379,52,161,243,-1116,155,-424,424,-362,489,-346,-129,-297,-765,325,13,-328,-194,149,117,-26,74,-330,-327,-127
,179,-21,-30,265,390,-36,378,-288,135,378,277,-173,-252,282,47,-148,-757,-302,-170,43,-44,-13,-398,131,291,-321,171,645,309,-237,-48
,-111,273,155,-51,-760,114,93,-693,54,65,342,-183,-82,-150,-546,-439,-58,-241,-273,-27,-378,-231,121,-315,-145,50,-186,-246,195,-511,-897
,-339,-39,-20,173,-29,-130,-226,-197,-77,-110,242,-120,1956,-5,58,-11,-76,45,-141,-43,-144,-65,-83,-121,-25,-78,-44,167,-156,-175,-101
,105,-122,-569,142,18,232,85,367,-421,207,-300,-170,27,-153,139,558,-816,-327,0,422,165,14,-22,166,-316,-186,73,-48,185,-38,-2
,-192,-93,-83,10,-10,-62,66,-9,-70,76,-75,-12,526,-99,-1,-23,23,-23,-24,-9,-55,-118,-31,23,-123,-160,9,-50,-188,-88,-32
,21,-69,21,36,12,-43,-56,-5,-158,-26,-3,46,-66,-47,-186,-75,34,86,-102,-138,-85,-37,-9,-53,-40,-158,7,-89,-70,-161,-99
,344,123,91,170,362,-195,159,34,-48,-223,-74,47,159,-613,-3,503,-276,-490,36,45,42,-763,-149,542,-552,118,-46,279,105,-384,-890
,-684,26,93,-638,526,-577,104,101,43,-751,-82,-380,-933,186,-230,-138,273,-410,-259,-425,-227,-326,94,-15,-148,199,-26,687,-296,-219,185
,-82,-105,15,89,-96,-227,-106,-82,-37,45,-156,-142,25,-188,-55,-32,-222,-100,40,-9,-19,-39,-135,-52,35,21,-26,-161,-25,40,47
,-1121,-241,-409,-241,69,121,-301,673,-4,-223,-177,78,-388,562,306,-699,-805,13,27,-705,-215,-622,-442,445,-362,-236,52,-59,85,-1414,-195
,-102,205,-476,-171,169,-33,-5,144,-122,-146,-168,-589,-46,-97,-58,-104,-82,193,-324,394,-154,-308,-791,-488,-159,-779,42,-124,423,-588,346
,107,-144,-95,47,50,-157,-17,92,19,154,-198,-94,-10,-191,-127,-111,-59,37,-47,144,-176,45,41,249,-64,-240,-246,117,68,43,-181
,-12,48,-101,343,-275,-146,376,38,-72,-256,148,-72,-1115,12,-119,-243,-257,-57,-211,351,-19,-120,-256,-152,-43,-15,-56,-434,-113,-141,-28
,-588,-108,-83,101,120,-51,-115,32,-77,194,-61,-61,583,896,-5,586,102,-26,-69,557,56,-45,9,618,91,-33,-18,1077,61,-76,-37
,592,223,-161,542,226,205,341,-1,-151,195,260,-255,-1379,-271,-99,-277,75,17,-203,-262,67,-176,-328,-558,154,-63,-154,-537,79,-185,-213
,297,-57,10,64,687,19,-710,-166,3,63,-74,112,-497,-80,74,529,-104,-298,-233,265,168,-34,36,-277,-90,-228,-174,136,-87,-219,-240
,-196,-169,-52,492,-121,-121,751,178,-63,524,-471,5,-954,565,-336,380,158,-272,35,454,65,-157,-719,94,-347,-203,398,-550,-223,-87,-104
,-1077,-372,-72,-715,363,-106,-829,106,-225,-571,348,-175,-1511,-592,79,1009,265,78,-167,601,-279,-315,-217,-585,194,-347,181,130,-139,-26,-113
,-442,-306,-263,-100,24,-51,-510,-206,-39,-190,-36,-5,-485,401,-293,-221,100,221,-136,-593,509,-113,-305,-1292,-41,-339,-929,866,-49,-290,51
,-479,-40,-51,-378,-26,-41,-66,-8,-48,-140,-91,-43,2156,974,60,633,89,-1,-31,605,87,-22,-11,779,92,8,-10,1135,138,-12,-27
,199,438,-287,-271,-152,-246,-374,-28,102,238,-208,-229,105,231,143,-723,-207,18,-291,330,-242,86,-265,-57,-39,-52,-427,121,274,219,-306
,542,-52,-29,296,107,-124,123,66,-28,135,63,-42,-967,32,-53,-343,-40,-6,7,-515,-110,-175,-60,-201,-54,-82,-4,-84,12,-96,-87
,-58,220,-1007,9,-960,220,-57,-267,344,20,-913,17,-68,555,-41,-335,-33,-509,-128,-443,280,30,-25,-226,-175,-661,-358,-110,-430,-261,-262
,541,196,-44,849,261,17,223,130,8,-173,-248,-172,-1896,-226,-81,-99,401,74,-25,-75,353,-113,-240,-92,48,-72,-288,-1349,-335,-328,-19
,-1150,201,-532,-963,337,-82,-257,51,-20,-997,252,-273,13,432,235,-1088,245,-1493,88,-186,0,-160,-13,-74,-96,-233,-387,555,-132,136,-237
,123,75,-235,41,-176,10,120,-158,-177,-127,88,48,-67,-151,-116,163,27,68,-31,160,-80,-109,-270,134,15,-134,-177,-168,-67,-241,-64
,-1111,-15,-81,-177,-372,139,-221,-107,-92,-210,-19,-82,-713,250,-101,1126,300,46,-213,620,80,29,-70,-416,83,-83,-255,-4,211,15,-230
,-6,-104,22,-136,-149,-152,-61,21,30,110,-49,-109,-179,-98,-191,198,-5,-86,-223,58,-25,-129,30,49,64,-17,-45,-105,-40,40,27
};

long bias_0[1*256] = {
169,-172,27,-66,-152,-462,502,104,-676,-343,-426,-282,411,-187,-129,-93,-281,-16,-99,414,-38,-178,-376,-110,-182,-72,-268,-95,-34,-208,-33,-81,368,-8,-71,-296,-496,-216,-453,-334,-418,-35,-367,-468,130,-64,343,-551,-114,143,99,-82,327,-104,-116,-11,-75,-345,-37,289,145,-16,-409,-359,-136,-58,149,-63,-99,-3,87,-38,-395,-397,242,472,-140,-109,65,-264,-98,-38,-141,-279,-86,-196,304,-17,-50,-85,-610,-144,-292,-611,-225,455,28,62,-105,-55,-229,-299,-89,-271,-102,-297,351,-76,-246,-28,234,-533,-27,-47,-54,-125,-356,-594,-186,13,-17,-217,-188,-201,-175,-225,-39,-141,-16,-237,12,134,150,-144,333,-300,-58,-101,-492,-730,-86,-483,-351,-115,-134,-28,-23,-666,-229,-152,54,-62,-390,-13,-470,-186,-382,-257,211,-4,113,-44,332,-298,303,300,-219,-259,-118,-302,-27,-271,226,100,1870,-59,4,0,-90,27,-133,-62,-282,-23,-124,318,-25,-5,56,-21,20,-225,-358,-165,-206,-685,64,-526,-302,-268,-323,-28,-34,106,-161,-201,-117,-544,521,417,-110,-445,-30,-268,-86,-138,-35,-286,-48,-23,-21,279,-281,-179,131,-24,-238,-59,-270,-5,-526,-65,-342,7,16,-243,8,106,117,-49,167,-1357,365,-337,-22,-285,19,-1532,-162,274,-225,313,10,-15,-675,1
};

long bias_1[1*2] = {
630523,-379560
};
