#include<stdio.h>
#include <stdbool.h> 
#include <time.h>
#define LEN_INPUT 31
#define LEN_LAYER_0 256
#define LEN_LAYER_0_HALF 128
#define LEN_LAYER_1 2
#define FEAT_31

struct request_queue {
    long *weight_0_T, *weight_1_T, *bias_0, *bias_1;
}rqu;

static bool prediction_model(long *feat_vec) {

	long input_vec_i[LEN_INPUT], mid_res_i[LEN_LAYER_0], final_res_i[LEN_LAYER_1];
	long *weight_0_T_ent, * bias_0_ent, *weight_1_T_ent, * bias_1_ent; 
	int i, j, k, offset;

	for (i=0 ; i<LEN_INPUT; i++) {
		input_vec_i[i] = (long)(feat_vec[i]);
		// input_vec_i[i] = (long)(test_input[index][i]);
	}

	weight_0_T_ent = rqu.weight_0_T;
	weight_1_T_ent = rqu.weight_1_T;
	bias_0_ent = rqu.bias_0;
	bias_1_ent = rqu.bias_1;

	for (j = 0, offset=0; j < LEN_LAYER_0; j++, offset+=LEN_INPUT) {
        mid_res_i[j] = 0;
        //loop unroll'
		//printf("\nj = %d, offset = %d", j, offset);

		mid_res_i[j] += input_vec_i[0] * weight_0_T_ent[offset+0];
		mid_res_i[j] += input_vec_i[1] * weight_0_T_ent[offset+1];
		mid_res_i[j] += input_vec_i[2] * weight_0_T_ent[offset+2];
		mid_res_i[j] += input_vec_i[3] * weight_0_T_ent[offset+3];
		mid_res_i[j] += input_vec_i[4] * weight_0_T_ent[offset+4];
		mid_res_i[j] += input_vec_i[5] * weight_0_T_ent[offset+5];
		mid_res_i[j] += input_vec_i[6] * weight_0_T_ent[offset+6];
		mid_res_i[j] += input_vec_i[7] * weight_0_T_ent[offset+7];
		mid_res_i[j] += input_vec_i[8] * weight_0_T_ent[offset+8];
		mid_res_i[j] += input_vec_i[9] * weight_0_T_ent[offset+9];
		mid_res_i[j] += input_vec_i[10] * weight_0_T_ent[offset+10];
		mid_res_i[j] += input_vec_i[11] * weight_0_T_ent[offset+11];
		mid_res_i[j] += input_vec_i[12] * weight_0_T_ent[offset+12];
		mid_res_i[j] += input_vec_i[13] * weight_0_T_ent[offset+13];
		mid_res_i[j] += input_vec_i[14] * weight_0_T_ent[offset+14];
		mid_res_i[j] += input_vec_i[15] * weight_0_T_ent[offset+15];
		mid_res_i[j] += input_vec_i[16] * weight_0_T_ent[offset+16];
		mid_res_i[j] += input_vec_i[17] * weight_0_T_ent[offset+17];
		mid_res_i[j] += input_vec_i[18] * weight_0_T_ent[offset+18];
		mid_res_i[j] += input_vec_i[19] * weight_0_T_ent[offset+19];
		mid_res_i[j] += input_vec_i[20] * weight_0_T_ent[offset+20];
		mid_res_i[j] += input_vec_i[21] * weight_0_T_ent[offset+21];
		mid_res_i[j] += input_vec_i[22] * weight_0_T_ent[offset+22];
		mid_res_i[j] += input_vec_i[23] * weight_0_T_ent[offset+23];
		mid_res_i[j] += input_vec_i[24] * weight_0_T_ent[offset+24];
		mid_res_i[j] += input_vec_i[25] * weight_0_T_ent[offset+25];
		mid_res_i[j] += input_vec_i[26] * weight_0_T_ent[offset+26];
		mid_res_i[j] += input_vec_i[27] * weight_0_T_ent[offset+27];
		mid_res_i[j] += input_vec_i[28] * weight_0_T_ent[offset+28];
		mid_res_i[j] += input_vec_i[29] * weight_0_T_ent[offset+29];
		mid_res_i[j] += input_vec_i[30] * weight_0_T_ent[offset+30];

        // apply bias
        mid_res_i[j] += bias_0_ent[j];
        // relu
        if (mid_res_i[j] < 0) {
            mid_res_i[j] = 0;
        }
    }
    
    final_res_i[0] = 0;
    for(k=0; k<LEN_LAYER_0; k += 8) {
        final_res_i[0] += mid_res_i[k] * weight_1_T_ent[k];
		final_res_i[0] += mid_res_i[k+1] * weight_1_T_ent[k+1];
		final_res_i[0] += mid_res_i[k+2] * weight_1_T_ent[k+2];
		final_res_i[0] += mid_res_i[k+3] * weight_1_T_ent[k+3];
		final_res_i[0] += mid_res_i[k+4] * weight_1_T_ent[k+4];
		final_res_i[0] += mid_res_i[k+5] * weight_1_T_ent[k+5];
		final_res_i[0] += mid_res_i[k+6] * weight_1_T_ent[k+6];
		final_res_i[0] += mid_res_i[k+7] * weight_1_T_ent[k+7];
	}
	// apply bias
	final_res_i[0] += bias_1_ent[0];

	final_res_i[1] = 0;
    for(k=0; k<LEN_LAYER_0; k += 8) {
        final_res_i[1] += mid_res_i[k] * weight_1_T_ent[k+256];
		final_res_i[1] += mid_res_i[k+1] * weight_1_T_ent[k+257];
		final_res_i[1] += mid_res_i[k+2] * weight_1_T_ent[k+258];
		final_res_i[1] += mid_res_i[k+3] * weight_1_T_ent[k+259];
		final_res_i[1] += mid_res_i[k+4] * weight_1_T_ent[k+260];
		final_res_i[1] += mid_res_i[k+5] * weight_1_T_ent[k+261];
		final_res_i[1] += mid_res_i[k+6] * weight_1_T_ent[k+262];
		final_res_i[1] += mid_res_i[k+7] * weight_1_T_ent[k+263];
	}
	// apply bias
	final_res_i[1] += bias_1_ent[1];
	// printf("%ld\n",final_res_i[1]);
	// printf("%ld\n",final_res_i[0]);

    return final_res_i[0]>=(final_res_i[1])? false: true;
}

int main() {
   long bias_i_0[256] = {
    -38,-56,-21,-8,-68,-42,-72,-73,-128,6,-28,249,-215,-205,-172,9,155,112,-26,255,-573,-97,-53,-20,57,-32,79,-182,168,26,-254,-93,-173,-56,50,-30,558,-64,-87,14,-34,-94,-51,-74,-27,-80,17,-110,124,-195,-300,96,42,-175,104,114,-327,-218,2168,124,-170,134,-45,-70,-28,367,-32,247,-21,-203,64,-56,81,-174,-52,55,-51,-77,1261,-110,13,-103,-434,13,-163,-38,11,-77,74,-8,-70,-1335,364,-54,-44,-335,318,354,-276,-261,-29,35,448,-18,-311,-159,55,-94,-129,-400,-41,-1596,-48,2,44,-77,-80,-191,-374,-48,64,152,-324,711,-472,167,-50,-6,-320,9,-100,-100,-47,63,-100,-51,-184,-45,-32,-33,-89,-103,177,-254,-40,-15,-68,-85,-90,15,-193,55,-69,-31,-154,-191,-177,-64,-124,-64,-28,-42,-40,-88,-118,43,49,-112,49,425,-526,-460,-323,139,-337,-45,-10,-453,-144,-86,-171,523,-78,-74,26,-115,680,118,39,91,-148,-46,-397,-494,-75,-99,-89,-223,-308,-8,-382,-153,20,359,-115,96,-52,-298,-86,-485,-302,-165,-149,-402,-42,-79,-1377,-84,-151,189,113,-205,-17,-20,-54,-276,30,-243,-104,-14,-129,-20,26,28,416,-72,-367,-26,118,320,395,-49,-549,-43,-179,-214,-43,-215,-34,-23,12,-408,-100,48,-48,-366
    };
    long bias_i_1[2] = {
    597881,-413426
    };

    long weight_i_1[256][2] = {
{-70,76}
,{-85,-28}
,{106,11}
,{96,55}
,{77,42}
,{-43,-25}
,{-89,-87}
,{79,13}
,{171,-123}
,{132,-108}
,{41,-20}
,{-13,-17}
,{407,-488}
,{-123,185}
,{-40,-58}
,{-51,-55}
,{31,15}
,{14,-12}
,{-29,-93}
,{62,41}
,{209,-349}
,{-15,-30}
,{-30,-78}
,{11,-74}
,{-32,-27}
,{78,-94}
,{185,-219}
,{27,5}
,{79,77}
,{61,0}
,{30,-3}
,{-28,-58}
,{96,84}
,{-38,39}
,{41,135}
,{-51,-56}
,{36,51}
,{158,-230}
,{-81,-72}
,{118,38}
,{130,97}
,{155,134}
,{-59,-74}
,{-52,64}
,{-7,-12}
,{-5,58}
,{-30,23}
,{91,83}
,{34,50}
,{-35,11}
,{46,51}
,{187,97}
,{64,51}
,{-57,21}
,{94,-132}
,{22,-61}
,{-81,111}
,{35,-9}
,{190,194}
,{63,61}
,{-92,-34}
,{22,24}
,{-45,69}
,{-3,-50}
,{-11,-2}
,{-11,37}
,{14,-167}
,{-1,0}
,{21,-52}
,{63,68}
,{-55,-42}
,{-105,121}
,{96,99}
,{-2,-53}
,{153,-60}
,{72,79}
,{-42,-27}
,{-12,-63}
,{148,112}
,{12,-23}
,{91,93}
,{-29,-58}
,{69,19}
,{135,86}
,{98,68}
,{5,-28}
,{-101,-126}
,{79,66}
,{139,130}
,{-14,5}
,{35,69}
,{-189,154}
,{23,36}
,{193,-199}
,{110,52}
,{146,-307}
,{25,7}
,{7,52}
,{216,-42}
,{54,11}
,{12,-60}
,{59,60}
,{26,16}
,{17,-38}
,{-234,242}
,{55,16}
,{137,98}
,{-69,-121}
,{-145,97}
,{20,88}
,{-103,-55}
,{-333,272}
,{111,50}
,{253,-262}
,{98,120}
,{-52,71}
,{40,22}
,{28,21}
,{77,83}
,{107,-70}
,{118,142}
,{-70,-32}
,{21,25}
,{105,64}
,{295,-160}
,{128,29}
,{-97,-52}
,{16,-61}
,{55,-19}
,{48,-75}
,{101,-91}
,{-74,-107}
,{-122,44}
,{132,87}
,{16,-18}
,{139,-284}
,{21,82}
,{70,106}
,{82,-85}
,{-114,-155}
,{-26,-99}
,{280,-355}
,{124,-116}
,{60,50}
,{-63,-60}
,{166,31}
,{-74,72}
,{125,91}
,{-33,-57}
,{49,-31}
,{125,151}
,{-46,-96}
,{32,5}
,{89,9}
,{-255,174}
,{15,189}
,{-199,153}
,{68,-49}
,{-29,-64}
,{71,-53}
,{105,67}
,{-16,8}
,{10,36}
,{-21,-78}
,{-75,-103}
,{74,68}
,{-410,432}
,{-45,-37}
,{46,20}
,{43,46}
,{12,31}
,{64,46}
,{75,122}
,{86,60}
,{-19,-29}
,{-11,-38}
,{-49,202}
,{39,7}
,{-13,-14}
,{-63,-138}
,{-185,197}
,{71,70}
,{-90,-119}
,{-54,-94}
,{45,42}
,{79,103}
,{85,75}
,{25,6}
,{7,-30}
,{92,8}
,{16,-31}
,{-4,-72}
,{166,-89}
,{-215,183}
,{-47,-93}
,{-150,-109}
,{-34,-113}
,{-264,274}
,{62,76}
,{-14,-66}
,{-65,6}
,{-56,-77}
,{-24,9}
,{142,-113}
,{57,40}
,{-45,-44}
,{69,120}
,{-528,368}
,{22,8}
,{-203,110}
,{-222,187}
,{103,49}
,{17,-29}
,{-411,271}
,{-10,21}
,{-85,-128}
,{-11,202}
,{-91,-48}
,{-102,-86}
,{9,3}
,{289,-76}
,{86,87}
,{-10,-85}
,{167,-62}
,{29,22}
,{-114,85}
,{91,124}
,{-36,-38}
,{-5,-6}
,{122,108}
,{463,-455}
,{62,27}
,{11,1}
,{59,-51}
,{44,38}
,{46,-6}
,{2,3}
,{154,130}
,{105,102}
,{210,-183}
,{24,17}
,{-52,-36}
,{2,-6}
,{3,-36}
,{-10,-20}
,{29,23}
,{71,29}
,{31,54}
,{-77,-142}
,{58,54}
,{87,-106}
,{-59,-77}
,{-89,-120}
,{98,-83}
,{7,9}
,{-13,-67}

};

long weight_i_0_T[256][31] = {
{-56,-20,-118,1,85,82,105,9,-28,66,11,-78,91,-70,-83,-135,-177,-108,8,-78,-51,-7,-140,102,-145,-27,-108,-120,-121,-17,-148}
,{73,66,-163,-62,-35,66,-157,-40,-52,-46,-122,-100,7,-19,-88,93,-129,12,-34,-111,-26,32,-77,-14,-47,32,-8,-3,-75,-37,-123}
,{-153,-89,-159,-71,-290,-133,58,-288,59,70,-185,104,-185,56,18,75,-72,25,-114,212,12,-188,12,-210,-135,-26,-184,-29,-118,-124,-59}
,{-234,101,24,8,-158,-41,-8,-24,-167,17,-18,-124,-58,60,-170,-63,-190,-94,-229,-118,-146,-36,37,50,-16,-149,-43,-64,-188,79,80}
,{-98,-19,27,-27,-37,-55,-21,-115,-182,-31,-177,-143,-26,-182,62,-151,-147,38,6,-154,-71,-179,-84,-116,-172,-42,-76,-3,21,-37,-161}
,{-98,-109,-130,-102,-1,-126,-119,-110,-16,-16,-87,93,8,-150,-124,-117,-226,-20,9,-3,-136,-81,78,-61,-67,-181,46,-61,-175,-84,-35}
,{36,7,9,-151,-164,-58,20,-135,-71,-88,-97,-124,29,48,-28,-137,56,-89,-70,-29,-48,-85,51,126,-80,-130,46,-97,-135,-29,-37}
,{-9,-171,10,-153,-32,40,68,-187,-37,-151,65,-160,28,-182,-85,-74,35,20,7,-28,-174,-174,-149,5,-107,-63,42,48,14,20,-132}
,{-415,-228,-24,-255,33,-153,-138,34,-364,-212,-56,-181,-193,-59,57,2,184,-663,-101,406,-108,-492,-269,435,57,275,183,-594,-439,-39,-87}
,{-227,-263,-5,-239,-271,-133,-43,-153,22,-237,-280,-14,-51,-203,6,-197,68,-189,5,187,-20,52,-84,68,-54,-173,-119,-73,-105,-61,-125}
,{29,26,1,74,17,12,15,-138,-65,-127,-116,-34,-73,-96,35,-25,-67,18,20,-55,-47,-84,-82,-61,-58,-152,51,-55,-32,-15,-91}
,{-29,-38,11,21,-90,27,-142,-107,-127,54,7,-61,-17,-16,-118,55,-9,-7,-9,-182,-160,13,-113,-3,37,-110,-1,-156,-80,33,-87}
,{30,-10,-8,-74,-8,-28,-18,-22,-54,2464,224,-23,-2429,-297,-86,221,58,-27,-8,163,4,-19,-40,176,25,-13,-39,1358,151,-7,0}
,{-54,-272,-154,-311,-295,-171,-466,-411,-157,-234,-607,-143,372,40,53,375,96,-62,-41,-151,-265,-39,-125,353,16,-54,-98,58,27,19,-86}
,{-130,-79,-54,135,39,-82,-110,-181,-123,-152,-35,28,-2,-53,-131,-110,43,-21,14,10,-20,39,-111,-7,-46,34,-122,-119,57,-37,-4}
,{8,-208,-181,-86,-123,-85,-158,-205,-2,-22,3,-122,-15,87,-193,3,62,-8,-109,-10,-98,-84,-122,-227,-14,-90,-43,-312,-32,2,32}
,{49,-150,-149,-41,-25,8,-83,92,-165,-90,-20,29,-133,1,-64,-21,-31,9,6,-36,-108,28,11,23,1,34,-143,-210,-56,-63,-146}
,{-91,-129,20,-45,66,-85,30,89,-116,49,-107,108,-58,-52,-225,52,-51,-81,-19,-268,-26,-81,-128,107,-3,-24,-113,-15,-48,-13,-67}
,{45,-136,-102,-81,-133,42,97,12,-144,71,-124,-157,107,-89,-17,109,-136,-5,19,-59,-77,-18,-118,-78,-4,-30,-115,52,100,-112,-49}
,{38,67,21,-194,8,46,50,-172,44,86,29,-110,-117,-98,-127,-122,-14,-45,-80,48,-68,-172,-63,-87,-145,-129,-39,71,-128,59,-36}
,{-900,-158,-14,-953,61,-82,119,49,-135,918,366,234,-5010,-708,104,14,23,-30,-39,260,69,-24,-38,-26,-131,-10,13,647,114,-9,15}
,{-72,-15,-11,-136,-34,-125,-109,-127,-46,-129,20,-155,-53,7,-101,41,-115,-120,-5,-117,-24,16,-50,17,-59,-38,-23,51,48,-157,-82}
,{-100,-27,-43,-292,-170,-101,-75,-3,57,-177,-76,-63,-425,-262,-78,-493,-72,-69,-151,166,4,23,22,-72,-80,-67,-20,-137,-119,-92,-154}
,{-116,-255,-202,-157,-272,-113,-231,-303,22,-23,-344,8,-52,-343,-110,102,55,-114,-48,-80,78,-33,-91,-102,134,-97,-235,-264,9,-45,-102}
,{-10,-10,-15,-39,-34,-233,-21,-234,21,14,22,16,6,-139,-59,96,-133,11,10,-153,-52,31,-106,124,68,-122,-141,-242,-84,-13,-1}
,{-66,-8,24,-116,87,-144,24,18,-31,18,-5,-92,2,-105,-112,7,-163,-46,-142,58,8,14,-150,17,-42,25,-133,-115,-160,-116,-133}
,{-354,-554,-236,-244,-446,47,-239,-339,-113,-206,-514,26,-371,-255,68,104,-117,-169,-119,32,14,-25,-411,-146,146,259,-69,-11,323,11,-312}
,{-72,-98,29,73,-105,-91,18,-105,-133,-140,84,30,53,-164,5,117,115,7,-47,-71,-91,16,52,119,-98,13,-133,-18,-4,-110,-180}
,{-12,-122,-10,23,-8,47,-4,57,-174,45,-119,77,-73,-33,5,64,-129,-94,-87,39,-22,-7,-2,-174,-66,-97,-40,-2,-50,-103,24}
,{74,86,-78,-87,-175,-131,-19,-7,-87,-91,39,-69,-118,-118,-65,30,1,21,-60,-263,-185,-133,-157,-10,-61,-12,-66,-3,60,-60,-79}
,{-30,51,-2,60,8,-26,44,-203,-33,-69,28,3,-113,-4,-19,-33,76,-32,-122,-68,-139,26,-137,5,-214,-66,-138,71,-199,8,-6}
,{9,-158,-212,-35,-155,5,-133,-179,-32,-79,-161,16,-104,52,14,-111,-88,22,-85,-45,-104,-45,-13,-24,-26,-61,-132,52,-110,-60,52}
,{-81,-41,49,-56,2,27,-102,-43,-174,23,-101,-63,80,41,25,-26,-21,-98,-17,-56,-262,-23,29,-131,-143,-38,54,-51,-161,-28,-109}
,{19,-128,0,104,-70,-71,48,-158,-169,104,28,-133,-96,-122,-52,22,-55,-109,-53,-18,-34,-74,-68,98,-105,-33,87,-55,-63,3,-110}
,{26,-104,-176,55,-143,-81,-16,-223,-369,-117,-130,114,-56,-87,-256,197,24,-36,-113,-27,-288,-94,-94,-29,-314,-11,-272,178,51,-58,-31}
,{-101,-26,-202,-55,-87,-129,83,74,-86,-34,46,72,31,-83,-23,46,15,37,-87,-9,-186,-147,72,-35,-14,-155,5,-307,-87,-160,-119}
,{-29,-10,-72,-20,-77,-59,-191,-112,-23,39,44,24,-89,-42,14,-201,-37,-75,1,57,4,-72,-56,-473,-51,-18,-62,-744,-73,-13,-30}
,{-285,44,-276,-186,90,127,-197,-48,-38,-282,193,-423,-644,-33,-579,-188,-179,-135,131,523,227,166,98,285,-83,20,-203,231,-222,-84,-572}
,{-31,-172,-154,-72,-151,-49,5,-20,-107,-118,-121,-150,-70,-152,65,-80,-196,-169,65,-21,29,-17,-23,0,-223,-22,43,53,-159,-7,-129}
,{-116,-164,39,85,-125,-137,-83,0,-100,-147,-121,-121,-83,-168,-157,-75,58,-102,-47,-53,71,54,37,-97,-142,108,44,96,-1,-141,-160}
,{-52,-62,-41,-181,-128,21,-160,-92,-260,15,-75,-190,-170,-190,30,60,-52,-59,-48,-19,-125,-130,-95,99,37,64,-23,83,-116,-138,-189}
,{-21,-92,-147,-36,-88,-158,-96,-133,-107,-126,51,-93,83,-114,-3,33,-38,68,-46,-157,-264,-51,7,-31,-242,29,-22,-20,-41,-85,32}
,{-105,40,58,56,-163,-83,7,-82,51,26,1,-59,-32,-112,-118,103,-192,-32,-78,92,65,-120,-50,-205,-40,44,-81,40,-146,-81,-142}
,{86,-22,-119,33,24,-137,29,30,70,-167,-6,-82,5,-53,-181,-89,18,-28,-156,1,-193,-30,-17,42,-160,-82,41,78,-6,-82,22}
,{-167,-156,-185,-184,-123,-169,67,-128,-200,-88,13,105,69,-60,-47,133,116,-37,-80,-116,-17,-163,-87,-217,18,-157,30,98,67,-25,-52}
,{-79,35,8,84,-129,-2,8,-197,-49,-75,-171,-71,-23,-47,-54,49,-14,-53,-90,37,-158,-138,-164,-97,34,11,-56,38,-94,-138,4}
,{-83,-207,-182,-68,-96,-110,-57,-3,-145,90,-26,-27,-460,-287,-144,309,-71,36,-32,-123,-50,-194,-153,124,-7,-221,-57,119,3,-50,-63}
,{-83,-180,-197,76,73,-81,89,1,5,53,-131,68,79,-170,-154,79,-189,-183,66,72,-58,-152,31,12,-105,-66,51,48,71,21,-92}
,{-95,63,-218,-187,-80,-74,-151,-86,-140,11,-226,-101,-137,-101,-10,59,24,-148,-47,-117,-139,-78,-54,228,7,-11,-16,-68,-27,-87,-118}
,{100,-178,-86,53,-252,-202,43,-76,-21,18,-110,-22,226,61,-107,59,-91,-97,-176,124,-480,-6,-117,53,-459,-207,-115,197,-164,-69,-89}
,{-200,-173,-52,-121,-121,-54,-112,-22,-93,-67,11,-97,3,-106,-150,157,121,-95,36,100,-95,-90,40,85,-92,29,-19,76,-55,-80,-102}
,{-205,-100,-68,-336,-142,-80,-156,9,39,68,-57,-283,-362,-98,-287,-375,-56,44,-83,237,-18,56,113,-45,-102,60,-100,-122,-125,-76,-77}
,{-2,-69,25,-54,14,-206,-80,-79,57,-72,-169,95,-37,-108,56,-348,-78,-178,-125,18,-55,-124,43,41,-84,-106,-137,103,-42,-58,15}
,{-157,-111,-24,-79,-101,-93,-166,-8,-277,-62,28,-55,172,-161,-283,-77,5,56,18,83,-245,-221,-155,251,-84,33,-91,55,129,75,-88}
,{-295,-820,-208,-493,-451,-76,-799,-298,-118,-294,-170,-6,-745,-719,-156,11,114,12,68,195,512,-81,68,517,184,-116,-32,-116,-131,-158,-141}
,{-290,-93,-7,-254,-241,76,-264,-167,-78,-70,-138,-126,-220,-98,88,-28,99,-6,-80,22,79,-49,-95,-5,-13,-171,-177,-531,-46,-157,-61}
,{-240,-35,122,-97,-215,-163,-299,-424,-63,-73,-277,-204,9,428,25,464,141,-48,-7,-411,-604,-162,-178,118,-646,-85,-139,610,-110,-6,-141}
,{-2,-153,54,-152,77,-26,-145,-41,-79,-116,-56,-90,28,-16,-38,114,-7,-135,-27,41,76,-71,-71,161,-88,-155,-164,67,-24,-93,-44}
,{15,-2,-1,-1,3,3,8,1,1,-27,-2,2,35,1,1,200,1,0,1,235,7,2,1,259,6,-1,0,319,14,1,-4}
,{-154,-157,-129,-197,-235,92,-61,-175,-19,-268,-170,103,-152,-23,-215,-18,126,-319,-172,199,23,-21,-122,-156,130,-28,-211,-520,-259,-52,-259}
,{-207,-233,-195,-411,-277,-73,-187,-234,-131,-357,-44,-225,84,92,-42,-162,25,-63,-148,183,-96,-104,-236,143,-194,-105,-62,267,96,51,-82}
,{-2,-147,-132,124,-61,-32,-26,-17,24,17,-56,32,-207,-171,-31,-147,-67,-73,-162,57,-63,-5,-127,62,-78,-31,-105,70,-6,5,-14}
,{92,-93,-71,51,-124,53,160,-138,-94,-147,-209,-131,-97,-135,-157,-181,-115,-4,-57,-79,-22,-1,-154,128,106,25,-181,-59,27,53,-175}
,{-46,7,-11,36,3,-96,-12,-82,-62,-65,-11,-85,-61,-196,50,12,2,32,-95,-182,-122,8,-159,-166,-152,-143,-154,-22,9,28,-98}
,{-136,-205,-38,-28,-129,-53,-104,54,-205,-48,-17,-19,-44,-276,1,-330,-69,-132,-55,303,39,23,66,-48,-28,-23,-148,-74,-23,-177,-250}
,{11,-21,10,-175,-22,-105,79,-21,-155,-9,-43,-33,-146,-15,-16,-100,-120,-194,-6,45,-10,-152,-104,139,-19,-8,0,-73,-23,-64,-45}
,{-4,-203,-59,-47,-68,-41,-108,10,-138,-135,-112,85,-197,-104,-181,-208,-199,3,-63,-36,112,-174,-138,-104,-90,-69,35,128,-123,-141,-108}
,{57,-42,-28,2,-73,-144,44,-105,-107,-42,48,-12,-241,-158,30,-127,-72,-112,7,34,-111,27,-28,-49,-18,-12,-136,-66,-20,43,26}
,{-244,-206,-191,-257,-198,-105,-29,-70,102,-161,-171,95,-119,10,-67,65,-70,-176,35,-31,22,-131,76,-4,-89,-149,7,-119,-101,-170,-259}
,{-198,-81,-106,-28,-47,19,-109,-157,-70,-104,-113,21,-116,-151,-78,-238,19,-172,-35,-120,45,-112,9,219,82,35,-12,138,-192,-44,-95}
,{-48,-36,-31,-118,-3,32,-77,-15,-9,-19,25,-26,-28,33,16,19,-138,-142,-23,-25,-169,-58,-78,-73,-8,-42,-41,84,-145,-135,37}
,{-63,-130,-139,-175,-173,-145,84,-8,58,-85,-30,-50,-14,-69,-14,-73,-30,-155,90,-49,20,-119,-173,-112,-180,-3,-172,111,60,-61,44}
,{-81,-29,-185,-160,107,-34,-55,77,-109,-73,-4,-133,-205,-59,45,-1,51,-27,29,-139,-101,-193,-96,22,23,-218,-8,-45,19,-204,-151}
,{20,-72,69,74,-40,43,-30,-114,-36,-15,-53,-147,-159,-63,9,13,-158,-72,-34,92,-123,-126,11,52,60,-87,-22,-24,8,-58,-31}
,{-307,-181,54,-13,48,-163,-148,-25,78,198,-59,-230,-436,-216,-135,152,-195,-172,-215,198,-32,-90,-226,198,-69,-163,-83,151,-336,-261,-27}
,{-81,-186,14,-99,62,82,92,-159,-215,-77,-16,1,-243,-200,-176,99,-43,-38,-137,-6,-23,-17,-168,-48,-51,-2,14,100,8,-75,9}
,{-99,-8,-5,67,-62,43,-128,-135,-87,89,17,-215,-30,-45,-1,3,-126,-193,-112,-15,-73,-13,-182,-7,9,31,-80,-185,-81,-96,-8}
,{-196,30,-105,-298,-36,2,-195,-53,-104,-164,-87,-153,-9,-75,79,-63,-180,-72,-161,-129,151,-167,-100,131,-245,12,-241,122,-95,-146,-152}
,{-58,10,-41,-17,-34,-33,-24,-47,-36,134,-19,-55,-160,-59,-11,-426,-91,-67,-29,-438,-104,-65,-6,-397,-110,-51,-11,-550,-58,-41,-50}
,{-50,-34,49,-91,-143,45,-3,-98,42,30,8,-95,93,-85,-204,-81,-117,-74,-109,56,-128,-96,4,-76,68,-202,-163,55,-153,8,-27}
,{-73,-25,-46,28,-51,-10,-62,-113,15,-113,1,-63,-11,-122,-47,161,-139,-77,-76,22,-185,-103,-28,133,-52,-106,55,42,13,32,-213}
,{-219,-183,-123,-156,-83,-113,-167,60,-174,-256,-103,-103,-50,-123,19,-32,100,39,-84,-2,3,44,-2,-49,-153,-114,-89,66,166,-3,-123}
,{-102,-48,-1,-58,-82,-27,-116,-115,-21,-106,-69,-70,142,-28,33,140,6,-60,-51,170,-251,-104,-62,47,-94,2,-78,80,-224,-202,-8}
,{-113,-21,-96,14,52,-27,90,-33,-61,-51,25,-43,69,-35,-126,-57,-86,-38,41,37,-36,-92,-112,43,-62,25,-111,-101,-145,-132,-46}
,{19,-68,95,30,-138,-12,-142,46,-147,-145,-3,-83,97,-132,-45,-59,-61,-17,-66,54,-112,-91,-53,-66,-57,10,-151,-40,48,27,1}
,{-216,-2,-181,-203,59,-180,-154,-156,19,-121,108,29,0,-177,-226,-56,-21,-156,46,93,-84,-130,-182,-19,54,-144,135,30,-43,-186,-185}
,{-88,-237,-97,-47,76,-173,-118,-151,-71,22,-11,-117,-92,96,44,-134,20,44,-73,-198,-52,-180,-185,130,-114,-92,-5,81,-43,-96,-58}
,{53,-89,62,-33,-120,-88,-133,-184,-32,-103,1,-59,33,-108,-107,91,-82,-31,-100,70,65,-117,-106,-134,-164,-84,-34,10,-49,63,-121}
,{-37,-31,26,-166,-33,147,-123,-175,-53,-30,-100,-195,6,-33,-58,-56,15,-54,-12,107,-147,63,-88,50,18,-143,-180,-425,-33,-38,-157}
,{89,30,33,-128,-193,-32,-62,25,-143,-60,-11,-106,69,4,-29,24,-56,46,55,12,34,7,-39,21,-77,-155,-149,-11,-120,-181,-53}
,{-48,31,-98,6,-257,-66,-30,-229,-9,-180,-197,-167,-262,-30,-131,33,-179,-91,-135,64,-94,-191,-231,180,-61,-287,-291,161,-10,55,-119}
,{-37,-57,-22,-17,8,-22,-105,-33,-54,-543,-64,-36,672,61,-30,683,84,-11,-15,772,75,-10,-33,915,106,-4,-44,1222,115,-2,-19}
,{-172,-80,-107,40,-97,-7,-54,27,-13,66,10,-69,-105,-68,-63,94,-18,-18,-115,-285,-56,-16,-127,86,22,-141,-86,-116,-44,18,19}
,{-790,85,-100,-581,-481,-38,-459,-146,-334,-277,-204,-36,-723,-43,-104,-366,109,-79,-37,78,-157,-297,-339,404,164,-537,-560,553,337,-3,85}
,{39,-114,-115,-93,-186,-24,27,-112,39,67,-242,61,-28,-115,-77,-33,-171,72,15,1,-206,13,-152,-115,-237,-48,32,-22,-162,0,-149}
,{-199,-118,-32,312,-109,147,-230,-114,-224,-47,31,-194,-546,-450,-170,-286,-243,295,24,106,-230,-111,61,627,210,74,11,-227,-1401,-73,-106}
,{-198,66,-18,15,-102,-133,-123,-20,-114,-9,19,-59,-29,-1,-19,-111,10,-84,-42,164,-29,-63,-82,51,43,-3,19,-206,-139,40,-150}
,{-36,-55,-117,-85,-3,-5,-47,-39,-20,-31,17,-100,-61,-71,4,-36,-23,-62,-3,-79,-62,-67,-84,44,-50,23,6,14,-38,-104,-11}
,{-134,24,-160,-78,54,-25,-21,83,-59,-161,-270,-108,-35,-131,35,270,-138,-35,-126,277,-357,-108,-440,82,-335,-179,56,103,-205,-218,-20}
,{-2,-107,46,-11,-42,-31,-124,-128,-82,-123,-73,-48,96,-151,-19,-19,-22,-86,-77,-77,-100,-93,-50,13,16,36,-30,25,-91,-62,-141}
,{-53,-88,27,2,-214,-107,-29,-88,-31,-81,-232,-58,-166,-4,-39,-81,15,69,-191,-59,-219,-144,73,-238,-169,33,-182,-214,-186,13,-62}
,{-130,-235,-172,-135,-239,-184,-82,-23,-163,112,12,26,-337,-261,56,242,-145,-116,-134,83,40,124,-14,293,-57,-173,73,-68,-101,-156,-305}
,{58,-30,-48,-169,-67,-4,63,-6,-15,119,-58,61,-177,-30,48,-268,-51,-109,-64,181,-10,-21,-67,-189,-40,-78,-60,-721,-75,-10,-91}
,{-150,-98,-75,-235,6,-87,-217,-66,-98,-54,-215,-42,-115,30,-176,-228,76,-228,-2,91,-143,-9,27,-314,-97,-6,-191,-71,-48,59,-235}
,{-315,78,67,-144,-36,-293,-41,-183,-24,-55,-380,-213,-1,339,9,449,201,42,-34,-439,-888,-391,-91,-395,-1267,-160,-326,433,114,-87,-1}
,{-55,-124,-95,-22,-167,-137,-136,-33,-19,84,2,-75,-55,-123,-147,134,-277,1,-240,54,-57,5,-159,125,-69,-57,-84,85,35,-94,-21}
,{-147,-217,5,-129,-35,105,-93,-110,-173,24,-4,-137,-267,-35,-78,-202,44,38,-73,72,76,40,15,42,-99,-146,-106,-225,20,-196,-86}
,{-8,-72,-126,-119,6,-39,52,-15,-101,-51,-57,-91,-224,-58,-126,-73,-13,7,-54,-49,-180,-27,54,103,37,-121,-115,-100,-35,-87,-148}
,{-101,-383,-126,-261,-373,-59,-83,-118,13,-213,-75,-87,68,126,-249,-30,-152,-66,-134,150,-98,-76,-190,276,-195,-193,-33,234,133,36,-32}
,{20,7,-64,-174,-29,-95,-156,-18,-56,-98,-109,-107,121,-104,0,154,-99,18,-42,-17,-21,-72,-40,22,18,-86,-11,75,-1,-45,-95}
,{-21,-79,-150,-114,-111,-69,-128,-44,10,-13,20,-28,-4,15,80,-41,-37,-157,-68,-100,-2,-203,-99,158,11,-66,-15,-99,-101,-34,26}
,{-44,-47,-35,-45,6,-27,-96,-27,-47,-481,-48,-39,528,44,-37,741,102,-12,-16,861,92,-33,-31,978,125,-4,-38,1330,145,-6,-13}
,{-122,-111,60,-2,-61,-108,-41,-169,-14,-186,-1,-17,-122,18,24,160,3,-195,-6,-116,-34,51,-248,-116,21,-182,-73,-84,2,66,-171}
,{-65,-37,-171,-192,39,-236,105,51,-35,474,-1110,-313,-428,903,-42,55,-75,11,-126,174,-19,2,-30,95,77,-172,-98,105,-155,-103,-42}
,{-86,-146,1,-97,33,-79,-69,59,40,-27,-52,-157,58,70,-58,64,-30,-73,-76,-212,-101,14,-80,46,-62,-44,25,-39,67,-27,-155}
,{-63,-51,-28,-2,-123,-67,49,-141,-129,39,-150,-35,-83,-100,-33,-9,82,-139,14,143,-184,-126,-29,22,71,35,4,-65,88,4,-140}
,{44,-35,-80,-171,45,-16,-147,22,-216,-119,-35,50,-59,-149,52,54,-67,-123,78,58,-14,-164,8,-97,-38,-197,-144,65,-52,-193,-101}
,{-83,34,-161,53,81,35,-175,10,-133,-52,-5,-159,-107,69,-204,17,-110,-112,5,-45,-58,57,-28,-24,55,-114,-102,-94,39,-75,-126}
,{76,-2,49,-17,-1,-71,-167,-9,-113,-58,9,1,64,7,-2,-16,-48,17,-96,38,-129,-132,-115,-38,-98,-55,-29,64,58,-4,-8}
,{-84,-135,-20,-103,92,46,-44,-88,-125,107,-14,2,36,6,-50,-30,-122,-46,-62,66,-135,26,-98,-70,-53,-133,9,77,-2,0,-49}
,{-41,-88,-229,79,-76,-113,-133,-123,-24,-145,-112,-10,-43,7,-103,-34,33,-151,-64,-208,-114,-108,-135,70,-136,-66,15,-195,17,39,59}
,{-163,-34,-116,33,-29,63,63,-31,-263,117,63,14,-280,-35,-59,198,-51,-28,-83,-98,-51,-81,-115,26,-31,-73,-142,-75,5,-39,7}
,{-91,25,-107,60,-46,-137,10,-75,-39,-76,19,2,82,-100,-61,6,-90,-12,-112,22,-96,-26,1,-29,-121,23,-29,79,-1,25,8}
,{-77,-55,-35,-13,-60,-19,-74,-76,-31,81,-49,-51,-308,-102,-28,-351,0,-40,-3,-414,-15,-49,-15,-301,-17,18,-25,-686,-55,-25,-19}
,{-731,84,-67,-1158,1,-87,-640,-1,-183,435,392,15,-4497,-454,-110,-657,-121,-74,-14,273,6,79,14,514,113,108,9,582,12,21,-46}
,{-275,-45,-87,-139,-127,-189,-199,-197,90,-90,-22,-101,-343,30,5,6,41,33,-110,-85,-48,25,54,-378,-26,-212,-23,-12,-24,-32,-145}
,{53,-10,-158,-161,-48,-19,-55,-88,-64,-4,76,-9,-13,-98,74,-91,17,-138,-126,-76,-148,-114,-32,124,-96,-89,21,16,-168,36,-25}
,{-55,2,-21,-91,-117,-92,-105,117,80,12,-67,-212,0,-128,-124,-5,-129,-127,-257,-165,-155,-115,43,-62,-127,26,120,-215,-56,-108,-40}
,{-72,-31,-116,-100,-32,-60,-120,-134,9,-240,-50,-64,26,86,-18,73,97,6,-193,-12,71,-108,-191,-9,9,-113,-9,128,-180,-143,-25}
,{-164,40,-185,-156,27,-127,-111,-223,18,37,-45,73,-46,-69,-103,-36,-108,-199,3,-63,-44,-37,-77,-189,-96,60,83,69,16,-219,-62}
,{-661,-155,90,-207,-49,-58,-214,-92,-80,1510,206,130,-2189,-332,44,451,69,12,-18,174,-24,108,-83,847,106,-86,32,-65,-57,-29,57}
,{-63,6,-105,-2,-2,-104,0,-10,-127,25,-48,-188,12,-20,-30,-87,-222,-76,-39,-138,-30,-12,-56,93,-68,40,-124,-5,-36,-139,-164}
,{-65,-53,-108,-53,-112,6,-41,-133,-43,67,96,13,26,57,-169,40,-90,-15,-1,30,-152,-60,-3,-1,32,6,-36,54,30,-57,-135}
,{-170,-331,-168,8,-178,-131,-45,-201,-51,16,-69,-251,-128,55,137,-46,-175,-97,19,-210,-32,-10,-15,-144,-47,-218,-57,24,24,94,-114}
,{-20,-129,-131,-66,-167,-50,-64,-45,-1,-19,-74,6,-70,-179,-106,-25,-177,-195,-225,87,110,-19,38,-27,-97,-158,-116,-19,-173,13,56}
,{-238,-80,61,137,255,-110,0,-103,-47,252,-28,-162,-1195,-757,-336,712,18,-26,97,-499,-135,-135,16,-662,-185,22,-84,467,156,138,-67}
,{-76,-86,-141,-155,-21,-140,83,-85,-186,-143,-110,-150,-99,15,-9,117,-124,18,-19,-15,97,-11,-1,-24,-23,-3,-6,168,-55,-122,-121}
,{-163,-147,-120,-86,-187,-48,-24,-22,-103,-142,-54,-96,-62,-67,10,-122,-141,-42,77,-59,-73,32,-151,-114,102,-43,-194,-28,-98,-71,-27}
,{-28,-24,-92,-117,104,24,-45,-126,-122,-218,37,28,-45,96,-215,-78,89,-165,-7,-185,16,-149,-229,30,-145,-141,33,-204,19,-164,-42}
,{-140,12,94,-119,-60,3,77,-38,12,78,-121,8,87,-141,55,-123,-34,-103,-31,26,-155,-34,-146,-17,93,-66,-202,-1,-49,-115,-100}
,{-132,-130,-1,-54,-56,27,-69,-188,-17,-198,-43,-89,-224,-203,-64,39,24,5,-19,70,-181,14,-28,68,-133,-84,-152,5,-191,-159,-54}
,{-214,189,-285,-177,51,30,213,-91,-134,317,-460,-253,22,-108,-123,383,-87,-195,-116,374,-335,-217,-410,352,-376,-8,-37,233,-418,-334,85}
,{-225,-262,99,-625,-28,-402,-367,-383,-357,-529,-256,124,-356,-326,-136,70,44,148,102,20,325,45,-211,297,169,-329,-405,-160,73,-15,225}
,{-19,40,-21,54,19,28,56,-71,-21,-180,-60,-7,37,-41,-117,104,38,-80,-67,81,-77,-144,37,-79,11,-64,-123,-103,37,-77,52}
,{-45,-24,-15,-45,41,-265,-27,-6,-24,16,-61,-210,-96,-164,55,-164,-150,-161,-186,-105,-80,38,-70,275,69,49,-108,-178,-49,-56,-162}
,{-77,90,-128,-29,-57,-39,-108,-85,-77,30,140,-476,-222,-206,-157,505,-24,-57,-94,-150,-22,-209,-42,-293,-64,1,-218,-243,-100,-71,-92}
,{-54,-95,-111,-61,-121,-34,-26,-119,-88,6,-109,-53,61,-119,-98,13,-30,-107,4,-17,-38,-95,60,-1,-104,-42,-135,-120,-56,-171,14}
,{40,-123,-257,-108,-134,-177,3,-56,-179,-212,50,1,43,22,-139,-134,-18,-108,63,-42,-21,-54,48,66,61,-37,-154,63,-79,-234,106}
,{-87,1,-154,-103,13,8,92,-122,-64,35,-136,29,54,60,-97,40,-83,-135,47,-19,-19,-23,-114,89,-183,-138,50,8,-65,-149,12}
,{-167,-97,-56,-267,-237,-99,-128,-146,9,-163,-10,30,-81,21,66,1,-137,-213,-351,213,-169,-145,-192,84,-185,111,21,-192,-17,-103,-24}
,{4,-65,-107,-97,-76,-141,-51,-266,-140,-189,-198,-151,68,-83,-17,83,-36,-38,64,195,60,-163,-38,10,55,-72,-57,86,33,-70,-37}
,{15,-50,-26,-166,68,-46,-54,51,-109,5,11,60,-248,-58,-215,-99,-26,-184,-93,-108,-11,11,-59,-21,17,-176,-106,-30,23,-71,-78}
,{-118,1,33,-26,-39,60,-38,-141,79,21,2,-9,69,-217,77,1,-235,-68,-70,-54,-308,-10,6,-56,-202,-128,-23,-161,-134,-134,-136}
,{77,-233,24,22,-203,-150,9,-193,5,-117,-115,-125,40,-99,-81,-169,-166,78,-57,-71,-123,-275,-9,119,-11,105,-65,-17,-180,52,-84}
,{-99,33,-7,-205,-175,-82,-260,20,-286,-192,-79,4,959,-1083,-228,224,42,-156,-75,377,85,-142,-47,623,13,5,-14,708,43,-15,-111}
,{-23,-134,-151,-302,-375,51,-109,-163,-260,-23,-80,87,-80,-130,-141,-48,126,-140,-137,166,-75,-46,-196,318,-179,-63,-242,350,-260,-137,-95}
,{137,-200,137,155,-150,-147,129,-147,-359,185,-58,-51,82,-97,-346,103,-191,-132,-128,416,-294,15,-158,156,-363,-239,-147,393,-443,-27,-266}
,{-48,-1,-141,-155,-27,-199,-130,-70,-67,-40,-188,-155,-77,-115,-41,147,-214,1,-223,155,-115,-109,-266,24,-87,-208,-1,75,-75,-139,53}
,{33,-14,-12,-115,-154,-168,8,0,-180,67,5,-174,-6,7,-99,65,-17,26,-56,-95,-107,-114,33,-62,-6,13,-84,106,-120,-175,-110}
,{59,-194,-100,26,85,-74,-88,12,-36,-33,47,-10,-42,-159,-192,-112,-143,-17,-82,-17,46,-97,-51,-49,-101,-71,-2,70,-193,-6,-207}
,{-185,-159,-88,31,-153,-84,-198,91,-119,-146,-104,52,-37,53,-36,-120,-19,-45,-19,42,9,-95,77,-35,-15,-114,-164,-29,41,-167,86}
,{36,77,-3,-155,17,-115,0,15,-39,84,-118,-113,-33,-98,-108,-156,-24,-106,-114,-56,66,-68,-100,31,-132,25,-7,-150,-80,42,-175}
,{110,16,-149,76,16,-47,2,-83,-159,37,-189,-160,94,-30,-115,-122,-85,-125,-72,-70,114,-13,-127,-111,-66,-103,-136,138,-87,25,-86}
,{-47,-194,-267,-48,-131,-13,-48,-96,34,10,4,-75,22,-98,-118,74,27,-110,-60,-57,-14,-173,-18,6,-125,-230,-36,37,-122,36,-36}
,{28,28,-11,-89,-104,-157,-57,-51,-34,27,-15,-86,-3,-116,-177,53,-210,-161,-20,-21,-31,18,-29,-27,-35,-152,-52,-29,-29,-83,30}
,{158,63,83,-133,-134,20,-202,-133,-25,-19,-203,4,-257,-132,-210,103,-41,-9,-163,-89,-126,5,-165,-96,-72,81,-22,-83,11,37,-150}
,{-419,146,-235,-456,-373,-153,-265,0,-382,-409,-105,100,-575,172,-237,245,-214,-265,-10,-497,-130,-53,21,-983,-231,-369,38,679,258,59,-7}
,{-41,-78,-95,87,-155,-34,26,20,-145,-55,-74,-73,7,-127,-10,-3,19,-105,-125,-78,95,-55,30,10,-83,26,7,84,-26,44,-1}
,{23,-24,-70,-4,-195,-206,-127,-225,-110,-13,81,41,-249,-3,-146,-198,-124,54,-30,-168,-166,20,-31,-84,2,-30,-177,156,76,-186,-111}
,{-139,-36,-28,42,-69,-56,11,-6,-101,146,-47,26,-127,-38,24,-200,-128,-75,2,54,1,-85,-65,80,-102,-104,-87,42,-107,-131,-39}
,{-23,-30,-77,4,-87,-32,-22,2,-43,-150,-98,-40,107,-96,-46,199,-161,-96,-29,204,-45,-89,-184,14,-55,-63,20,-11,-30,-142,-16}
,{-98,-16,-20,35,15,-27,64,45,-136,-130,-80,-131,-33,-78,-138,89,21,-54,-34,79,-38,-70,-110,87,-49,-44,-143,-33,-69,-45,-39}
,{52,-135,-89,-133,-117,-153,21,-26,34,-153,-2,-45,-59,-10,-80,-25,-45,-18,-220,127,-146,-46,-171,-88,-125,-107,27,250,-20,54,-84}
,{-81,-81,-139,-190,-7,-149,-1,-20,-107,20,-164,-77,-192,21,-102,18,-35,64,-187,-31,3,32,-23,-177,58,-85,110,-154,-102,-47,-141}
,{-26,-31,-51,-1,-116,-114,-18,-24,-49,-78,-121,-8,34,7,-38,29,-9,-114,-60,23,-100,-18,-83,73,-24,-54,-85,7,16,8,-15}
,{-127,-103,-165,-117,-29,-55,-147,-144,46,-6,-137,-129,46,62,-68,69,62,110,-156,61,76,11,-45,-82,-182,-124,-105,76,-26,-151,-90}
,{-123,-104,31,-95,-185,-24,-217,-226,-11,-45,-199,-150,-33,-83,-80,279,77,-124,-213,-101,-63,53,-507,256,16,-32,-149,291,-18,-195,-66}
,{-114,-16,-80,-10,-132,-158,-142,-94,21,-155,15,-25,62,-88,-2,51,-65,-81,2,16,-109,-52,-18,7,13,14,24,178,-19,-70,-42}
,{-175,42,-54,-106,-171,-24,5,-78,-3,-112,-77,-134,52,-162,-180,-82,-166,-97,16,-77,60,19,-163,7,-43,42,-12,-82,-92,-83,12}
,{-154,5,-92,13,-218,-193,-174,-70,-136,-167,1,25,-188,4,-99,-41,-113,25,5,79,-123,-219,-98,-62,-19,36,-42,-52,-195,-50,-21}
,{-162,-77,-90,-88,-156,-169,-116,-95,-447,-254,17,45,370,-545,-337,44,0,-71,11,50,-150,-78,-17,328,44,-95,-149,196,-183,21,-56}
,{-27,-76,-64,-153,-106,-76,-148,-117,-8,-47,-148,-68,-97,-182,-21,-14,12,27,-33,-30,-50,-1,-38,-12,-88,20,-108,-39,-73,-15,17}
,{-27,-40,-175,-91,-49,-21,33,-78,-114,122,-40,-68,-65,-107,38,-100,-180,34,26,-129,-222,-181,-93,-71,-4,-69,-112,-114,-166,-33,-35}
,{-123,-130,16,40,-201,-74,107,-10,-112,115,42,-80,-68,-15,-36,1,51,-114,-138,30,-88,-49,11,-50,-181,-194,4,122,-108,-2,-130}
,{-140,6,-60,92,59,-104,-62,-46,-106,-84,-100,-65,-123,-88,27,-52,-130,22,68,126,-29,-88,-110,97,29,-33,-61,28,20,-67,-202}
,{-53,-127,64,29,-44,-46,114,-111,-124,-68,-45,-2,101,24,-11,76,-83,-139,-50,-95,-31,-67,-42,-40,-108,-45,-104,-37,-148,107,-105}
,{-110,-105,-90,64,-38,-46,-164,-96,-16,180,-34,-1,-232,-47,-47,22,-67,-7,-23,-148,-23,12,-16,-141,-36,-64,-51,-10,-40,-33,10}
,{-38,-130,-238,-90,105,-65,-82,-183,-71,-62,-19,-237,69,-147,-27,2,0,-21,12,-3,-105,-15,49,-158,11,16,-62,-90,54,-146,-61}
,{-115,-248,-70,-136,-335,-62,-192,-192,-90,-86,-130,-2,-182,-91,-37,-124,104,15,-3,-231,-35,-126,-18,116,-61,-238,-185,-14,-81,72,-37}
,{-249,-260,-83,-132,-236,-59,-30,19,-77,-208,23,-19,-66,86,-146,219,42,-88,7,134,-51,-128,-164,-128,-48,-152,-93,-395,-90,-189,10}
,{-126,-69,-177,-68,18,-139,18,55,-15,-111,-65,-180,-123,-128,-242,72,-48,-94,-4,26,-2,-216,-20,112,16,-232,-64,155,62,-112,-220}
,{-69,52,-146,24,-121,-34,68,-151,-30,96,-99,-151,-104,-146,-106,-125,-60,2,-150,-114,-96,-110,-176,-154,43,6,52,-48,43,-215,-136}
,{101,68,-48,-237,45,-176,-136,-201,133,519,88,-101,-525,-458,-114,-3447,-322,-72,-39,686,200,98,73,-302,-371,205,-27,135,-218,-54,-60}
,{-785,59,-17,-1099,-204,18,-1121,-311,-289,-1807,-746,-338,-616,485,25,758,121,24,-102,616,5,28,-14,-289,38,-60,46,-56,45,-3,-81}
,{41,-1,-203,18,51,-55,83,-51,36,-103,-164,-134,-136,-24,-154,33,-115,-188,-4,-42,-167,-128,-165,-149,-181,-63,-152,119,-139,33,58}
,{-11,-60,-14,58,-116,-75,-102,-95,-150,18,45,-149,41,-86,46,-81,67,-31,-7,88,-20,-115,-174,14,70,-125,-18,21,57,-28,-178}
,{-207,-132,-6,-28,-9,-162,41,28,51,-115,-156,-41,-219,-148,-110,92,9,-192,-46,90,-203,-1,-153,-164,-80,-106,-50,-48,-34,-187,-115}
,{159,-262,-281,157,-167,-237,2,-180,-69,-662,-240,-120,199,273,-339,309,-115,-136,-74,668,-91,-140,-94,-698,371,-353,-70,487,125,20,-31}
,{-142,-109,-90,19,-234,-78,86,-85,-61,-130,-142,-93,84,-10,-150,134,79,-56,-75,55,64,-57,-146,97,60,10,-93,163,-236,-165,-76}
,{-150,39,5,-145,-87,-139,-90,-72,35,74,-160,-33,-228,-94,-113,-1,-108,-33,-56,-112,-212,-254,-151,103,-125,-148,-11,73,-41,-133,-62}
,{-111,-5,-103,-157,-141,-10,-56,-120,-137,23,-42,57,85,-14,-174,-205,-103,-153,-114,173,-41,-266,23,176,-129,-41,-151,242,-185,18,-121}
,{-82,-62,-130,3,-39,-70,27,-34,39,31,-172,-33,-169,-85,-50,-191,-136,-174,1,4,-61,-38,-150,-16,9,-102,7,-20,-158,-28,-6}
,{-58,-19,-18,-45,-150,-203,-101,32,-129,-230,-73,7,-169,-122,6,-91,-128,-217,13,-133,-40,-17,4,101,-10,-41,40,-170,34,-35,-279}
,{-205,-36,-109,-192,205,-313,-212,-41,-52,135,-231,-119,-1,-163,52,245,-154,-33,-496,-512,-60,-112,17,-498,7,-62,-65,463,-5,-129,-89}
,{-49,-72,-40,60,-55,-137,-244,-107,-68,-87,-93,-24,18,-227,-14,-19,-12,-136,-62,-103,-55,-209,-3,-142,30,-190,46,-127,-37,84,73}
,{-137,29,-92,-219,-217,-198,-108,65,-18,-193,-150,0,-279,93,-130,-168,75,-53,-99,22,-93,-120,-159,-161,-10,-20,-104,-460,-2,-22,-68}
,{-65,-53,-97,-160,-244,12,-72,-81,-162,-50,-128,-92,-78,-292,-171,-93,11,-260,3,82,-80,-150,18,168,-161,-22,-77,221,-18,-78,-78}
,{-142,-178,-104,-173,-224,-266,-825,32,-628,-901,271,-117,810,-970,-448,268,-123,-79,-72,400,116,-45,-147,31,142,-34,-110,651,-183,-68,-51}
,{-171,-38,57,-168,33,-140,-185,43,9,-157,-190,-19,62,-8,-81,-21,36,-81,-130,146,52,-51,-28,83,-78,-55,-13,-188,-111,-195,-80}
,{-465,-99,-4,-877,-173,-172,-763,-246,14,-620,-617,-71,113,674,-14,728,131,-19,-53,-477,-440,-32,-102,53,-221,7,-32,227,-280,-154,-21}
,{24,-367,-191,-289,-206,-159,-6,-236,-332,-465,-65,-445,858,229,36,-410,-192,82,-77,790,-4,-24,-64,457,22,-66,-80,657,87,-20,50}
,{-151,-68,-75,-190,-136,-24,-200,-206,-115,43,-17,-157,108,-49,-76,175,17,51,-47,47,-251,-142,-62,49,-196,-3,37,-15,29,-113,-136}
,{-13,-74,-157,11,39,-230,59,-96,12,-66,-150,-83,-11,-161,-73,3,31,-157,-151,-180,71,7,-131,80,31,-178,-139,141,-199,-52,-24}
,{-655,72,-65,-490,-72,-285,-935,-466,-69,-1163,-196,82,271,590,-155,-1,-164,-133,-58,626,-45,-105,-113,729,15,-26,-35,-1198,94,-210,-30}
,{55,-107,-25,-162,44,-204,-14,92,-166,-64,-154,-33,-172,-74,23,-86,105,-165,-130,41,-75,-22,-18,0,95,-49,-49,-40,-240,-135,-138}
,{-162,28,-151,-163,10,-68,-45,-5,48,-150,-186,-63,-31,-174,-144,-61,-181,7,-107,22,-130,-134,-62,160,18,-102,-147,-127,-113,-167,60}
,{-24,-51,-29,-98,1,-29,-125,-30,-37,-352,-45,-53,495,49,-42,667,98,-5,-11,772,85,-10,-29,894,104,-7,-37,1184,135,-9,-18}
,{-66,-110,-11,-40,-79,-13,-9,-83,-238,44,-97,-40,9,74,-93,-205,-95,-90,-116,251,-10,-108,-64,256,-28,-83,-111,-163,-184,-99,-143}
,{-71,35,-36,-164,-73,-122,-177,-10,-52,-40,-47,-127,0,58,30,70,-52,7,-156,-150,65,-53,-17,93,-161,-53,-105,16,-45,-35,-18}
,{-329,-320,-154,-409,-195,-148,-302,-320,-29,-302,-264,-80,-410,66,81,55,120,-31,-43,59,96,-57,3,-111,94,-118,-67,-148,-94,-119,8}
,{-579,-297,98,-599,-443,92,-407,-179,-118,-352,-185,-19,-377,-217,-160,46,525,-378,-39,154,-204,233,-399,249,-243,-6,-112,-77,-78,0,-170}
,{-51,-38,-174,-83,-143,-90,21,-5,-102,128,-115,19,94,-39,-106,143,-49,-80,-6,-124,118,63,-12,-34,3,39,-116,139,-176,-107,40}
,{46,-59,-40,53,-108,-145,-75,-132,-41,-61,-105,-83,-95,63,3,-129,112,-131,-158,123,-84,-127,-99,32,28,-101,-137,101,-79,55,66}
,{-319,244,-177,-281,221,-732,-236,42,-150,436,-374,-491,-1213,300,-549,-29,-33,-222,-222,274,64,106,41,255,92,-245,-226,436,21,-209,-87}
,{-48,-10,-154,-82,-81,-124,-132,-117,-49,-219,-160,-22,-266,24,80,142,-110,-36,-60,-2,-141,-203,68,-20,-48,-230,-36,-170,78,-12,9}
,{-207,-188,-77,-94,-278,-274,-232,-286,-136,-282,-69,-266,-90,98,35,160,-204,-207,-149,104,49,-30,0,49,73,-113,-51,326,0,-70,-25}
,{12,-148,-27,5,7,63,27,-45,-10,8,-73,-246,-218,-119,-144,100,34,-197,-141,4,-132,-62,-156,75,-80,-177,-51,45,14,-46,-168}
,{-158,42,-56,-134,-5,-69,-28,38,87,-37,-49,-138,25,-90,-75,148,-7,-64,0,75,-34,-9,-47,-62,-100,-40,-86,66,-175,-116,-129}
,{-100,-16,-85,96,10,-136,-26,-62,-89,137,33,17,-72,44,3,-136,-217,-30,23,-54,-278,-51,8,-7,-25,-82,-54,109,-179,-2,14}
,{25,26,-91,28,-104,30,35,-133,-164,47,-186,116,-51,-148,-10,73,-52,101,-125,-56,-28,-244,-57,61,-94,93,-166,-197,-5,-181,-76}
,{-141,-47,-12,-22,-37,-45,-54,-53,-16,2451,269,11,-2493,-300,-37,598,87,-24,-26,902,102,-14,-27,900,106,-24,-14,126,-35,-21,-1}
,{-174,83,-162,-16,22,-173,-88,18,-187,10,-86,-16,-26,-52,-64,-22,-40,11,0,-59,-94,-176,-8,-53,-62,-101,-125,108,-92,61,65}
,{-27,30,-112,-28,-28,-80,-5,-32,43,72,-48,-41,-74,-39,-72,-5,52,19,-49,-182,-13,-96,-194,-113,-82,-17,-191,-133,9,11,-5}
,{-158,-77,-148,-166,-134,-55,-115,-114,-137,-158,-47,-68,-116,-185,14,-175,-62,-195,-138,-134,-21,82,82,76,36,-181,72,-5,-10,-49,-182}
,{-101,-35,-15,-57,7,-61,70,31,-45,161,-110,-15,-219,54,36,-236,-94,-33,-96,66,-89,-71,-68,39,-77,-96,-17,-23,-21,-47,3}
,{-6,82,-1,-132,-138,-221,-148,-2,50,-136,-142,-118,-47,-124,-192,141,-191,7,60,125,-143,-39,-170,-83,-98,-233,-131,-32,-71,-66,-88}
,{27,-139,-123,26,16,6,-13,-75,44,-145,-46,-22,-76,-119,-43,-66,69,7,38,53,54,-63,-57,-11,46,-101,-93,-16,-132,-140,3}
,{-13,-96,-182,-172,-34,-51,-245,-174,66,-202,45,46,-34,76,-133,11,119,-157,-186,40,-43,-8,-112,-228,46,-142,65,-130,-112,-99,-124}
,{-159,-278,-28,-65,-229,-53,-168,-323,-110,-279,-143,-93,-141,-326,-52,111,82,-151,16,62,39,75,-22,146,-105,-280,55,-128,-234,-328,1}
,{-356,-146,162,-463,-145,246,-513,36,46,361,149,-1007,-2401,-604,-573,418,67,60,23,382,-10,-8,173,223,-29,-96,-3,69,-127,3,20}
,{22,55,-40,-54,-86,19,5,-90,-115,10,-60,-9,-91,-96,-12,-25,-15,-17,-24,-385,-82,-36,-120,48,-36,-15,-56,81,-72,-106,-81}
,{20,18,5,15,14,-94,125,-144,28,-20,-46,27,-161,-16,-51,-37,-115,-30,-130,-20,-40,8,-116,-77,-2,-48,23,147,-51,-135,-110}
,{14,-23,-49,7,-29,-21,-89,-73,-34,-183,-30,-27,163,-1,-24,24,-118,-76,-43,101,55,-57,-51,45,21,-61,-45,25,54,-31,-23}
,{-97,-138,-43,25,36,-214,-127,-248,-235,-62,-166,-204,65,-91,19,-136,-33,69,-241,-55,-34,21,18,-151,-95,41,-64,-40,-162,-309,-159}
,{82,-26,-9,-71,-46,53,-41,-44,5,-12,-46,15,28,9,7,-549,-144,-54,-27,-497,-38,-31,-47,-985,-185,-55,-15,-1309,-159,-44,-40}
,{-5,-24,-25,25,-83,4,-98,31,-8,-132,-30,-10,24,-49,-157,113,-186,-88,-28,-222,-12,-9,-121,139,-196,-125,23,-33,-13,-7,-241}
,{-131,-109,-75,-193,-105,-134,-192,-220,-232,-208,-84,57,-347,-221,-38,-90,-27,7,-30,-9,-94,-158,33,85,-35,-36,-135,3,-124,60,-63}
,{-188,-218,-115,-50,-46,-33,-47,-229,37,-44,-208,-122,35,-10,-77,62,-82,-139,-137,-56,-47,-133,-90,161,-42,-36,-7,252,52,-67,-30}
,{-21,51,-128,-98,-208,-153,-69,-1,109,162,29,43,-123,-34,-114,86,-118,-177,5,-87,-7,-176,-33,55,-24,-81,-214,91,-155,21,-91}
,{-176,50,36,-88,-162,76,-3,86,-57,-190,-110,-101,64,-76,-61,-11,-46,-79,22,-60,-23,-156,-39,-200,27,-74,-45,-22,-33,-190,81}
,{-706,-370,-38,-555,-494,-16,-407,-42,-221,86,153,389,-349,-236,162,459,190,-120,-133,386,-153,45,-115,186,-201,-230,86,-1070,-106,-595,-64}
,{48,-5,37,-17,-27,-15,-24,-6,-49,-141,-160,-27,123,35,24,-7,-49,8,10,47,-94,-34,-65,29,-151,-77,5,3,-72,-39,-10}
,{77,-94,16,-91,-49,-4,-42,39,-12,25,-127,-76,-104,-196,-29,-306,-182,25,12,-296,-255,-168,0,-132,-165,58,-125,-231,-37,-127,-57}
,{-220,-107,76,-346,-38,146,-57,-212,-152,-260,-391,-69,-261,-151,-63,-266,192,-170,-95,175,-10,-9,-383,-251,-75,-83,46,-200,-36,-81,38}
,{-48,-23,-82,29,-124,-53,119,62,-2,24,-192,-77,-33,-157,-43,-234,-164,-115,-166,170,7,-63,33,-44,26,-83,-124,57,-70,-3,-196}
,{-95,-102,-12,-28,-115,-56,53,-102,-27,-225,35,-100,45,-162,-107,-87,6,-21,13,-49,93,-40,-44,-33,-255,-56,-53,18,-186,-138,-37}
};

    rqu.weight_0_T = &weight_i_0_T[0][0];
    rqu.weight_1_T = &weight_i_1[0][0];
    rqu.bias_0 = bias_i_0;
    rqu.bias_1 = bias_i_1;

	long feature_vec[31] = {0,0,0,0,0,0,0,0,0,0,0,0,0,0,0,0,0,1,0,0,0,0,9,0,0,0,9,0,0,0,9};
	long feature_vec2[31];
	for(int i = 0; i < 31; i++) {
		feature_vec2[i] = 10000;
	}
	struct timespec tstart={0,0}, tend={0,0};
	//clock_gettime(CLOCK_MONOTONIC, &tstart);
	clock_t start = clock();
	for(int i = 0; i < 100000; i++) {
		bool res = prediction_model(&feature_vec[0]);
	}
	clock_t end = clock();
	float seconds = (float)(end - start) / CLOCKS_PER_SEC;
	printf("\n time taken : %f \n", seconds);
	// clock_gettime(CLOCK_MONOTONIC, &tstart);
	// printf("Took about %.5f seconds\n",
    //        ((double)tend.tv_sec ) - 
    //        ((double)tstart.tv_sec));

	//printf("result = %d\n", res);
    
   return 0;
}

